solver_type L2R_L2LOSS_SVC_DUAL
nr_class 50
label 1 2 3 4 5 6 7 8 9 10 11 12 13 14 15 16 17 18 19 20 21 22 23 24 25 26 27 28 29 30 31 32 33 34 35 36 37 38 39 40 41 42 43 44 45 46 47 48 49 50
nr_feature 250
bias -1
w
9.290448100962783 3.962202787583062 1.276149569163388 -0.02592386256985318 0.2472501391678626 0.4940925315284995 1.440189994201412 0.01066383970590996 0.09882455739050421 0.9999084809882104 1.965973972170661 2.710061742404793 1.030168196179591 2.04754720059684 1.373315020808405 5.104032211675204 4.083224105182397 -0.7869737007130189 -0.25060373147648 -0.05287951871659205 1.645905151752148 1.560770526100532 0.361846440450426 1.029095563757347 1.397539277515876 0.7949723198512305 -1.025845622857371 -0.2964360457666011 1.00411842719408 0.9359573843055865 4.204002233192938 -0.1806843878360339 1.545800081758981 2.370333350697529 1.85756180574062 0.8593515430922049 -0.7537894951230406 1.114455554008271 0.9127480316759325 1.140172345861128 2.259567447877716 0.3116880143822017 0.586634073309201 2.018080478352179 3.263777513548968 0.8679122411283774 -0.5442335351916791 1.946768324812813 4.761624672203753 0.1066811893487036 
14.21425337832621 -1.978779091288497 -2.221426046074908 2.782642325424283 -2.280378361256668 -1.175641153116213 0.2713346127249363 -0.8594286758691841 -1.565308844418664 -1.235197368774594 -3.63576474497795 -2.796897869543679 -0.7582960341502565 -2.596814927760773 -2.456085136591809 -0.4668866354510074 -0.3049243147998527 -0.2449595741678262 -4.146169437371664 -3.169702157408031 -3.670387825680917 -2.437123478438337 -0.6370124796571774 -0.2952523808610865 0.6195055398424253 -2.509481198556077 -4.701124116758706 -3.576670725301363 -1.362502537945954 -0.4357723051100353 -1.531982098598914 -1.247328937611722 -0.5180579590380811 -2.44459968451342 -1.961311198645882 -0.7659482298239474 -1.419026839902629 -0.6642272561103649 -1.700627499620118 -3.222975393464075 -1.968954706511633 -0.2269787914775482 -3.399579878407926 -2.407224862782979 -2.57562406749267 -3.230962650017416 3.168841758010509 -1.907091176984666 -0.5831056786772393 -0.8242169832206091 
14.54015113693144 3.197566500261026 0.5798933813899938 1.207948074900351 -0.6005011814930206 -0.1623273644069634 0.5025520141172517 0.1183341035938319 1.540045421383976 0.5310370381563256 -0.3713022419965312 0.8688824927376219 0.1239060210252051 1.972888778376844 -1.998999241811373 2.394295511184398 -0.1251074429030024 0.6372405572775258 0.589027059452636 2.190501778899307 2.016741158597174 1.589226192024372 0.7578331513387293 3.256177580554347 1.566593644741109 1.764444096478774 -2.255935831074471 -1.151354481898824 0.8656374678771247 0.667516774260846 0.9418586493965942 -0.8605189414685072 1.902609922286693 1.075009101270969 2.609405205958854 0.4846849994371384 0.442029965452231 -0.4675907015763361 0.5460097885461211 0.5830848304749756 -1.626126171581753 -0.8802451141314258 -1.48850346974349 -0.5660509186826127 2.268775485010972 -3.064569863198073 3.737412609249241 1.304684491788251 -0.08798317314348325 1.457678851915389 
12.66014000944295 -4.212507836385661 -1.167154644870962 2.070849506392533 -1.867825245791834 -4.572598887241763 -0.3623144333232345 -0.4529532117061821 0.6859525742169618 -1.601724814463993 -0.8144337773257677 -0.8505044652196666 -0.2397951722999694 -2.627670053763678 -3.144702734910217 -0.7237529251192873 -3.515376683723585 0.8650172773746038 -2.411060223170647 -0.4451883651782767 -4.210172848512967 -0.117794703887775 -0.6852656475345457 0.5606055705043375 4.06566624128896 -1.65843993882839 -0.8186922926179161 -2.85270632493993 -1.072202043149069 -1.225698728996993 -2.599542000928635 -1.300477435741397 -0.6069905375877237 -1.822223777117006 -0.3285171898773063 -1.306562990658537 -2.015070413957469 -0.8992405634325086 -3.968344991334587 -3.181228082767077 -2.981606377673293 -1.770480956071528 -4.317541493643349 -0.907730889843025 -2.576082813515992 -0.3699974898433103 0.6248272428047862 -1.151870923388462 -2.826352955201263 0.7278430979788608 
9.199644389753956 -3.046601598235851 -1.901893482317037 0.3084290767012209 -0.5133078405725982 0.7855492146318021 0.4992835075988686 -0.1087072969444014 -2.212408506338974 -1.43580532303202 -0.002535704798580121 -0.7693445105766596 -0.8193329944195628 -1.743195672337554 -2.818119900589878 -3.222041654500976 -3.594339339911924 -5.266985376908328 -3.105764022827303 -3.678638876097517 -2.420044011384623 -0.6864095294181409 -1.549890046091487 -2.770995075507323 -1.949715417994225 -0.8504645560645312 -3.932150490068419 -1.009250357268749 -2.264553919577655 -0.9142781426191078 -2.909010966772337 -1.719867420739646 -1.911287874077102 -2.108900786532487 -0.6835748942916008 -0.7624556524634171 -2.122714551218779 -0.06633673368956139 -1.324133275393949 -2.4392377230175 -0.9124656673822613 -1.438812934108739 -1.761710568463582 -2.567985778445552 -0.52733319328063 -0.3974486554694768 -2.608251522940475 -1.072795520223951 -0.607600540154596 -3.856738701212173 
0.2551132371031431 12.01029168748652 -0.8120016318898572 3.214992459446747 -0.3481624475459872 -0.8918545170168305 -1.547370086644269 0.5672926600148481 0.5900787382161492 0.4474414834979002 0.3936671786311192 2.20632027980347 -0.5375744024136383 -0.9074357834709802 0.01301888109944326 -0.8068125213024825 2.451550713704463 2.323374548899688 0.6109399287276255 1.658240464767122 -0.8269051415934813 2.401084986420027 -1.234135666022942 0.1622046805071267 -1.462451491528775 -2.299337957468537 0.764764263904454 -1.849990728652976 -0.1887030863901799 -1.578108838749984 0.6287347608866787 -0.1845560931754602 -0.4827315653134452 2.540198763820075 0.7381513708497608 -0.3465176917500569 0.7456796547291993 -0.3634709750871696 -3.243143433289065 0.3569634752898321 -1.049376820926231 -0.8118998926030221 -1.99308817940357 2.343607397897216 1.271618587643867 -0.3268393433332158 -1.657946659821305 -1.520043553579286 0.03222613267487516 -2.341315326477752 
-0.547844458725975 19.40949240602481 0.1465125870234054 1.295161706359326 0.1207840214612289 1.012240454846508 -1.034089732710689 -0.6704261489257537 -0.8997809248716502 -1.866238784984825 -1.017330458765804 0.4283254976133616 -0.8757745062805992 -1.723795588380845 -0.6516362465148346 -0.7658440768672503 0.6072645953591387 0.9959968699629009 1.731310227687319 0.06377906291382703 1.249945618089423 3.372443180286337 0.2588352474706684 -0.62475485856432 0.8985762546773468 -1.92409494998051 0.4803389954795426 -1.621584718762177 -1.839923677130097 0.08055784854762439 3.593743525639778 0.446321485441273 -1.238856461806189 -1.918112132897378 0.4466310333470882 0.1837557833344965 -1.985657053839728 0.1553809451976677 -3.244220443178499 -0.05702019697892201 -2.27286745744458 -0.9407835810645465 0.4119190301057578 -1.843573694293446 0.07119547805537683 -3.505634818986714 -0.5300020768243083 -1.27939490873434 1.703436317848185 -3.537592431057259 
-3.471942409673492 12.78444951108638 -3.088830223202438 -2.672405108019938 -2.313694976789847 -1.614624815686177 -1.405660107970773 -1.303545007974907 -3.732417236712712 -1.359104133827759 -2.963232581591138 -2.003168991304557 -0.9726578882700287 -0.7884959429638264 -1.724849630984834 -2.706555286176096 -2.429148651464171 -2.510794541250256 -1.813231592973094 -2.889404635767775 0.6895596214045825 -2.804321164740181 -2.858989913955576 -4.366959513365499 -2.457989377968333 -3.414774206026179 -3.523664787342548 -2.412018533799134 -1.977525510193728 -2.910524191095247 -3.008781138256145 1.708444735046662 -3.11295639371759 -3.906458077139991 -0.006264091501552237 -0.714173044224411 -2.945028072668092 -1.079629018500805 -3.055735776573196 -3.175865667224636 -3.010749734896703 -1.622327231083617 -4.670530792951892 -0.4473571960429438 -6.969555082095226 -6.524793164996517 -2.241529571916288 -3.500461147029021 -1.66276841409786 -3.837852401769358 
-0.9726751569701096 15.2374377150373 -1.572757273204399 -2.542703903529629 -1.156578732057906 -1.868424951304041 -5.394823102798917 -0.3444542190006094 -1.395110239188999 -3.166445658298388 -2.14228607689771 0.6226092235343715 -2.015043513859403 -5.842055291858023 -2.652890945791815 -1.131887720658704 -1.368264734650411 0.2190880043353374 0.7945949272152488 0.7343125389242003 -4.623719780145302 -0.05826678232890822 -1.907706142552525 -3.827952076797045 -4.107048649588428 -5.270930651621057 -1.892384285307588 -0.1290406864472138 -1.952716738508798 -1.469577775187574 -6.487511183355184 -0.2177178011930839 -2.91252979976669 2.829370651500835 -1.778225980881531 0.1445814352931609 -2.127546533431656 -0.01234260232774674 -4.68458867690626 -2.700091800715722 -0.013011143055631 -3.285216013043581 -2.823037320124099 0.4615005588276609 -6.255771472064342 -3.595074616698753 -2.923673413083785 -4.776836729916281 -1.633038500707321 -4.283050734286586 
-0.04547392805504531 16.54707283673562 -1.0627391593074 0.6889087710836639 -0.4353374012063327 -0.106406519695158 -0.8265127059430939 0.06313040578581545 -1.435323420515256 -0.2568381446768364 1.787943821387631 0.7344974912607458 -0.9027870397285923 -0.701293437599943 -0.5445470341740234 -0.9807440605138027 -2.115639652778244 -4.571828185918249 -0.2054868023643671 -2.206688049568489 -0.2348736705265445 -1.134566247966537 -2.002948442865178 -1.735908368566388 1.236563374055655 -0.707439320715525 -2.017127598694457 -0.925380526367873 -2.187628340672935 -0.7471191188439412 -0.5282105273522162 0.5190684575146748 -0.4143778130005514 1.045652378385453 -2.160074892550018 -0.8621389917589457 -2.333987987112363 -0.4771074053299127 -1.848589179793035 -3.72034517182597 -1.447087092998117 -1.547221146108267 -5.162096370371255 -1.512402208831513 -1.829436089044149 -2.935385096931163 -2.023759030699294 -2.903576537032996 0.3473213905502503 -3.46890945040764 
1.638893986376029 1.371337169905893 11.40489918463246 1.677439437289735 1.579178670020535 0.5176708342769508 -0.6386890731708958 -0.3565340767303344 1.669737858635305 -0.01222678294553687 2.75663844379471 3.686961465812904 0.9571860920653756 0.7260533675443468 2.110774307770684 2.032746170137116 1.126349061104054 -0.2763766148545554 -0.2498811404349288 0.952543776598696 0.03200956030987535 0.2144424712243134 1.712361121234649 1.846121768914135 4.585975075763958 0.1130656773519897 0.6502039143414793 -0.227352666761935 0.9923004020850625 2.304315481231951 3.483806955514265 1.651908307681725 0.4107686199878881 2.6859916392637 0.5934083895690526 0.8852354618756186 1.476101012620505 0.6246945509506879 2.774195150461082 0.3465712599565548 0.5230530463611596 0.9928120545637695 -0.1123109435402579 1.545354950790812 1.125716707642316 2.468986215254821 1.412392555321763 0.7280805884518876 2.249540720588619 1.624525466026463 
1.34984610396707 -2.090581565987015 10.18192478947748 -0.07695614941088921 -0.8397784359042951 -1.102385936364347 -0.983686106536714 -0.9928193546169106 -0.8152486725935761 -0.3653081510139931 -0.2409643784296489 0.6623395808712024 -0.854837690423388 0.9129171896457717 -0.3545215499086999 -2.167308616824744 -1.511974481235077 -1.480331448363896 -0.5207420606103565 0.2227659517246251 -1.797945846612765 -1.092712722754323 0.05094611365617018 0.2959803686030664 4.041450033574803 0.8256334268262958 -1.074568233636796 -2.088776162129866 -0.83516291174243 1.776677396055162 -1.398110500215091 0.1593050248194388 -1.694158906276162 0.3978113269393934 1.008232586036813 0.2130145031225568 1.277640405397083 -0.2437415987806725 -0.03237864140302086 -0.8579861432891677 -0.7978464555409147 0.2384636774683447 1.026853440051049 1.273783609912483 -2.047802548559665 0.8246186690560504 0.7400662510984682 -1.291373266550471 1.228437851570722 -0.08386155316536513 
1.614467477675084 -0.5154731490490956 12.17828553865714 0.5778219443882607 -0.498545846878541 1.58029230728987 0.658497648701986 -0.1499204243546536 -0.4539896763322246 0.3636564304040778 -0.9208633626637177 3.982031916128978 0.9589893705656093 1.905671809558907 -0.5359065802985524 1.368017328157536 0.5906447929392057 -0.4828901756507418 -3.349367346973294 -0.5479690961618809 0.168346594482792 -1.253906648454219 1.664258207360982 2.715936169131098 5.60482628073737 -0.1768181797260718 1.241596191916518 -1.067700485162843 0.188545844219843 2.924116992768528 3.096230397264525 0.7262014863062224 -0.1977954649268856 1.34506620580922 -0.5788673570795945 0.2211603708409138 0.5645796917720229 0.2989074713085876 3.396403606143664 0.762286929396543 1.343596747742254 1.268123522651303 -0.9261635377540315 -0.267984871917039 -1.07490820414329 2.689520518821151 1.501989674174226 1.121296831892708 0.8689058008940806 0.6178388164676334 
2.734855019913153 5.380738500298246 12.32675938695565 1.94953640003382 -0.4513572351132069 -0.6014481916562801 -0.6300514364890419 0.07091909209902764 1.445497227664257 0.5488401890507825 0.9036254401710213 0.7107469312403207 -0.5445845311721935 4.575147788204191 1.736972773511161 4.725243616008354 1.161166081278524 1.360389388139926 1.334336968490663 0.9556501162319865 -2.87165767976293 -2.199706522695202 1.15597874107149 1.335824911861509 2.911360906160712 -0.537760886320957 -0.3834122611521925 0.885175452919146 2.171006108723894 1.336691237973491 -1.513005953169395 0.7984144740902103 2.389627200949907 0.005222692737079013 0.3291338838545405 -0.1263980692271791 1.209023953006934 0.2100471437716609 2.301681967309828 4.137324464349016 -0.5623081943845053 1.453927505431548 -1.678914070491987 1.375837556578814 -1.395789049322232 0.6152302216205919 -1.147205809475356 3.406042581929236 1.73140761648144 0.5507510762125032 
1.574626246693333 -2.084812452104607 8.921566889795107 1.460222231068569 -0.03619577234371298 1.169406922943981 -0.8301317838684695 -1.045110959052682 -0.1240608223326245 -1.433884242067719 0.9954856772941062 -1.311747197592479 0.7057829890588407 -0.05917924326759583 -1.237949336905407 -2.426896393359981 0.2028705285193569 1.008143342614969 -3.664360481062562 -1.949771340899327 -1.794199723629874 -1.059849758188274 0.5525021651510221 -1.402300401328711 2.003632739628828 -1.034474870232727 1.033849459193207 -3.25006850732564 0.5750443068380738 2.542740865101994 2.316981882883496 0.06739738813597633 -2.965349996191671 0.2922459970345536 -1.09804653853996 -0.8726911726584549 -0.5511284340503154 0.05882386375239864 0.6570005252873101 0.8554185394810627 0.5869284318643584 0.1014930732796774 1.540059357553499 0.1272827313261134 -2.56783213366211 0.3202701383254826 1.74334237647171 0.2816046594282837 -1.090904049031554 -0.9735454402720384 
0.4567278624615775 1.135864287109618 0.1224600882401697 11.77473464654114 0.5140959386182747 -0.6763349332934199 -1.381791462176684 -0.7467525657264311 -0.2568486156554013 -1.262208198784387 -1.015466332010282 1.310065132773222 -1.216587882150135 -1.73705516182741 -0.834351779040881 -1.670775574371183 -2.355107157598344 1.181716640032005 -0.6880431171756639 -2.110375252577128 -2.134499385648587 -2.036567033314276 1.678328896922943 0.4784367543096362 -1.504912796647462 -2.192184546000237 0.220256789229523 0.1152754162508413 -1.834720436454593 -2.80196896189731 -2.419125487749626 -1.824350609412669 1.335925526062036 -3.641433868029401 -1.011141169388405 -0.7462297581631496 -1.241388457235856 -0.7466586149552477 -1.974411598478382 -2.666594409333651 -1.686413054814112 -1.783655594203241 0.4327020023787147 -4.150379970161088 -0.08714765604598704 -3.015463799503213 -1.440123003447378 -1.680084980562806 -2.428671219035097 -1.510762530877786 
-0.7387785938843383 -0.9514833481623813 -1.806229735928616 8.463040540988608 -1.142151434759429 -1.55756476773764 -0.2997584226248151 -1.187642238951028 -2.681929883622221 -2.019919491059413 -2.359818172606138 -0.4855072208153371 -1.003117709155776 -2.485115866654338 -2.558131486939172 -4.237226642491308 -5.256553034954186 0.3622940339496719 -0.3800940717263714 -0.3817613196124923 -5.740907916674883 -3.762443269081529 0.06822869140297518 -5.138956385846285 -3.63182164982682 -3.112381481329283 -0.7775514422925089 -2.200768764081607 -0.9617754671096234 -6.598647979283773 0.8774936932189589 -1.692897718785969 -2.001344673995213 -2.44086014946211 -2.780296990585748 -1.165879594986048 -3.764400215687913 0.549071245815465 -1.902639131245391 -3.252597317948475 -1.594908008381509 -1.043556146274979 -1.347005748811176 -1.737619506364239 -2.268886362119479 -3.341890392830844 -5.84403389189792 -3.910668076452465 -2.200595365672072 1.015252646235344 
0.3284750911352565 -4.317367434396265 -0.5067002335386617 13.8182493115426 0.3946203942021517 2.347541563533078 -1.833011663300348 0.3125564813701363 -1.349111916465525 -0.613144270631051 0.5472460030315184 1.514453952217171 -0.6143826259469303 0.681530718952575 -1.169129479186513 -3.874018164603455 -1.50045962891338 2.05740842069824 -1.501659820475365 -2.723891434726122 -5.83767053153977 -1.431715344614165 0.7667788438484897 -1.58630644855794 -4.968607300738996 -2.446324323115217 -0.05250081596971822 -1.775330383440137 -0.8495314171694403 -5.330052357424903 -1.21141873737619 -3.530042625974564 -1.832878752516899 -2.476797610264332 -0.1791047071302465 -2.461194517734112 0.02656346425182533 0.4025220234588919 -2.734797492073488 -0.4842623676081464 -2.334204743421934 0.354473679472507 -0.6301422315166918 1.535410783483335 -1.278247384290238 2.203041326218722 -2.014607280237759 -1.033151995759426 -0.7131205117881111 1.354187550340575 
0.5188366521033049 -1.116520481193422 -0.4222440842385671 12.35901144222509 3.105281398831994 -2.779161033952136 1.025633755566566 0.8331417222705431 1.527413081905225 -0.02802986555576742 0.6627905317956045 -0.4765811350995248 -0.1575885245621955 -1.52379307497343 -0.4884509990268923 -1.417192819878466 -1.447932142403751 2.144461314843281 -0.7019899337475827 -1.412343185143248 -1.121572415186933 0.3464638191339682 0.5730051555633551 1.733249996624498 -0.7145858188084665 -1.910789529494216 1.85788753118097 -3.057368247821438 0.9941347703609585 -4.295351576344824 0.434845069216263 -1.415970045043892 0.0241933304661757 0.08864721437793543 -1.651326769445703 -1.679287710009212 -0.1118048965601353 1.047149768696279 -1.95403377632304 1.150202569894613 -0.3106453675676146 0.2465133410899868 4.017209378426206 -1.624056161225724 2.51661564588217 1.825795764613907 2.226030999928323 -0.1802810579681889 -0.8013506007751843 0.4672465431200027 
0.7039495639363038 -5.356552236914597 -1.389731826354069 10.1636649255071 -1.618655590337738 -0.06267910811766628 -1.97311411392571 -0.2962115663087034 -3.29743099266364 0.08567395212582439 -0.04986134660330615 -0.9657640639623361 -1.396905287342885 -2.821942785386462 -0.9006753754301586 -2.261932631503429 -0.284859784140684 -1.241978763869814 1.125785864759019 -2.004944554194724 -1.348205137600688 -1.177011859190868 -0.8393699802507513 -0.9365361119449575 -0.7259125232752891 -1.933548264436538 -3.689028384235328 -1.706158811316563 -0.6008371832813005 -1.733919361813968 -1.80317478302507 -0.9329214908813819 -2.064126230419733 -2.878524985759149 -2.667051140170134 -2.65802299276256 -0.5401178053579103 -0.5874981244159133 -3.296003643015558 0.03948836022704057 -0.273983751430995 -0.9454123396088953 1.694872311302248 0.08353611838220215 -1.472205045541155 -2.142415454038422 -0.00152387972920572 1.130357498608343 -2.687366314816428 -1.856684493542774 
0.3736556394417101 0.8015170803797089 1.872599605801591 1.403385599482773 7.101217965857701 2.301435111087402 0.3135402125856239 0.505173130794952 1.307211654576294 2.304040248939395 -0.7980793286580183 2.684980555205632 0.9582316993189389 0.5046394423410315 0.04360981553220592 0.311306399224842 0.5841919581528505 2.155994921089925 2.160055660890987 0.1450249061522756 2.62747006469003 1.694262752611094 1.001926461911174 1.529912928629566 3.159355001941051 0.7799516186839758 2.659794244557269 0.9433576781059008 0.8512709249403108 0.4456917866503413 3.808115437619913 0.2596340734996462 0.4524812266732681 1.950145694390758 2.149827285650423 1.714684213996321 3.152560671438247 0.9021111097572766 2.828405627881909 2.531773887052251 3.6223543975136 0.8317007352732438 0.2033771622940754 2.051358403238675 1.962196317922754 2.229587419468134 1.053725856007657 0.7461172205737771 1.674237721990397 0.04197888544588112 
1.028299702953485 1.562014350409636 1.824221440747454 0.05235442378615477 7.059348761381207 2.101422679740738 -0.3617360690901097 1.178186392783461 2.015116352228518 3.266436539809767 1.814222964184915 3.181309939040004 1.113784627299907 3.053998358114304 0.2213075860817131 1.916940947885683 1.190541094324383 3.716223156996704 1.995492194188379 1.125242854319578 2.120033445320242 2.600189795732617 0.7325746734257814 -0.224901134754165 0.08436340495352759 2.526665001164192 3.348830208687594 1.487121499586422 -0.161220559505894 0.7269972461605765 5.853944819779954 -0.03132629872663248 2.078283489518171 2.64391944285161 1.918668317888141 1.803818609415133 3.396026555026785 1.155331340829562 3.833961811320726 2.940357482693924 2.959041587232039 1.117622155538019 2.159403415653063 2.406233474942495 2.946788075909195 3.312044746459387 -0.7048271703381802 0.1846976366468931 2.865123731378571 2.501812640256507 
1.698383129109317 1.327855727160565 3.717619086567549 2.300662030798589 6.855245456775503 1.281979582454186 0.376406504721842 0.7244036940286844 2.849613301268542 1.934624593779533 0.6143203807357548 3.19037533710248 1.207672891431478 2.497865454470811 0.2475523064986792 1.370040971656198 0.6746281789397579 3.615006436962983 1.707096623224731 0.798465831922931 3.23585329805701 1.19041339959043 2.321649846134349 3.238377659790034 2.597359684842752 3.422867699488408 3.451685969104985 3.067266079876342 2.166189774686546 1.101847480850667 5.167430989223107 1.065053804909692 -0.0344453513256962 4.254052397541058 2.936985999443891 1.714990473918582 3.812814175365847 1.64338865635909 3.751419058506155 3.815281031870841 4.650044597045003 0.7511772743836727 2.196087696539397 2.192635554395328 4.578376351992818 3.594449017566979 2.458729633223589 2.274310040316245 4.06046048334166 3.244229080536992 
0.2779412060799396 0.1310729083650746 1.594155234925228 -0.3346397279837605 4.704237407691048 1.415231397926987 0.4279195098499701 0.2095828208453444 0.9223078956809148 1.090218874539887 0.4655690700470075 2.998373692931894 0.6379741022614134 0.4080445238221805 0.09410363443459885 0.7594515708779743 -1.698982756301791 2.211349213825333 0.8551390761717136 0.2480430708521796 1.793692902852718 -0.3728661200749463 0.4075008731954652 -0.01910776924796671 1.180405561648481 1.616715683313196 2.432520830243431 1.928701084860526 0.7217288361680071 0.08918603580200474 3.203309993640449 0.781860950574753 -0.9986308986832847 1.38474813653144 1.906927217290539 0.9989724305151609 1.496152355106063 0.815768762486718 2.52623778740654 2.348136407095368 3.268102126689024 0.4124145576179485 1.713904083044256 2.10923386367284 1.66686974946315 2.250305756278097 -2.82508343808511 0.4602753946462835 1.14812200252704 0.6806363961583695 
0.752957840305539 1.108330980247084 2.757321594207166 0.5796421766345651 6.527911416687148 1.381890829727726 1.518735149440651 0.5302624774517734 1.612533307166444 2.074970567070142 1.419091126686914 2.431947885206131 0.9051950499763567 1.414095506887206 0.6679462507561839 0.9256223375815922 -2.778718734773236 -0.6048152509616886 2.744446838146495 1.553819600841918 1.299480613151045 2.28906313816232 1.117190171788814 -0.4223150306634095 4.632230701780621 1.927464842400499 3.171301247768588 -0.1999196956461746 1.299438673697892 0.06442393567204999 5.390561828897279 1.072804628867096 2.962642945757392 2.072141151354808 1.508814787491555 1.717871407141065 2.98378273199806 1.331166995680878 2.662182686515087 3.123553816557367 1.666707123509217 2.377784765490337 1.39041656434463 0.6368299038163406 5.078720278890504 2.524318485492883 0.3111034716765828 0.5234837322604303 3.274108295191054 1.765369039366903 
1.588052656711872 1.987060302496269 -0.801944878903107 1.34030278981669 0.2816784040152848 17.21208317052936 1.678369019120353 0.8541929592403077 0.2980112909910457 1.740914674749242 2.350023907907842 1.781145275857854 1.125705899396677 3.549924750866145 1.846169313016733 2.131653178564891 2.689688675622739 4.42666406722108 1.206173280132953 2.581458738546019 3.108018131164882 2.210860486026157 1.710665494281951 -0.02946689206827536 2.73144427167641 0.3253715431846766 0.6788577859213016 -0.3939640673623407 0.9927909607819412 1.508250786943599 7.74073661354991 0.1829837842836298 0.991129194237903 0.07139317258964822 -0.185294393242359 -0.2953816325488716 2.034982752288635 -0.1942522157517147 -1.513224979870577 2.818095381721692 1.215434481939696 0.9052519431765578 -0.07740464473728662 0.03428204486405754 3.848554039057908 4.029411799505502 3.568480861483173 3.12832524109384 3.007702537833651 1.866955973357669 
-0.1536670166525156 0.9524199818285628 -0.432110624368327 0.3445003683904071 0.2115792331486535 15.25060755654711 -0.6903269653940313 -0.01674837464306924 0.267968447608269 1.363588635114772 2.650875088631661 -0.6588258891522234 0.283250357364934 3.17028504569054 1.240781530164984 -0.4958814197814121 2.69208820469061 2.23203516401065 -2.375836746828225 -0.2960657865807607 2.281641564771502 1.95185989113166 -0.3452604144348817 -0.2029448645429875 2.725897125025558 0.7046637729341291 0.3506509870571986 0.3679996355013715 -0.4106252056320824 0.9224209230054063 3.182423614963982 -0.1101212261822287 -1.060596249217027 1.40280567633652 -1.132890831235155 -0.5982229186788973 1.310940516519406 0.1045666112712857 1.196732141817268 0.993622375612786 1.972745781638956 -0.5272377067964849 -1.856625184441823 -0.1224766554845343 2.663681719460388 2.174291394400782 1.407730781551703 0.7809692337783904 2.369663150634241 -0.255312191448739 
0.605395941970318 2.397807609455303 -1.421015218822799 2.198205798842217 0.02631776283673398 18.61441752507691 0.08570844499078523 0.7481921436758563 -0.5582974856710434 0.360842930731768 1.923437130780995 1.475144461052131 0.692904004489825 2.485921681737452 -0.3445158498691715 -1.192661656649773 0.9547984566297492 2.12553660348668 2.277281805032458 -0.2695832937583597 1.214681797398512 2.790106323959524 0.2848288265703227 -0.7005681317736502 1.950847466408875 0.3122507719897193 -1.491368944127326 -0.8473964718359364 0.5211104220408976 1.030677215583384 2.209685871895712 -0.2523121984496389 -0.9026356356674069 -2.178504938514148 -0.715479688442925 0.9050746661686708 2.417232526354748 0.04321439261943993 0.2466708258385349 0.613387384685365 1.411945091217467 0.1205306873959286 -1.946031989831777 -1.561113188729646 0.4458339731119058 2.506681917514823 0.7421376010411622 1.752130071574402 -0.9631014505233098 2.125455914241865 
2.789916697369117 -0.6940965960823017 -0.602043532086829 2.0833810906099 0.6366713507769552 16.43282502503748 -0.3003665302336734 0.5220078214239586 -0.5788688408747836 2.064706436462999 1.208488855556964 2.492986628858164 0.5547410940422383 2.222098565789896 -0.8674918436384583 -3.498972405992284 2.712562457789358 0.07100957376744657 3.170460363189193 1.923892650454111 2.415767874774474 1.68080554581101 0.698695760848028 -1.133250167999235 -0.7325777876971259 -1.405167762853669 0.721671089288293 -0.3236158225098273 0.05378687299758539 1.707986389333869 4.794365969197142 0.4357571633030337 -0.9259297883837497 0.2359345686294847 0.2706796027828944 0.03755132164373999 1.563044020433675 0.7748159336131341 3.014965486365266 0.9292633572232611 0.1867438905610064 -1.527440775609031 -0.2019407094487278 -1.18132640068272 0.71800235888315 -0.2567990703231456 2.440783318301447 0.07803953585868156 -0.9444877092870325 2.727173943129034 
-1.508290081295161 1.104263056793128 0.2470784388834794 0.8516540889243321 1.616627966725691 12.5823976190709 0.4123728074640585 0.3629803224338824 0.1210538027132689 0.4422920129733032 -0.2101963603383355 -1.884037979531709 0.6778313207117214 1.734007990302647 2.758170714021817 -0.09932236523575932 0.4906210621957853 3.430418072901915 -1.617279813108978 1.714315529525694 0.4814911491993095 1.808597684933368 0.1107911573455505 1.531537106205599 1.369569217580263 0.2197623234303947 -0.6106989680178708 0.5794425908375063 1.13310515572734 0.4607172311661545 2.329678289385745 0.2051866919861171 2.036389563487192 1.031058588379643 -2.51520342815006 -0.6872873901940901 2.190152588837522 0.5750307893757256 -1.169778152464626 -1.142627548016458 0.8388754120519774 1.664953973445167 -1.154730364849896 -2.11367791972502 3.295348661690559 5.395648332538735 1.148293462441739 0.7073921547630009 1.790795182077672 -0.1728632870159048 
-0.7324050208317781 0.9896844433272338 -1.024404521637593 -0.005331150770306161 -1.811939585392562 -1.223482491943127 11.51950930864696 0.2536342626516647 0.2246962186606568 0.1986517994076142 -0.126510755151627 0.8933246478754011 0.7897472320906098 2.323845400647972 0.6611771765766117 -1.885568058762017 -0.5172660010793502 0.1270242045379628 0.4680228143481875 2.298081032705528 1.069798039712462 -3.248131650961959 1.429999702408902 -0.2344860436614183 1.846661435206004 -2.831713737112391 -0.3962004984897692 0.09024029842714396 0.2096344509226179 2.01238554887542 2.911648421752962 0.1812475730353073 1.011146496155459 -4.060210051990223 0.5430802809040535 -0.6723465528143489 -0.1505946680301162 -0.8456512408116074 -0.2916564392031065 0.2713021058283689 -0.1419180432741678 0.9167734431880969 -1.888493122394006 0.9820052336117637 0.9206182337405477 -0.9792226274883518 2.099151361959962 -0.5301708327237068 1.343993233699911 -3.556552456117043 
-0.5513309766792795 -0.8370540654284173 -1.813752898994719 -1.385336081301577 -0.939540189086888 -3.139829005959856 5.03608786006538 -1.028809649947971 -1.718912795455147 -1.142748186389602 -3.503128082164425 -1.59075231075109 -1.497935200182239 -3.309577375066134 -1.599397429972317 -3.361734575459119 -3.095179146859865 -5.728849652589732 -1.033462878329057 -2.014157460609234 -0.5499631892476623 -3.964632667061924 -0.01219550706168193 -1.166181900808155 0.1081373353098816 -3.087017143128922 -1.556354522841599 -0.7072578939080549 -0.8314157077051728 0.2555748783023389 -5.410386274629195 -1.40005282539993 -0.5564451633621927 -3.465624039031068 0.9332633326567318 0.05217078170600072 -0.4749219464918832 -1.051935989393477 -4.05283737604716 -3.124132518317689 -0.8537385266364377 -0.7615105693316736 -6.416509651165179 -1.765581244170525 0.6208828008178708 -4.015164061248512 -0.9883180179530369 -2.509682289328937 -1.595524936445568 -3.760215549916311 
1.206313238514481 2.86472381700276 0.8485658253923749 2.253762683579164 -1.623830468952679 -0.4135327089226073 7.621429120851249 0.1678384562708621 -1.172050334722142 1.000438464894951 -0.6317717071252238 -0.3338007953565456 -0.3361157682343024 2.545513820532333 -0.2105347063633941 2.78751962711281 -0.5255788149956038 0.05878934939803244 -1.150193697828526 1.2405480866417 1.576518881716285 0.4091621817437801 2.770886466146647 0.7315041335829 6.289581774726638 -1.078388782722316 -0.1026561341331128 0.1080683041620183 -0.6331807421520105 2.241996974916602 3.04762682595105 -0.5998216507776581 1.146082876814065 -3.341163408461384 -0.4044058439844152 0.09996508507300415 1.934098598891901 -0.2836828726816183 -1.331007269833706 1.244435185465185 1.508151200302815 0.9794748650673364 -2.342288131143937 2.043619054876992 2.348197280035492 0.5226546430657398 0.6856556632251518 -0.007244727278171225 2.449979577453376 -0.9150487518401561 
1.176552531045989 2.803532048402515 -1.503875562180887 -0.3058197982145421 -0.7591456749658043 1.071781081319211 6.733992923437702 1.5729380072584 1.303932424490486 2.263472386764368 -0.1313024634871892 2.999032447916513 1.100905956103575 -0.1404858216384343 1.477287635506618 0.8435382438993499 4.694114124404465 -0.5317035041287133 2.183472728035001 0.4702497257675233 4.406024949943338 0.07255809402530283 3.64459021879633 -1.378510011349599 4.396955687947718 3.330978475563593 2.028410601146197 0.1024443089259643 1.516452010901861 0.882494687199894 2.570550599263381 0.9131680777814322 0.3093887757301954 -0.4364323500885933 1.225345509144617 0.9639895451263211 1.243908935369266 0.6731497616756597 -2.011933086203337 2.617338806713054 2.107291891485132 -1.010214809046033 -1.163743202727187 2.864493455071353 0.9486236378160083 0.07784629217341509 -1.478888835843392 0.6153871427540143 2.404847262604498 0.6029935559305056 
0.6338540233833954 1.925492398112619 1.762022990166559 1.831656589557702 -0.05667952014287812 -1.50593642854387 12.99173918964098 0.5029394779116148 -1.256905440800346 -2.000354033282354 0.04270228920242464 1.765668626712142 -0.4561334810919266 1.552847270632224 1.343429619862882 -1.83687418397315 -1.280438349168707 2.388179921886301 0.3742847982454524 3.662479213019375 1.468149923014189 -0.8547588000798045 -0.6199338952496035 1.636747870467041 0.1974605282904909 -1.305483966003809 0.723937670085894 2.006217500858624 1.686078756042941 2.05940998784788 3.903404360006811 0.220779418798418 2.111939346602141 0.5604224150104836 -0.372801709410006 0.5958841439426097 0.6040491336586047 0.1780831747624323 -0.1205083704573306 -1.555664697522877 2.133846302511473 -0.5559281275682371 1.675726997906734 2.061025136663101 3.609421547586317 0.6459680621914746 1.958052358296038 0.07508453565992898 1.446972122412344 -2.558720200707198 
1.582233067478319 5.083585775862455 0.8725193975116269 3.244522477822069 0.5682807055089968 3.19579390523094 2.938201159039446 4.604057535012908 1.788371464392031 3.421409492707238 4.815751744623818 -0.000372838559677796 0.9301971439684242 4.748665179240414 1.297569487370156 5.738290783731937 4.815454025027068 3.720068824937989 2.639345312425869 3.490417050379441 5.185058903719447 2.410597663933047 1.928690736851807 2.937347219556806 7.008974203128651 3.421924198656011 2.958280621868043 1.901459318064568 2.25190096073411 1.593981680708672 4.72821753921506 1.026246715188362 -0.2036747886678687 3.715988791355443 -0.5834223847114309 0.521845717513955 1.59570168006084 1.6862365316852 2.83967037598612 1.230293897903491 4.541981137968778 0.01855587087718126 1.04531809326956 2.882016878153812 8.520599201806835 1.99231257051728 2.665578379883259 3.077615829721332 3.739775900134884 3.101932654516758 
0.7409292364029793 0.6746845059272198 -1.497626578392668 -0.998282147695034 -0.8905564176909694 0.05817181902559253 0.05112763091141981 5.005329462816051 1.241799732648899 -0.7014302459075453 0.5094242163844784 -2.355969123370822 -0.03266545876005535 -0.32418497595194 0.5961170504988746 -1.192642201860587 4.435360329952198 -0.4903437631907013 1.889486827293624 3.149718015471429 1.516458082811138 1.832133763359527 0.320628078320584 1.734427988060578 -3.180026021960959 0.969570945181919 0.2113245786050916 -0.3621519361168637 1.000875979794655 0.5123426322224087 3.604861076242408 -0.8425934598011076 -2.367120280019242 0.9151413290739616 -1.997823700351491 0.446301953120771 -1.191828339544621 -0.5128900625124824 -0.6586988202705757 1.099320327598487 0.5792230071262845 -0.9517913516405943 2.811160218089406 2.771389112377481 3.920905154235596 0.858410432291458 1.821642770683978 1.578090991779368 -0.5926271700242529 3.009362506359292 
2.357157430774878 3.136353409649843 -0.3852228217261176 -0.3413081601569558 -0.2511195626058477 -0.4064822523974843 0.1813968411888107 5.300151395376584 2.222009863952015 1.137874011948007 2.75488897300795 -1.592428672045496 0.3075195260105293 1.596597386013719 1.113930832149339 4.41468191366482 3.425718349546838 2.766102895125336 1.061335554263963 3.241743269102432 2.923492953124543 -0.7002528435443102 0.03732003224827977 2.729764121043207 1.584104220973609 3.293424750224331 0.796035263341624 1.30865468695156 2.598681638468152 0.8799341091717021 5.304809346300363 -0.1793550065546674 0.2322078919314949 2.596968804692428 -1.057253768927868 0.1559390583088288 2.016020470085053 0.7550015401916329 -2.051735139177175 1.072538714929371 3.635974265463587 -0.03095621079164492 0.5699624799772404 1.372209085566374 6.753709558218277 4.03418946564236 0.7365482421699635 2.195098109508518 2.068436138505587 0.03809034463350858 
0.08407597997264583 2.458077059577272 0.7030641730310857 2.090919316709736 -0.06440068741184407 0.5187060441479258 0.4799176809325477 5.482782003614193 2.029919990406171 2.606220095847545 1.701532901059961 1.274283995225958 2.488987239201764 2.694055670244087 2.560645324705971 3.204484796237382 2.057075839539925 -1.115816970035587 3.724179072929299 2.483706037607169 2.39973570555544 1.328984228707754 0.1249343620142594 -0.6407834026510408 5.918554776494768 -0.2158858189885172 2.118144178250662 1.929152756859868 -0.2425756184937994 1.171161273903208 5.363680368367982 0.2007502856781531 -0.4844416872324585 3.297165827444567 -2.830916240771574 -0.6127263362635704 3.021684069164241 1.706982476097901 1.860700275121427 1.073138554974604 4.083079383126755 0.2921865096472937 -1.02194417512321 2.322829998455015 7.096295409332743 4.78513856951176 0.7480805223036462 1.722192906667977 1.086466156376393 5.414950682157157 
-0.07235619239572155 1.838262413104087 -0.109361274042987 1.980353615756747 -1.375769502159598 0.468939794434545 -0.8606681470133986 3.803231973178274 -0.3370009453055723 1.616064384572148 1.36009607724233 -1.5838701981448 -0.7351393916626794 0.5604114016461227 0.368950064391237 4.481687199344536 0.4969567950071003 2.167382481970867 -0.4895477477652994 2.309507828383913 -0.234815112965423 1.273513010582728 1.713827787450347 2.200695046555019 5.725227658156892 2.987100582393943 1.093457029287155 0.9699327725010461 1.725426973459258 -0.3710377117395362 0.6431128179331532 -0.3731279596935547 -0.9446886536153712 3.965907801463205 0.664876446804416 1.25373993142602 -0.1422080547749363 -0.2955074269551686 0.3992629995252966 1.085807463198437 1.462363612476159 0.5367814904882661 2.140057209518815 1.379585014973223 -0.03332790389505472 0.23528333754845 -0.4831333103653631 0.9180076699100489 2.356841487718874 0.9421664738858578 
-1.535240149768115 3.120298276076032 1.181039685099619 -1.850861901013077 -1.310652808708823 2.193882376225762 0.7701175165348472 -0.1570951692460179 9.808791092929788 -0.5085835212071006 0.9942178767533152 -0.2054510959877523 -2.091981428674468 0.05174454663312081 -1.216002692089075 0.9339964788471876 1.599987307774379 1.523763123497002 0.2933102604888168 1.210364191863569 2.725811711403883 -3.840357905357925 -1.019012847196677 -0.7572740410290962 4.309459656240958 -1.719486252986822 1.26337066195584 -0.09809840376903292 2.476478397125409 0.1052860362757073 1.434769329953232 0.9822140546975561 -0.7588134611772539 5.10375994642123 0.5681262748329112 -0.8860230509386647 -1.538876354207563 0.1298424102850703 1.117175929979717 -1.359839229994692 -0.5833038216936224 -0.4225234779679408 -2.666088011007806 -1.115345330383388 -2.374202082346884 -3.334872191172723 -1.459694869255376 -0.6670447552518043 0.08981803611629953 1.633095265907389 
-2.426879875667276 -0.4074126676467045 -0.8763990517153118 -3.223251511701672 -1.001762189647172 -2.589927744518466 -1.765860399002497 -0.8811508232069826 8.044044140747394 -0.2506410106135131 -0.4142344333923363 -2.924773643319702 -1.308285741714034 -1.856040860618405 -1.327240393466835 1.338367880337571 -3.503139018391555 -4.415551430911032 -1.080230162216065 -2.884643824006134 -2.051326574469577 -4.759380625743032 -2.198467345113639 -1.921872164627783 -3.080315262740813 -0.6080325049401195 -0.8886271599594455 -2.162689831913137 -0.5567898193985942 0.8413776887475971 -3.709417274592683 0.3684924707201659 -2.831107799578654 -1.340704620431711 -0.3947179637480841 -0.9340990271874492 0.3052649043879365 -0.5969010883669444 -2.874448576617438 -4.047595858688275 -1.877452455786364 -1.269375088228501 -1.787761435393188 -2.114113419602871 -2.269547798491114 -2.139336065799251 -3.042256879978543 -2.966460684268401 -3.221241236750481 -6.55179450752481 
-1.29112167576106 -0.8061342922082381 -0.6750243354847685 -2.264969755632821 -0.8405219512021582 1.072270280561198 0.3842092130502073 0.5408342933747987 10.318081726077 0.03777136070436871 1.716519912006478 0.2761201041911997 -1.383351680718136 -0.1444537094917623 -0.1848415709001069 -0.9969651775979906 -0.7055268719302471 -0.435451424686166 -2.209811258428753 -5.189360766694199 -1.047146470089062 -3.878216412737563 -1.678249892313335 -0.9694054728424495 -3.341504548960832 1.551233212028757 0.2362121168356124 0.1074064479730434 0.6541001008031124 0.8089972990540387 -1.836919728696059 0.5272418745421154 -1.25846680243164 -3.268795035506721 -1.147642478975855 -0.9483660608827855 -0.8224041091180921 -0.6801066637173453 -1.278479173639496 -1.326516442719907 -2.29939371151276 -0.3226535615208297 -0.2360653013569342 -2.42379578459562 0.4270669721102024 0.4083230239311988 -0.3218759366139674 -1.168233309920443 -3.027760287553931 -1.927266156270708 
-0.483518806188935 5.048076779914706 1.654585414138842 -1.752431343679566 0.01721458766147359 -2.426635441227298 -0.7359595191591952 1.507353622184004 11.58778976542723 1.94418345353858 0.9903091247596278 0.4690129615097798 -0.06392645773434652 2.551107846751791 0.4527403857071673 1.120419395570851 2.815166802234304 -0.8241417545461589 -0.4328486393091038 1.807505073982265 0.2764585710367685 -3.76891715538834 -0.9617910831214024 -2.31425673283479 -0.8174450525852652 3.688938558728632 2.235750457599175 0.09868319045035025 2.072567979908629 2.518263974500899 -0.3797808921222984 -0.2119280446080837 -1.511303337673212 4.408349861598603 1.852212090769306 -0.7120859925585092 -1.084758712499379 2.171400720836409 -0.1614445790995255 -0.8404776256575898 1.006152615344148 -0.9968713565184321 0.06912474819402228 1.161050211028021 1.910239191807788 2.334140555148087 -2.576585758003981 -3.305718121557195 1.106481437867726 -1.020217083792776 
-0.1222102641073844 1.791369302379469 1.1473774133044 -0.5346746445346026 0.5921172481891669 1.256312693940053 0.371764894211322 0.09931062686821054 11.19136847734027 -0.399242103744547 0.6945340233740728 -0.2310529243102706 0.1307007149520043 2.041572727080001 0.7242525288837681 1.746692044973524 1.01953350376076 -0.7606396851015971 0.1201286396630726 -2.871426346048514 3.739873502890263 -3.555912082304389 1.311909136015354 1.439524408212979 1.998674760518986 1.292593962936046 0.8384532075245638 1.250293184078739 2.660753755221851 1.699707529767723 1.187625363701468 0.4689625890293759 -0.7493305525686784 -1.140063762363913 2.02894177019607 -0.4454487141681769 0.8044882513206806 -0.2821497165600713 0.8515932481240371 -1.697068620519111 0.3301540459273392 -0.7896791985058055 -3.512939943286373 -1.807558763203429 0.6899597114951133 0.5387262859593986 0.1506884458422237 1.671813157754416 -0.9459656125582758 0.9867705145384656 
1.571420254989002 1.381762875026036 1.201883536958328 2.851391581711942 1.274522924787012 -1.001852088262057 -3.050313377343322 1.17784898735999 1.789092682306947 8.237341548625134 2.344725159006329 -0.003270137978064272 0.12131936506556 -1.279322512068179 1.310393233508211 0.9464517580340561 2.865186149140193 1.450190518183588 0.9123805479540175 -1.250856902966704 0.01866859415334703 -0.4627076456619063 -2.574499441228104 3.054222077394323 1.571443427319765 -0.008035826307443287 3.524666170069427 0.4276808348821499 -0.03900746579268496 -0.06223396040796384 -2.070217721006829 0.0380221023530779 1.290291054672186 1.368838933480998 1.044977811432376 0.05612122916073239 2.027992369239605 0.8927445907500957 -0.1702067129501063 2.003883118500564 1.006938390832163 1.307078177871017 2.72765060524136 1.5104676548992 6.938943424867431 1.357748552909275 0.6556522274049753 0.8515586975822425 0.5580650255425291 1.85775599067061 
0.3618193847756387 -2.58214761298061 0.5792309564218536 -1.559232544020443 -0.8203629439502156 -3.998289036122347 1.191939846226913 0.183125693859384 0.2738800724352152 9.00361072772519 0.109225373798187 -3.105224604596645 -0.2665262991980498 3.958347832932647 -0.2931372960414498 -3.825557468179274 1.863701454560496 3.326869456073799 0.7869223454013281 -1.977807030190213 0.2764379511354113 -2.138168384667212 -3.497766665341282 -0.5138381929380393 -2.676630641180489 0.6877531866000188 -1.318503100814624 -3.579870230672519 -0.8582139371705192 -0.4189558410138811 1.978037980005275 -0.06233206668609138 -2.533248658699478 -0.6754844467884648 -0.5625493949549681 -0.3945964786941553 -1.857447154175902 -0.4187273403046406 0.3170707845975801 -0.06800853869517025 -0.084963256217314 1.462935668020736 1.212211991670662 -0.9588451093770454 1.791923603307005 1.062150274578731 1.77346955184847 0.07434049200873938 1.018293730309364 0.6365102299700336 
-1.47936069923513 1.25290246316409 -0.3455591176717639 -1.326696081783475 -0.7347405512143148 -3.828304190757776 -1.409364343655892 0.07262512974934973 -1.080276188887622 8.271681658236378 -2.176684031810222 -2.119703378582876 0.112054766540541 -1.732507255768196 -1.529269833345989 -3.06644381660423 -3.687456934862368 0.1528332152063676 0.2345681482902259 0.1211209555723092 -0.03455647374660443 -3.575308603992833 -2.770852966113666 -0.2537495220734845 -5.409791837659895 -1.942583724870213 0.08514934671339014 -2.287707619490948 1.03431539259297 -1.633685066916589 -2.054955135376164 0.1596473086919778 0.5821020520013173 -0.4055567856555101 1.504844714079112 0.05918514129749618 -1.421601267886772 -0.1679222046037717 -1.333538533567468 -1.524163481017242 -1.018304103248719 -0.8410080033904166 -1.151222761080494 0.1761314718956583 -1.411229722271545 -1.836061021334717 0.1946761911447734 -0.7337492833936666 -2.128651607211807 -2.586898698413136 
1.016164816013769 -0.9728427432587095 1.777594710554317 -2.063015424351947 -1.376356746659831 -0.7755245493416429 0.635213352638661 -0.04977057082367083 1.536346568954533 7.245775520646935 1.417452686299929 3.211067002498495 -1.288109389567222 3.148504503085917 0.6985199441032643 -3.281137270617859 -0.2833119739590579 2.527303435605744 1.861042925348221 0.5100603456282146 1.588402706420703 -2.182580703856287 -1.869479650085067 -2.098177826181086 0.6645682090215376 -0.8469625885436453 2.31077083795074 -2.37175493366949 0.08971740078667353 0.2127741099036848 1.562861321460225 0.6267336304075449 -1.403707691159828 3.896278819955956 -0.8409164220876021 0.6778400347640895 -1.458823492375672 0.5950916087571876 1.560609872512152 1.928892888741335 1.294377378109805 1.714391775923229 -0.3558673134318363 3.006270065050766 5.583618558210342 0.7145377682615933 -3.663190521394469 0.239351849694041 2.70243695584167 0.1063844032430506 
-0.05729469088073494 -0.8473076830086197 0.8351459508059453 -0.4044942040771717 0.1008809440903024 -0.133508859215056 2.927232019342995 -0.2256597203013011 0.4012016257652358 11.59510809018796 1.024711657601182 1.297565086575801 0.9377551480373124 -4.012490449965815 0.256250241345857 -0.9809482912697436 0.526312544216332 -2.583163956957361 1.144471960380812 -0.1357693238551123 -1.047160210030614 -2.584713597443161 -2.217266229854153 3.109930106240715 -1.408338782302656 0.7408252064551385 0.4086124390645889 -2.398499461182019 -0.1203802004653623 0.003809869099505952 0.6427337998434849 0.03363224402959548 1.347557266601035 1.092036733251063 0.2449358358213989 -0.7536014801675255 -0.9777022576598741 -0.08061624869010474 0.2563929457844307 -0.1760494975554126 -0.5408483032688024 0.7570526636332701 1.054156746193617 -1.14683719484378 -1.095733910598622 0.334750588013851 1.695687267888635 -1.637736921629435 0.7498367920713895 0.1140622320834834 
0.2655951604282313 -0.778504240999343 -0.9990664916174352 -1.088458526869997 0.2705823577202347 -0.677485381099003 0.467554246308485 -0.05348592059466163 -1.754921153668559 -0.297874180683162 8.177117387010515 -1.818864465899893 -0.8026432015453884 -1.348685695202014 -0.4447837138768821 0.166766698833199 0.128179612325507 3.3319524908389 -0.5223400893431337 -3.250590385422085 -0.7307003511470337 -2.804786783332814 -0.814224790076977 -2.927200003395325 -3.228840588283132 -2.126639192088869 -2.739820696690243 -0.6191807622275362 -0.2449186979409277 -1.471363647352033 -1.250515934844417 0.02385303031361866 -2.534035970855489 -3.758441399010641 0.2709343667049811 -1.469878858868323 -0.6110860818228531 -0.2471081123982549 -0.6911428127566729 -0.981723716670401 -2.886945764405415 -0.7604387004970545 -3.846444899021241 0.5820712992344663 -3.56199638169738 -2.779797081250219 0.3017411661287973 0.03363246149178132 -1.782367129446993 -3.416071628109067 
1.122840761567457 0.5792804995273241 -0.04407642394561775 3.235466330124267 2.539674698757504 -0.2070466966039423 -0.3562236082164584 0.7392559853013908 0.7367092123137813 1.269831624141969 11.87136562078679 1.655350144456336 -0.3622307740492109 1.89958732894356 0.4334024542161287 0.999499581258976 1.38951173711594 -0.7052450368153227 1.148638574313976 -1.434913591723776 1.166598937676786 3.010679724292562 0.05469072573290585 -2.76250166969354 0.2155334004514521 1.192892826800635 -0.5181240581164976 1.193101033083205 -0.6040515791895829 0.2329260477052837 1.531776249005638 1.275218795700144 1.155889434345348 -0.2857608835822089 1.185560000136285 0.04825938964535091 3.185910661818817 0.4650248827705274 1.647037554493608 2.040337792217252 0.2375821182310519 1.695926979369304 1.446855016764389 3.565601224789793 -0.448142417692073 2.585045975686315 2.00039311781378 2.188637570138983 -0.03194411529843608 4.316271603689724 
1.344951645948255 -3.321045211036301 -0.7884341289518334 1.4807424418261 0.2343658129941516 -1.749292475164344 -1.773210119491776 0.4550002084312753 0.2172585234455778 -0.3217318815364367 9.287213991421455 0.4780502444539249 -1.320253607666754 -0.6277974287973351 -1.602916622164601 -0.5137476638648351 -2.42117792886306 2.257644272869032 0.3015663090045714 -2.627345755971012 -2.471756001773432 -1.816448549372903 0.4536332093005311 -1.190886897866239 -2.319800949745488 1.776822137652741 -1.968154729771117 0.3522414874244772 0.3632865238413455 -1.172254380592684 -3.871834295063158 -0.3166405955723214 -0.5370379101609403 -3.377575568231817 0.3253884482218979 -0.2333120251543343 1.323865556107379 -0.1525224597512942 -2.293250535935349 0.1877776226786725 -0.392449159057884 0.2301501766265449 1.153752241352694 -1.901725748952677 -5.262843579181552 -1.601493574829417 1.223674592169023 -0.5413162027689579 -3.173272208669575 -0.0880422454016193 
1.257513865093305 3.469164950631024 -0.3567876865854601 2.030157269387131 1.635400988754954 -0.5315865496216364 0.5381820754169363 0.7334583949528161 0.8163111635842518 1.16632471173101 11.91296327880108 0.1942883194560605 -0.1021310919895824 1.270013670255401 0.5239275835649915 2.973041858339954 -0.4862652545312988 -1.373512838622429 1.501819800687356 0.7470123612005594 3.23868593502876 0.02953610838133747 1.457148896885636 -1.18930989999815 -1.111361749604925 0.65373894763204 0.1995988082675295 0.9344576977855523 1.525691097765968 -0.2881463861352223 3.804682320283293 1.645804098019901 0.4589950771175113 -0.7576137339248846 1.380545685863305 -0.7345235489984703 -0.8824170786087948 0.1267194427739513 3.202004033638792 2.62864942458122 0.9226936140021808 0.5803708692542081 0.9500912467345578 2.72149486659136 -0.7326189108167898 -2.129486488303319 0.9008274918107348 4.715189677444391 2.254193531295768 1.79765253586455 
-0.007434342037114841 -3.992958803665604 -0.9969940353402883 -0.5843385425478229 2.542975374501019 -1.574288845317481 -1.440447665484462 -0.5727077693357888 -0.2517180269219335 -0.460161835402542 11.28823896282614 -3.17969484291732 0.1853117209098724 -1.581801572966866 -1.034897963528538 -8.344991725625938 -6.535362862231158 -4.413109667517843 -1.449914373841523 -4.638145386562727 -4.083814337696825 -2.166169577216669 -0.5092842412525557 -0.3268162203332175 -5.083609618951878 -0.3822972707603781 -2.88499691957793 -1.517930005511313 0.2037319275576064 -1.114387428192636 -2.158013906489678 -1.492928441052341 0.1683369998328874 -3.703563661049466 0.3317670126191431 -1.195713585481916 -0.2130639745113479 -0.005245170337204436 -5.529882039110237 -1.513044811843794 -2.372843846019619 -0.3031862069680111 -3.291012831253374 -1.677792595176118 -2.515733851288673 -1.697157276940418 1.316342251430276 -0.2614602393389251 -4.159844775594671 -1.949189140693329 
-0.1521519647886548 2.248971775446285 -0.1535128247655472 -0.3960023133391268 1.258696830214414 -0.2797882190073848 0.9957476332426805 -0.600170770967739 -0.2968231484133617 -0.3290764732887415 0.9739749937515713 16.92458788379632 -1.331025963649093 1.090922256775704 -1.524969785493633 0.8721928116496989 3.10351632625451 -3.074658194948698 0.103311811535048 0.6542027002028835 1.011790052102442 1.357937386698099 0.1764400965468008 2.435608212239121 -0.8491997485270496 0.2115188377568526 -0.7608335396651134 2.859261205016308 0.7872615621296604 0.8352986971384061 -1.257987166478215 0.3746262818228923 -1.748237462351135 -1.413130758638954 -0.8452536281147913 0.5876210412580146 0.7754370243056865 -0.5743463712023389 1.693000738810971 2.370383944334075 -0.7435220858723036 -0.1825931532358213 0.7903298518549627 -1.018424838181646 2.127785422112549 -0.9946370190259397 -1.882314971399623 1.193510413044909 -0.6259116226624041 0.1640362041847297 
0.3317015206454188 -1.199867433060183 0.8254250679491347 4.127082388595871 2.256403285925447 -1.983582804960051 -0.9417424136292349 -0.6307618837537148 -1.252904581837062 0.786725729981997 0.1547173712979727 19.08513592911264 -1.085230257742204 1.608930139645422 -0.2687100135323858 -1.388183761192577 3.281236227386378 2.264562432503246 -0.602512912608175 0.6222078255671017 -1.672406817385241 -0.4896975664495426 -0.4550272034916694 2.591700659373578 1.772965510282829 0.1867121318316212 -0.3834181557400558 0.3479405977266659 -1.066332522079551 1.527379871931376 0.2640393316184201 -0.5794706611944945 -3.323800913469207 0.0726850262739028 -1.326748081024412 -0.05540427567038948 3.05465929413078 1.134208445643114 2.203417978319312 -0.3955387824305872 2.417026578733029 2.145606888929163 -1.697397148988536 -2.568757891247419 0.09932547182409664 1.65181943248833 0.9231921116843901 -1.407944459456004 -0.3132789057279733 -1.439095996694622 
0.7330428558291162 -0.02820543786967954 -0.04827764948813521 3.285880679118055 0.9057794374768798 0.065633015911055 -2.430420297003905 -0.07990977960529561 -1.779748677372796 -0.5842795847769858 0.02934586641702486 18.3072603451907 -1.566967274576695 1.097689236883372 0.5361143476068922 -2.275083515363641 0.6024968552582395 2.493638901116327 -0.491699301164557 -0.7177073686259752 -2.102124868563231 0.09690359987255996 -0.0715915001561996 0.5218236027817079 0.5194681542814464 0.1995788090059787 -1.003474926238538 3.429378899783999 0.8938562914646623 1.049834893137288 -0.8514266679000941 -0.8589281287145034 -2.989267317481858 -0.4003662566140743 -2.214105597302022 0.5239621018605379 0.1014282412420563 0.6002957714772487 1.850279990394556 -0.3273840319524435 -0.1298400706928738 0.7014312903013323 0.422755020051417 -2.346673727959329 -0.2997605288580494 -3.044967400198467 2.33934747661039 0.2488930305192846 -1.121366377250576 -1.225543447754429 
-1.926682736106518 -2.147953550514433 -3.010381585499645 -5.613153828992 -0.04390617997431094 0.5924718988822658 0.46429896296004 -1.290624054853742 -1.900684790653037 -2.691201995327278 -1.077967110622987 17.53720317848583 -1.474314556324594 -0.3493614304892271 -1.646319790440668 -2.078871590060711 0.01382302494824409 1.40393033116887 -3.676815691981111 -0.7899643410246959 -2.315998631830446 -0.581118644722753 -0.9340648323151398 -0.8944076284147071 -6.940093083858001 -1.215460524392463 -1.905112480885034 1.114973601484145 -1.067494724881848 0.5928405435810598 -4.860920720358634 -1.189887784674146 -4.032371252738489 -5.945998929680013 -0.8864727225595815 -0.7264725307278477 -5.533004033265605 -0.5970628321806315 1.464381473430163 -1.263015668262899 -0.9882276767641299 -0.743228063266831 0.7508097466829684 -2.956555604112229 -0.7639471770752461 -0.8242517177497567 -1.756045814755852 0.04556832431253432 -1.62756086727446 -2.704865439956804 
-2.18047652613384 -2.995154111995376 -0.9913295721533764 -4.748237061228844 -1.555655594070557 -1.859277438628709 -3.66776503371895 -0.7251062006238738 -2.022609293875585 -2.895770859068257 -1.906222948955299 19.22280369247435 -0.6236838696026884 -4.821730704671508 -2.128339313953634 -1.082431250530946 -3.199196696969265 -3.553903333649647 -2.004937111201177 -2.539617080391368 -5.150614617705135 -1.277192349989551 -2.980987163921365 0.1075902892791879 -2.81301546821417 -2.485140020079245 -2.219805397616812 -0.3193627474322809 0.4160744373262948 -1.596928944228051 -4.795414958978789 -1.510436061425534 -2.792827812694704 -1.857932214679564 -2.133182446180892 -0.5579611300955005 -2.06046990010632 -1.277835878042061 -1.448775515178661 -4.191027282872001 -4.402677694411263 -0.5299523307387556 -1.925881532680889 -1.712577883555205 -2.203734177147752 -4.780584852653496 -2.57490966810083 -1.78285592463195 -4.463237097063374 -4.045572221223707 
-0.7600810763602229 -2.718977442755132 0.8629633117291946 3.187992949104689 1.520965094562783 -0.8950887094714332 -0.08643094893421076 -0.4506419497671915 -0.1342335633483487 1.41028270645891 -1.341810399790861 -2.16226644194344 6.781288379647989 -0.6829912443090592 0.962000465808779 1.062329721190781 -2.361757739839276 -1.320068476163074 0.9430855263018635 -1.165939042073243 -4.11150857955693 -1.247960929624619 0.6887786510202548 -1.001472221330375 -1.923621452014284 0.7735646217405771 0.7856419163373725 0.05030375376664074 -0.7929049401223159 0.008787714378830132 4.096532519773925 -0.05618928529638658 0.8217831423353739 -1.268207504083572 -0.269626553825733 -0.06241175731826882 -0.7327049406001159 0.08959293169315978 -0.4854951202508692 -2.841638625803121 -0.4913966726027382 0.2502536749139457 2.302501103939372 -1.967297362063914 -1.161990701073533 1.260921735874984 2.690890323618413 -0.5942421745983616 -1.192209505929282 0.4185785460024556 
-0.8359917125070255 -1.514072797845883 -0.2518693664572553 -3.442157564362637 0.3984195586442847 -0.9579830937451899 -0.6820144394400379 -0.4645444805001571 0.3941065138687101 -0.250183523098261 0.2682096904850775 -3.158451926939525 5.314032232843343 -2.736491133654163 -0.1929518863936608 1.011628140711104 -2.20764905288397 -4.377661535894939 0.9903006154457935 -0.9043557690156301 -2.975870063579916 -1.00681635897626 -0.07092839631626655 0.1868040560727255 -2.042303432150374 -0.4456593416530578 0.4845197738867226 -1.394347679802268 -0.761734388952044 -0.2161709510400789 0.3649129641170333 0.07449882556193822 -0.03560062143111538 -0.8352031652989184 0.2080696562818167 -0.1046334156050556 0.7306492830838482 -0.1177741545555438 -1.154841916565646 -3.036132470304985 -2.680931581637987 -1.100669413556546 3.574466483111879 -0.6789226266894302 -1.562801873428419 -2.592257071003383 -0.5854585573890757 0.5970628930684099 -1.530025924012925 -2.167105613206746 
-0.3437813696686434 -3.599998206330923 0.3910896752022582 1.014476078662676 0.235686301966991 -1.280810357347884 -1.413206461643844 -1.071978788755653 -1.302032043417175 -1.004627584593512 -0.8073820918513966 -3.084786905444052 4.496897189479424 -4.021648878958407 -0.7487185293929794 0.3481743099968626 -4.724031146045945 -4.998265433918404 -1.594427458887746 -2.353525685919708 -4.621002747686661 -1.92232954461047 0.9567659014274599 -1.865979335688903 0.5332109653530922 1.219599559498362 -0.05506819126204343 0.1392752563880135 -1.837494847883219 0.2824958203380492 0.2139695579282245 -1.525444955698927 1.004889709106866 -1.762332611196698 -2.494492072240041 -1.28613042958236 -1.38981427690004 -0.2344414125566385 -0.8613173202954101 -1.306874869031776 -0.04511737073297795 0.5519758702176277 -0.2246497214375325 -1.170811325838091 -0.0827232622589467 -1.447465366190369 2.925192845703324 -1.447821928364352 -3.287973986447119 -1.100016009240012 
-0.2691795919102392 1.61231325427065 -0.1267447326158964 1.393158331186679 1.333604375699056 0.0742479462584352 4.069681616047996 -0.8376700372283451 0.9290810378436338 1.971922320697188 0.7031025733119103 2.077041558476438 6.866049230466919 -0.00791785038128939 1.660246699101794 4.564254152896257 0.5224481015165338 0.7050839038340088 0.09341650596748492 1.441754881397519 -0.07049807339374775 1.933498386148429 0.8150971787136412 -1.510332850432411 2.717634049645323 2.803937006666329 0.5523563824327961 1.762400053530381 1.989906520492891 0.9188570250675651 1.716549425394545 0.1108912325122044 4.572165338942287 1.970354132490239 -0.04382502334825732 -0.9220342784677781 -0.2498861681281883 0.6303770775951828 0.8916440717283544 1.676535401232614 -0.1481160731057306 0.242521262792829 -0.5860469068911902 1.118099733773674 -0.59036759498799 3.108860543211729 -0.5186153404252932 1.033920636428716 1.460953371740542 0.4109356215677259 
-0.5085773993688302 -1.645822765417137 -0.1686774888683575 -0.3928403140515422 -1.278411609166788 -1.747475325252728 -2.000679104640772 0.8933049340548609 -0.04834754681897642 -0.2336438562325929 -0.9277616476729251 -1.134343086917162 9.317297866603703 0.4054422455294785 -0.9558437251589942 -4.276878544203602 -2.558046502264997 2.10721282265412 0.8684108022453837 1.916899610237114 -4.313613561158916 0.5938988998991421 -0.5102985571597963 1.228158048955117 -1.445280933915593 -0.6341017901317378 0.3579142663331252 -0.8337037584137745 0.5393947662333088 0.4977403140063179 2.171723009782774 -1.151756707350069 0.1026330548822472 3.315159687320666 -1.766364534797328 -0.7958743724107928 -0.1441981918011028 0.04253100987947015 -2.632720388796511 -0.3328856305688137 -1.20773175170965 -0.9356207713105251 -0.9335131394020226 -1.955404833944901 0.9931323375629396 -0.6535325590938693 2.198087911389758 0.4964611115010957 -0.9981699330310569 2.324210122470718 
-2.159044554761324 -2.397039811314519 -1.044243023841634 -3.054758428938043 -3.192470051651784 -3.747037377560922 -2.025100249042805 -1.036845328396707 -3.172494640381381 -2.407779068215358 -4.194474507964512 -4.031490103843289 -2.237608366286106 11.37856658908642 -3.410263186086818 -5.078098009578805 -4.839060611729452 -5.409994038065576 -1.990418047659047 -1.216776693717815 -2.411460261307665 -4.712017754312089 -2.70667995604209 -4.574253126097068 -2.748677356971391 -4.526051807639702 -5.304020357605752 -1.747576284426314 -1.959928225584612 -1.348097905699601 -4.702618804602362 -0.9838902199260585 -3.037120989667101 -2.287448816107095 -1.634717417406323 -0.4353223618143268 -1.043949934974895 -0.3797847112657944 -1.353627121734644 -2.449164081577435 -1.918254386299744 -1.93498033250081 -3.490496460786165 -2.367137767922306 -4.137257990216935 -3.819292395224434 -4.908508817160381 -5.244900144351791 -3.784946838602396 -3.549843711314872 
-2.614947780908094 -2.585513014495981 -0.4044015012295764 -3.927899321587651 -2.660786088946475 -2.903108369343322 -2.449353509458976 -0.4644663764409713 -1.097662804489731 -0.8978331656282994 -2.744078381762893 -1.124491662841404 -1.929463520302203 5.701464267541761 -0.5564880061977686 -3.278319427288468 -1.437781401841362 -1.572214165133505 -2.460617909617321 -1.140523600726427 -2.803781890537127 -3.684713572730428 -3.121491020644334 -6.615106961750011 -4.691574635771029 -2.900185536117587 -3.350806809742092 -1.788726393506248 -3.192209170355203 -0.5450286682623429 -3.115616911267003 -1.19443631110249 -3.013075712227277 -1.675261258923388 -2.839500107399797 -1.295897930260381 0.03378683712055744 -0.5750106266339063 -0.9628612457762769 -2.05486031317713 -1.287637627472533 -0.6300346382811031 -4.316911394464345 -1.372728241381137 -6.375955162315057 -0.4400521349258028 -5.490625195733063 -3.785736683349041 -2.770728473712545 -4.458345493740033 
-2.018311930942391 -4.475306731372355 -0.8114090373974405 -3.449113748707215 -2.832113464540738 -2.581968136390397 -3.056885818581894 -1.022332530345659 -2.562576632193593 -3.310418725487715 -4.616283903301567 -3.913661244520744 -2.02702746325673 4.316057415223171 -1.851285071445392 -2.664716651157708 -3.492222392452357 -3.311152647782742 -2.639789196705182 -3.76155401111935 -3.283405904329702 -3.48440529927367 -2.72937496242122 -3.082714996164781 -4.648993057857026 -4.204314530434654 -3.481846740647462 -1.675883952564392 -2.570336153704753 -1.203809997387034 -7.809510878472663 -2.292434080410514 -2.529320017316515 -4.458960378402312 -2.807544257497284 -1.465875557152238 -2.319473023479278 -1.158138475500368 -3.202423882307372 -2.743556572245761 -3.918611212469538 -2.47513029577012 -3.675532924324468 -3.414730905561883 -4.132286230933444 -3.902977110843382 -2.92876002708511 -5.027216415718612 -3.933591603430724 -6.8611062913263 
-3.53729598340213 -5.73921750629276 -0.9455163043824001 -5.460912507490524 -1.945099134132416 -4.609839989017237 -1.659094422808439 -1.092072826807459 -1.315766998441477 -0.7864420879981046 -4.191669894077189 -5.524281267684814 -1.87454802714815 4.725217634011018 -1.952796815140861 -5.679108781007139 -4.281486638837405 -2.045074305581917 -2.039696149569389 -3.235884204995585 -2.372682714605266 -4.535343528261889 -1.618849585082951 -7.0909466047196 -8.197489287696673 -3.704957247745925 -3.116113827426421 -5.23477556249069 -1.94604230065869 -2.816115220878506 -1.349731785404138 -0.9725821364220258 -0.7339701825196082 -5.935957533332415 -2.810817655451773 -1.997459698420746 -1.338772881632671 -0.8346390572782717 -2.241480710514308 -0.7668714642046409 -4.434156702243859 -1.310076793132951 -5.068239426448653 -4.015913371867483 -4.704051946415432 -0.482054500573188 -6.89044495138737 -1.742284491723626 -2.572877947684249 -5.459703307869018 
-1.138681319509083 -4.554239384093275 -1.912980265915351 -3.768717706884301 -4.232499387922815 -1.589370740203814 -2.371384887631204 -1.361880666731518 -2.789250136976355 -2.321936266458934 -3.492857458603046 -6.22603184546708 -1.905252792887661 13.71470986913182 -3.256014847751126 -5.86663956066149 -3.752828786190014 -3.147357097211021 -4.67265270256493 -1.132703727060844 -6.014193619776074 -1.570191435573185 -3.587353715174522 -6.941991742317369 -6.325413500225747 -5.311763705249449 -5.084373909360757 -4.700031391104139 -3.096003940258879 -0.2932126327363996 -7.639096032979594 -0.8026351750927252 -2.298332283186659 -3.811289564982866 -2.556037717135049 -1.936639299392652 -2.669245323285971 -1.161350136900039 -3.233125638364015 -4.763892628088081 -5.271583883924481 -2.544599886160282 -1.388842362386254 -3.001707124047658 -5.872607632229298 -3.938379674496656 -3.416117808647468 -4.739420265011677 -4.702063821780539 -4.44727409342604 
-0.8831895055300187 1.560292561966265 1.461685546546047 2.151690890849747 1.243248708809795 0.2930990652680395 -1.286006635579527 0.7741671962695191 0.01059260487442253 -0.5108806297749319 0.8889485701687799 0.7342763427498672 0.5554179301759937 0.6934686242723838 13.10345855441259 1.199766890196438 -3.262459495246272 -1.866395856347357 -1.328623261308056 -3.304428034293776 0.4593574703279526 -0.3542694546946 0.4432248176034868 1.350904458908507 2.608162312658724 0.992430214541174 -0.1621076934997371 2.885295387449236 2.076269308923793 0.2506012743489632 -0.5738899224135353 0.5528719043593011 1.876688347640178 2.434515535720597 -1.14481704776407 0.6728291516509209 3.721497503373849 0.3183665924316937 -1.215612788249095 1.059805988774464 2.548273311557352 -0.4062889488950394 0.8014495365351422 -1.191076058725543 1.025028916057466 -0.6067369355907657 0.4677647046330348 0.9829430652611717 1.861565132319592 -0.04198801893239427 
-2.258774662331259 1.875322143382941 1.994398333993012 0.4155667096305376 -0.6006847180660729 0.1848252154063051 0.6854976125309989 0.2952673714485461 0.1730830990919421 0.4622518403867683 -0.4149879119753375 1.011846625054019 1.898741516731703 -0.9519879930340831 12.99881064153315 -1.506460900170076 -1.723401499934825 -2.223110893904818 -2.787204556866385 -2.343405206841272 -1.840480728036036 0.257827876644675 -1.215514764077231 -0.04861189448221245 2.051657446735802 1.913630578923664 -0.5879711149004917 0.6386363215072406 2.761278455430716 0.8411433876054681 0.6820515793979779 -0.7306890233364519 0.1420706978883024 3.602619050887394 -1.578634808505042 -0.1492296341489024 1.41763736261393 -0.532460287481099 -0.4256579425396853 1.256812908797615 3.415853013637351 -0.5446858205151742 -1.931353594115074 2.549341825268882 0.9764046224819823 2.639255058360972 2.404154844930348 -0.2325293001677086 2.669146586599502 2.446188503962771 
-0.6041535684547393 -0.5670650267567483 1.634228320656766 -3.115590408319436 -1.116745643145995 -1.065854001092844 -0.09895799770000063 -0.02654347605050167 -1.114086978289242 -1.514515639082431 -2.189332734379606 -2.060826299415985 -0.7576793265239119 -1.773213520077512 10.97090602932893 -3.119153068810157 -1.249893655730311 -3.8747104877085 -1.79872898241312 -2.221700690107895 -2.819491201294483 -2.041563256969527 -2.237687784446404 -1.248578089073649 -2.339734231167641 -1.135786199242545 -0.007894890608123461 0.6861737729472405 0.8097361672718264 -1.254477070969418 0.2132099225872537 -0.8121239592875503 -0.5514041590583197 -2.156463327304807 -2.068857471084514 -1.277930213569349 -2.775345366937027 -1.183410870126375 0.1008485001992658 -1.668254936179359 -0.08515486214599269 -0.7660680057155242 -1.449079562598912 -1.02775484219466 -7.094946389471309 -1.079474570462571 1.731180877125487 0.547421518986535 1.978359640981334 -1.951323251477088 
-1.132018383680596 -3.8660322857683 0.3808276864074086 -4.083844645836514 -1.428296951869656 -3.022720735825392 -4.215991230889092 -0.3887667777329272 -1.500136843295333 -0.9878413324904225 -2.099255879024063 -2.86600511728798 0.3382099065649358 -3.394530774529687 8.598877414203312 -1.256304438045136 -2.590341074125358 -5.557575536762576 -3.320144931291459 -2.998547799162914 -3.683281476879927 -4.244927155708386 -3.575705149784199 -1.055871460104308 -4.256678410310365 -0.4351586914484518 -3.017412937177836 -0.1636995697840546 0.8727539292317669 -0.4794931606277941 -8.153896772389121 -1.705259332142921 -1.596677729836989 1.060896196058701 0.5283778583746052 -0.2376070975684624 -1.951708243936193 -0.6977262187885034 -1.919684929725837 -2.18523563390011 1.546256919073662 -0.8102458858234137 -2.609033713046236 -0.1305478208354054 -3.821133527461526 -3.121111786845859 -2.316644608075885 -2.327037196000261 -0.4806666095881963 -2.145026151228673 
-0.3190828833166565 -1.617239896910734 -1.282425688728594 -1.61414210370508 -1.48847392229909 -1.662150981651215 -1.143902498363019 0.2200016811628043 0.4279088941766708 -0.6341590866767562 -0.1661727196992205 -0.8418173220849443 0.08092155713435006 -1.549623462781539 8.396267025079803 -0.6783601847479765 -1.700488173457957 1.46241963512521 -4.360044725551952 -1.935838573259616 -3.723979393118486 -0.6807402457607677 -2.879275372494132 -0.7106629344779885 -4.364053031770847 -0.2600811223097976 -1.82126077834658 1.636935978119803 1.262876543561738 -0.1844559214127438 -2.296998655770351 -2.026885578194285 -0.7119179728997506 -0.3658766958567534 -1.766731022892515 0.08542949873961594 -2.320097034077225 -0.06821978287935603 0.864173528243501 -0.1804602323685381 1.192942130005676 -1.116657735288184 -1.451568168097746 -0.8838101603084918 -3.357984419779609 0.06359123949939414 0.5955105135651194 -1.176583947607575 0.8375388655277155 -2.759186911984784 
-0.715417237573188 1.768407910001033 0.4243872376189895 2.064952008025374 0.5625604882830303 -0.3409269106630095 0.6405289690670787 -0.3460043790001736 1.635816801304834 -0.2318035244397898 -2.308112077818347 0.06769163147557344 0.2886587735122945 0.8502154601327135 1.119576988743255 21.85481120423285 2.022461934943304 2.850486630799858 0.7743462511791506 0.4705604773910591 -0.1867246735911085 0.04497401043461349 0.03436078856301054 1.382775602100638 0.7609812298505914 0.7709098932787036 0.8947036040826042 -0.8614501235348716 -0.9665758052847557 -2.317042713202427 -0.5376869230857581 -1.003476690036657 2.340233701424972 -0.7546993357600915 -0.03944209546119616 -0.4040757130996916 0.131766228060035 0.09693672071614655 1.20536256743457 -1.440795812115421 -0.9186781352521924 -1.068565452190897 1.400254470161439 -0.07793359983305045 0.4599348450135496 -1.808116856101061 1.241283131633596 -1.752806764982947 -0.8058292165857915 -2.133303382391349 
-3.065556742722981 -0.6898634005573355 -2.068529481844884 0.7730749069928021 -1.828780098385259 -3.210002054334918 -1.233163458093293 -1.594462797966674 -1.728622874056662 -1.513228116728541 -3.200861053675539 -5.711441663676422 -1.871502446397458 -2.973163938508697 -0.6140578565043044 16.17478030382953 -1.510474781522926 -4.11269049063605 0.2298096592196969 1.225217900608647 0.4717034123011421 -0.437618656058843 0.2141056804636473 -3.048160984341236 1.32682805272524 -2.214270182606075 -1.396530255700904 -1.231903169061527 -2.851052494923176 -3.755518898397963 -4.728348685453471 -1.428451990021005 0.3868382631087933 -5.496284843072718 -2.100611227266798 -0.03052892014820887 -1.363510693686586 -0.9223044428260553 -0.001881055804711857 -2.117257250845565 -2.518459908116788 -0.7993649306787186 -0.9822440294998985 -1.482856421032963 -6.754406102905406 -7.068701375512733 1.690479727947978 -2.081778449268355 -3.022148244247231 -0.8361129965353058 
-3.426072457245418 -3.048555189309623 -3.047331347813011 -2.826051000789368 -0.8800785083739823 -0.08566416938139181 -1.996571423854501 -1.513569599827543 -1.435170563061844 -0.7415502089114686 -2.347195594288217 -5.150661702091838 -0.3419306736502025 -0.839646790834423 -0.952677414320623 12.16514638342297 -0.5844613560336329 -1.233211542806954 0.3422695658585606 -2.524370079235513 -0.6041621888612762 0.1034185051361745 0.04999750321652795 1.840935811794076 -1.261300757618187 0.6727278230608716 1.150581732562153 -3.220828132878571 -3.871878632304081 -3.618349975441406 -2.346247730927825 -2.348974594592713 0.5238312771780813 -1.593076471623918 -2.323808019817595 -0.9874792137961259 -4.479345997704126 -1.305502226391817 0.8997162855465843 -3.361621560006289 -1.837664207408612 0.05468416200538308 -0.8546819108155929 -1.837749681632148 -5.247695889416202 -0.007256763239985744 -1.302508908709039 -2.413958297670558 0.7065355191779296 -1.204909324545643 
-1.741218987036223 1.110216764941502 -3.259311511664369 1.259183687179121 -0.6602221537410777 -1.551595429331779 3.30974798453239 0.7428457994752369 -0.3150201588527179 0.7468129643601982 -1.068891132841853 -0.6702196453656778 0.8191723398545283 0.05442578257551467 -0.6500716121462706 15.63962739008662 2.67123455953721 0.288859731509987 1.568137619350389 -2.599662423267331 -2.234212888451209 -0.1281698246621024 2.028420048970048 0.3048247924309154 2.356301327768921 0.8374972080834314 1.535196061365196 0.1657101985265501 -1.655944957965872 -2.382262365144267 -0.04830525237189846 -0.1100620180200202 2.158446578953523 -7.766451099613939 -2.022865762499764 -0.3625777610638993 -0.7033146167880916 -0.6217358862523069 0.2672945332453723 -1.559763278588226 -2.735189386789286 -0.4845747412242938 -1.52599226038798 0.9341872212351093 0.8769624717647369 -1.046016489566919 -1.016244891275678 -0.03364539577922586 1.436935279727913 -0.2389382539820298 
-1.48785314733151 -0.2844209393803662 -3.599713255428305 -2.841318227677722 -1.044899398423079 -2.784635534315035 -2.997497833127106 -0.7570290559385275 -0.7455012525519421 -2.859804642323345 -0.3157242494682812 -1.321672442263965 0.4877943463513007 1.362018083755186 -1.276835823972722 19.81168049684353 -1.668102410733072 1.722029493137246 -1.045240000727557 0.00398651664229371 1.454460767145928 -2.68148647541678 -0.8939658558471172 -1.599984964125883 -5.825841072684067 -1.687419373049067 -3.580210714414629 -0.8789134387044666 -2.140920129717561 -3.048849699814391 -4.523131118021828 -1.142412088696315 -5.553035902068174 -5.666633581478089 -0.6715578033913469 -0.9168366727387759 -4.368446437490959 -0.03687935587303579 0.6573483439810671 -5.232331794818457 -2.769100071178095 -1.871239723264974 2.345242330304687 0.5922321906722773 -2.569717183372046 -1.323783015505676 -1.220157567750485 -4.752394970957857 -2.804646809450944 -0.8763783378270378 
1.17424389404895 -0.3757695119856147 -1.130898715864902 0.43456287195654 0.6039402987620436 2.122244476085745 -0.213257547574237 0.9159911530107208 0.8055783964802523 0.130849099533061 -0.2746533149105262 0.08366507931658908 -1.062610102672122 -0.05848417937462942 1.447021187014352 2.537791690184098 21.6040714051952 -3.069199441954241 0.8818651706467125 2.807176273667719 -1.707436816884222 4.188691915074104 0.1308242323494216 3.732084308686422 0.172576429306364 1.524300496203502 1.359828827993255 1.496576531815099 -0.4927531466441643 0.709139996057104 2.666369627770115 -0.7797375516382347 0.722380208052016 0.01181224288415449 -0.1547063216181487 0.2863375837586249 0.5037724493138883 -0.07585491559779195 -1.226481849625993 0.7332075327004336 -1.418473882371642 -0.2264206639375742 5.850384031231697 0.7073678248857925 2.691783369868038 3.054664409442198 -0.2151277678079304 0.6324702385116656 1.761624080156419 0.2798718085156631 
-0.4744479378521911 -3.75747563694565 -0.7100315019038198 -4.886925422201752 -1.561911164103813 0.4610334672068439 -2.597158803723525 0.05935301650056621 -2.147536035842879 -2.317279741578156 -3.019390482525698 -1.271864744081718 -0.979753770761688 -1.979475360893259 -1.35852149758632 -1.802318538684642 18.18271186660832 2.46412693409334 -2.194842430133243 -2.005346098102779 -4.406463013763112 3.213307313797923 -1.55118770326469 -2.424677640618585 -0.8014799198178483 -2.442064337775065 -1.054481805205305 -0.4896943933328179 -1.825603057428443 -0.6835949624736632 -1.096295574737376 -0.7438447410013579 -0.7397654659355474 -2.1201410135584 -0.7465905935623132 -0.2049564978274868 -0.9408580493519124 0.1127080302410098 -3.156466291685243 -3.634609258671007 -2.419149868854375 0.5569694661526796 -1.109878851141913 -0.9147086153975069 -4.428295476469327 -2.842288090386737 -2.397798674014233 1.502001267503041 -1.693627686771693 -0.9989421452616981 
-1.33007906412157 -2.475441063008953 -1.324216723489641 -2.896253253397844 -1.438973552957022 -0.6945717260761713 -1.627162189017075 -0.4670957720745558 -1.684291758617765 -1.604646815986557 -2.397807548261335 -5.565368366692308 -2.258107755013337 -1.871804306772124 -1.114326545680654 -1.938147565096027 13.62949583689127 -3.824664302772112 -0.3835726915522644 -0.9077752949426496 -5.30874809957839 0.8412050557968874 -2.762069555681258 -1.665201723912222 -2.986923094591033 -1.273797544483877 -2.411144228972329 -2.516170262887487 -2.607138358934139 -2.595886801175522 -4.755471866135275 -2.31734720452549 -1.671421389924981 -4.02121586900769 -1.936171428052522 -1.166965812522714 -1.767147142618058 -0.9352708695541156 -4.855925692020002 -5.065892926610355 -3.349899115060274 -2.215960616726936 1.018992588020075 0.1986427623584815 -1.621835298290514 -0.4256508161192523 -3.948167658518866 -3.492404128945953 -2.305379585688824 -0.4272354784510027 
-0.5511926645401928 -0.8116273466417365 -2.360055274607815 -3.575446199505596 -1.477604852812078 -3.593588267331424 -2.204075470439744 -0.8851765095471947 -1.561783242932514 -1.739251539044791 -1.490612008027376 -0.8950580433244165 -0.9100866052706532 -0.5283047036281231 -1.307597899910156 -2.611409676775966 10.61446503028464 -3.13841436290819 -0.5940818212827027 0.6353882384877868 -7.552974464899204 0.7249339374466189 -3.458550093648189 -0.3102322958923617 -2.924613144732031 -2.177328338775386 -0.7119378795451895 -2.529819324207047 -2.537392787103328 -2.068882916360355 -6.2668958546239 -2.90189716490092 -2.341701258976919 -2.766176228083997 -1.529959781994132 -0.9998435825546466 -2.276424242279692 -0.6725249573854789 -4.098583244074503 -4.680944049232044 -3.083013494626592 -2.652485065657744 -1.175860075797964 -1.281546947009977 -1.130532594371349 -2.332617973757336 -0.1061490585259737 -3.632356667757052 0.979293783138551 -3.524680601342551 
-0.3766200392373401 -4.873549775017612 -4.360555774971748 -4.419629070718444 -3.32860258880567 -4.101387899209179 -4.066839821597532 -0.728871717882808 -5.033956284568927 -2.903200109587447 -4.117247254361756 -1.55659955509659 -2.849612805493102 -1.052826030336748 -3.805600082533659 -6.20303145103435 17.02577994139875 1.193738495634399 -0.945971448369655 -1.742282422094767 -2.644705829190633 -0.8535789412047761 -0.2917041991900087 -5.743249633178982 -6.16324499322779 -5.421955978120742 -4.688503240645709 -0.6659254651935675 -3.852710129515395 -1.820470165453069 -9.490037014142541 -2.673743455344597 -2.985155525635791 -5.510741232892775 -1.629733383129458 -1.294991476812284 -3.183495073093238 -1.754419137938633 -5.277342709933817 -2.658642870500258 -4.936067474541474 -2.461508876747905 -3.467666173167392 -0.3824062014199372 -5.3414573595121 -6.391874038109181 -5.403247640330489 -3.787017306129538 -4.685188701273474 -2.739334680846206 
-1.079273643096992 2.184579534867567 0.2341382189826335 -0.9628092860775427 -0.1173046734362439 0.1663068688574711 -0.4233980411405545 -0.1587932895851014 -0.1167130208484402 -1.587027751122899 -0.404863219177212 0.5719046547288409 -0.09974122877063704 0.280109219452355 -0.2015184159415676 -3.334915965213563 -5.264262835593626 13.86225038899857 -0.2948536786798895 -2.84617416075413 -0.9033767770253521 2.461289360750422 -1.838892566784653 2.9778181478312 2.725538806534527 -0.5911855218048138 -1.454552455983618 0.5767356399254696 -0.4143465824771876 1.594336333922499 -1.228009359525445 -0.5749516983724711 1.037334586807927 0.511010664381177 2.051777537963462 0.2323812954988042 -0.5477330418676126 0.2883871369875271 0.1729972867725478 1.821098916426542 0.6252309383493238 0.5831437861210992 0.3814203026483444 -2.254228693909007 -0.02324038187827246 0.6622083126977484 1.177515133964242 -1.185074364289017 -0.6740493765198293 -2.1963869051517 
2.025623834336402 -0.6161217807867992 1.57099261109419 -0.9604376231691244 -0.7009073626779542 0.1565344081414096 -0.5256152251128621 -0.6990338468489795 0.2602285971650984 -0.5192301971400227 -0.3906802375398705 0.629254035203219 -1.488330073013941 -0.2340345602952232 -0.4524510710959734 0.1665464205906328 -3.826118343121775 26.46946114225147 -0.6644955946746224 -2.196907407478751 0.8488717017987391 1.80647888527605 -0.9919890396153326 1.969592320092791 2.329406732590425 0.8170355448592848 0.7765303627042761 0.1644786842497728 2.106540162233791 1.523652005418144 -1.234554714269455 -0.1921806789355159 0.07225224174391172 1.521373590029264 0.4181281733363738 0.5625374086968895 0.5432699940214131 0.07996301656834634 1.706824726478187 2.754880092054824 0.6352934649869114 0.8944102577106591 -2.71632009002364 -2.669757946801431 -1.034967940837192 -2.60822041946823 2.858372747488397 0.8365514776769345 0.1146728524337075 -2.216098046002974 
-0.269426340538631 2.468316648486904 1.893578369623554 -0.7935726434917233 -1.175136299521698 -1.997091845961139 -0.2586639347309537 -0.1894892026057463 0.02514348572920405 0.1761538849590215 0.864948988777152 0.1612654059962301 -0.1147772243026796 1.246079340970648 -0.2764625981356001 -1.688498419869331 -3.095606085277801 20.36470369634037 -2.294035049271808 -0.4795086413439152 2.329431035669363 3.80538413061712 -0.5912801807027308 0.4051125709798405 3.512231341858997 -0.4425056359911098 0.739133120826969 -0.8973288496979477 1.5034895874448 0.9389732738659651 2.321410968547868 -1.055872519993929 1.899656547649633 2.339307458038058 2.754558603216463 -0.1669709859940291 0.9993456392174506 0.2246219390442195 1.880935995265232 3.532063946323996 1.267653323113925 1.172909767021284 0.8129137449881925 1.447992922050555 -0.8837846416996499 -1.268087710873783 -0.5879170170762821 1.441686193135916 1.485669180128488 1.079462434153718 
-3.347893217821484 -2.662386085554912 -0.1092405647338795 -4.29081572034149 -1.714140950356379 -2.084540672244668 -0.756751341683005 -0.8683463365885342 -1.892450309220707 -1.588076564741824 -1.640945409094433 -1.319310511690112 -1.286620549934923 -0.162039616046434 -1.150564188298457 -5.138171825343025 -3.698842542226363 18.55590768812704 -8.907314518447798 -3.601634275912197 -0.312793230213469 -2.795813509970996 -2.751743984209591 -0.9749748549094869 -4.054841111641688 -3.617668046656724 -2.780719805701888 -1.568716007179012 -1.58621338146842 1.823418581487642 -5.457342362237427 -1.581066463933918 -0.1069535966437641 -2.440585096542 -0.6138587712231369 -0.4404283240359465 -4.668083037297933 -0.9775685691039178 0.2910374461946212 -0.2087209145873289 -0.9354535299960064 -0.5066435775397358 -3.404693417540277 -2.160594374398511 -2.593533175290722 -0.128781622353363 -0.8743433898729557 -2.424725916724408 -1.344697658126418 -4.229688694899266 
1.995528155174174 -2.00547976379884 0.3219402105470613 0.4376120886704729 -0.7268699965374783 -0.5403235391855858 0.2366147345479819 0.3328459769049917 -0.227487538148659 -0.1078318181919243 1.989885136382911 2.228444874621775 -0.7926298594390188 0.6631050921966921 -0.7694773158134312 3.855236752177797 2.570944024461838 27.39800787806169 -2.391410549636268 -5.11149107539992 -0.6278053729304035 2.888311401782601 0.7567199204303902 0.7757328851430652 2.304002935533275 3.346783950533329 1.227465758723057 -0.4921081083640488 -1.508134710173565 0.2855696841552125 0.5594212979141669 1.275210469633128 -0.1388212079435495 -2.144906665573102 1.300522458285834 1.002527575586397 0.2591355284713803 -0.09626030673014969 -0.8064699589901058 1.088695907583559 1.28751780036394 0.7611556599073217 -2.421484443279885 -2.210414031286637 -4.172647645152404 -0.7966341865344589 -1.636203494186365 -0.2214601536481983 2.865097115366159 -1.051960733961218 
-0.536201584262167 -0.4267512617079698 -0.1164935194242699 0.3621536581465341 1.126018064615899 -0.04265751994385986 0.1407564421225813 0.3459587796462697 0.49005843674437 0.2281135011110831 0.5053165421640016 -0.1264853635146914 0.4312304299714593 1.903777129409422 0.2014847144202689 0.3972054747844401 0.3000196965561888 -5.398793135121009 8.42729025368485 -3.126945903827967 0.417688773609406 0.4369069890486926 0.1973770238911784 -0.2882581802718435 -1.690027873557492 0.9626395326855248 -0.462566565324805 0.8818329148076632 0.6841653686373212 -0.3667357001131183 2.470751541835787 0.8289675147252029 1.556012294357852 0.1505477416599373 -0.4215264852461381 -0.3750065540440047 -0.05683249504298156 0.3286300786474586 -0.1084133614010632 1.294077013627427 1.269025953451675 0.07331786651550522 -0.7403248189139248 0.3248074344387051 2.198034583863512 0.2559536688060797 1.104728748756524 2.478016688204868 -0.1542143847533105 -1.878922231863645 
-0.5848839877648658 3.106812497901038 0.8325050711390235 0.2190533403683215 1.142558295592978 0.2579979637930243 -0.9515701553039302 0.4054651418706704 2.454233980617166 1.042903522774163 1.032960873690898 0.9327351350419357 0.8916690477011261 0.8620005480124479 1.127028280514662 2.294270672867524 -0.2569154349741015 -5.695871741724877 16.76270490663695 -1.622078601244424 1.919586860199632 2.767324003712366 1.742682966011722 1.357884332547241 3.702932983940098 1.252340206659531 0.1115686049099624 1.353607484720011 1.165503769294068 1.20568993860996 2.635418112536879 2.393733359335807 3.588888009014014 -1.077339361100577 0.4910919218664567 1.284984308727237 2.042352254347394 0.6561013949940105 -0.7605258217829882 0.2362167313099512 1.033521709995173 0.618319659971369 0.08970827465921788 0.8327539336877722 3.854613831370681 0.5041199665779906 1.815606487595067 1.854825730845942 -0.7416220501409468 -2.70234269061914 
-1.777445537409429 0.7951602461184158 -0.8465274988036678 -4.300064346287608 0.6056654655431088 0.2641071652866013 0.4940773813972336 0.08482291337624182 0.4566419151167431 -0.8499982575514978 -1.673837091716031 -0.1934497505158188 1.499414998466303 2.876536861306448 0.07201244646927443 2.032237944767768 1.006400375446564 -8.30550293439503 20.33080710640657 1.132442226929791 1.220023968683414 -0.04491232257060819 -0.1900817494401648 2.02745923373823 1.244742356323077 0.3529661427314704 0.4118164955360467 -0.35499021060623 0.09407241841219945 -0.9314290514064031 0.4299946355351924 2.226664304643595 1.715880367792402 -2.930999964066472 -0.1758372612845877 -0.1311115592425155 -1.188123647440962 -0.191496081119858 -1.922556678449827 1.300159459447151 -0.2703449550736555 -0.0831031008197141 1.993719045077037 0.7360890525177523 4.470959072042565 -4.08922974310916 0.4451701068115191 1.404473058248146 0.5835067965698765 -3.301299927778433 
1.613535732768662 2.179943309566318 -1.330089956832625 2.707273336694199 1.194934793976232 0.1512842597188309 2.070866178681849 0.2674742181744871 1.002654734085406 0.4064748972202779 2.002847290216628 0.7810062494209198 0.1374570133160493 2.86698980845087 0.3796336107838817 3.561645107017164 -0.3360166193578139 0.06195327701500772 13.58485129894194 0.3067287200820591 0.2960721444944165 2.962169437846979 1.462799119431442 0.9092836974882237 0.6653301342989237 1.649084901700991 -0.0439321199318323 1.698029547770537 0.4522025942608777 0.2640951037244265 2.690469366221449 1.685717400880473 2.019097514043525 0.9970939503184434 0.6963361307132757 -0.4695756649158808 2.274296525537087 0.1832088589205988 -2.378695220789683 3.0820272352049 0.3467857251585671 -0.7173420246328458 1.707289343072946 1.344241462770016 2.090192300948174 0.7785540181655425 5.136883098994098 2.250165531447043 1.331220568859133 -0.3449996199261877 
-1.571732180576231 -2.940523977111188 -0.8981129246387392 0.4651234049011106 0.8658344964471639 0.2926435074826304 1.460254272341541 0.6180719991702412 -0.6308559903123649 0.411103142868252 0.6951678997859623 2.283954644745449 -0.5672458712278245 0.06947019733980736 -1.157008085192397 1.552023156814439 -1.748441945595707 -4.116964041902727 17.45778850753149 -1.897624641023511 1.925360412276077 0.2647380323794467 -0.5098351788650067 -2.316169782242167 -1.381235469245161 -0.6520072446809054 -1.316555663499145 1.438206495406122 1.450642531057825 -0.8216162715099892 3.063145658724006 0.7639743464090958 0.8952776338710091 1.094670394238695 -1.024795042511883 -0.5538196901553647 -1.663551468071127 0.09061615577279915 -0.3979851790865235 1.776174293610151 0.9601122411993721 1.48005569227764 1.482748530212681 0.347658907264981 0.5838822512137294 0.08382599589154872 -1.469417157982849 2.256464601147881 -0.2623222162437164 0.7125550907499681 
0.4398850237046967 1.257585434142715 0.7084302830193715 0.5967717968832636 0.9432883497822553 -0.2721684270181012 1.654870721101745 -0.3327334290898712 0.03249072237236551 0.3485508216532145 0.8675069094007762 1.090062274794513 0.8489164410867555 0.5461410852487237 1.774026516121567 -0.9359102868119534 -0.1241091853439465 -4.751753757457762 -1.805529213299879 11.08860017998557 3.057929148723481 3.020372536471293 0.868090581627508 0.5678625799144756 0.07321556501640962 2.042383865290542 -0.1159689066490439 2.287753731256839 0.1490910411298638 1.026134911149284 1.733192603065513 0.1934151804319369 0.2432969082869907 1.925585538901634 1.072376987134722 0.2590783933062628 1.093437978330921 0.8160712485671526 2.107940033025219 1.678857927876194 1.57470060423273 1.131879334214056 3.325711731836758 0.2700988026802727 2.074754057999781 2.261742935913277 0.2989540745617659 1.270072677762339 0.6289611807983956 1.964409014783661 
1.825644600638834 2.301811881084372 0.446945139860943 0.8667199465248984 0.2824469464744949 1.108432482222724 1.453353981764805 -0.03709086384126872 0.8804309101235213 2.462708481260498 -0.151547306701076 1.65839152131646 -0.6385437867494531 1.516923926062522 0.2094173688840578 0.5554579262183256 -0.5592539132965139 0.3327796526681369 0.2673870192718005 18.38046880316422 -0.3470220312410569 1.866043666266602 -0.3494911560959992 2.427386742149448 -0.0221195130185306 0.7314255613093416 0.9424938090023902 1.554943741129726 0.9343970830326992 2.224391064625675 -1.346110657259579 0.6204189812123226 -1.109516353873162 2.709879432880808 0.8642025893073367 0.340422852873528 0.6294457140174112 1.062814662727505 0.9966720717079978 1.431825735519849 3.010311370400125 0.6849100599729158 1.615488946509588 2.78219777173432 -1.503406162852465 -1.526663364469242 2.216444620775676 -0.8325927313679358 0.2399509761551575 3.343153369002926 
-2.378213320739075 -3.473693802135954 -3.24443402614587 -5.628713147657018 -1.872016473540232 -2.836374174693772 -2.131755823818867 -1.019525810055697 -3.394731040381997 -2.482450237892563 -3.170220651119223 -2.691387837750769 -0.8933703314356295 -4.793276799387727 -1.263721322283419 -3.296698716406888 -6.004332450834612 -3.733244924217507 -1.205979316244618 15.37319045083575 -1.231291328886713 0.7259746749323651 -1.745265333824896 -3.663536411530698 -3.357540588440838 -1.063492613396722 -2.199171319195733 -0.05614646001681631 -2.049842789185828 -1.334209309659366 -5.70806323097989 -1.469357481262467 -2.801198342835455 -0.5830058418033971 -0.557712850260412 0.02229199301089386 -2.953825630550079 -0.7494737107455243 -1.023589091564696 -1.06198095872446 -2.308875387134897 -1.195314115887347 0.1649960376460319 2.001731701510372 -4.191185866610879 -2.338378194726115 -5.308500489928476 -3.909994588104774 -3.177040012829281 0.1855309268021847 
-1.15904239853188 -2.161055169903462 -1.533896406943521 -2.908731915570212 -2.077169226116805 1.40291999624876 0.6347103087825553 -0.3956327820833855 -3.241728235166595 -0.6827165092992593 0.2555508333816864 0.529482009033819 0.4616799483072605 2.084079126990313 -2.261999066141811 -1.712034561152484 -3.888914626344938 1.218549405596647 -1.031104546986358 14.50679377572757 2.171818842640402 0.3175281783201696 -0.03335603686836251 -1.987339558754618 -2.132149591570964 -0.7233911480818038 -1.284881782792034 -1.928501934438219 -0.7414029065841907 1.5448678650135 2.756674962037751 0.4311220678068458 -1.460397414315606 -2.261765467967471 -0.7856068940543196 -1.562120944900946 0.2827045271126931 -0.05451240730236379 2.056385892996019 2.889598969372773 -1.36584800172722 0.3661726593944904 1.30936259726908 1.007940907043986 0.3372582939516621 -0.9004446690078288 -1.453513066893428 0.01853665427343712 0.8443605627080584 1.487099362883663 
-1.880444342118591 -5.273571415924653 -3.063001464448226 -4.108953185524861 -2.438648380332947 -2.779730779624368 -0.4741819323532314 -1.647259814397781 -0.8824242252268326 -2.019839411405981 -3.351307630259393 -2.93476620480397 -2.290327028945194 -3.946348891791732 -2.123885960251931 -5.43052191470923 -3.142879657572717 -11.91890686750122 -1.484494472064655 16.69745751675097 -3.135837575615456 0.601320410641329 -3.0127191903708 -2.261750443089204 -3.738460418727362 -1.544934139821126 -2.620292642777733 -0.2033371123457404 -0.5939944501299077 -2.019896913208949 -6.162017006246685 -2.159414005258485 -4.058396971457674 -3.167145049764971 0.2873872944163043 -0.9465922774893998 -3.48504838549919 -1.050816606733176 -2.105597459134007 -1.107785864670854 -3.716803534516089 -2.144174288382871 -0.3061060894078872 -1.724867238591776 -2.508835898347915 -5.498798387166606 -4.511990141389092 -3.114595876731595 -5.270104057234594 -4.504539167159345 
2.123558134967005 1.303011801695621 -1.713631815936439 2.066596064284865 -0.3028278328664687 0.0005256468630307481 0.5172999935079746 -0.6793284497531002 -1.073202085722228 1.498924785323732 -0.2448344189255328 -0.6189281766727696 -0.4783873067535507 -0.09409323323766915 -2.447611775897998 1.959512775755044 -1.09837210280464 3.356213394270206 0.9780616806692123 1.907526186987611 13.70980580231812 0.614031556828607 0.1528038091684254 -0.6678807247488268 -1.044903643501872 0.5017014886895153 -0.8707126726112481 -2.79815923195384 -2.818956983774464 -0.6621705103567123 -1.523889663750963 -1.053081093500752 -0.2804249482334156 -0.4423448552341483 1.217943051995611 -0.1856343462889517 1.579825068050535 -0.5030947310177805 0.3843146552772521 -1.011674067985679 -0.8195513461053875 0.4385879350381163 -0.1874128936478071 -0.7020559678289309 -0.2139665952366286 -4.605150409219821 -1.759702204872962 -2.245271705365624 0.7639811815016457 4.363105980495313 
-1.835093553518212 -2.141796690766474 -1.892430713210977 -1.960900022926739 0.3307456098169988 1.985588922928435 -1.214467823104833 -0.6089893992412392 -1.266591566991625 -2.799641978400229 0.5890567261694938 -3.323546214273257 -1.043951960742682 -1.594822666361009 0.4133426564650958 1.010132526233102 1.046441970085671 1.312159243002803 -1.980556887667363 1.272300219594529 15.07449545356582 -0.2510349586315863 -0.4927385873948915 1.011059893641779 1.457705362285617 -0.6090675538538507 -1.45229392389714 -1.796753962781599 -2.37555506866469 -1.614924528558928 -0.05709548584012908 0.38708856658275 -0.0358235025723971 -1.838554398304575 -0.1267093075019766 -1.193018938837501 -0.7489938137528646 -0.958228193785713 -0.7195324673881037 -4.395090321496311 -2.11177149754554 0.1788201950344634 1.471179511355295 -2.385716998392901 -1.768820166950944 -1.319016341521062 -2.10914961748723 -0.3119022028327212 0.2460998957963361 -2.300810634856974 
-0.07891202907539528 -1.452478954648351 -2.198883388816796 -1.537420702677431 -0.7865238649764592 -1.012482159923819 -0.2962244531124953 -0.792550355917777 -0.7393071944716118 -0.6975093898103624 -0.8214949935049788 -1.774859412701865 -0.5719298039695726 0.5329724754384265 -1.173008018287921 1.166799326746095 -3.283586703962356 -1.205070606713697 -0.7080868421068178 -4.039781458511909 15.29871635415097 -0.9415692709196057 -2.850540648178364 2.261557908343029 -1.234421983120668 -0.2347238610274347 -1.470962434078741 -1.42782502438726 -2.078794841082913 0.1122367339137726 -0.6527760097922958 0.1547046392170736 -1.325704139787165 -3.95288722190256 -0.7464668835502888 -1.000921750743757 -3.592167546752417 -1.457169409145385 -3.164285288549286 -3.112760558554792 -1.904050226080753 0.6488192036849587 -0.09875864261106518 -3.958283856333023 -2.350702860045242 -2.473739179018931 -3.890810207277945 -0.9532510458495204 -0.2510308279579522 -3.512905388574346 
0.04513789591410848 3.584959653446517 -2.61964581459755 0.7565652520339696 0.5662458759926691 0.6590509360888235 2.312986692709847 -0.1197230222720563 0.5056409864704953 0.7515263616202206 1.472200997247957 0.542802621598133 0.2923319816505536 -0.2562851123453901 -0.1587100742591946 2.965891304002891 -1.470398183760832 2.906286230408306 0.9551436039698472 -0.6361258648184154 14.25369818926208 0.1416563657391365 0.8816722442787046 -0.7820854777075928 3.553821261503586 2.107552471269259 -0.1947390739247234 0.5122008670616633 0.1426279179927791 -0.2955170112212457 3.195553402702214 0.3092333090749008 1.052409005481295 1.416779920866916 0.3296646988310099 -0.1717520007195478 -1.0407991396384 0.02932549239557938 -1.481889336947409 0.3060065864308155 0.2960621925991702 1.838647218567758 2.963275853831453 -0.03291424122451286 1.291069501147303 2.099568912015913 0.5776912160275881 0.4699022241132916 2.518186149780777 4.672040675349738 
-1.362091716205567 -0.7241379972714087 -2.473638366543911 0.6318347558446231 0.8617339169435314 1.770005143962149 -1.430254476982481 0.02111491233096067 0.2702175404988383 -0.3143860928968241 -0.9280406618288948 -0.3507815724402555 -1.765859392690842 -1.519814613694733 1.276760600795525 -1.340059853766594 -0.4167029132985712 3.997023549916674 -0.5548888988295246 -2.364243669845342 16.41187746864978 -0.9133851368213245 -2.021947744027179 1.657778097729908 -1.818790850583585 -1.212515074382542 0.7471764910140788 -0.9515505961992206 0.3470247960105207 -2.701305260767694 -2.398703185224063 -1.239894246225734 0.8215465983900306 2.236581867188933 -0.558208019861961 0.3055417423214411 -1.347007531097669 -0.5378012461603483 1.519845241660733 -0.5161065523936743 -0.3550003744965432 0.4960803045552446 0.03086973790528433 -4.099902901932589 -0.273899259110016 0.02560684254107421 -0.7361179733386021 -1.458267419868769 1.652937133558598 3.703310056583462 
