solver_type L2R_L2LOSS_SVC_DUAL
nr_class 9
label 1 2 3 4 5 6 7 8 9
nr_feature 14000
bias -1
w
-0.01503348962988148 -8.75019456553945e-005 0.02382539070217267 0.001792079010893964 -0.003444861432144775 -0.002189405361205087 -0.01507397238531362 0.00529783169141329 0.005054058235947089 
-0.01733189784973547 -0.02128240974490878 -0.01616826953949451 0.01368544278331773 0.03456100047900336 -0.03843826828893256 0.002497548147377399 0.003719535340494332 0.02420384993342696 
-0.006002020108172321 -0.003547894852922344 0.005452953219286304 -0.007179031237375549 -0.004642719281400917 -0.002909386756008112 0.004744455784147364 -0.001061211126535791 0.00513593400723943 
-0.006287843447205394 0.01156465146595961 -0.005373251756641296 0.00567944864312798 0.003029166905582217 -0.01387724765761372 0.007415847444773801 -0.006141394533579868 0.01012894610220279 
-0.01858582705283098 0.004897567227004214 0.004363430075271147 -0.01248081537942825 0.01312499939390259 -0.01630639536426461 0.01952012342713373 -0.001951705732467206 0.03673935947297299 
0.004994973523893389 -0.009351363943746169 0.009224408315282451 -0.01676106871057826 -0.000586058364009305 0.01161914600437817 0.0180217748311127 0.006195427638529712 -0.04513980201013251 
-0.02048980423312887 -0.01748773169465935 0.001580041486189476 -0.01152273750032147 0.03191697000170896 -0.009271095528229769 -0.002698982725796087 0.01049131563545445 0.007099811808330936 
0.0140650019452065 -0.001279273630122463 -0.005275967978939009 -0.01061635519031141 -0.02004434151164918 0.0129317180777236 -0.01312071281724401 -0.002140421052320919 0.02618195074093596 
-0.003526267209071367 -0.02269723270369517 0.01543512656827682 -0.002299268611973346 -0.01896280391160087 -0.002020036385783955 0.008317574227749919 0.008562588186321659 0.002603382010413937 
-0.002414444798613625 -0.00854902771363078 0.005651932771025632 0.009426283992697253 0.01199209817720479 0.002124919347140403 -0.005989951872937639 -0.002056687937508872 -0.005540076626864334 
0.02497116888914795 -0.001516075272218653 -0.0172725333327833 0.005016882527289961 0.02337626201621138 -0.02069549930608992 0.002139879982294983 -0.0082453762834712 -0.02350122346410164 
0.01758210660853809 0.03248389949095122 0.001684262995166602 0.0002847047123899027 -0.03358488003558177 -0.01457645207301828 0.002774079456237202 -0.006136969974473567 0.009950729837449475 
0.0040868266879008 -0.01404184980024794 0.0151641879831647 -0.002338543869816636 0.01399222774976955 -0.008774790252340535 -0.002429211670224263 -0.003644262297584759 -0.00500122375028625 
-0.001044958875945433 0.01088202825398914 -0.004008436743920652 -0.006625787351416457 -0.01013319424471879 0.007310124742276647 -0.02670126585700633 -0.004861399921736276 0.01176070837159034 
-0.00713547010480089 0.01814959077345066 -0.0108754936316035 -0.0140785110283072 0.03613073117626708 -0.02037701668653456 0.01801861551857316 -0.006834372245208118 -0.0382029208979122 
-0.01363223290191881 -0.01323342580982702 -0.001369810983337294 0.000935101319001605 0.0009294974781801094 0.01587316707524909 -0.005751433070583117 -0.007783805420096551 0.016207963517955 
-0.00385736804920264 0.00012030521415811 -0.0153520268680377 -0.005677346770969629 -0.01550683679482126 0.004725666989260639 -0.004764516584414297 -0.003765909741428999 0.02711310855304304 
-0.0006385269843124798 0.006504525230921679 -0.00953801333733412 -0.003098608396663405 0.01508463000826239 -0.01445486090021276 -0.01148623746013902 0.003170841561109797 0.009214612268088921 
-0.01433190162596219 0.01679302920396802 0.009993380757479934 -0.004032243717364152 -0.000528751309993128 0.001925951974447483 -0.003646507294018664 0.002509824332754204 -0.01011090491828541 
0.008509144380288774 0.004907438493112987 -0.002383693233700775 -0.00819607540901959 0.0004784162933895078 0.006228051090378634 -0.003272915223767053 0.0007487665254669801 -0.004623324422649766 
0.02849533713497563 0.005437148195458514 -0.02825311741107359 -0.002769006690464787 -0.007728874720317813 0.0003849051440313995 0.009305376627110564 -0.003458463259294714 -0.009637059641432308 
0.01291495760581136 0.0009523930179818406 -0.01464253854422149 -0.005605540352782465 0.0293038136453298 -0.03475897195267 -0.004252368110833551 7.987251557316872e-005 0.0140373516574934 
0.002816026287133748 0.02149085820333196 -0.005301272047124652 -0.009357112868748085 0.006527635798815902 0.01532081234576266 0.004615051658522978 -0.003240955175209356 -0.02129041226635302 
-0.004418000577494851 -0.007142784346832947 0.004587393214153203 0.005303939225274055 -0.02186478982329232 0.01273324630699037 0.0146790025413083 -6.446130788092341e-005 0.006310687564751309 
-0.0002790380322675605 -0.008075329310355036 0.008148928072538334 -0.00730405487583071 -0.001031123931627731 -0.003927157757795083 -0.003813600851894343 -0.002573931800156523 0.006768593970070351 
0.009072816002993884 -0.001388338551560893 -0.02206655153685647 0.001208018057186861 -0.00587429322348239 -0.0005845755231934951 0.00196196485495693 -0.002766843024319495 0.005314149646139877 
-0.008837578848787922 -0.02165716308158512 0.007162045517780339 0.009381229424421891 -0.003985861703987336 -0.005912261374237809 0.003461147129785949 -0.002537030231826317 0.01600643905919332 
-0.004652713600596422 -0.01985972005938545 -0.005327019374393018 0.008956389062854573 -9.154164401562158e-005 -0.007278883198729185 0.01437164185585696 0.009836967024954837 -0.0003710118135034625 
-0.004390448106996326 0.00942776855839242 0.009374814302547408 0.004877700728030722 -0.008590231799472109 -0.01090212490374939 0.005271532962464714 -0.002155581757089089 -0.0007417607694779094 
-0.005588727895611066 0.002686227939701446 -0.003787655216859145 -0.007990043023887472 0.02247626904274823 -0.008956587688198254 0.005841950132572592 -0.00178354427407091 -3.948235436180033e-005 
-0.0007486301302310138 -0.004954330495293503 0.003783505725279553 0.01454351018468901 0.01438728005475499 0.005782300144089671 -0.0004749333041498125 0.001677784629490194 -0.02815431224191668 
0.003705264694400072 0.004666701561265995 -0.001620039719689546 0.02202875718074421 -0.02263697535227953 0.01155596462619899 -0.00509305107930519 0.001662580275163466 -0.008199434148423087 
0.02067835804253872 -0.00785605422282493 -0.008356186969441948 0.02626748422265204 -0.02229449999761625 -0.007518477558682946 -0.004210058538394261 -0.001511064601115993 -0.006594773657560132 
-0.002817395651910205 -0.002561260224226 0.008573581544328303 -0.001515347819948229 0.003672305068612878 0.004924348504663584 -0.00242926306341463 -0.001443824394453941 -0.01906341945148956 
-0.0002520688992983829 -0.007814301909584384 -0.008022073345574867 0.0004210617647080141 -0.003620098215592658 -1.547232328337133e-005 -0.01376349075041994 -0.0009834178686262034 0.02794749883833848 
-0.01186366639395004 -0.01163341088236202 0.0117493817644306 -0.002998593070792548 0.01009250781068696 -0.009389359839850472 -0.01216796763195902 -0.009345589379402922 0.0225375964281133 
-0.001883669592281763 0.001736465016260051 0.009968014431291458 -0.02982174669586797 0.01037638066113208 0.02594954253425446 0.003615348198677776 -0.004845955478306938 -0.02307165319670656 
-0.01568660588090515 -0.01418351172130509 0.01948751277754539 0.01644769053116069 0.006384830419784155 -0.011048654406382 -0.002073605627593987 -0.005348118578323605 0.02811660381173071 
0.0085981096430774 -0.003772185735170083 -0.003549964529138877 0.004028234339523789 0.001386771322760368 -0.005390768150708107 -0.01867378048154415 -0.01014275044796528 0.01163012332699934 
0.005773396559658116 0.01310433204617383 0.006961379585838011 0.01141905553862027 0.006820382697268295 -0.01519090998486561 0.01243974719319309 -0.01032303248043327 -0.03132444105122455 
-0.00861142391534722 -0.007900027722217928 -0.005782978744999543 -0.000282673099712705 0.02985874259891477 -0.01868007756565427 0.002394767638278384 0.01108161276783791 0.003796738654733473 
-0.006831219396028708 0.002563555154627666 -0.00462077894670154 0.01789389903215685 0.0006590098284950544 -0.009593810900851617 0.001795144532920896 0.001501970885311121 0.002790131357447999 
0.004466167933536817 -0.006890440020510237 -0.0007273196280288334 -0.002929676422685928 -0.02946957576635866 -0.002071489844248038 0.009110732548430655 0.006579139479684397 -0.01761005504175864 
-0.007608859647307862 0.002278049349914512 -0.002370882963053271 -0.01030225629594152 0.006193372541911039 0.0007520371399757409 0.004384296089101565 -0.006123249653774315 0.01424778556923146 
-0.006183819436153481 -0.01818939010537138 0.01984899785142844 -0.01081999553216595 0.01397107265102278 0.007949866179503246 -0.006008022016555818 -0.001449124688556285 -0.003981681130292869 
0.01440527083035097 -0.003096257528036262 -0.01182925045285516 -0.007580300895116509 0.001764941272527375 -0.003699162021513466 -0.003955194548414484 -0.003164055169700547 0.005918980242795911 
0.01625645067970799 0.002105644755278246 -0.0006972854431328594 0.01091127082554997 -0.01047407890727863 0.0107083459197102 0.001450437514410427 -0.001818715257246939 -0.0326853066002018 
0.0006088292083017874 0.0106812487072957 0.002949322907898698 -0.00514363104706456 -0.009568243273440894 -0.01298851619123502 -0.01197272768977342 0.003197130613159983 0.01595337946736501 
0.0380654331383844 -0.00431895638792419 -0.01030430569211662 0.01679160751336969 -0.03438100757871688 -0.002033846230599001 -0.00652668579951473 0.0002240176555332689 -0.03137125716346464 
0.004703226214445786 0.01397842456577898 -0.009464809602390205 -0.01044410832931259 0.002490902621986351 -0.00858317444030191 -0.004615348654470324 -0.004938829278573768 0.01018485994324471 
0.001368968581824333 0.001066777496188629 0.01654941080692251 0.001619334767170546 -0.01079778710119722 0.009728070416612389 -0.002752214418828159 -0.002906849857911792 -0.007056524730970628 
0.01712204164658587 0.0113975807397171 -0.008850390907807433 -0.001881461355861039 0.01084767856675224 -0.003567427989979457 0.001646575327364594 -0.002095111072949817 -0.01790628885660317 
0.01390403783586812 -0.004922523144738455 -0.008456761488332402 0.04359688236407567 -0.01122696965748048 -0.02244187676521009 -0.02154730864675031 -0.007606884463215453 0.02686751207852155 
0.005715794819607226 -0.006338106971481432 -0.02240992013202583 0.01182111169651743 -0.001632759027008432 -0.01405578400562147 -0.01166461720401189 0.003685287791690351 0.03033639581527336 
0.01359037813907965 0.02238616777096074 -0.03300156052312701 -0.02029439659941823 -0.00518241052192085 -0.0007185652913600919 -0.0008307813368411856 -0.000908877405407369 0.008653881807885224 
-0.001803900783652168 -0.0008761217163767101 0.009979368810336876 -0.00405792925592337 0.004665914814204101 0.002356128124923343 -0.003747201773644519 -0.00497229730123499 -0.008674503504808558 
0.004495808744130684 0.007761794796343164 0.003903660576075811 -0.0007858986149845214 0.001419347177249948 -6.462632048227803e-005 0.003707387882450639 0.00195916980909089 -0.01586888159659422 
0.002650899411658748 -0.01341656378016062 0.00662923026635608 -0.003517633826681154 0.01566540770487578 -0.006629877604427728 -0.005430732310227612 -7.622365736002127e-005 -0.002957671452143624 
-0.006240618809603544 -0.006275569789355901 0.0175110472720385 -0.006925555628968235 0.01342909963469688 0.007921047894462272 -0.01439724084235027 -0.005732105605007518 -0.009423803566299188 
-0.007151152094306251 0.005765125335257221 0.02126613625763597 0.0002952150076862734 0.005352620727966461 0.005943363404639131 -0.004557583408023468 -0.007135121098005254 -0.01879330049705668 
0.004813739041725105 0.004093034101601608 0.01026792538799897 -0.01376098510617968 -0.0002160023609547296 0.01867554432070037 0.003204901600212736 -0.004830497355108304 0.00596892398764737 
-0.00687532340997587 -0.01273429173601299 0.01150323162157838 0.005557137336198406 0.0001809330780992092 -0.008396721845816503 -0.007629351506401179 0.007183158553054144 0.0210857526809208 
-0.006101336747784658 0.01265087626016655 -0.006292655839884939 -0.004603023256978827 -0.006248143520472004 -0.006557883970861834 -0.00246846412171559 0.0002333289916334849 0.01348453325853975 
0.006595505263573468 0.001277771164712119 -0.003366702461974819 -0.01928723774004485 0.009443162239071729 -0.001348773631945259 0.008628067379297385 -0.007174841807624619 -0.00290941792123669 
0.01126897125214879 0.0139912769607609 -0.004209679650742446 -0.01095665067283338 -0.01099536807381027 0.01723151849013253 0.001180369604338771 -0.00434103538187194 0.01697717671446809 
0.006062718593667135 0.007471059119162755 -1.039692957108172e-005 0.02161577794635155 -0.01081476150814763 -0.004582306100906109 -0.01281220612672528 0.0009640323667221921 -0.01705363951295686 
-0.0004656470134866408 -0.0112004510258264 0.007298463675432369 0.005703009905142584 0.006194695260801597 0.005905557271257157 0.002498170445468728 0.002247486459930362 -0.01135675560378482 
-0.003585218587375086 -0.01142402480660563 0.001559922083508078 0.01397897672874346 -0.004674373604011845 -0.009226788208064187 0.0056218817507861 -0.004811553156245771 -0.00598746301232919 
0.004308380786051621 -0.01242472117142526 0.002132130335266437 0.001568877839010524 -0.01608337527152903 0.01793205047139348 0.006878021086915909 -0.002392793767458942 0.00174535783016095 
0.0002099761110317554 0.001774026154371254 -0.0002437425814210593 0.001024797130119273 -0.01800625179535468 0.004539797134924894 0.0001561185527002549 -0.002460322803584986 -0.001928148814864301 
-0.002052741351325045 0.01304586502906431 0.007621715665756316 -0.0001974847208919031 -0.0271443220447823 0.0147308584143888 -0.01106059096201237 -0.002070858445482899 0.02587625010478281 
-0.01351162025927695 0.008478540061302735 0.0003944484540632207 0.008540026774500902 0.0007901889977155396 -0.02056435900224753 -0.001229620089511906 0.002417923098054475 0.01565664232587927 
-0.004324243112310066 -0.01259307644261937 0.0102925178859545 -0.03124121855457857 0.005418818525753023 0.001021054057775687 0.009076480018106214 -0.002540397567159112 0.02416237840220158 
0.001263197774065728 -0.0093569727793922 -0.009231216832795824 0.0003318763734056039 0.01278673914339188 0.02669565332203562 0.01562599488457699 0.01024534553403869 -0.01938640516604435 
0.01069534502017668 -0.003471503310745804 -0.000672660717221611 -0.004899520357176801 -0.002193156681454476 0.00645893930947752 -0.001304197566765207 0.0002831158456514081 0.00258369103109915 
-0.008642341064694931 -0.009354809315921069 0.004027501373073154 -0.003015044512093094 -0.02636728092587064 0.0003049396132256272 -0.01017245989639288 0.01529653220066358 0.0218170267510805 
0.002280642786308236 0.04425427752249797 0.004219474769253228 0.01192316805532247 0.03318168505413095 0.005375580201847727 -0.02473691291167616 -0.001478282916868508 -0.04500909203864657 
0.009362787390005069 0.005198213681010361 0.008076826831541921 -0.01783254871809097 -0.01095287785709152 0.01999801591914883 -0.0002143565436656886 0.01095631377703889 -0.007361878213386111 
0.01763711074468884 0.009292840138601715 0.0008426585705978613 -0.01201646887178741 -0.01087681110641779 -0.01272483490121102 0.004745667956526959 -0.008839733390184764 -0.004921996040189418 
0.005466573942650612 0.008216715470239729 -0.03883609130291183 0.01250201843274308 -0.01609943226235064 0.004810396540842263 0.02255289319953756 -0.008955307964906165 -0.008278221933310709 
0.0005901234231973602 0.01265668012499755 0.005430981418475429 -0.000440544612110353 0.01056574997634613 -0.02221324205206754 0.005915275171846075 0.007574549382629415 0.005510259472828913 
-0.0007832511693079177 0.008062132327838848 -0.002721201852507833 -0.006000278730531949 0.01235014700409196 -0.001451539023965625 -0.01642747085590794 -0.00551811705354542 0.00613192223713814 
-4.179600355701306e-005 -0.004524579098676391 0.001754163405988014 0.007790828339541892 0.008455055858082379 -0.00401451838379014 -0.004979906358003159 -4.185599353336327e-005 -0.007432864248717649 
-0.0005429808748011115 -2.98531005650698e-005 0.008052238703394183 -0.0231754678354788 0.03420589871071127 0.01584399192898717 -0.01733897727679531 -0.006016959719331193 -0.01152961280237971 
-0.01807810717336008 -0.02037407574736662 0.001023810044629361 0.02049585129036417 -0.006357800170707432 -0.003962842801599334 0.01892859870373535 -0.00068505639283334 0.0219318725011209 
0.004537654168153014 0.000782348878255317 -0.0001053013400913185 -0.01793208219769034 0.01432888483842042 0.003136719656505241 0.001034239487469389 -0.002185913693740623 -0.01338565735677269 
-0.0169208151871796 0.0111505007724441 -0.008809708340164908 -0.01921042387455702 -0.004588573858327491 0.0226706591371478 0.01279996164373367 -0.003376845708029522 0.009063091855556702 
0.001648964562823726 0.0006821529931157985 0.0002745201616664436 0.01054813525374576 0.002551490759852108 -0.007768969858476704 -0.004941328601346023 -0.01018808988846882 -0.005057832985992799 
0.00874000225650407 -0.003755224158249366 0.01539330691446542 -0.001307925203777105 -0.01326842174289984 -0.01236789804685824 0.02863556857462703 -0.006694784296189133 -0.03067140546816119 
-0.001544737991414847 -0.0068278493153356 -0.008158677833653896 0.008111928610360799 -0.005961257113270223 -0.003302128939584976 0.01677466785866047 -0.004714303146279629 -0.008265593293114161 
0.007370515393890205 -0.008262353351967353 0.01005054177155954 0.01254663253000189 -0.02959309207602496 -0.01175041273364043 0.005652064260923068 -0.004687341100918474 0.01360927581855223 
0.004133162753428148 0.0008088786280072027 -0.0159412125079122 -0.004511059937869832 0.01835413182881007 0.002851863417074091 -0.001537553204229375 -0.01042632607898112 -0.01497431852514165 
0.0007461610026560501 -0.01734360010767994 -0.009692134416938666 -0.004956771264110282 -0.02229138670917234 0.005225733390752951 0.04401821746508001 -0.003090332235751453 0.01179381259781378 
0.01124413149744712 -0.01192924653418513 0.008185405956496297 0.003190765694517255 -0.002656442782541383 0.02364148617271403 0.01038296865914848 -0.007021490290834953 -0.009081832278687358 
0.008801779567398121 -0.004550233826372181 0.0120256467689782 -0.01762334675386256 0.006776087369778634 0.01898721198723252 0.008519937898391077 -0.007222956632918623 -0.0184009288068461 
-0.002902687508846159 0.007405259752763703 -0.02353977153624481 0.01243335614814351 -0.004461083022235047 0.01903355775280996 0.01550507737691512 -0.01159223410333506 0.002334382197121436 
-4.291054195542217e-005 0.02632759463110757 -0.008052033453406706 -3.329563798688372e-005 0.004507273124038778 -0.03241011023611128 -0.004557752241411294 -0.004021367106928618 -0.01359436323620611 
-0.01590633722185508 0.004260498150914767 0.0166581755936345 0.0005823478808750468 0.006647208576687563 -0.006626745014758653 0.004861590654052791 -0.009571756467802379 0.00174672150457517 
0.01591277538513182 0.004853562471087283 -0.01462339283235328 -0.01175802844118862 0.005857775720283957 0.008290531471963625 2.859957898482019e-005 -0.005473457529960049 0.00906894745978753 
-0.01631706656215845 0.02571468077378552 -0.01925779480476868 -0.003608609207870124 -0.008820770318676733 -0.01288288382004788 0.002885368296609027 -0.009659891946510988 0.05255725195441684 
0.00353665088193912 -0.01332346254006908 0.01254005918287676 -0.01035843899435827 0.01802990189683182 -0.01396505087834186 0.01788173988115403 -0.0005978013681234267 -0.009595574033483203 
-0.003663361778042983 0.02412703058079132 -0.01840415177914754 0.0009627560961012652 0.004135266540838614 0.01549418110769946 0.004484664332392519 -0.001787069078769555 -0.004866569250328713 
0.004150420880305573 0.009400389738841056 0.006996062995277675 -0.007376487902217997 -0.01560095312651111 0.02192140454338492 -0.006215763299533631 0.002198686075180451 -0.02140512776651855 
0.003622236884537936 -0.009961542434452601 0.006905817146968124 -0.01023851466933964 -0.003352093705144637 0.008477339540392615 0.004559669226141184 0.006741259858142993 -0.002517130594937651 
-0.001466270821923014 0.008103602987755487 -0.01754797231757778 0.001588065821011378 -0.001344770417349909 0.02558240112987481 0.01192035535905794 0.005862761371799499 0.004607423695216339 
-0.00764787545043287 -0.02076203314539192 -0.001988028223006774 0.009934674677510705 0.03717102773241304 -0.02034220388010368 -0.01921210853049877 0.01335516329438327 -0.006949700791673214 
-0.003350211112691546 -0.003111104038911241 0.01278124066095404 0.01012007747233804 0.007774586966065954 0.002060514560973188 -0.007393593753269253 -0.000726109829248413 -0.02758045076154336 
-0.006956797300010351 -0.01769989896975637 0.008385532980876513 -0.002808037980775439 0.009414024271258325 -0.002663035198906163 0.001920817565220148 0.01012530193566556 -0.004176031891523419 
-0.002542352526155648 0.001618323089794477 -0.0008218994693633552 0.006096207274297814 -0.01192256740709316 -0.003427690351247398 -0.004803382468303809 0.009258098259535292 0.01794233343746104 
-0.003481751519131302 -0.004675678801677887 0.001636848888927812 0.009566712949204304 0.01273002612115481 -0.000139407272399301 -0.01813300920555042 -0.009553093378436023 0.01577133237401072 
-0.008765343452825794 -0.01328688792591057 0.01289732359497 -0.00109143578346957 0.02992413894804675 -0.02046084528846412 0.001164909945542027 0.01503520681877327 -0.02442421597912366 
-0.01018529886678596 -0.009063601248655788 0.002195078887440747 0.008856462388364473 0.01218699139323271 0.00350034452114593 0.01667983119100016 0.007624200527360944 -0.01828787286515463 
-0.007281569592645909 -0.003152919902299482 -0.001857391271230486 -0.007988171515703912 -0.008569269013858334 0.00496717784303605 -0.002950314505685488 -0.0004360235641587082 0.02583137271923468 
0.003844099963362786 0.002636168937399559 -0.01371128880533769 0.002915088357898326 -0.009051335101388197 -0.009322795642721907 0.0007659472416811749 0.0007525207390542423 0.0169466358009888 
4.746678542748242e-005 -0.007332322638339969 0.01539241011800368 -0.009360726001473915 -0.00584842111268848 0.0008724036712814626 -0.001296602652030472 -0.0006534181402585294 0.01383897747005973 
-0.001451016749825923 -0.01131854011891203 0.007666252813324144 -0.04165958729301798 0.02674026924142309 0.03865503110641634 0.0002534692270636973 -0.001116940661877278 -0.02343566754991941 
0.01676351589962146 0.01479882951632601 -0.009654272663296121 -0.001873800012725506 -0.007073585874327739 -0.01040095576628663 -0.004477614605217438 -0.004051697267730929 -0.01371128028202792 
-0.008067516427604744 0.007013416285167664 0.009341352217037718 0.001200106361395874 0.01161776133190974 -0.001003706023919493 0.009139954748056314 -0.01112834435288538 -0.03155583462390683 
-0.0002408001439329801 -0.004184655780930782 -0.0001865441613418509 -0.02341925463034128 0.01015186333245707 -0.0006225618324302029 0.01463281049097676 0.001966256928551935 0.0003605191162938672 
0.003076401623367568 0.003450125765381464 -0.02053558624003066 0.02184709254924547 -0.0032723715064134 -0.004235380642331314 0.01024188790507351 -0.003581670462918275 -0.005518161607479043 
-0.00427794195132692 0.002807895977596775 -0.001284257717541396 0.002371455702078641 -0.009050163087005051 0.004890498689707382 -0.003236890592433052 -0.006259539058918644 0.01545382166106994 
-0.00200486500754949 -0.005418469258881248 0.004206913073692861 0.008684867890518408 -0.002069318708895221 0.01186861070992053 0.00203711500333956 -5.01430722770925e-005 -0.008832112438199201 
-0.007364237120065804 0.0007615493152818187 0.003735463720515253 -0.0230602835122567 -0.01506425418599496 -0.01497747670347575 0.03950606787429371 0.006265419621100703 0.008188163642564757 
0.01357523509631689 -0.005753884026245247 0.01617200973313659 -0.001737517065051463 -0.01130409399704016 -0.002720998498039176 -0.007315224579777777 9.113716403634414e-007 -0.01259025245505414 
0.005612507989825561 0.00559513251090866 -0.006288400626726615 -0.0002135602383879709 -0.0001260660064048467 0.001244503509580995 0.0122341803341029 -0.004088502641989768 -0.01856262829379865 
-0.007124449673840701 0.008219319085559722 0.01391636780442331 0.01193588170051857 -0.006633538310203605 -0.01806027749726439 -0.003909996297794221 -0.001120614903924545 0.003062536024944109 
0.006032355792909397 -0.004723368100340384 0.003750104657597102 0.003768554089435333 -0.006482831952169462 0.01356664284176514 -0.02095629652464743 0.006114652407714034 -0.00176660671883015 
0.01894069809321092 -0.004988368198394645 -0.004537886299726482 -0.004205124000003758 -0.01641784137828462 0.001686658026850894 0.0003092586055279252 -0.004091643251131594 -0.000926020376457264 
-0.0223199150328133 -0.009138034874810901 0.01387391004536264 0.004971485478142312 0.009582947338750871 -0.002031343324813965 -0.01227075010600136 0.004717665319106337 0.01101915660820891 
-0.004566418328638394 0.007016150338968135 -0.01666280775154376 -0.009244076693667674 -0.008569834711417774 0.04559783500833169 0.004935282178416603 0.006050864890821198 -0.004299161467604114 
-0.006905891124002358 0.02875205975685606 0.001203580413307741 -0.001883702743743617 -0.004279699638281845 -0.01669041863896174 -0.008014079626455707 -0.009774093541134749 0.0123966304718831 
0.001981893840438406 -0.00478300797595555 0.02126462898815381 -0.006507820427314621 0.005926889113301841 0.01265171548126541 -0.008259945938218901 -0.0009363297756695727 -0.02028298913055902 
-0.008680062765569114 0.005427430302749516 -0.00507506905649584 0.0003120570391821471 -0.01435594243879002 0.0282679964880923 0.004591500532320207 0.009502795053111962 -0.0155080397367982 
-0.001045301450662475 -0.0009151700651825669 0.01201567063316927 0.003660658901659664 -0.003278179686945697 0.004004225667181065 -0.006061450395232124 -0.004771021503008645 -0.01986109901704438 
-0.0006910980999063502 -0.00787192444049711 -0.008373598977720989 0.006724532441754542 0.006743115526503822 0.02442674826486342 -0.01112549445239085 0.003465853771021584 0.001368814138366869 
-0.03724098629815105 0.01257798146366723 0.01421907089498982 -0.005000631210819005 0.01206642856333165 -0.01247252754644975 0.03945316503962022 -0.005778989351687295 -0.002107286018585639 
-0.004263018859435229 0.01941713673949599 -0.01637133992368884 -0.005258609649535077 -0.005989743030662571 0.006135735887279417 0.01802711233319191 -0.008985239597778237 -0.00714149088101225 
-0.003747043948581827 0.004651350494322679 -0.01407603067424929 -0.01008834735986747 0.03161900148764242 0.01409800158802223 -0.002942634434913712 -0.00728801549703273 -0.01648314186285188 
-0.01288688542706178 0.03868957235266633 0.006610459150057059 -0.01987854345158281 -0.0005688618725886454 -0.02307757479574596 0.002025272529933365 -0.01088043572092876 0.005815167683036962 
-0.01117680315481853 0.006683712034672825 0.01550047561105725 0.001969643205831512 -0.002882983628402142 -0.007492807566069378 0.003599586270871663 0.006365247227306021 -0.01694176151271343 
-0.01739536655724908 -0.004920199925633206 0.01157990408579894 -0.01299784552902263 0.03127506298941891 0.01986966615159337 -0.0001543736382312185 -0.008496043606774707 -0.01312403796962803 
0.0009092091873442118 -0.01561950667420266 -0.01745372474975852 -0.009338715268951626 0.01946777978976396 0.005714497333105369 0.00451778852620985 0.009041073841911393 -0.009636287602036947 
0.01874688476476408 -0.001353429466558112 0.002657992381473654 0.0005613115097614517 -0.0104578594238922 0.004782274470611252 0.006293486072240635 0.001155434628611865 -0.01359494839398742 
0.002717129320445025 0.009477940153271124 0.00314295228541946 0.009638442251041093 0.01744458279362213 -0.0139119973901371 -0.013008634208701 0.00719156231036288 -0.02579189104994193 
0.003743392927844004 -0.002056344832220606 -0.001187680809505914 -0.008722344975989237 0.001318311669952424 0.01504137960764465 -0.005950251656087807 -0.008886986929519378 -0.019254768107168 
0.009553501984817995 0.007654168617626508 0.001520380227573691 0.003882877580569347 -0.01052168838453596 -0.004283026779881446 -0.006758142011752407 -0.001245431861121983 0.0002148997145434101 
-0.0003254779997591968 0.00876302915218319 0.009943610649593098 0.02609741385223863 0.008142903110928664 -0.01632215678384049 -0.007496015499471874 -0.006072434096006906 -0.03878346876015301 
0.005769051549980296 0.004631811045137295 0.01357557612137004 0.007342552659066538 -0.01070163224478654 -0.01298619118402505 0.007615024310098926 0.00270062175619332 -0.0204706074012911 
-0.0003315900215791984 -0.003553235674518698 -0.006623998305607555 0.01633693945828956 0.01223516717306901 -0.01062058635617861 -0.01411007570451399 -0.0006073451612707074 0.0005521403076132854 
-0.002893898247978672 -0.02565160039382016 0.003059460981341735 -0.01159976068299018 0.01708721308525623 -0.006738134612384999 -0.008106874080893715 -0.003116087312945082 0.01964357842577919 
-0.004530123199119991 0.005946368190365098 0.001430879283630136 -0.01120533677996977 0.02522673405979023 -0.01228401657179737 0.001056850082397024 -0.006956103596529437 0.01494047375824903 
-0.002674786202924221 0.001208253596125009 0.0009783897617959114 -0.0052787687002284 -0.008810674361600546 -0.000827048384179806 -0.00562121312763352 -0.002410747493121175 0.01459134433201053 
0.003043328036697364 0.009430143535071064 -0.003458107077304563 0.0008294031763494535 -0.003786902356511744 -0.004619760462671288 -9.673006058463422e-005 -0.001578203280449031 -0.001040583065844439 
-0.004709623773257747 0.009582778395881552 -0.007096623527485805 -0.01738549933454604 0.01193782853302236 0.01600177570908591 -0.01461363700041531 0.007045363858481681 -0.00245351185432064 
0.01268840200839991 -0.01855438370540274 -0.01727701641837324 -0.01402918821886848 -0.02421205250966917 0.005994427678173088 -0.008112806291517999 0.034062537360899 0.01988650918645324 
-0.0002460821502019212 0.007900266764655852 0.009204439536089555 0.005596822406932525 -0.005421545897661459 0.004532024962436802 -0.01471707406397433 0.005574790343683841 -0.005820618053932093 
0.0005667884712997912 -0.01353864682911617 0.02495188109844167 -0.01878837685600945 0.0001283404221075089 0.01027021038293915 -0.0006308404721951034 -2.138870158540858e-005 0.00480383679403561 
0.001814417316808435 -0.01525285702135982 0.002769348107609882 0.003860654234131579 0.002956828289980319 0.007321336122710851 0.006808900966612415 -0.0007992326023963951 -0.009007813218961552 
0.005941959264232654 -0.004003373182041632 0.01225192287526637 0.005212043409539306 -0.007378022072033339 0.01255345737040406 -0.007867180839525291 -0.004491344115035441 -0.0250742587410174 
-0.01942314269777075 -0.0007423787836745538 -0.0232837557127809 0.0006895619955993355 0.01133755076272376 -0.01310994870782972 0.01559298029844891 0.005376501912254596 0.01461789550739445 
0.005951674943637641 -0.003276515684759548 -0.003154076134297904 0.006622488252971811 -0.005589527751535494 0.004062731126744015 0.008415980565722155 0.004409621870697246 -0.01210136123716022 
0.005555349996143459 -0.007494720745127384 0.003686118013994336 0.001812071620924983 0.01052359845737713 -0.01033102750173948 -0.0004220322858033812 -0.006685994438407103 0.007559598865614693 
0.004083084212238594 0.001133277225374169 0.0171820737442499 0.004663510365697253 0.001516720051145164 -0.009702584904214317 0.008665551317241636 0.003248309429092689 -0.03853356344149432 
-0.01621558331939104 0.00616422707953574 0.003371609170828581 -0.002149866310683141 0.01515648877570331 -0.01445129260516518 0.0002563670440098637 0.00173614714073961 0.01875698572120256 
0.01891068600134185 0.001479330553597454 -0.001274294367943366 -0.003775708445224012 -0.02410490825940003 0.01564687971564551 -0.004875990332515397 0.0009722087039679379 -0.02494129680149848 
0.02330523155574441 -0.001099976110819015 -0.01746645685186165 -0.01136704599067208 -0.01537452140261954 -0.006780651238490212 -0.003081948237376923 0.001160888010974323 0.02292813605876076 
0.01089251424568802 -0.01132018093594679 -0.02683093077955105 -0.0008725406778522018 0.00189926904467889 -0.004023655816690188 0.007721180119391746 -0.004419396324803299 0.02637852146962811 
0.01172097283087172 0.02194079266889331 -0.009215062550591161 -0.008909652490814199 0.004412779717211475 0.004818243539095576 -0.008019842878238379 0.0006219661019464081 -0.006511066405336008 
-0.008631722551290404 -0.0006333887258373811 -0.005525130929370964 0.005428063738617432 -0.00351054339530599 0.0132339285215879 0.009933788257581341 -0.007840824392675763 0.006268940397334646 
-0.01489113732605906 0.008051329903550919 0.003893476742950186 -0.01255781532831286 0.02522600813897084 -0.02941721305057653 -0.009216912471166103 0.01562614963849728 0.02223849023745864 
0.02233116909238475 -0.003765382353837541 -0.01151174301183232 -0.01385075494874519 0.0158860816468141 -0.003247770809599758 -0.00354860047746144 0.0001462709343757686 -0.0006051514883455546 
-0.009648988930697102 0.008160347540423179 0.01491607371448539 0.003896092096075159 -0.01064709221041405 0.01693305246388789 -0.01634067881859277 -0.006640674171675668 0.03001765702951544 
-0.001171605495957729 -0.01342775673405821 -0.008033108282618511 0.0008820815340017277 0.008846778019493949 -0.02885678479804523 0.03021276968024885 -0.004843718854206854 0.001962226345455477 
0.0005156475857044381 -0.006077623292196108 -0.003445797206152547 0.01415567714540234 0.008169850640550549 -0.002560781719607097 -0.0154671404839316 -0.001489738521374659 0.004091792450700941 
0.002653817587780113 0.003958808958804792 -0.02197919836014745 -0.009483489122105121 0.008388091746069169 -0.007436504817968318 0.0122028275423313 -0.01161868532150163 0.01277247341880448 
0.005008752023052737 -0.002878679406872559 -0.006411396844135743 0.01460949482498139 0.009549636922057309 -0.03184025975608462 0.007045891388878018 0.004678965607061325 -0.01703451238744747 
-0.002096430234494081 0.0002145989812451932 -0.01187326078477572 0.001077568073515941 0.0155073402204368 -0.007614272429451042 -0.004397612740118703 0.001060537273073058 0.003419465328702903 
4.643718109949977e-005 0.008911992553613144 -0.007067225717421463 0.0006433882500706094 0.0004616249480846962 -0.001009775023634436 -8.448315856293855e-005 -0.008791361945749809 -0.005818240226118767 
-0.003793561639862126 -0.00328252865304796 -0.0143275907531864 0.0004879886895102624 0.007583858980685243 0.0121209984659147 -0.01069411556758915 -0.0008592841969830184 0.01676057915940276 
-0.009618136467970068 0.003276641900982502 -0.01012957306466507 -0.004516602984350531 -0.002098441056814151 -0.001102831768338912 -0.01236746338137015 -0.009867462879093382 0.05265756388436879 
0.0006381708048621372 0.00574881365764411 -0.006674753766048797 -0.005780037091926002 -0.01769695579525242 0.01171134187282397 -0.002793664753409535 -0.001931167406177422 0.02077019538980726 
0.002927858190664362 0.006943089098819872 0.003753848608914712 0.007237407907205192 -0.02187228227819806 -0.006223295616475393 -0.001400576889852727 0.01156234338328391 -0.006030642576384976 
0.005435476928202723 -0.008427703017416089 0.0009412578850226352 0.01309288969595835 -0.01711154879137056 -0.007772895613863153 0.01240258022383641 0.0008801895587329671 0.00562389450858895 
-0.01569500479800282 0.001505391317234988 -0.02172312671396258 -0.003506144045600136 0.01406209461348422 -0.001009400038573341 -0.00660806259109973 0.0003493681838906493 0.0221238712338385 
0.01085521324802017 0.007121084393287779 -0.003745508603666565 0.002315047588769164 -0.005255674620644166 -0.001683494058348815 -0.008066945036127638 -0.003768888093789807 -0.003482407536037711 
0.003709004302569575 0.01460289518709737 0.001365004168206131 0.0032928332662287 -0.0009720776895928903 -0.005725617691394297 -0.01455620503597096 -0.0008637748963260723 0.007003890936683696 
-0.005474876423915965 -0.001391465127026622 -0.02017530933992709 0.01116279984455402 0.0006815226920477168 -0.005959894504872241 -0.00187560453707457 0.00939023689149659 0.007363936986472974 
0.007276057593404686 -0.002196549717952818 -0.004718086129039848 0.01786748534876665 0.01269101978366416 0.002739624354999084 0.01972979654874537 0.004196852212379332 -0.03411347682717468 
-0.01062731034537949 0.0003495227601358421 0.008110417474671479 0.0009271230973433786 0.02661291946352757 -0.04238356827244572 0.003814603436781341 0.006358100348881462 -0.009843652663812029 
-0.005921074202821198 -0.009434708237902765 0.004084020479346529 0.002399989237348534 -0.01041065477951223 -0.0025323630871245 -0.01346590863046607 0.01343155263866371 0.01940669078429468 
-0.004876470760272704 0.0004810837681050055 -0.01904950841969144 -0.01439368905545471 0.01649079777981709 0.01382714457768428 0.01307260889928668 0.0008528060408447961 -0.007084074787463142 
-0.001573674369644544 0.01398357248509808 -0.0139932165145113 0.006361585535720697 0.01247857772308588 0.0002849988711119944 -0.005621996471352237 -0.01099354625480642 -0.003303759993913602 
0.006932797327706302 0.001320463866230328 -0.001407095269784982 0.001366650855315126 0.0306518179768714 -0.008155798454648465 -0.02112159339365267 0.006511960539654881 0.009612247434213678 
-0.003525084370262577 0.007136361337575716 -0.006401836990479337 -0.02757094221522373 0.02544213080277372 -0.009338265065583648 0.01366764966271961 -0.005151092951647101 -0.004796760330626592 
0.003762564374034189 -0.01275198681695494 0.009112945513987412 -0.02345973030358091 0.03063659195209066 0.01554022067468406 0.00470172120779238 0.001324667140732983 -0.02931583765091995 
0.0007590479325307915 -0.009009596778437275 0.007989252965798211 -0.006502738175929171 0.006973841774322464 0.01707349210358387 -0.005603218755783077 -0.01106446473637772 0.007656248746610185 
0.008599313546843977 -0.004483842750285344 -0.01368567275927427 0.008364752429487341 0.0002628231066797864 -0.01340318644904424 -0.02056815428347392 0.001010443282162002 0.006455544903180848 
-0.009261013315363803 -0.006818578172750867 0.01158262018477478 -0.002300465362386428 0.0166407718765996 -0.01735144898907506 0.001699823210504842 -0.009571591015971355 0.01950676860382003 
-0.007697181662904133 -0.007023330825208154 0.04490101365248762 -0.006818378345224021 -0.00429545847438191 0.01096547543194039 -0.009602986754854652 -0.003112597958562197 -0.01593587721243848 
0.0107148579932613 0.009816489349470874 0.01214151393624537 -0.00615157489876317 0.02199692020819619 0.00129507512668897 6.535454617181761e-005 -0.001120588599184507 -0.03415926849874145 
0.01234930697551299 -0.01239967231684333 0.01526068010433193 -0.01130602570798778 0.003657884709487678 -0.005242072127102687 -0.01311176702960794 -0.003687300962387109 -0.009123243926497044 
0.004799816305681539 0.005612897799361512 -0.005455644606060315 -0.01075399909674465 -0.006751507760945461 0.01149626044623776 -0.007995953874464234 -0.01402178810480556 0.00948421389354279 
-0.001047523792948477 -0.002060449976691282 0.01870982785521436 0.005979006833274601 0.006377230570663434 0.001348262391465419 -0.009470085624223835 -0.004767205873609913 -0.03064618711760312 
-0.02122127203055496 -0.01090686751245727 -0.005955842170718831 -0.0006950457887687367 0.008165782755756315 -0.00596717722244773 0.007544851302147098 0.02570802615617438 0.006608931218686122 
-0.0008756674282127925 -0.01650975817521291 0.01339579498914882 0.001277551885992573 0.008650544562998795 -0.003898386145629114 -0.002253526102006529 -0.000359201355678362 -0.0121663040388897 
-0.005356585026666116 0.00877096362691899 -0.026098617128068 -0.02178958633382271 -0.0009996458059984808 0.01342774682064517 0.03434393085179706 0.005572400354377396 0.004837092390721306 
-0.007543493926543082 -0.01515126671937087 -0.006886151048433219 0.001261422468766402 0.007912681600267308 -0.00742452546683146 -0.0125623520511155 0.003658537503509671 0.04000932430002253 
-0.009942957242391007 -0.008207513087521221 0.01172652031125026 -0.003549421106621983 0.001313370007064877 -0.006566003009178299 0.0053642398337247 0.006447123122842455 0.004775224817713403 
0.001572177238143564 0.02334167387657949 -0.000790467943205839 0.002319043006523235 -0.01830098526751877 -0.005822163557691822 -0.002214724295839126 -0.005088654099357564 0.001635002847136891 
-0.003702985284286936 -0.009544067476922385 0.01595216923576573 -0.003826497488407275 0.01443839076692266 -0.004649882928106417 0.004599751520853042 -0.007169878004707508 -0.01526282973591664 
0.02004701698476117 0.01828207665590364 -0.003983236267790996 0.001804561587462736 9.581738902408421e-005 0.01049687035377587 -0.01359040475848885 -0.0005271795794323093 -0.01083472604347545 
0.003219939040731944 0.003360045974541431 0.006138121861448289 -0.004589882962774331 -0.001994512006632814 0.005345906522370231 0.005010037076949034 -0.004033587039019957 -0.0225425765109496 
0.006143832493432259 0.001904472384197092 -0.0107859681473231 0.004959813228850313 -0.008670990836369517 -0.01613798473892312 -0.008367671082571479 0.01775021625977363 0.02587885100427877 
-0.0007950002375508386 -0.006536801548025668 -0.007348392508138649 0.004057483615031704 0.006699574639516191 -0.009239322606371902 0.00320866568362106 0.006511521953386166 0.01164840221064852 
-0.004513243242844312 0.02085659270895854 -0.01892255687184693 5.548720819576008e-005 -0.006886460984058288 -0.01330143818961176 0.0006811502884891564 0.004350418766223078 0.02455737219449261 
-0.01506812703482136 -0.00790275635058809 0.01461464264057715 -0.04553005822160228 0.03061381679042984 0.02359877252245207 0.003181338909210195 -0.001827877514689008 -0.007798242632670227 
0.003343148121479241 -0.005462405906170351 -0.01287698002527545 -0.004175718291585496 0.00706215996104307 0.003796705663387836 -0.009716676183901842 -0.001989300977513123 0.01444634470909926 
-0.003861283578424484 -0.008744026309745988 -0.00166823043750897 0.01603935712718316 -0.005944158802579388 -0.01440830309524369 0.01780262907126955 0.0008986611409439985 -0.0110884755982843 
0.001897411790931332 -0.002485879178072045 0.002106835646822475 -0.01177368421211596 0.03089480268610482 -0.0115577480554096 -0.006535956052067558 0.008296990537615524 -0.008755544475742134 
0.003080942635177388 0.006344285455735622 -0.007117667416923278 -0.007258978220795426 0.002633042559790367 -0.00418814827230257 0.00715373822916008 0.02435570175158353 -0.03239948985406113 
-0.001514498574076089 -0.00185289386166426 0.003428379853904301 -0.00950281765591149 0.01243040738609363 -0.005259608680874559 -0.003163042681741107 -0.006369576769891779 0.002810346046007517 
0.0008076828385021336 0.006002960908368678 7.571621026409106e-006 -0.006220975752477833 0.01959719570725278 0.01256433782085404 0.006990490598049571 -0.01339809305428614 -0.005014138585194344 
-0.0009553887877959315 0.007022260445993601 -0.01508906072719151 0.0003904873113200703 -0.02593933492009007 0.005758520440259201 -0.01205516493760806 0.003939980860891485 0.03936470896410383 
0.002818169249619797 0.001360611931950923 -0.009491252105621734 0.007359414779889754 0.01555640911164775 0.01543936197075463 -0.002321720399918667 -0.004353438957978011 -0.006559151693308031 
0.02112370962988502 -0.006044068511607505 0.00980497171244632 -0.00696586853030513 -0.0002292424658056883 -0.001343564796367144 -0.001856812465978717 -0.007042444451896167 -0.005114874613909642 
-0.0006262254460167759 -0.003362773039258508 -0.03355878181359193 0.003957139238191699 0.007008077066689895 0.001757333144409726 0.008382136160749393 0.01397137791629724 -0.004540055740694074 
0.01270357385411432 -0.01607041594509783 -0.04439890400606359 -0.008634794234849372 0.001690653836150853 0.01604475957781104 0.01184327020015738 0.01163231482618196 0.0220463236489651 
-0.01415370297725543 0.03024564248115104 -0.007128512396164086 0.0008673440079061709 -0.02352973047012315 -0.001721467581640066 -0.002668562638160258 -0.003278348628731559 0.008989596387833141 
-0.02030235761150913 -0.000736330300689132 0.01558899962554483 0.01193166879104219 -0.007141420340387282 -0.01365092647355859 -0.002748278012265778 0.00428253759462938 0.001761057476092826 
0.001160632486822707 0.008216729774105027 0.002206809239105963 0.01083704002626709 0.01100837207098973 0.009055175777119702 -0.009133155693154498 -0.003902235424247511 -0.006175991585880496 
-0.006316779620343096 0.001124898586297241 -0.01332153726052356 -0.01148761059387824 -0.0137416023883833 0.03079782356235612 0.003690720444180085 -0.004368094261295337 0.01829146290021589 
-0.001663438173597568 -0.006415683797756603 0.01298694120044488 0.01143132410758939 -0.001145992060120529 -0.003011675650209129 -0.01118334261528587 0.001322616613869386 0.002129457744008123 
-0.006717989123599758 -0.003046987750536072 -0.008063280747668426 0.002671076630830023 0.002941136988692421 -0.006185825895984705 0.001962889387064058 0.007300369421046974 0.009331382135041356 
-0.01109952925466373 -0.006422132538177041 0.01850381489277591 -0.001030014458218042 0.01778944886633162 0.0001975443009861224 -0.01165286424343575 -0.004256217287978935 -0.006453606373142323 
0.001041177825302158 -0.008702843415273198 0.005391860855611771 0.02048567339591501 0.01210666368253773 -0.02805361851574285 -0.0178475226355529 -0.00869917223061034 0.005274680517757664 
-0.01191696928812612 -0.001798349369724668 0.005262001403607045 -0.01886892740401112 0.02708972265003809 -0.006799629516623314 0.002313368748641956 0.003705564331880764 -0.01457083120514763 
0.00405995252784119 -0.001308022328156801 -0.006302138568387627 -0.002622903707334982 0.0159342084514256 0.003897105150203504 -0.002062927236768022 -0.004597210741440183 -0.009056941475680565 
0.008620992881625565 -0.009606031559891322 -0.007130792242132898 -0.01403247185085479 0.008156135065657657 0.02603795036734848 0.01835130492978466 0.004539836841742428 -0.02942037397464475 
0.003303414034043976 0.002583404049382175 0.008246834675759301 0.01946426561176116 -0.002183099697265472 0.005068977461552853 -0.001274264291046641 -0.003758186921822774 -0.02399146645091754 
-0.006548880568135549 -0.005170997616072253 0.01464062149337237 0.009262711301001167 0.02330721141372763 -0.02026468544132029 6.183580897437812e-005 -0.002524055668013822 -0.009663535676941211 
0.001089715227764313 -0.005548512230898683 -0.006711188733167017 -0.01510660790496106 -0.00791210152750624 0.01668464748404039 -0.009615813104013127 -0.002623727731055073 0.01797927592789483 
0.002380481286377553 -0.008587218112980912 0.01906169623466606 -0.01553568863814091 0.01747215991569765 -0.000658115512133666 -0.01465877492106192 0.008194868397619022 -0.02101038279477721 
-0.003699296229023678 0.005375731224114869 0.00542031307707817 0.005386343723071831 0.01350272599262633 -0.0006561593709110566 -0.001782876387043534 0.005335768263591631 -0.02541760350769914 
0.008832220924270563 -0.008106002424636508 0.01595328669891426 -0.007484199512622515 0.01633583957684785 0.004803619862414293 -0.007108040753538394 -0.007476550139576023 -0.006707588638253799 
0.00146129189902917 -0.0006622961352024735 -0.003906235401663741 0.0001097905819677027 0.01475017038904947 -0.001731444239742832 -0.006717099287904376 0.002949233199512238 -0.002228685525716602 
-0.007595561276080197 0.006682418079935177 0.01378605318316309 -0.01338058018099494 -0.001481371032842131 0.0111399547617502 0.01206994675464822 -0.005307319324737715 -0.01515001244136251 
-0.005882420268997727 -0.007411598276777337 0.003441066603429522 -0.00473894221965876 -0.0006752404942006845 0.02231715475776968 0.00551278382092808 -1.832273076979878e-005 -0.01108087965871575 
-0.003302489872859289 -0.01440242791592336 -0.00346886356458545 -0.007880805537190169 -0.00518895295644619 -0.009613893564877921 -0.003520222169791426 0.007677794175805633 0.01377041108700242 
0.01800677709260323 0.003481463934627023 -0.0001837505165085272 0.0015213099467043 -0.0114407621432773 0.001117460912080315 0.0001976915040468667 -0.00107978989785972 -0.02286277265062773 
0.004940021824691821 0.0255634535333138 0.01976964674067896 -0.01310298018797236 -0.008704343113211782 0.0156162158116567 -0.006236781686404642 -0.01972211309647335 -0.0101946566872114 
-0.009043357821669784 0.002318811327880167 0.001751270292349953 -0.005712328373970407 -0.005197668622795457 -0.005219383158697963 -0.0008621470339099334 0.003245007687193048 0.01711051755772304 
-0.01139884103889809 -0.009184119900471988 -0.0008001271317281336 -0.000814662390540597 0.007508694458636544 -0.002126109379545115 0.009588972096382121 0.02318372249022722 -0.0212543274725497 
-0.006589170754539704 0.02327221278141805 -0.005378531100599786 0.01171018491288103 2.826337775718519e-005 -0.0154414277921331 -0.002579304586742115 7.373186195346768e-006 -0.0174740990522667 
0.0006870551877875631 -0.009140021720975625 -0.004129570720983314 -0.007530927472087128 -0.01618368433314656 0.020925447295692 0.002755742997910463 -0.002254433594839196 0.01127045281466816 
0.01952130561083038 -0.009111825046864223 -0.02083481980259008 -0.01099455087276989 -0.0002014903625092364 -0.001574099853550499 0.02609574901760052 -0.002059242186556144 0.01026897673597215 
-0.003613571555139244 0.02558089461730309 -0.01116345641208885 0.005770227442987243 0.007307851926144387 -0.003072272645459121 -0.001287234258874161 -0.002384124903074983 -0.01672970108791503 
-0.007189080495303295 -0.01141914144947528 0.01042777874181811 -0.005726505215414422 0.003859634841175583 -0.0098338494062227 0.001618680627168958 -0.004030552755277098 0.01146600925582748 
-0.00583038907220192 -0.0001744258673505321 0.02145605620505113 -0.01084127730121713 -0.005733095996868535 -0.008032163062675337 -0.01474843485303934 -0.006395618485418079 0.02351098055154094 
0.005822145730471641 0.00147075077510767 0.008011318344180391 -0.01386423887998146 0.008370317484514294 0.01119278347992085 0.0008646912176154359 -0.004062572971322327 -0.0185733069157789 
0.03056761760387558 -0.005942319685910379 -0.000516493905093522 -0.001551098430860417 -0.008989558112922855 -0.01014998472364117 0.003933957881924163 1.962655919936653e-006 -0.008757930328649383 
-0.01559569100113748 0.01175982199651371 0.01002252026702871 0.01091705150924891 -0.01591374164785398 -0.003797223172098683 -0.002182429469355578 -0.001125375753128101 0.0007650960917364137 
-0.003550165319353996 0.003991441276662813 0.005404953856852174 -0.02212433290807279 0.01563906145286252 0.0315485232546261 0.002853705976112143 -0.009306816896326767 -0.03306712919084006 
0.0009432558376195962 -0.00035716065886296 -0.01339549838397808 -0.005514072171863584 -0.004509209874160492 0.003655484719657555 -0.02733658276253349 -0.008219677429407289 0.02749193121052054 
-0.002481417464974781 -0.0006165257543986553 -0.01302378334907546 -0.02002673382525002 0.0176106424911364 -0.01045567939691493 -0.002840816428665366 -0.00285333505030041 0.005469965848015882 
-0.005259927199280554 -0.004859060459439149 -0.007233930830424456 0.002337875246898999 -0.004552405771278529 -0.008286555176439166 0.006266962944758038 -0.008744685183742846 0.02074694767488631 
0.002749519224131777 -0.006683476711771036 0.003667048625513863 0.007191197626254635 -0.02019148102264725 0.002510442489037428 0.0009841082180004788 0.002504502785952196 0.00215967533785561 
0.01348818132085798 0.001869075618696389 -0.006869070630156914 0.01604413944673694 0.00437286723151926 -0.01157775601988656 -0.0178888751314445 0.00309342447804898 -0.0009017598962087795 
0.004207359888711256 -0.01135039186807939 0.009975877756317435 0.007615875406478814 0.009800566578187018 -0.0116472327839178 -0.005632307078513664 0.01485868129262296 -0.000703509712342529 
0.007188477795773389 0.003452949138617107 -0.01416062623529948 -0.008804860836857971 0.002348624430270765 -0.01160211214660122 0.04859414956867796 -0.006275045634787321 0.005568103272625111 
0.00737173445574983 0.01990894765899127 0.004771049646493803 0.01171244282029702 -0.004354703331654703 -0.02644688784043917 -0.01521361829889783 0.003960538443848983 -0.0128657832873114 
-0.01144032535834701 -0.001970778483361414 -0.005522209691600491 0.007035717455100512 -0.002442720674109597 -0.006832409263701022 -0.0002512925088684104 -0.004453345342746608 0.006729226915168847 
-0.006117822395733866 -0.01537853815714122 -0.01731112929613051 0.01473776085212881 0.01288003822725727 -0.004095569453241254 -0.002133481963593976 0.0032845522379356 0.0154862715745484 
-0.01026706408164183 -0.009011947457037645 0.01842619775686627 -0.01142131281247915 0.008289669379370045 0.03350227412591503 -0.004830287806819561 0.001130117444135842 -0.01775314436880023 
-0.005935706557342478 0.006724938759185241 -0.009249236536021607 0.01182126670644286 0.003051581045883213 -0.01729345988813801 -0.004637665919627241 0.002744632477672716 0.01378506857646019 
-0.001566734396824226 0.002755923342916381 0.006337452120573881 -0.002166438000588072 -0.001910041415104982 -0.002438417164380028 0.0002393387923161027 -0.0003008497994535408 -0.005827674647659906 
-0.003686953136068228 0.03106502220883822 0.0217809156954683 -0.01297240910114285 -0.01780380485684299 0.00275861059545555 -0.009584275827075391 -0.002136700668354833 0.01104618272055049 
-0.01906991055719308 0.0006080072219999857 0.01377012509070347 0.01056551308750429 0.02118861717411888 -0.03225998027318874 -0.009459105436085469 0.01290429238673184 -0.005705571956007385 
-0.003422173474570461 0.008499682047547457 -0.00339001365701198 0.001909371292124448 -0.008082135424182207 -0.006171266298156749 0.0009590987670863273 -0.01138325312312305 0.007105197928266437 
-0.01596615904888092 -0.0005672631018670094 0.02390634838020588 0.005954732573982379 0.002000335665054812 -0.00602080633092213 -0.01329816910202933 -0.003718875189647373 0.001334369348730468 
-0.008941581286294974 -0.01153775872164391 0.001007312959159961 -0.009190095838775027 0.01385146630141026 -0.01430312997947018 0.001308789108855517 0.009771422063994225 0.03220435823010841 
0.009312372411027423 0.00188020702533055 0.005356428813535234 0.02061105831381955 -0.01208517142178452 -0.01554166054384304 -0.00306156409802245 -7.905176903232369e-005 0.0004577601995775274 
0.006584867756788795 -0.007433277787672935 -0.007686172509565544 -0.002121176307744928 -0.003989183520840206 0.01031669819467792 -0.005153870603717246 -0.001668490851517344 -0.008548674622098056 
-0.02492107882330141 0.0008452592339371644 0.02286890711195399 0.02074030263097767 -0.003452869474869937 -0.009246798089629769 -0.0256424165047195 0.005886111655525987 -0.006570637288007613 
0.003171331280696248 0.000769730294110819 -0.006337672481759101 0.01778228218178968 -0.002132744660415005 -0.004913847369925651 -0.01167951475126151 0.005476701948134822 -0.01688246496829644 
-0.006596226181172466 -0.01365146261935547 0.01031120414011086 0.01212006913963732 -0.004104860169743335 -0.005277163480940954 -0.01447125458878699 -0.002035152545520175 0.01274150761118784 
-0.002389451644777875 0.01926276335078843 -0.01807830550866713 0.00374497526798121 -0.003648462163098774 -0.02692189809227726 0.01581569815842251 -0.006028295556713064 0.01070022928876761 
-0.001158263790054399 0.009522383122048707 0.0055858938245982 -0.005903717590350927 0.01092064282359399 -0.00551188964299498 -0.01814555086336939 -0.004508699288422785 0.01635786651867022 
0.009699547828130012 -0.0292963166594529 0.01012099901229374 -0.003218617816234689 0.005906176831348554 -0.003945686069848019 0.02510764449778672 -0.004945794864434708 -0.02298969590296848 
-0.003536082474535353 0.02796859151251648 0.005286616739455059 -0.01046388697374877 0.002240707992097005 0.001620394403424467 -0.008064457466720614 0.01400474359725068 -0.00921871109655587 
-0.003934759005918595 0.007910818721655272 0.002731494328274366 0.002830341811782137 0.003549840158811987 -0.002166567180123435 -0.008984644724704543 -0.003927114015125458 0.02611795162416873 
-0.01080587248548121 -0.004148982709219725 -0.005995140030107419 -0.009607472625694063 0.006328589284874331 0.01056162865599402 -0.002793073522277386 -0.003433644338715576 0.01144530300593428 
-0.001617308258533232 0.007061635983613345 -0.01964639701138764 0.02208340109878426 0.01530795768655719 -0.01029422535579206 0.01282340336979142 0.001793177964098652 -0.01601574390014528 
0.005390925769793951 -0.01057138899573961 -0.007572919336474346 0.0108575163572882 -0.01146373391160845 0.009102514773602041 0.01306972960915327 -0.004513263345571408 0.01269626589411865 
0.02119966006674737 -0.006392503987768227 0.001442551394280275 -0.01536408685491744 -0.01412450081284582 -0.00436247486809074 0.01614430759068888 -0.002235414975026757 -0.006010921985118732 
0.003977763236208526 -0.009345058021973536 0.01020656744469989 0.01345381289728821 0.004736658414320283 -0.03521901336781175 0.01478802006125828 0.01170533582188269 -0.01772572335190326 
0.001929351811923164 0.00131593547870311 -0.008507483460614728 -0.004318313138944514 -0.003376402818412891 -0.008950783335499219 0.001322809721116471 0.004341585404205977 0.02165972447996844 
-0.02242128023968459 -0.01458610149981947 0.006018757885804122 -0.007441941706935127 0.004833119679111157 -0.001073856600976079 0.0149615563788543 0.004051709505326054 0.01158929869829373 
0.02150332198399514 0.001829194108910357 -0.007481771363757816 -0.01120126859875879 -0.01666086308006386 0.002996152007101366 0.002381448788739354 -0.003383743570163811 -0.01400293138906604 
0.0005573404031993148 -0.01291521582963554 -0.009899576531245949 -0.01032721522797787 -0.01006946886847743 0.004608844835676947 -0.009493512796711493 -0.006987198726640384 0.028911400931824 
0.01184835831370499 0.007921790812533023 -0.0002784517786472009 0.008221027072103012 0.01683517165373059 -0.01588370262371035 -0.01537334259258285 -0.00323187378857967 -0.0032098185081461 
-0.01016013215551468 -0.01173603185468193 -0.004267449482033545 0.001919003305318499 0.007350250015291847 -0.01106859703428674 0.001301269315790107 -0.001441644549787181 0.01513720190759679 
-0.006467587987476904 0.005063528531540048 0.0111194354764745 0.006155765086209533 -0.007265510851486917 -0.005451779969946983 -0.008794059978415987 0.001545825469862161 -0.002928453801283788 
0.002590468150668029 -0.002226085140142693 -0.001687579508187694 -0.01396933664334262 0.009468216306051949 0.001761398614075784 0.005183542039341311 -0.008104975006433172 -0.007776982030077668 
0.003115824200152556 0.003148959365360781 -0.004319354811571896 -0.01656186237260654 -0.009325932467116369 0.00447002210483188 0.02160533302342323 0.0007546091367177328 0.007006730566723999 
-0.01767150372502567 -0.007107029770093675 -0.001989167853596196 0.01497725973725458 -0.008802673951381788 -0.01304687159151458 -0.007233300352383264 0.008871798290255816 0.02218546051857582 
-0.006197219042004903 0.01777161322290144 0.003907372869767571 -0.001770395802767828 -0.01097874987592051 -0.006918126179227594 -0.002809249334955458 -0.004569419024259434 -0.003510168984326316 
0.004091905328555578 0.01934011723440718 -0.01232175766876467 0.003578782819001954 -0.0152173881280676 -0.003905228933812258 0.01348131499555844 -0.005940381227566979 -0.03270842744433984 
-0.01856473207089537 -0.002575724169001319 0.009270603093887856 -0.008016269165318972 -0.00325190109433195 0.01154346655473996 0.02442023714788673 -0.002556073524706626 -0.007914296224366501 
0.006922941700450111 0.0158946615754609 -0.008547321901746608 -0.004593137592984623 -0.00631726223628018 0.01370509273378114 -0.0007806601288990593 -0.007425215907077644 -0.01747869645873945 
-0.005813808704432969 0.002116254275098504 -0.007175807051472837 -0.005523943973619203 0.002925690340476424 0.004009045884668152 -0.001978600369823699 -0.01040429185978843 0.01026168123839898 
-0.02392035056164298 0.004925040678549108 -0.02195075840363129 0.01064696272079004 0.02482743932457057 -0.004188642205011586 0.01485093121165939 -0.007604899977373694 0.02009918095250073 
-0.005453153341431453 -0.01586415819569061 -0.002832957346931166 -0.004775643301137125 0.007396124653897059 0.01094923819509605 -0.00868242785434045 0.007717871490358699 -0.02057233850680702 
0.008918873976500806 -0.003817051333530284 0.004344571845065815 -0.007323460348404216 -0.009980067859570034 -0.003885291241100247 0.0002081994161147709 -0.003166528984519979 -0.0007878233327648688 
0.00705059739940686 -0.00919811383530453 -0.0003314050769387312 0.009350805608700967 -0.01532468226461364 0.01960772605848751 -0.007250632867000922 0.0007056688386710419 -0.01294462134635598 
-0.01486723680793959 0.01597950753976295 -0.008970737596979429 -0.003949284218565781 0.03631803982576006 -0.02085394422643113 -0.01068666395716288 -0.002096002888267703 0.03905217650139196 
-0.0007580748211527422 0.007938131281448074 0.007437337817714454 -0.001250244766745997 -0.02001297561901723 0.001222953119285378 -0.0007475112186263425 0.00132493862016939 -0.009852204607263703 
0.01773629397613916 0.001853499288158605 0.009192276461968393 0.004807254192917283 -0.01603372534282756 0.0193283064006175 -0.0009747156742681372 -0.01261923361545171 -0.02684568407192646 
0.01411307367379413 0.003676989673946547 -0.005754947147373175 0.0003899512116167576 0.01933803730721765 -0.01010281916871626 0.008892333109172947 -0.002592389460671088 -0.03032106369936945 
-0.003614860909045239 -0.000967696496329141 -0.001238585404795322 0.004655141398912141 -0.0186360238090134 0.02859971381412724 -0.003685308159832403 -0.009092939520275008 0.01317581350774337 
-0.001871566656569922 -0.00978564256945872 0.001887382588511665 -0.005545089400172763 0.00986053491072876 0.004399336193090713 0.000749974287950583 -0.003371408960371367 -0.0115953038604377 
-0.001565792798340506 -0.00293011885909322 -0.003028332505296554 -0.02019804375593796 0.009055182303638156 0.009715551012955754 -0.007545266029527442 0.02339483368864571 -0.01991295210811946 
-0.01003714779543159 -0.003478539952917638 0.005979493164989256 -0.01148005649708265 0.0009082389208618012 0.007454791943153655 0.003589335402042894 -0.003541676572940077 -0.001375437968850091 
-0.01834896332453719 -0.01074125234139075 -0.01293052515190416 -0.001621362619417258 0.02488476905440034 -0.01624493869967111 0.02319620716365167 -0.002523561313894046 0.01151011456748152 
-0.00797540430400588 0.01059618491181758 0.003620592893119444 0.0081712312889421 -0.01190982259908973 -0.009361456502083315 -0.0006198912372301522 -0.007481867567745365 0.009002980884782887 
-0.00752144645295915 0.01995863854287782 -0.01661015266720349 0.004485390444216058 0.01618662617440116 -0.008834352375218879 -0.01106320644868199 -0.01209081127783895 0.01488937459188489 
-0.006658902829958816 0.004177300558152979 0.02750068659198005 0.009630000552186999 -0.01752241061360985 -0.007391445964614457 -0.03571337242287886 -0.00496298359293759 0.008678980350369441 
-0.01370097009177997 0.004950028708515337 0.0441739371539653 -0.002368938167459953 -0.002819514737161011 0.01253590586274988 -0.02385956797573853 -0.00458967384166236 -0.01851224054760168 
0.002041578370073425 -0.02225114300006686 0.0155510452038512 -0.003307384525595139 0.002608695074530561 0.0006321355813496181 -0.007209389385689984 -0.005573585529096222 0.00181759334858614 
4.992865011676725e-006 -0.01301415710614731 -0.01185669620496343 -0.008584204470746043 -0.01278760144677759 0.01758360349619292 0.001032552196706834 0.005945755195915429 0.005267845636549679 
0.0006335149715154564 -0.007648985182070229 -0.003398105503459484 -0.01269153071423802 -0.003696018577352223 0.001871614958320937 -0.007705902375137691 0.005175413892928452 0.01369526126932362 
-0.01332564884735962 0.009755756423412445 0.005145846848826203 -0.003441749150115607 -0.01956443734551316 0.0168417561063569 -0.007662889611587698 0.005804165225974995 0.009308041865677868 
-0.008958462274349339 0.009820418306840002 -0.009127547213916086 -0.00461337575603187 -0.01722071397497719 -0.002367756642670022 0.005369909797464571 0.004807529806565742 0.02265933858713102 
0.0008027768120305142 0.004504023065323818 -0.004335838986817 -0.006779567817310738 -0.005194244106719602 -0.003018547570845988 -0.006906944593782074 0.004924884506786134 0.003399369265813922 
-0.002679377541352266 0.01122199105411693 -0.0002638621484655166 -0.007233087912623386 -0.01550772463273277 0.01475253470617674 0.001764209803805309 -0.00368530532798178 -0.01452783719543613 
0.006789635885158355 0.001829662648244012 -0.006261532695195766 -0.008932146899578339 -0.004060631761518292 0.006366576864336831 0.001676925121181332 -0.00425738666895421 -0.0042781949984242 
8.716705415009259e-005 -0.0006932551697974426 -0.002902863324235719 -0.01287393332618469 0.01543012572675869 0.005354726281019362 0.004603091229266595 -0.002111276153798924 -0.009821669596790256 
-0.01050565832509637 -0.01879288901931901 -0.006538617915913796 0.001593172816078329 0.02228816514810949 -0.001424676586570581 0.009365714677597122 -0.0001525095636803761 0.000332384896318572 
0.021234727439749 -0.01202222814047389 0.02784394742587637 -0.01548318223030556 -0.02657786023363669 -0.004759274817767755 0.006604058100965094 0.007660993928190541 -0.008970884006607206 
0.01282915429209885 -0.0281153780115417 0.006905764196546594 -0.001614409599668528 0.006680606156917135 -0.01175398696581802 0.008897019288034838 0.01259278740766399 -0.01353894722640372 
0.01223266455561927 0.0006204113737113371 -0.008617850443894791 -0.01427653245975129 0.001252601307516958 0.006175028750693722 -0.002822310604707056 -0.001735266560938101 -0.006170398289766465 
-0.0007189760606065044 0.006398305194003431 0.004581750147172118 0.004097395150202735 0.004732759309066283 0.0008077748205839008 -0.002337949642481649 0.01070734285875024 -0.01579265826999971 
-0.0005039286592911331 -0.003496129416379919 -0.006444953159848944 0.01738630608800343 0.001355734708051785 -0.008960488161902749 -0.006535184184182807 -0.004734396426509541 0.001783402668588732 
0.01561284280514674 -0.02952303274127261 0.01928393716844284 -0.01919688460897726 0.005935430324880146 0.01627282103865072 0.007057094671838997 0.001387508107756685 -0.02422254912990428 
-0.000573180376867054 -0.001565881253250656 0.002018042297032133 -8.905844411010163e-005 0.008176259156120424 0.002823823770898969 -0.005284491814886719 -0.003891839777614289 0.01461134569536951 
0.00759192467035705 0.01863656208983741 -0.008989400859633628 -0.01984059827703343 -0.01163681144313011 0.008731089409812889 0.0141071967890797 0.01155434207888835 -0.01888502807136954 
0.008796482960304166 0.01900456795315261 0.007427063505993685 -0.02416680942369751 -0.0005271337811755877 -0.00274144866096973 -0.008376580812759795 -0.004264903926051522 -0.004012343756118642 
0.004971920406083875 -0.002613378866193166 0.008824560990007833 -0.002802128041880221 -0.0111363261658589 0.01599600900000505 0.003051476954253037 0.001469400757710707 -0.02641404955864388 
0.01006410741224185 -0.01444864484742139 -0.00332258950416087 0.03194373655260212 -0.004275487070051231 -0.01259874593336043 -0.01429884471321854 -0.0007507339559899482 0.003405948163704618 
-0.009853974237609199 0.007690734637155927 -0.001318772589103064 0.01138399240123237 0.008096599416918347 -0.008100433796971862 0.003040659859371894 -0.0009881034747603495 -0.01644267230763044 
0.02053001638888411 0.0009553940483199519 -0.02537904894696665 -0.01219799578767463 0.002859682282508873 0.03355946183960112 -0.0226214625356767 -0.0007911313479139592 -0.001260652567334226 
-0.004683661077034451 -0.02611985852170062 0.02959102682591212 -0.003165262068320475 -0.00167663143736937 0.0115329857196042 -0.005859490704084354 -0.0002942900586070119 -0.001869626730776285 
0.01226571320410084 0.002117917798709769 -0.02659382447718523 0.002177376625943158 -0.0008688187577561145 0.001496439510844329 0.009797655910300088 -0.00633667085829259 -0.01841327840294574 
-0.001169388293742897 0.01205198713906662 -0.01355190284308831 0.01022810602051137 -0.02067804582489298 -0.001495720617729243 0.01289565459380622 0.007035391105504138 -0.0110925185714195 
-0.008137051250103829 0.01511182296326167 -0.00394124387350295 -0.009523784150428377 0.003237040275882868 0.02982246504776364 -0.002410770965378634 -0.009599610608069464 -0.02037727055484441 
-0.006213085914851776 -0.002312352765113799 -0.02012394570911729 -0.004249162171583708 -0.0049205054630983 0.01040074860047724 -0.014692635192588 0.02537825843317095 -0.00529075002323233 
-0.01474670019351029 -0.003482613153940597 0.002235270806045906 0.02727401006536707 -0.01203003242156535 -0.004863743070216151 0.004874112790901335 0.0002985628653032913 0.001275150975130913 
-0.0111815816552558 -0.007384854895079993 -0.02242914608664829 0.01865228733888363 -0.002421133065871923 0.01375009367195199 -0.002768054083208009 -0.004293369930427044 -0.001845480794166115 
0.001205604104736912 0.004535700979358354 0.02030793989083965 0.008861728793428031 -0.003033654575984748 -0.01751531470408739 -0.0123959508364848 -0.01301061118502124 -0.02123391896075486 
0.01027294063582655 -0.009677401457097706 0.01167043255347644 -0.008040437663485129 -0.009301998707208659 0.001133464319257529 -0.01379136832333312 -0.001015155556196331 0.01356650654037491 
0.001531572702107923 -0.01530436555727947 0.01765407144836126 -0.003403608524922039 -0.005452100271318519 0.005555251928335727 -0.005570325407308323 0.006324515475156751 0.002019580320423008 
0.0009110747352502839 -0.007181988819587152 -0.0005137331630122279 0.004226343851593274 0.0005919281970108584 0.005109549938933549 0.01390804383601102 -0.000202478006473083 -0.02527221786450553 
-0.00692766704213026 0.0005189624735085064 0.002300000353298103 -0.0002068457326889269 -0.01057708875120431 -0.001781281752957535 -0.01348046101221202 -0.001087842168125321 0.02490231145039927 
-0.0005469217749574571 0.02443248658949652 -0.0252537128380001 0.02126171067537556 -0.003319146242572583 0.001955938795159959 0.02021715819464889 0.001802715976395126 -0.01477043355167684 
-0.01166147353000134 0.01445366045936579 -0.01109086909213962 -0.008416988826891906 0.01348967081981051 0.0006783850020465621 -0.007781103185800274 -0.007203978486868876 0.02942824297894752 
0.006123788212441205 -0.005348067356899396 -0.007856263002282799 -0.01539448930743299 0.01595917382451216 -0.009383486469869889 0.003580527011843924 0.008725027354707307 -0.008193710723039501 
0.004985232367774097 -0.007875074425724984 -0.0005932679362799125 -0.01671416680121155 0.001550159688129364 0.02714303002010659 -0.006869734146587241 0.008856325459133011 -0.006250948273209667 
-0.004445812077620795 0.00242854908550476 -0.001785683611050056 -0.003225559911243574 -0.007011006412448149 -0.0009112326903996858 -0.006665599549735546 -0.002637415020719829 0.01711794663658065 
0.01869508888232811 0.01935530109105046 -0.009585560998508618 -0.006705207734835982 -0.008360679099598894 -0.002873945010846703 -0.003513176314508116 -0.003303678723236416 -0.005268399878629212 
0.0127605287123986 0.03199469551572546 -0.01630475520417 0.003613702312239094 -0.04670306623130404 0.0198611635664718 -0.002291729881680837 -0.01184489722932565 -0.00571256339742159 
0.02511388215408075 -0.00562078878265327 -0.00753129594987071 0.003584065827008823 0.01106304628199781 -0.0003726667063913797 -0.007777786619818234 -0.004968063366906335 -0.02285031808203771 
-0.01933037008267803 -0.006127099992506644 0.02828581788799526 0.007481124644833281 -7.238380450430737e-005 -0.0002651954132180138 -0.01412262780513097 0.005783729877897431 -0.01111044598483586 
0.02270347098710741 -0.015917862515288 -0.0203124765449321 -0.008717584646684765 0.003640397827981902 -0.007690253675387222 0.005125320865187685 0.007295798778942912 0.008077390620927367 
0.007116544866696618 -0.001924471416044653 -0.009480400166539059 0.001035863965089137 -0.007313480310355966 -0.003467108800589772 0.003446636024649722 -0.005418933234944899 0.01871249683803621 
0.008879616741387108 0.002864798802229852 -0.008257423452491463 -0.002335304195281356 -8.015872724780725e-005 -0.01939329762783142 0.01940573091512252 -0.002207750998575058 0.02228105005909423 
0.0003926767432324163 -0.0001447255996811229 -0.01106673793037372 -0.02215196521336165 0.01592949563712786 0.004850365207370571 -0.004754166800343945 0.00305406185740945 0.01394826090914399 
0.003616367602995894 0.0004934308906883934 -0.01161586447450102 0.006872036732614968 0.007522988080877305 -0.002682086321307327 -8.698937777444587e-005 -0.004437344907484139 -0.005165056795123997 
0.01096764804909159 0.007261400554751506 -0.01708715723677856 0.01556183375737667 -0.01214047931859599 0.001395259619100242 -0.001502256325533211 -0.008442133292955409 0.01625878073285359 
0.005626395723412996 0.01692487392669624 -0.01433707951829423 -0.003729762584796682 0.01250976081986157 -0.002592027055404877 0.0149984043238093 0.0002792472891416134 -0.0207501331973129 
-0.001776442427413433 -0.003660273932055174 0.01583148705583051 0.009411160747885894 -0.01046881432534787 -0.002577552195235099 -0.004226422028153971 0.004342843335517973 -0.01585952895636178 
0.001860192239840835 0.004837520491704763 -0.0005591886543810313 0.001361780400818437 0.002776820719181357 -0.0007928437446837852 -0.01676384955465103 -0.001896707930186307 0.002977894299438054 
0.008764840352732299 -0.01674800701875512 -0.008346619184328457 0.00814497861772241 0.01709933571843295 0.007201595170108209 0.01389355820261568 -0.006476403965764595 -0.02250119968382791 
0.01017466021018015 0.0002656927063532241 0.006518402192964042 0.006020070721939879 -0.01120456121306995 -0.01062171646962677 0.01022304530940307 -0.005628658183524981 -0.00939015866237038 
0.002772934589618937 -0.003176224439168303 -0.008259346476920554 -0.002042149180039499 -0.004749600479919851 0.003596296703218793 -0.001097183576664958 0.007525979994921593 0.004793759095041337 
0.003196491917251075 -0.0003241574439657123 -0.0002567842605181122 0.006583149607320767 -0.003316412874729612 -0.01385288571039457 -0.002770355920306931 0.003877201721245193 -0.01069859042546319 
0.01797362120603873 -0.00331060487799272 -0.008750951376478971 -0.008583650185974359 -0.01309514327765628 -0.004363139241722997 -0.0003971852746795678 -0.006588683970632343 -0.003439745254188334 
0.01826602558039106 0.003196136725667674 -0.004315283195541498 -0.008111917039759132 0.02301278885406301 -0.01733808765626836 0.005808025808775683 -0.005558042020593612 -0.01076877741499223 
0.007700181299576283 0.007182054357352025 0.03182081401582022 -0.001556351750280705 0.0113991036081509 -0.00672928537777764 -0.01354585180271425 -0.008156136475880423 -0.03041282904850312 
0.01218155027392179 -0.0003128436018634809 -0.01088960465196178 0.02233241469147786 -0.03202800805917306 -0.03401827788526814 -0.003717750247145243 0.01041302898232967 0.03235111820928625 
-0.007020763627631836 0.013501435726454 -0.006589307495735443 0.001497152604926388 0.0182648347876355 0.02722037438621887 -0.01944010513157128 -0.005509719216318109 -0.02776863291333778 
0.001341812422702192 0.02413456977343193 0.01086641274310805 0.005306464820250144 -0.0009092140541862934 -0.008745194809897857 -0.008692346424423438 0.007069781710955435 -0.01733662866524361 
0.002054701296787241 -0.01552732803405585 -0.00306202875558469 -0.02186702227847923 0.0233222836211628 -0.005160599049621766 0.003984822082725054 -0.002223867320762251 0.01218689494242218 
0.003741382422134148 0.01566350131496638 0.007765793851224347 -0.00984801150205554 0.01537954795987992 -0.01114331548698856 -0.00143033456825496 -5.957170982924028e-005 -0.01164309705043719 
-0.00562111778099173 0.001021693816848875 0.01052816806112748 -0.01185920926873593 0.003742219091808024 -0.006118214276665032 -0.01538349757815907 -0.005702496436012796 0.02882978406380545 
-0.03164504210634715 0.006235914617055351 -0.002350590881092191 -0.005144325605697166 0.0035050698804759 -0.001659205803847819 -0.004504159177599314 0.01028849359811874 0.03497368944190006 
-0.01089080281556093 -0.01585969361208843 -0.006689952654870566 -0.01554968626297234 -0.006387701545527437 0.02843753230016945 -0.0002180446459136482 0.006397406759707816 0.006690194004001609 
-0.004811768805983928 -0.008774761152273554 -0.002317687524452969 -0.01511379931454196 0.01358522168264741 0.01557717706836591 -0.0114335753321845 0.001678647874491333 0.0009750888879663049 
-0.006226171954158925 -0.0138240823651585 0.005360223276375064 0.004319668577007067 -0.004598122535109221 -0.01252447515061695 -0.00376499236794382 0.01363591355974738 0.02606751354644503 
-0.01906852536964083 -0.005260607694016276 0.004035512600303779 -0.01349976168487212 0.01517864840928716 -0.001108843123824197 0.002285556345130316 0.001280650164904603 -0.009063646893258828 
-0.01092554834830125 -0.00843272121222687 -0.006111585054757535 -0.002095192958106782 -0.007325850312195591 0.01977609056650646 0.005628132331225068 -0.006092804415814512 0.0001721790874881222 
-0.00463817105863793 0.001943083322754427 0.01819797615162079 0.002728481980131196 -0.03169848191626203 -0.009146127164320519 -0.01137858443225692 0.004582069611827405 0.01273534846626587 
-0.01155301636852969 -0.006096767096066841 0.03363159643953888 -0.0004244558033735064 0.002050601250851419 -0.005895906812811005 -0.002885744420436292 -0.001217691394597837 -0.002401716914514576 
0.003917736021447564 -0.006374817632826849 -0.005798506469391053 -0.004692655989809276 0.004891762656390435 0.01014603073762027 0.004204010283119289 -0.001683822432809562 -0.002447601267611814 
0.0131622601434607 -0.002120643425874978 0.00148874037820791 0.01987823326338729 -0.01804858246520338 -0.01196229570876055 0.002207998109097707 -0.01374984467896826 0.01451108495248529 
0.007800609291309991 -0.009292018762462722 0.0160959016365597 -0.007147348059503795 0.00358339998008728 -0.00442217175533233 -0.00744160652658568 -0.005807734854389532 -0.01627403624564601 
-0.001674567085174321 -0.01392788557743434 0.001106352643798636 0.02328606710826636 -0.005539288420234945 0.003145802980217296 0.006376585389290145 0.004329808113582245 0.00165451092040143 
-0.003347427590013688 0.008684736785856833 0.005437224167896508 -0.01502686669051537 0.002228284182941525 0.02030907306456064 0.003388247526704896 -0.0002473010060933096 -0.02061258673591946 
0.01847133584219709 0.01025375659722051 -0.001626878546119864 0.002539981044083525 -0.002498293218260859 -0.01161807861874249 -0.002152404926052619 -0.007650844548922874 -0.002089346662467333 
0.00715902341544777 -0.008328909836212326 0.0335640867052498 -0.02411066867921124 0.003012836248749564 -0.0008547133382665686 0.005680679065571795 -0.01128419407008661 -0.03459651160550779 
-0.0007424852146082141 -0.01099303230171621 0.02809869981855026 0.009083450634069283 0.01525682797114931 -0.003363736848934421 -0.002561148135302393 -0.01245560705329882 -0.02037353987322952 
0.01753302453252787 0.01096669929550152 -0.005978427393005274 -0.02982407173601082 0.01149870444712629 0.006838475692087999 0.009891020333291931 -0.006837000376207025 -0.009093071172439422 
-0.004889022966425233 -0.00382862785205517 -0.01078249812381218 0.00226761331081436 0.007498626573726657 -0.001131026085586307 0.009506379251124915 0.01290195611532572 -0.008579232986585307 
-0.005609437767350958 0.02200648392480948 -0.01796791714187701 -0.002354704772382502 0.006330562632420607 0.007242741755481418 -0.002004133933708616 0.01336871287157454 -0.006114147085876999 
-0.004892126008825736 -0.01780888855619018 0.02204450387866042 -0.0082050398102831 -0.008252220761143547 0.009572387689202903 -0.007789205805539931 0.007063928108448522 0.008442409396572833 
0.009423287106328735 -0.02218507521342898 0.004392172699689921 -0.01258468806482808 0.00666850652123225 0.01078770202871211 -0.0005930374532471149 0.02479935893454615 -0.03068682611103143 
-0.007647480244361875 -0.006123203940106054 0.006270724392112548 -0.001541780651783567 0.002198756835025228 -0.003272131980929921 -0.00988347333573239 0.001893912819181799 0.01395463241200738 
-0.0009381922153486033 0.01686873680077987 -0.0118066933190226 0.007050998417426331 -0.005503831595000045 0.005585029613680285 0.01183705107653511 -0.007460825119656159 -0.01421256036822314 
-0.001320238989526365 -0.002484027723470145 -0.001152001151036874 0.00829455240312638 -0.004018344895502758 -0.0095861123493967 -3.695217308578959e-005 -0.004293729657352023 0.01220023925267706 
0.007993187918525367 -0.005115597703847774 0.03183246446959447 0.004490340269401546 0.004274137803323004 0.0046702098065377 -0.01465300015449638 -0.007087570695287221 -0.005732127378816178 
0.003032786842571124 0.009136908839165889 0.001877319625131439 -0.01010204706131196 -0.009154721992311987 -0.008414886945036068 -0.009072201221382231 -0.006228571236253657 0.02373962561366079 
-0.006099152173986306 0.002008889323876563 0.01060790418555894 -0.001150868479117643 0.004625534732869817 0.001599776657994276 -0.006602778119436283 -0.005024565311501424 -0.01665584154760164 
0.004480198681048637 -0.008062819013747618 0.01531145897899504 0.02376654335408077 -0.00370518123286341 -0.02614142400037154 0.002080827496914915 -0.01006483798855997 -0.01019761220590847 
0.0267991255789902 0.0003342221544087801 0.01354238998127441 -0.004445872167832662 -0.009554105991384562 -0.002125065170992391 -0.01482976148552299 -0.00433034567679502 -0.02073757411471991 
0.002193600263066314 -0.007306446304805501 -0.006983744214699141 -5.316895728235863e-005 -0.004976715937451073 0.003286701826811436 0.002857837706306613 0.001825161878716428 0.005321506970174116 
0.01040635572590449 -0.007920400962696575 0.005487099145170209 -0.008434535776138967 0.002446442759483981 0.003881274796872495 -0.00463308003021798 0.001949661426983308 0.008998855102107276 
-0.003541120218685784 -0.003965565342517937 -0.008281623165805741 -0.01561517280704464 -0.02592837942152749 0.01714667888903732 0.04655223131560436 -0.005866429212063088 0.009866321568137245 
-0.01149257611569819 -0.005097143907902313 0.02009886958415714 -0.009577817391114154 -0.01288425439557202 0.005596443595185135 -0.005313430159902955 -0.01038092562286644 0.02256292140747929 
0.01121743889488049 -0.01559720355995348 0.01750999090240866 -0.009669672253776206 0.01516484583809851 -0.005459887176659822 0.02839026303069686 0.01008010223631471 -0.0462853805264541 
0.0001786070441365134 -0.006026198001742073 0.009132702245470272 0.003354871999991434 -0.02308204188554885 0.03717421915661318 0.002243164121471399 -0.0109466559676984 -0.00805380371678102 
0.009927691056366992 0.0001152722416344317 -0.004101091969087249 0.02154986385773944 0.006264602793986896 -0.02377821517352398 0.001192233519703792 -0.002770949207244229 -0.006092389752701016 
-0.02958140921501966 0.01182317829180395 0.001369431593682141 0.002407775360893592 -0.009831496928111526 -0.00351688845713847 -0.008000476138226069 -0.01029766657156254 0.06046623034289271 
0.01352130034160532 -6.280755995445913e-005 -0.02122487982989195 -0.0003963913483226234 -0.01060266111101606 0.01196025937282506 0.01010523632435826 0.009718118064372382 -0.01212022505244631 
-0.0009072538962173408 0.0132148939170273 -0.01565252972904913 -0.001061036424954278 0.008191263648310064 -0.009668048502625442 -0.001442346868074788 0.003510377579023534 0.000509520613278328 
-0.01153458720934773 -0.01595912391454656 0.01617092390552219 -0.005490219217074609 0.005168103501844267 0.002665988534603803 0.02130438062309729 0.0005101099092653928 -0.02167090105745299 
0.01241776165033786 -0.01027678591190925 -0.01283372492810773 -0.01250319720440483 0.008605678956696641 -0.004111234336025919 0.004675440691867997 -0.006733869084064757 0.01301292699315604 
-0.009443827322277915 -0.02756888164830113 0.0218128170160425 0.02307330705791696 -0.02803019717740812 -0.003409125893931045 0.003876513775052665 0.0006142782855033785 -0.002383640728520427 
-0.007257543953733204 0.0007381641104664346 0.004520388006849806 0.02984755626389836 -0.001027802157049485 -0.02451853649922026 -0.01415668213489789 -0.009715869269214439 -0.007345221056713949 
0.002178643332880206 0.005108371075384798 -0.004376018602809687 -0.006883878364544053 0.0008033133924864145 -0.002239971682411076 -0.008992838261398977 -0.004556559525426031 -0.0004598692108110761 
-0.01932793969865226 0.009741595759975302 -0.0005945011973520852 -0.004847029156666134 0.003281634471322428 0.0220405307046298 0.0009400006333243512 -0.01478240064965079 -0.0129577628986407 
-0.02038182320198986 -0.004079379700021352 -0.01377427629850831 0.03302718338404762 0.008784672645808329 -0.01739190492327638 -0.009923785596245089 0.003053232382997088 0.02527718910543489 
0.003347412864186948 -0.005004669860956045 0.005297782402365123 0.0163445402862414 0.008843752130364089 -0.002026810474179496 -0.02369147990156757 -0.008646471852865149 -0.006219630264178852 
-0.008159533732616056 -0.01174197890219148 -0.009610693489386741 -0.0123445651484596 -0.001552587306900931 -0.0001401446558749626 0.03175253725238767 -0.004037331317680739 0.005949885322855195 
-0.006549646378312321 -0.003832300475022631 0.003088674948673326 -0.00307430741223421 -0.01210555840410419 0.009054615089992861 0.0002451934657289145 -0.006005536133103924 0.02053187312339837 
0.01193518826488254 0.01609496772556826 -0.02039021322602262 0.002560645677012022 -0.02270699480422221 0.002723699240849354 -0.006738039594376034 0.008813091578290551 0.01594937050804047 
-0.01130924730755081 0.0161383724190449 -0.003456926255022623 -0.004043753183318393 -0.005034233563190769 0.00160376717365436 -0.009332188564884563 -0.005443982031622929 0.01912772511826343 
0.02314961751026107 0.00462636343931663 -0.007769034927994495 -0.008501238831764547 0.00518168009321786 0.0007460882513200838 -0.002177112838614907 -0.01540062568588157 0.00177682644943383 
-0.01948019959637911 0.006899829522897219 -0.01398438895273688 0.006499438236065165 -0.008674499234843106 -0.01743336591997802 0.01932399094637126 -0.008915916854139455 0.03561132328210959 
-0.00267649252747391 0.006812950129331127 -0.02110822025545555 0.001526382409854324 0.004569954186925328 -0.01682391348370647 0.007264735617302147 -0.007145287112802182 0.05054837348571672 
0.008354024971495537 0.01201400830238321 0.0001247891448528002 0.002338675040795709 -0.001963365595434688 -0.0006036148066344072 -0.001131603354940707 -0.002754632632142196 0.004849278616789983 
0.009127023812945365 -0.004305416197528333 -0.003340541548840933 0.0004863780141026102 -0.001236939819526593 -0.005096063615047226 -0.006526427206532378 -0.005869845388117015 0.01277172900799214 
0.01770583930347752 0.007358157864158953 -0.01950246667955295 -0.007656533402763726 0.006984263485564081 0.0068068146828852 -0.004182429773753872 -0.002695482865303348 0.009674909987569823 
-0.0110394438405242 -0.02703482255724237 0.02277999721045106 0.02654008090413538 0.007350059011170353 -0.0099885738908143 -0.009801129182313862 0.007712391119427953 -0.009694686385255887 
0.008298153122942867 -0.02013440702780062 0.001518987812056353 0.01178205386399124 0.0106301191362685 -0.003547725894588896 -0.00411469189571993 0.005547862070791644 0.02127397647470998 
0.005240699982323992 -0.01851854076855311 0.008388342395794295 0.002871426953645454 -0.003532843743596065 0.009223782609950919 -0.01247547553247721 -0.002888119281038888 -0.009558318602965604 
-0.001980278246477176 -0.007379944252918033 0.01634690352346279 0.003611529087276626 -0.01228788982954592 -0.004302097044811007 0.0001356996318363373 0.00435746546711447 -0.01540395275138569 
0.001313477385692157 -0.006362780652101851 -0.02018851071404663 -0.00373742011844453 0.02015902755395731 0.00847741807121041 0.001701181716203903 -0.003139495915799863 0.03361108152779346 
-0.00141875123885878 0.0008052112288714845 -0.009990942401486493 0.005858206044126352 0.007734484782414601 0.000173427553630634 -0.0004715756290630638 -0.004892267970749331 0.02604492195450938 
0.002452467781154748 -0.005302130526222177 0.0008870767529827934 0.01087612316652413 -0.01090168594292271 -0.0004540426646293131 -0.001944768051315457 -0.002793843284012813 0.006111857396578824 
0.01548210788732136 0.02112599983382173 -0.01673102134860711 0.02955093503222737 -0.008496893963679413 -0.0247647708731562 -0.002594924884263789 -0.01126224309173959 0.01651625935072403 
-0.008548691575632232 0.008373487109598513 0.01039361078495028 -0.01358802494696241 -0.001460424038366904 0.003923336564271495 -0.008907161444605191 -0.005704973584823837 0.01292577933626591 
0.004397738074978293 -0.00868489983651987 0.01297240258245812 0.03017890646338025 -0.002381788368274218 -0.005679669338834184 -0.009163564445407751 -0.004964093806036934 -0.01619003611835265 
0.004532546472614567 0.01744929576104269 0.007800612872245822 -0.01706450326171283 0.02914335544113693 0.01434197793622846 -0.006901442699133156 0.00225852325719895 -0.04814172586936138 
0.01631901682723922 -0.01445295848215804 -0.0003987796566022793 -0.01975134431134552 -0.0002700926984243439 -0.01224889401234269 0.01498376249993367 0.006328092336392621 -0.0297992491060792 
0.002982972097157246 0.02787868786902789 -0.006069840339586711 0.001424704484795413 0.003712919436228743 -0.01513505826866043 0.02275559382089165 0.002508893703181026 -0.02828193480832669 
0.02100610891577142 -0.0205532422947645 0.01064510004916479 0.009787136554401679 0.008986940541725821 -0.00772490299633751 -0.007477323329840857 -0.00450816978718978 -0.02516186293087855 
0.01657034737100419 -0.01318935044764581 -0.001054245128479961 -0.006567063022015063 0.01042197021347104 0.008315504291108673 -0.006503102404351259 0.003944472613569534 0.003129771372526609 
-0.0009311404010447535 -0.009080220266848021 -0.006899394439037769 -0.002881798143407781 -0.02519267018508641 0.006069967749196647 0.007723568440234504 0.002093064141575252 0.01815346029278743 
0.0110087961217263 -0.01285534501695019 -0.02206722779650304 0.00465928583108667 0.01961299004754043 -0.02381641826722734 0.004758270662968613 0.001220396005049698 0.02898439005081275 
-0.01520158666960256 -0.00519295480687222 0.007296110053920029 0.0001067115036986811 0.0004331871831189034 -0.01935013939937439 0.003740818076275544 -0.007541989367664008 0.02261723284609495 
0.02103853167186412 -0.01752583234280455 -0.000622615547171662 0.03342481198704442 -0.01611758091581935 -0.02110356623517008 -0.01165726864410697 0.002648352102265111 -0.02034904083766857 
-0.007011428046802296 -0.00694604892761197 -0.02135401586406143 0.01519323261252838 0.01484851276478129 -0.01006341838564288 -0.0121931196639481 0.01582065787028449 0.03545601349212159 
0.03378079939763468 -0.01020717677168475 -0.02550992194656281 0.005380658213851426 -0.01545281909352138 0.0009279652434663262 0.001695948584179067 -0.007023462678867465 -0.01437974491990061 
0.004144217838720956 0.01619726248258393 -0.005012487752699501 0.006629836329099666 -0.005270090941426772 -0.003474789122311085 -0.01618763616876697 0.003731448471363517 -0.007863111852676904 
-0.002566244891721914 -0.007523487808216408 -0.001869540505912159 -0.007379166351717484 -0.01765126334929157 0.01227200091641625 0.006081308097242292 0.01038852984275143 0.00726436425881936 
0.002439463779065939 0.005271887003635786 0.004833354078439729 0.01208618672793882 0.001787458694813542 0.002157202108211173 0.001260686164928836 -0.005656087032928726 -0.005569472458247359 
0.004912295970759762 -0.02599183096392502 -0.007519046161199038 0.01919253132420365 -0.002068542428792914 -0.02056700149507726 -0.0212427231246607 0.006515349551839703 0.0217175851373671 
-0.007750654568079856 0.003195309751407617 0.008339790828877357 0.007576336206814553 -0.006335230639326844 -0.002254687896472016 -0.006257125090684575 0.0003708123843681287 -0.003063725206645279 
-0.001331247196686212 -0.005989087290359253 0.005070190019656852 -0.01159230824723215 -0.003107250316823713 -0.000561226018512606 -0.006013603493963724 0.005035305174719484 0.01197957275596102 
-0.01178933191204985 0.02105700288247284 -0.01787313197849851 0.001972482653632209 0.0002061458202236372 0.008554502759205654 -0.01482059063005573 -0.005272091683256321 0.02478256978217163 
-0.005138251821303127 -0.005080438395290912 -0.01275536937850029 0.001131090881743948 -0.002753143931254623 0.01876195319533962 -0.002928952286050324 -0.007355594845329314 0.003437821172508625 
-0.007301592252318009 0.04074308303223687 -0.006145296817782456 0.0008398519496767904 -0.009164111661734444 0.009684084231005811 0.01078827960927401 -0.01540399161290143 0.0030507368883325 
0.002895399881406694 -0.01277028011118271 -0.01053664962582968 0.002883527249811381 -0.008988375263280279 -0.00823288653752154 0.01465114621858676 0.0007367655958743926 0.02225300602389961 
-0.006034220489671071 -0.005866635874720682 0.0007656004084326118 0.0121120498044777 -0.00540295732896584 -0.001412147257056887 0.004823956664463523 -0.003983759610549022 -0.009287386010001642 
-0.007385836659993842 -0.0197868908966864 -0.00670559009795289 -0.006230497767181855 0.005679305080349299 0.02351686021887301 0.0006703735411039044 0.0156016308993846 -0.004795458494315396 
0.01318633551960955 0.008110002251430909 -0.009523940638310616 -0.004926943569297083 -0.03462692589006428 -0.01325979138228617 -0.01501924043330304 0.00910568920519312 0.02966192443842928 
-0.00207427152780243 -0.02114889457490343 -0.007942579401530727 -0.007939100122750292 0.05203749404324071 0.006729621017604769 0.00206133818728512 0.01758710442964297 -0.0192673168511281 
0.01079614934375587 0.008803524307859027 -0.01784996244377738 0.001965130309497839 -0.006788837885056459 -0.03055957013832455 -0.001781915749873917 0.004503108552628862 0.005131034397016438 
0.004250039343661897 -0.02074287481380584 -0.003134784467927351 -0.0007568419634932074 -0.00101266898426273 -0.003275738265809599 -0.004137372357397715 0.000627230237726472 0.004488340133952627 
0.0002489009055822808 -0.004104976575529678 -0.0002542451321847015 -0.01422472065769624 0.007148088696203381 -0.0110892141764412 0.0179478873716813 0.005172404281742579 -0.008208700482808005 
0.01451149289530284 0.02365350809588228 0.02018779093269188 0.01867744508966231 -0.02168247215134824 -0.002609537215823982 0.006640440497464127 -0.002485380570591688 -0.02912718038114058 
-0.001378644006378601 -0.007674035453998147 -0.04207650710939741 0.008838243759140402 -0.01028509720526766 -0.01550106027041521 0.0224783432154234 0.01041910999149762 0.03073507567535304 
-0.005324649586453159 -0.007883268537108206 -0.004088689989098867 -0.003199528729112658 0.001461077816313938 0.0005776330918680115 -0.01524114462157709 0.0007131408540185211 0.02149877838357973 
0.003630749051389371 0.01703360312765376 -0.005707572785282395 -0.004380841572652136 -0.01125519667769024 -0.000146169835512602 -0.01842063522398911 -0.005112914286152097 0.01674473247592522 
0.001497772442510009 -0.01380587665499034 0.01121546285092223 -0.007398244758004498 0.002559131005427258 -0.004717113438840765 0.007935216294215843 0.0158857432722584 -0.0001322620493746716 
-0.01299169369770806 0.003378409363656606 0.003773187998608087 0.00229625148076125 0.0004357673945757764 0.01995642350738775 -0.0119960631594338 0.0008658093857029943 0.004464418483356945 
-0.005126387962612668 0.02115567840841316 -0.02181106290539844 -0.01079807788580563 0.0266112875147458 0.003861619352416362 0.01631354323822069 -0.008645050781228184 -0.01342207367764168 
0.00105111038531051 -0.01148537187750567 0.02538429881367953 0.008848442186619378 -0.001948479768975132 0.01478973222234047 -0.01997462979122149 -0.0008849917578523461 0.0005834537534687141 
0.01621811705340984 0.009415000831446984 -0.008154081913444439 -0.003175900238814252 -0.0164534843458582 -0.005554192965473876 -0.007621536137226687 -0.005562463994861528 0.009799525613591697 
0.002786612224435429 -0.01485667120391121 -0.002698047288166695 0.00705540697508664 -0.001314386250617465 -0.02820787320770124 0.01722326572160985 0.001916757619555874 0.009867344410173272 
0.004454729189294265 -0.00193527624542799 0.005261905850331868 -0.01220607032958192 -0.0146748522528422 0.007222782310402045 0.0121707731411952 -0.004574338063434241 -0.01206039227538198 
0.003697174020357034 -0.0001710668392054275 -0.006300386644672432 -0.01296322595112366 -0.008069480026879549 0.01222664767143516 0.003082656525629124 -0.002675214894166919 0.007744546645059886 
-0.008713335258876246 -0.01168254192831872 0.01018506874656068 0.005244015858280728 0.03065892208840015 -0.006917510268321606 0.002608424145708519 0.005668833062776575 -0.01845809337975753 
0.002902382239011241 0.00973060071829251 0.01415603552871972 -0.01955068610961879 0.003261707086247984 -0.008558590029979309 0.00572682731042819 -0.004894242741624311 0.0009251911203443062 
-0.01527808754447396 -0.01280303830209372 0.005646710437917308 0.02803031877815925 0.003432954712292009 -0.001108990141888336 -0.01275650140885633 -0.002327639340459035 0.008760708947824842 
-0.007936223505599999 0.001621491590910508 -0.002995181351453348 -0.00520965284780169 0.01247757777149725 0.01527185192316203 -0.00798693559084996 0.004095695490559136 -0.007136563361575423 
-0.01076471119630671 -0.00184901139491899 -0.00174758412153748 -0.008551493154115419 0.02269975232533015 -0.01839351341219596 0.00640756789078589 -0.004495509529953643 -0.00366847284355315 
-0.01420261718880965 -0.003087628191992594 0.00179543844423866 -0.005993542863538057 0.01320377017875773 0.01169891620838442 0.01443370519772109 -0.004824458206075876 -0.005210671572580612 
0.00073570591046089 0.01817723164498101 -0.01497365676729255 -0.003410282799532607 -0.004283515254194261 0.01471177497573285 0.01502093175161488 -0.002192674797882216 0.01161491198410396 
-0.00471309910609898 -0.002341412578884901 -0.01714884043498009 0.0350835707432836 0.001184703139202927 -0.0334155414797158 0.03305795589810813 0.002999308024705306 -0.007403711839360425 
0.020958374745926 -0.008561962352030826 -0.001097877411393663 -0.00317288604559206 -0.01026201759229377 -0.003961453334869688 -0.000145478373530986 -0.003075519395312877 -0.01085521435190314 
-0.002858397485101444 -0.02570941272860132 0.01819773494835604 -0.01687791098596854 0.006211177251970713 0.0003347170575488901 0.00382790676470767 0.02077421454332626 -0.02381234045457313 
0.006059243910829431 0.04030686650514764 -0.02576283956223506 -0.01092793293391544 -0.01666463294418927 0.02228259034675053 -0.02654463942049206 -0.006130369307313763 0.02579974160183255 
0.001523176219107561 -0.00730701001969143 -0.001364592610839336 0.03698755229473932 -0.01546155431189689 0.01097036820087015 -0.0312696802071278 -0.005352001917681572 -0.002174799240571007 
-0.02176982137582386 -0.01232486868490384 -0.02170372710410006 -0.02949436415835572 0.02296123948067575 0.01781770470042576 -0.008649861067044766 0.007754623641955658 0.06593297789535686 
-0.02396154640209755 0.01392659523548696 0.008157168444641101 -0.01611440728927009 -0.01439882320343423 0.01304596835630479 -0.005151998513196285 -0.005042923084234333 -0.002633860931453879 
0.02195380206966926 -0.007512676985522554 -0.01484674498992201 -0.004343842982727854 0.005160867180247517 0.007243427941428742 0.003714385553430488 -0.003771823778556429 -0.01148576188494498 
0.008349582323694461 0.001741097967525754 0.03319924574966254 -0.01274031790127081 -0.01901627280383399 -0.005707614842098256 -0.01320522727041137 0.0005782887107822588 -0.008388450301930544 
-0.001841238001905269 -0.007550998654674794 0.00619786878218709 0.007538912939779893 -0.02562252845817813 0.01634402665874578 -0.007228628447058601 -0.009042825454091696 0.003739346217457158 
-0.02368491383961865 0.01696467140296324 0.005875072168737369 0.01139059097661886 0.00979035932862894 -0.01139318340242276 -0.01213270451056255 -0.005897482404290013 0.007714034508938756 
0.02258835751122136 -0.007461469533848124 -0.02253685156302232 0.0007308352174812385 -0.0109250743543507 0.007183491476446269 -0.0008716906992398021 0.001895816349345243 0.001620768777677382 
