solver_type L2R_L2LOSS_SVC_DUAL
nr_class 9
label 1 2 3 4 5 6 7 8 9
nr_feature 14000
bias -1
w
0.004733413656985358 -0.004704155718956543 0.01568259796298479 0.005419878828481652 0.003391521525234161 -0.01231216300098669 -0.002993801066317562 -0.003050263388595374 -0.002557266814955677 
-0.01035125614523342 0.009016703742637588 0.00786187354632643 -0.0004916646578674376 0.01081606794134965 -0.01324551423536929 -0.006283543688723545 -0.005398489067913939 0.007976625678684327 
-0.002362432444655343 -0.007451111671721836 -0.01544629551304379 -0.007423665736418353 -0.008658531773409866 -0.003218464851257613 -0.002828473145103358 0.02004231889051805 0.02273865268793055 
-7.698662239446069e-006 -0.02226563243692292 -0.00397917211738709 -0.02175067040752322 0.01327914795316618 0.01645506075092657 0.006936791709236248 0.0007026027957823938 0.01235294382451916 
0.001737838222071172 -0.00503994920923972 9.050739209515339e-005 -0.007129485935309239 0.005383162789992388 -0.004194823127959547 0.003856183236051976 -0.005370585421725228 -0.0117195874082015 
-0.001569004522341388 0.004150292043028919 -0.005232355067300914 -0.00435990842441314 0.002069006091949941 -0.003792119741455404 0.01170186909874351 -0.003253070198124286 -0.02489902321652805 
0.007778627433380777 0.003798919098426634 -0.006642033336544125 0.00135956626513944 0.007236381613429353 -0.0174220381585271 -0.004548381443570113 -0.008908705148503416 0.01610085231177048 
-6.790525607430852e-005 -0.02540176080536837 0.00719776236989603 0.0002699179139769463 -0.01076980842945385 0.007183837400293421 0.01009532186964257 0.004806905332095272 -0.004575882522195526 
-0.0005515629544357697 -8.022090086044118e-005 -0.01362451465973766 -0.002209093927562995 0.0007087280393545085 0.01079424324720159 0.028157909657281 0.0005783955982204406 -0.03981611791918048 
0.001929391303144746 -9.306932993434818e-005 -0.0006081615201769838 -0.000258531400970482 0.002358014513105065 -0.00232195300716701 -0.001847317588105734 0.007476743485992966 -0.02676199395827596 
0.004185484257409952 0.008388635974349839 -0.009222791449413162 -0.002226686711518563 0.00606913359260083 -3.253202476491951e-005 0.02139213172915049 0.002547820211273722 -0.006196510957335715 
-0.01247417322680054 0.0008595068380242627 0.007626466080569573 0.003632874138474616 0.004207489838576475 -0.005504390518408673 -0.011088896932276 -0.001510609682323639 0.01156631379046843 
-0.01022502375567281 -0.001303786669380822 0.001207863281383904 -0.001426384657765122 -0.002232106415741153 0.003930292435206481 0.01672892803323415 0.0009625912882631014 -0.01050683813297945 
-0.008286487532604333 -0.01597986236439395 0.0198198895138867 0.004589642735001754 -0.005914725960145851 0.01095562050546263 -0.01354579142735307 0.003620214856593234 0.002481648316586012 
-0.01177320238629564 0.01507173642108418 -0.004686507941694668 0.02301152075143019 -0.000271081802792788 -0.02073705343774042 0.01188533782772007 0.01071043599401732 -0.01176608657992447 
-0.004199754379440908 0.006681668576435027 -0.01639155091424886 -0.00403535063522759 -0.003653821606622463 -0.007475897162195122 0.0001864628957530966 -0.003931058382611034 0.01816267800855497 
-0.009498758877645624 0.01345939956352535 0.004708923840235198 -0.006682658373127107 -9.161652025618393e-005 -0.01012398341358085 -0.0004134585226044501 -0.003892674577722624 0.01759166902333707 
-0.0009248771009880052 0.005642955131293695 -0.0003707517057182273 -0.009675979396996966 -0.004800343459761276 0.001260315362861825 0.003299736783157566 0.002512412589138939 0.00350104820471708 
0.004587253987969297 0.01031025900457001 0.001524756808332077 -0.003552400984158474 -0.003519680202163104 -0.01537553078326619 -0.006387554191571837 -0.004664470643924397 0.03189239511950417 
-0.002406913277910566 0.01251833885574302 -0.003236165443966929 0.0008244344408974667 0.0175105391984031 -0.008919826959668276 -0.01282297625330943 0.0008070142945085434 -0.005838258971589024 
0.00917426693144625 0.01767115056199531 -0.0266853467352241 -0.001886717852278079 -0.01189334064431279 0.0048813677296356 -0.005318765171171149 -0.0116014976085189 0.01505271626938228 
0.007739638937980809 0.001562059134661354 -0.003876561347281439 0.004501426264157959 -0.001198147571258629 0.002400319542818536 -0.01207471531731047 -0.003630076548833622 0.002656480045621213 
0.001060267339276222 -0.0181695191852994 0.0117427127144348 0.006456007302260091 -0.01282589410468517 -0.0004340812503259414 0.003118896356413014 -0.007598253762070862 0.01237798190053239 
-0.007164025282865021 -0.002685610312505553 0.01008186525267201 -0.007688429514241448 0.008501425843368398 0.001054174025011166 0.002465848737518708 0.001620876170513197 -0.008293765114166539 
0.003600584781281125 -0.004633755184709366 -0.00711795081661739 -0.01299587471472598 0.01466653800126635 0.01034428155592589 0.002509270768504133 0.002610543851116165 -0.01225562171649027 
0.001908581118002299 -0.002390764279106523 0.005467894541925871 0.0002645864140096251 0.00453009100325323 0.001617204797914089 -0.01175005787165482 0.006217175509966366 -0.02238097082737105 
0.003291222653873869 -0.01370956629483146 0.01044984553101995 0.001713399446790226 -0.001285597461578713 -0.003209549012467861 -0.001693722019104618 0.001228727905960817 0.008887211376877055 
-0.004390264856579783 0.01204753549993194 -0.009180549917021342 -0.01062781778833032 -0.0177626269114208 0.01062567360876042 0.001085153190053623 0.01012670547562282 0.02708837196138921 
0.002679602058282307 0.007820652392467294 0.01110205592349858 -0.003374931451439565 0.01502680905486823 -0.01684915431939939 -0.008112761523667274 -0.005481873513881616 -5.895560491433886e-005 
-0.003967152320533544 -0.007559995591242603 -0.01646262487751825 0.01939947449744354 0.005053921483746851 -0.004990615177002334 0.01684280571072561 -0.003113296982650452 0.004946222706448828 
0.003539439660398889 -0.01025127046735564 0.0002070749233004436 0.006531596648431939 0.01993029258021914 -0.01479747848428103 0.001334503708210814 -0.01196393553562251 -0.004758351355428056 
-0.005078490592205966 -0.003062590131500523 -0.003069215836859221 0.007454067753453349 0.006522693118876321 -0.001688355748303898 0.007560092799665374 0.003996957973357166 0.001718320662234976 
-0.006268527934003643 -0.004808810466752226 -0.003113063126556299 -0.01859242085798165 0.008210475378656736 -0.005648852681924373 0.0138715429586748 0.01070849505396275 -0.00452348884115543 
0.0007729878652699306 0.01072693456127621 -0.008208635497944669 0.00275374339303144 -0.002330885156144218 0.001785248441830385 -0.00459808142757934 0.0009709589957361349 -0.001158797764584135 
-0.0003971319091527883 0.02237472209623438 -0.007179138188905221 -0.0009055387573979269 -0.01005833651836451 0.001912201388439736 -6.891704065091436e-005 -0.001392470326479626 0.01887674053473868 
-0.004016963001343936 -0.01126235769162371 0.001017467215340113 0.006619066357306584 -0.004037853736956602 -0.0009763330953133632 0.004363362867310404 -0.0003910307168127563 0.0140870286625451 
0.0001222461473187132 -0.007214644252742923 0.004059713903130779 0.0006053617203439028 0.006223273122443231 0.00210826180874824 0.00154752885987186 -0.001263391084847568 -0.002314284837460488 
0.003935614329719801 0.01406441190991408 -0.01310568710070932 0.01419278395655818 4.256108449795812e-005 -0.0111248181092208 0.00253364182863013 -0.002013214670589617 -0.005392842252394915 
-7.629767566402052e-005 -0.01196824485968289 0.007025841181700118 0.006305670133793388 0.001205164513487051 -0.008239176116150611 -0.01201087207185375 0.005106989299795722 -0.009446313044410827 
0.003344600014679233 -0.008451093866097733 0.01147820050633856 -0.01020611668005185 0.00198497322765775 0.00521424323018597 -0.002807889213900504 0.00582288232081424 -0.01751549113101013 
0.001584984781174018 0.002482432949049904 -0.01402350681425063 -0.006239631994345614 0.005067965949841975 -0.0007938927905315867 -0.003433565389402274 0.001906162011001626 0.002980306713287028 
0.003129226641074553 -0.004296304283620577 0.004274073577418476 -0.008220100500834647 -0.009650468313241734 0.0005199513900847138 0.001440680918031078 -0.0007099760671169806 0.01075260055682433 
-0.01304637335013262 -0.01277952017349171 0.01033805502560021 0.00753646631042539 -0.0006066391798962576 -0.007512930982662115 -0.002341875539602743 0.006335133083409729 0.008292701701938831 
-0.003312152386372311 -6.380007715910851e-005 -0.00444100627698497 0.005483695215133893 -0.008736790841153686 -0.003097463360227471 -0.002124802101694239 0.008749834840011839 0.005062925610699629 
-0.001376396330411875 0.009556282519122944 0.001902713783277757 0.01121905800124594 -0.006402404503340183 0.007478254794069585 -0.00808670711119487 0.004680704736333531 -0.0005195367976632445 
0.007422286444624644 -0.0001008472004096365 -0.003524686400783113 0.001405946171018183 -0.001630546551281028 0.0001669157282688272 0.00200054594429487 0.0007242842864837754 -0.01418565529126503 
0.006520062460582382 0.01002500449424747 -0.02071398977470984 0.003722598342115085 0.004052032265607315 -0.003813074008248697 0.009901644986787533 0.002152165655572747 -0.01453677019968891 
0.01146765367837118 0.003693297914129439 -0.0009668128726315049 -0.008643604840527624 0.007409656676688637 0.008162543675775591 -0.006054550993404968 -0.007222526165969583 -0.003095308168619865 
-0.001004205455122862 -0.001559544749568926 -0.001746359377998673 0.002579629591244833 -0.00313849678813402 5.637623440788634e-005 0.003431977108013259 -0.00459973543168995 0.008282560751699451 
-0.0005301323954613976 -0.002009371298240875 -0.005780745456109425 -0.002848723645950886 0.001469707430576427 -0.005601666251645196 0.002023382240249983 -0.006997683265360774 0.01529326966679548 
0.01303543485414879 -0.005573194174091985 -0.007125739297318899 -0.01387575279093062 0.00440785271090394 0.003913754510967623 -0.003559007571273941 -0.004658331791354202 0.009546991344274117 
0.001433525949735452 -0.003032841323582657 -0.007863957012333002 -0.006432869006886231 0.007080066181051429 0.001135516734840096 0.003861539405850562 -0.001996462316577961 0.002880670711281062 
0.001696951717964003 -0.01881425827088692 -0.008610090571872007 -0.007888669362614748 -0.004396648105960139 -0.003492201272679971 0.01426744994566256 0.001197098286778726 -0.0002050585032070073 
-0.003624746638379321 -0.0001853806190475697 -0.0105120041169001 0.008711209698610823 0.01630692571877031 -0.01196285907763464 -0.004104720571465458 -0.003352409856598172 0.01924364848031729 
-0.0004733163658491982 -0.005130151469200108 0.01246262781401654 -0.004452375645161979 0.004693440595908051 3.979806992147062e-005 -0.004652304525271651 -0.006152356409514359 0.001557468657103972 
-0.005901047320121024 -0.001591271113522793 -0.003220716101249328 -0.002522895960239184 0.0006261554034745134 0.002089767372725554 -0.01358624439359953 -0.00712618284788271 0.03686590904085187 
-0.00118877362198584 -0.01319464944459218 0.0002463938724105578 0.01360343159338792 0.01449279584033719 0.006196323305399474 -0.01677416734610955 -0.00207205613507384 0.01353269953810291 
0.006517087714546582 -0.004013203373960699 -0.005666282099626064 -0.003551024444228897 0.008314528218816194 -0.00863172879468814 -0.01043377518578508 0.0004233696033189663 0.001510739506775766 
0.0003761150399448483 0.01790161443140914 0.004688286881307482 0.002287968985972419 -0.009163529812962033 -0.003919646280199989 -0.0115578394896857 0.001983747408033665 -0.009169176716087963 
-0.0008053668457806442 0.01762699811273412 -0.005400479042426344 0.0008169856096134297 -0.001175728876438275 -0.008684195702506198 0.01890833706544815 -0.01093752754159271 -0.01196673352744086 
0.01661934458901192 0.0001956354353529774 -0.006821597889609634 -0.004382781046865274 -0.0180521323400142 0.002206038381727096 0.001677510669207128 -0.001187811976128537 0.005097755982657327 
-0.005572636076283144 0.005857347607209076 0.008306491462260486 0.002984276835648157 -0.003448056772143342 -0.003853280767858538 -0.005276052065279244 -0.006686815456769303 0.003676772074981516 
0.002715160402161301 0.01944583167910601 -0.001116376844328417 -0.003509532125065469 -0.001082008906623638 -0.001976058243348374 -0.01080630326278683 -0.006462056396828996 0.0103450511450835 
-0.003872586500777664 0.00455234766027646 -0.008654227080886421 -0.00247086839647811 -0.003468201365172813 0.009209136583380139 -0.002195554405895601 -0.0006519172528114229 0.0008774161415093398 
0.01769092404132267 0.0003365277014042472 -0.002679037285543967 0.0008017908017026623 0.01106642244515628 0.006425407511268228 0.005764356875054365 0.00820217622012653 -0.03693035535884545 
0.001941080537161766 -0.004255493363214188 0.01318265009081487 -0.006530866525334911 0.005286657894539928 -0.0116437069765895 -0.00958735726498406 0.002452554867950341 0.01560922310948917 
0.001495878400475245 -0.0007120658323293179 0.01942924189779735 -0.002706262258146589 -0.008214958902314429 -0.006285158537011226 -0.009445764816481711 0.002523853885480589 -0.007127688734960364 
0.006324704663518279 -0.00462371307619947 0.004943840347683018 0.008511950465642564 0.0006873072797939868 -0.0018828356456408 0.01828302178856638 0.00166399434334845 -0.03436444955100298 
-0.005960670159331555 0.001274641347884667 -0.003392725350975926 0.01413504506538711 0.009152113134285898 -0.0057170833003155 -0.004705731888483641 0.00393683877603097 -0.0146085834835616 
0.001589000955005392 -0.01011402271203131 -0.008389455896983485 0.009987213019838959 0.00816339578531824 0.0118520016415929 -0.00940269424906314 0.001224219170110171 -0.005138041333559392 
-0.00340408935165988 -0.005659576662112724 0.004920951669127082 -0.002627603605554754 0.008547453920224013 -0.002456284793725759 -0.001687189113543574 0.0007283796338881966 0.006543130208094237 
0.001030197875138049 0.001017824031422828 0.0009800768166206987 -0.0006395746732366715 -0.006200278172230113 -0.004145130313982844 -0.01153363166866756 -0.00564209421865555 0.01569442327163847 
-0.007404816648496492 -0.01780545601807273 0.00480877507937182 8.609950781255632e-005 0.0006230367518731969 0.002903404340146096 -0.004178287896788487 0.005002524630657338 0.01837479808151585 
0.00399406443798074 -0.01441945659870055 -0.0001699298004301235 -0.008754335589846682 -0.006279030958722971 0.01189807893988704 0.005383281620391697 0.000740903829233218 -0.002632148951517249 
-0.002885099218346651 -0.0006871430190790688 0.01683946507992412 0.003865834215505515 -0.007597943327746341 0.003988464212818156 -0.01624447602838154 -0.0114866122082898 0.009136819576921959 
-0.01082784458034245 0.004966852912035193 0.003046469830968515 0.006838478988753593 0.001712355123497718 -0.01050450241458643 -0.004056939414850156 -0.008211604766970134 0.01061167648171814 
-0.003756173538032229 0.01403019059750228 -0.0146422799266241 0.004835261652461518 0.007846525666947104 -0.01974389625628258 0.003351523987733093 -0.0001729482973284201 -0.004578549595273476 
0.001158002521110006 0.01129702744838927 -0.02203980519803364 0.00810918843367322 0.01357211614825516 -0.002131092505187487 0.003585515013041228 -0.002915950744490852 0.01414001699078281 
-1.959231105800504e-005 0.006687726612685094 0.003536928909423811 0.001470509230236373 -0.002249879813761581 -0.009601745434263348 -0.01773629128432708 -0.004508511404866431 0.01404572092494081 
0.000918979932656289 -0.01236623671506539 -0.002384912208500964 0.007545157132367049 0.001594844848544932 -0.004034009635966772 -0.01041544619521101 0.01352319514236178 0.01802463626993707 
0.005767914617609533 0.002524733215697233 -8.670765062641426e-005 -0.001942520215751141 -0.01828364548388561 -0.005842016546661447 -0.004951478680357239 -0.0009904725267250837 0.02044868980392106 
-0.003193929565716335 0.01188741713374312 0.001177750947233057 -0.0005441994635369943 0.01047561615172125 -0.004304028119252381 -0.004229899931484799 -0.0005648674929818859 -0.01670362743485071 
0.002022704219319984 0.01029421315470884 -0.002220446313402332 -0.001413209156958206 -0.002431783640849643 -0.005819150857036078 0.01342711606256192 0.0001234332399297775 -0.02039249803058241 
0.004951252189760328 0.001490297396997263 0.001944041463474851 0.002817407049412528 0.008812039151268939 -0.007022712876605499 0.01178232146338726 -0.006690998155616524 -0.02164749538080753 
-0.0004746443876186643 -0.0009736193218161584 0.005931252361777738 -0.006757639142860762 -0.01490346447691276 0.01270530278929142 -0.001519172677989668 -0.002283086806776657 0.003331347443040408 
-0.009467679026773547 0.01051006457219567 -0.01704250878103734 -0.01274243003842137 -0.009301218935721266 0.03096417499382753 0.01077920851387291 0.005033432394954724 -0.004520218568640584 
-0.009662449562900646 -0.00349676218037382 0.03396524861280032 0.01401461195050189 -0.0029580809181804 -0.005995224699063879 -0.01334942241117111 -0.001081805624652549 -0.02178471906453719 
0.01592906867021887 -0.003831743261224327 0.003822505908928514 0.0005066613855326387 -0.008531681214023387 -0.005099426723447695 0.008514317238030649 -0.006009818865128577 -0.0175217641156565 
0.0005271592444886339 -0.002633406511674882 0.01773665794146485 0.002032244736940367 -0.009241515004482304 0.007334496696949035 0.0001473302070569689 -0.0005909365797491595 -0.02231620953399797 
-0.004622846505701345 -0.01129252109516386 0.003819946955981881 -0.01052801800400633 -0.00619180200796596 0.02220411366593564 -0.0001452863035344447 0.01356175695852359 0.002195182255349914 
-0.002327926194288305 -0.007132695798331077 0.01903869194155381 0.001420171247933004 -0.01235583988399739 -0.002184675348096127 -0.005943059783563486 -0.005073603254866129 0.01285837528902772 
-0.0004363447764958919 0.01699733816295333 0.005798838814467008 -0.004124618616491074 0.003907100838811724 -0.007597002861274333 -0.007178945462815047 -0.002258223221111801 -0.000243305434799435 
-0.006205934775194972 -0.009100891093006599 -0.001407359299575407 -0.01108716000164092 0.004287723876929628 0.008017795204844637 -0.002046877336920207 0.004929972560912248 -0.004177179461601395 
2.029278313717514e-005 -0.003819331845496006 -0.002352250925377427 -0.001668895735173302 -0.01716005183443074 -0.0003613726664002088 0.006739903402560807 -0.001122939323805555 0.0213233208026369 
-0.01062254577288979 -0.005982862434313454 0.006973586991250296 0.0128318244876862 0.003815957210230138 0.002203203856316663 -0.008635499728401068 -0.001642159481370636 0.004291709795233077 
0.007685038932799201 -0.002715340540628603 -7.12150226288489e-005 0.004758859059873485 -0.003827483777166287 0.002179449253620212 -0.002826623287428381 -0.0006296641327975076 -0.01022740640229525 
0.01418973731196844 -0.009836123891057447 -0.003841554501537127 0.007216545623392853 0.005296026558579582 -0.007834960253772366 -0.001100162445034314 -0.002041171876401154 -0.002542054615099739 
0.001639349498981164 -0.002031388776935801 -0.01364609507375579 -0.001934006342688182 -0.003789791623037295 0.004123589083757044 0.003380165545874096 -0.001373128707827917 0.01291845585922694 
-0.001983022241784617 -0.01621423743031941 -0.009454614552248211 0.01819412433445215 0.008961722024003391 -0.001787435360045421 0.00321859397373263 0.0003511936780490904 -0.009891789384608149 
-0.004533637908614429 0.007039810894837365 0.004313087997409184 0.01378264510608825 -0.006983315352914649 -0.005520397825250322 0.007657627340685331 0.002058085769320737 -0.01817041015811968 
0.003372748970496184 -0.00182585161476721 -0.006367670414587091 -0.006275975930118283 0.002997850915480482 0.008955111152953839 -0.01164900163852502 -0.002682808990376632 0.004271624926678936 
0.004270363526211273 -0.004099766157368677 0.002323694607730721 0.0002222490486819236 -0.005242893619089734 0.00109150143698918 0.001589139234404284 -0.0004948766769327092 -0.001276890191875599 
-0.004195924519804756 0.00411133128050497 -0.002398557919860257 -0.0004805294430029462 0.01226042494195088 -0.008292902743055554 0.007202261584747951 -0.001164247059952329 -0.008966433805127554 
0.0004587695362280379 0.005048589087263587 -0.006641753849623989 0.002728215283127396 -0.004690735946883936 0.01036648072854819 -0.004592850992089664 -0.002782323761980434 -0.006017214411604102 
-0.0021376262006811 0.00167118510737137 0.0004907672390299265 0.0009840693261062223 0.02522659344750204 -0.01187795791438651 0.00197127655603477 0.002597745661262664 -0.03487400023418852 
0.004587586508997673 0.0004938015100810133 0.0009308228719884393 -0.001456729321829559 -0.009533316439310735 0.001786215236651172 0.002734709886249475 0.002045499142740111 -0.01430806364559194 
-0.002436178155433932 0.001867923086353988 0.01391776109459963 -0.001418705140338433 -0.0001290741953255546 -0.004246993063442478 -0.01019431387910943 -0.003084315331057572 -0.004354759282150397 
0.003374175474458095 0.03050147290392515 -0.001849378325314326 -0.001735267037633833 -0.01305017310594134 0.004105288391177975 0.009384865942152555 -0.01292986637409951 -0.01146108506290623 
0.007930576915998891 0.006831248595013792 -0.01221971177737686 -0.004611465228369408 0.0179794866297504 0.00880549675827602 0.009568698748625485 0.002204787683568968 -0.03728516536887742 
0.001015058684458471 0.001485973739384467 -0.008202670071774118 -0.01414673813544908 -0.005913895287705876 0.002512775377445819 -0.00628500875404929 0.0004083688388354853 0.02322298213464691 
0.00756514198437261 -0.02152056890529296 -0.01200431301027555 0.002003849053341755 -0.01027773904029764 0.0140099625478756 -0.01157371528150307 0.006653742418027448 0.000320707893348819 
0.008638938362233572 -0.004819518115778449 -0.0008445821475742081 -0.004012534403615649 0.01350964827171249 -0.004591399752762159 -0.004892739054275865 -0.007051943523359104 0.0009914083692920933 
-0.0003754119990248667 -0.01518051121957219 0.02464221663493476 0.003244048363631335 0.01818229508970935 -0.01021847992340433 -0.01922939516799218 -0.004536710003549733 0.01132243510233354 
-0.002148924589287463 -0.01982591539391816 0.01006813843882166 0.004028959007308844 -0.01761357273795712 0.006254437297051452 -0.009646609856139804 0.01551016933291282 0.002886119368933149 
-0.006336959708512322 0.009958163064605124 0.004791246220874358 0.001476992573720184 -0.01288681624838004 -0.008827193190332957 -0.02355539416640719 -0.009442739356755343 0.02883963672429606 
-0.003319324069190545 -0.004021277100583352 0.001847337241163784 -0.004587349709663057 0.0006776538600954181 0.0009853544181850729 -0.002855521285519412 -0.004450679023146953 0.01486385988958576 
0.006487875730660003 0.002564660070551341 -0.004178892484371108 0.0006376483485309972 -0.004025345988449071 -0.00692241459913065 0.001532001218593614 -0.003226330672538028 0.002963662131495876 
-0.005015522632024936 0.02315739839204802 -0.02052683478711903 0.005307938775737147 0.006940827253843909 0.002277552938009125 -0.00524325897303077 0.004057073128780339 -0.005368043671919736 
-0.000901390768831038 0.01921424918344159 -0.01192969067191597 -0.003919748590831169 -0.008286411462081663 -0.002893763423282049 0.002456561193144136 -0.005968110317085938 0.00953560411781054 
0.006384121427646207 0.005572599734327705 0.01309449038147553 0.0007309542729419795 -0.02379672237661142 0.00844147039030216 -0.02020655744752365 -0.001629910843672238 0.01340691094168843 
0.006261361245395887 0.01293369969949637 -0.01062180729728095 -0.01204642368095647 -0.001120188443452615 0.008585407790781192 0.01768679992007135 0.007431252994310003 -0.03771521981570022 
0.0009788501776919457 -0.005246211513596101 -0.01846062374991932 0.005815369841142605 0.009780271069439654 -0.006285201492838521 -0.01067456425207934 0.003835943374844224 0.007863734072364627 
-0.001385496679272164 0.003460318757643254 -0.006544803585231223 -0.0005089053805560182 0.006330732967554199 -0.0110013324508541 -0.002947386457464297 -0.00337173339206539 -0.002626769190161908 
0.0130181880331193 -2.799102784238994e-005 -0.02115426938541534 -0.004296592868816064 0.0005773911428691277 0.005649148678860331 -0.006179614619062514 0.003609888219677988 0.02311643612129633 
0.01737956179065874 -0.01434803407027256 -0.01539942041452972 -0.004646178158037934 0.003923315831200704 0.01005420503410629 -0.004002696390826799 0.002211828786136142 0.005737844625297399 
0.006168850853807908 -0.01207413699828758 -0.007473282521355582 0.001247794387105036 0.003776266846998157 -0.00908228925250343 0.006104124434453055 -0.002977337884291069 0.002662699795044389 
-0.003132157907616534 -0.003716665148517797 -0.0006765856954507926 0.006174577093820254 -0.0008539705524227652 0.001825244317246913 -0.004560638354192163 -0.007093491694927531 0.009514083958672577 
-0.004265134393732015 -0.01378248173218644 -0.004891741389963722 0.0123198519206789 -0.004621684385134463 0.004915113561194431 0.002262008204233784 0.001589505682722409 0.01593563196402324 
-0.002203956434504016 -0.001223466305700027 0.00652861622125287 0.00270768274257545 -0.02020615163591806 -0.02111488477845901 0.004661393297693385 0.004416809360405719 0.02741037965474449 
0.0004783520031666558 0.0006686598764136039 0.01208931621727285 0.003057813959368618 0.002575019738504114 -0.004914088121203135 -0.01275777464253987 -0.001354078374976636 -0.002715089059163681 
-0.001832473930462896 -0.003050797560142168 -0.02139914778699695 0.00975034527103019 0.03001017675734952 -0.009151686518748385 -0.01090460314033527 -0.004402272461102552 0.02180783773206368 
-0.008483545523438177 -0.008321268499961697 -0.02240092324229868 0.0125091415583034 0.01235642389056047 0.006882519548926452 -0.002918086607083191 0.006171188412240753 0.03941886084541346 
0.004560826617049432 0.01571550706002341 0.001373935649042068 0.00400506496161463 -0.01592341247007991 -0.001577737417903517 -0.006866625584774344 -0.01341480298001082 0.006370647959620823 
0.008919278361783868 -0.003356984602943662 -0.001548806988364072 -0.003460218591670187 -0.01061366781208241 -0.01273299148870596 0.01412172275894677 0.002281815666016322 0.01209957057960051 
-0.009469052941198491 -0.02111408147287327 -0.005348040281042298 -0.02040847975801374 -0.002761690939847218 0.02059706832840309 0.02982246703647327 0.00588758054305856 -0.007069536643883347 
0.006129702152232899 -0.005584876265667667 -0.005686146679984527 0.007731247362766177 -0.004493146805034556 -0.0003971987937905455 -0.002634810134294567 -0.0004361433351667389 -0.002289989908669018 
-0.00112805932923953 -0.01675034663147362 0.00318570047167496 0.000199097205652751 -0.005591352336136874 0.0007191260618204879 0.0002874326053436863 0.004325841149293815 0.003153857529168529 
-0.007173089791184435 -0.0004874521435629256 0.0003359828517315884 -0.01262332038461387 0.008371709721858583 -0.001176146049949423 -0.01491133429025012 -0.006530373102961348 0.01145091589562339 
-0.002529595551009616 -0.00801550149588749 0.0003483110754789481 -0.004657212896920842 -0.003392530677751348 0.01875819181240977 0.009070423698663802 0.004102681463896789 -0.01605056611509446 
0.00989474012956955 -0.01998135044011484 -0.01021249309577375 -0.0009394536517521073 0.005391225923554855 0.004730153578598953 0.005619924168232406 0.0005715889797805885 0.01666002666093283 
0.01087856710004022 -0.001254767162401561 -0.004320809937461209 0.002868539452767518 -0.002579721930694145 -0.0008016927206180287 -0.01401924943948745 -0.002838337017970827 0.01381583850098102 
0.0009786554039247575 0.006361479784998616 0.001536694341353537 -0.004962843819533501 -0.0001062941284255207 0.0101778911341238 -0.009156784942496717 0.004218727725849152 -0.01060953013940123 
0.0005188817377512828 0.009053430787259941 -0.01023596893050276 -0.002586196635272573 0.001211188712020934 -0.0129556843191415 -0.006598768808247137 -0.004620206102540722 0.03336200886867725 
0.003571296802184315 0.005780662768303003 -0.0137853155557604 0.0001959704130285786 -0.001048504965718058 0.00180476287989755 0.006164842045760438 0.003671732175875657 -0.01415348599528546 
0.007565828925170787 -0.003946837361129452 -0.001977068246721508 -0.01606180584074033 -0.0006944185154431965 0.005979025572769171 -0.005928838326276574 -0.001601884426286261 0.004842493339125417 
0.009647065534406458 -0.00423959497080417 -0.00481655216533898 -0.004031175703125469 0.004396786565346807 -0.0003037488722940405 0.004120035239155649 -0.0008425934610270807 -0.01432911759511553 
0.001391592771355755 0.002724617839996483 -0.00955200072640882 -0.001209836589249235 -0.001098579248614717 -0.005915359315811184 -0.002422519086682599 -0.005677391728631635 0.02540780492361015 
-0.002767484890602527 0.01318581073004767 -0.001069287184585113 -0.004463566067200807 -0.003063927526363674 -0.007231239445685421 -0.00611325829655519 -0.00385259275463787 0.006750453832551395 
0.00282373821689816 -0.005841852073084022 -0.01206971345954944 0.0002828722964725511 0.003887832102412042 -0.0008816892420431706 0.001553738298682662 0.002055854915954037 0.01128438440983446 
-7.359973722331394e-005 -0.002905239858379524 -0.0005234710289763922 -0.005636606135617531 0.004626714483093534 -0.004586159270829972 -0.001133235895422907 0.002406253605449956 0.00411445412376206 
-0.00854655648296811 0.01232833200498826 0.006814816288318024 0.01675934380576115 0.005741611445446498 -0.01879646536339808 -0.004561465341420242 0.008407822626832415 -0.01175147398820123 
0.002190905232889002 0.02041174282682755 -0.01152948195599675 -0.001892517360976949 -0.0009106952712625134 -0.009351107504527955 0.01126017080964383 -0.0001938471837632444 -0.007703529052683996 
0.01578710459797069 0.001219521476274588 -0.00197044495378093 -1.750054113963365e-005 -0.0076971939144938 -0.006583758141954384 0.001003341953552415 -0.003197408879708081 -0.01005259906221677 
-0.01307684254275651 0.0150444723104844 -0.001981487357533231 0.0058126949750157 0.0267020179400163 -0.005804097958912613 -0.003022761815885792 -0.006673796816147341 -0.01101088817247737 
-0.0004390759546220386 0.01053786388531971 0.0009301615941028445 0.008060316152068281 -0.01268420421535078 -0.01018661438590527 -0.002400332888420243 -0.01120489774013501 0.01431094317205613 
-0.002552660393965484 -0.00900304332198806 0.005236167662099635 0.007476142943941027 0.006727986030662962 -0.001573842118049585 -0.003454599821382649 -0.000283804767260226 0.00110471914080156 
0.001347442885134946 0.009920727235978425 -0.00427978644460413 -0.002776489087111019 -0.007604207093777838 0.006101910116927767 -0.004861645370230019 -0.003270963119131221 0.003019000750650751 
-0.00201900828929105 0.007371423386369361 0.001246357525348427 0.005361010674733402 -0.0118961594501012 0.01442121835318513 0.00192320005215836 -0.0027518983429916 -0.009978477113892404 
0.0009936551491708441 -0.001039972277513858 0.00266537829571921 0.01005897112091632 -0.01634605412399298 -0.01247485496041412 -0.01058865554059829 0.002141781253623529 0.01879832969684891 
0.003221358311796495 -0.008625960047539755 0.008183943640550754 0.007990187957926345 0.0001416258992961877 -0.01177561783016994 0.0002879522906250176 0.001614029906811211 -0.01220284627848738 
0.01426632568251932 -0.003490498510068058 -0.001108440845970811 -0.001396566963991408 0.003973826242712539 0.007181898835405061 -0.008300986189577926 -0.005818055976908282 -0.01030704642654859 
-0.004526120871441713 0.0001204066208092961 0.001975752322585617 -0.007525972471117498 0.006308900041848504 -0.002600375987128655 0.007383155510824443 -0.0003441995004179935 0.007733307144812859 
0.008297601031333516 -0.0148534400552242 0.01184774949037188 0.008698121217185132 -0.003813087458847584 -0.004347902262055258 -0.007325966698100524 0.004265489903071181 -0.00197622309218111 
0.006602201573903464 -0.0007824152992638463 0.005579882920024944 -0.01723311753146428 -0.001669708012159861 -0.002602682414616836 0.002104858902315488 -0.001702493588594836 -0.005852702002954184 
0.006746517504623955 0.001410463959400211 -0.01648778567110542 0.009381131679428388 -0.00497218164901024 0.007432589905627903 -0.003780323998883309 -0.003985520588640675 0.003099094932475425 
1.885222129984108e-005 -0.004117898518432244 -0.003506124627317879 -0.003385617305707711 -0.003523799655877078 0.001794980859235544 -0.003362630388601776 0.006124307288069585 -0.002318198291040375 
0.0130092971284135 -0.03452373485093984 0.003164576509943073 0.009852466127132899 -0.006515155694525802 0.01046367335017564 -0.003582934302008257 0.01033764876310714 0.03603532348099137 
-0.00256092557516458 -0.001654006136410647 0.003363692429659218 0.00271446548701348 0.002069195080678358 -0.01332214411588727 0.02326340899295264 0.008527870642890064 -0.01952047566134398 
0.00231702173482498 -0.002938891155836963 0.01474922372821398 0.00722385831131417 0.01275760139205923 -0.003247584780332203 -0.02577843370847419 -0.003665255922298208 -0.0073992839937309 
0.01160819803313488 -0.004963909888226059 -0.0009035313885511959 -0.00499583394162318 0.006280527811149001 0.003934951289543067 0.004375160192231899 -0.00665969286711268 -0.01331661171212397 
-0.009465458813654617 -0.003488646463070414 0.01207523777371053 0.002254147939101896 -0.001704907813819874 0.006002801260901513 0.009605277045075061 -0.004724319926898199 -0.0262278011580518 
-0.001971462760273487 -0.007806584758604362 0.006538468622577195 -0.01203393052090705 0.001968989351923105 0.02004563356069169 0.0007109150135476426 -0.0003423828957879106 -0.01293216842818303 
0.004941886617387691 -0.005695452106069279 -0.01317350121154689 -0.01324641683359555 0.003506191026216109 0.003753551941347686 0.002788085048662138 0.002893015248882357 0.01681156930687843 
0.01879094835610357 0.01582888307225218 -0.01837400688578368 -0.0002669503533675337 0.008517730941292797 -0.01527608407815637 0.009045130615800799 0.0001598073833237411 -0.03000692062479033 
0.0004601756445467273 -0.005496118868519949 0.02809296355706765 -0.006356357613545648 0.008371132367270483 -0.005327670134007109 -0.02080749650717657 -0.01295954277872098 5.644295303432182e-005 
0.002688881758625501 0.0316816348125541 -0.002279818687266922 0.001199656974036968 -0.01663058314446305 0.0009862325992114852 -0.005901668670901552 -0.00503774277984191 -0.01655789892681788 
0.005676756265838491 0.001119488544752583 -0.01145986380404424 -0.0008240688508104667 0.002349610316325304 0.0063513547754045 -0.006390085850833999 4.49094949535612e-005 0.0111483187903195 
-0.002242809180548245 0.01700820184361742 -0.01065893612840628 -0.006186987412594288 0.007188043663456451 0.02324809644481388 -0.003932716877117997 0.004070429867204515 -0.02007747920232856 
0.002102313223461139 -0.01118744639261293 -0.0103207186813968 0.03187124976952476 0.003155202105530782 -0.01196369282297931 0.001968819121530501 -0.003095009996774798 -0.02493869337507064 
0.00692368965908312 -0.004183114299094751 -0.01078250770910982 -0.003933439289363769 -0.00587744419763751 0.004694472821860484 -0.002764273610662784 0.01927433373691243 -0.006047245150282532 
0.0176127747187829 0.001002477086133104 -0.01016877782223347 0.01938625410250929 0.004590800151562625 0.0003148724407131025 -0.02617246566411834 -0.004594952558270797 -0.01121461233948666 
0.003463403638190576 0.01291484956035675 0.003261912636425756 -0.006006324658080772 0.0141267085518472 -0.004700468083512429 0.009072405249470839 -0.0002300656779990173 -0.01709741921078311 
-0.006611848459022371 0.01041090385330721 0.005693869133267339 7.91878150178167e-005 0.0055403115498883 -0.006746301912749097 -0.005649174814709192 -0.001443006309317057 0.008271685967796934 
-0.008733108980789968 0.01394208316978058 -0.015094363778965 -0.0004327968503542635 0.01082249194841771 -0.003260426330375229 0.0003750286957180683 -0.006988355921655805 0.03092481869674033 
0.002512652846879656 -0.01211227557635294 -0.004180127793615111 0.009628165111875454 -0.001736646988728916 -0.008480083721518528 -0.0125196868319006 -0.004462383838386021 0.01974159066391724 
-0.001033511703598881 -0.002163203364146362 0.006824110057147355 0.005571909170349575 0.01129241917069899 -0.00341074917410498 -0.01037274158982163 0.001908097957810442 -0.01795478233520133 
0.01357733464978275 -0.001386487734121236 -0.003996527623504628 0.001090475105298504 -0.01020658906476364 0.00434997812551068 -0.007233210927415966 0.008482356169403243 -0.00712223420966666 
0.0005171570574086847 -0.007433872746089321 -0.01232047075945734 0.008492167726257886 -0.00383168404321829 0.006012442910626671 0.0072844079941449 -0.0009654168412198963 0.009105388591366352 
0.009190162380437418 -0.008502768853688964 0.004830303957297872 0.007514432469511944 0.01986395636714474 -0.0102748582317116 -0.0003588411051344309 -0.002700269794881948 0.01137282665404414 
-0.005096144010928485 -0.00399954493431704 0.00874868767778054 -0.007945030096716137 0.002806914185091619 0.003552919885086405 -0.0005635744986202287 -0.001965630421955252 -0.001771164398319802 
-0.001157185495283717 -0.002133093084873573 0.004965446814973104 -0.002002099559277322 -0.003393755074294987 0.01239557678145852 -0.00715927897628397 0.01311574647968667 -0.01951283290952697 
0.007474555381874566 0.00830414724248075 -0.003362153227094245 -0.007474394925400146 0.001580261534109011 -0.005138449042602159 0.01629050926310744 -0.002307091260477052 -0.02906871206380614 
0.02223311146738563 -0.008431185590992511 -0.008618170929134215 -0.006495813016195392 -0.003733210388829944 0.002424492224064629 0.007858504635462778 -0.000787341331766481 -0.01212376729522386 
0.0008011670824359585 0.02708514151053589 0.001412718649625261 -0.01254908369693475 -0.002977299800690644 -0.0036857733199192 -0.002669147262398827 -0.01259302442602981 -0.002220044142425219 
-0.0003068754974621977 -0.01477471937051237 0.004410269018657355 -0.002485133769615596 0.005575670082776707 -0.007219239688322747 -0.01112133302777907 -0.01333051331997773 0.04127842647989665 
0.001739188576841799 0.01014202693158077 0.00534349632434441 -0.007456973463534021 -0.01409765484195604 -0.01320394087366468 0.01091189007369749 0.004171686300462354 -0.01385449249451934 
-4.010214625085716e-005 0.004873636917880055 0.002796410413545231 -0.01497860358811451 -0.00461122838339543 -0.000768252845209724 -0.01086560665681981 -0.008185561665220911 0.02478950019840882 
-0.002943198740808526 0.005183547941247212 0.01051389880974866 0.0002900599289418469 -0.006982637176003587 0.01503593772803971 -0.01617158042942562 -0.005363201944368466 -0.008181646951631155 
0.008623314429870533 -0.01864458839156761 0.006649524735397153 0.01019818474671096 -0.007409009592007944 -0.001443761530203766 -0.002973767014474589 -0.001855914940581115 0.0009474235340568197 
0.004412424351784725 -0.0009827882208816893 0.01920883048476932 0.00984658093549021 -0.0008814677618016429 -0.008663388111216764 -0.01593256156600233 -0.01018361080100533 -0.01502425495431441 
0.0006703903742604389 0.0176574148461906 -0.003450734497526388 0.001384900194422782 -0.00907143031228938 -0.005470470766290958 0.01280031907338686 0.008634524597346833 -0.02438970805401196 
-0.004612930730904193 0.002489751513626764 -0.009064673657062577 6.979099055205417e-005 0.02197657301829298 0.001972800809673426 0.007245157556621659 -0.002863562185120488 -0.03132580173820351 
0.01091209242921895 0.007188368178194401 -0.001852273686665908 9.119313448878619e-005 -0.002331256141610242 -0.006247293319494193 0.0002359041611542992 -0.007179215807106989 -0.005498437457811628 
-0.004215664688868133 -0.007427327777462989 0.002518855102422822 0.002467437057993132 -0.004662047501286618 -0.001846268970964267 -0.0160661361190564 -0.0005941044637715945 0.02877761497963438 
0.006874587767830508 0.001042515636013836 -0.01434909866099026 -0.001906534741106414 -0.0008211512248514957 0.01037792657943593 -0.007271218818830052 -0.001693165126765779 0.01161518649338144 
-0.003864470784052265 0.001811293609906191 0.01403203927468996 -0.004828222665054249 -0.001337827121758186 0.006874392501650195 0.004540450749070008 -0.004845051859342676 -0.01286015481470031 
0.01048586686284968 0.007894950927842198 -0.01227728387469866 -0.002827960593320099 -0.009018365316434556 -0.004710058074296571 -0.002824022441011128 -0.001671933415344211 0.007334896062088948 
0.007580199074087212 -0.002198869457677991 -0.007046906542520773 -0.0003701160910738394 0.006573161830957159 -0.001272271584321143 -0.01154729461574052 -0.002890545604003313 -0.006466494049677299 
-0.002197005050426287 0.01153779383510654 -0.007255619042886346 -0.0008695047274919897 -0.005594936594288382 0.01087703850667649 -0.007507478008949726 0.008954524769502913 -0.01237390955676505 
-0.006238431426501133 -0.01177752041737283 0.01887346352430578 -0.008919004749308976 0.003385426949035294 0.0008036339844058895 0.0114560243886651 -0.004174774132876194 -0.003762928588668898 
-0.01976515673911803 0.006561256354920098 0.009363334004379342 0.003052541271751707 0.005095203460720709 -0.0005063994443627618 -0.01731452068018756 -0.003646325714428501 0.02472337235969205 
0.003521237613602889 -0.0008852911044501381 -0.004117892064090788 -0.005922215535017913 -0.004191350947006089 -0.002611591697225065 -0.001300744407439503 0.001720088099047486 -0.01617964607423348 
0.007415286779280455 0.00115616522461913 -0.01621553098840956 0.002297843500566816 0.001076654319515998 -0.0005458855802157906 -0.001201211312179771 -0.006182625339270731 0.009414952073500875 
0.01655283858118821 -0.01306660309918335 -0.01704595877419221 -0.002133108225776534 -0.002285513583384062 -0.003424913199393685 -0.0039331538957254 -0.004713752380755696 -0.00387423523655748 
-0.001320463081712251 0.0005696124086301513 -0.00994886595245143 -0.001477269484506077 -0.004241372739580527 -0.005496429021880525 0.005241889768053686 0.0009198453107909459 0.008522321661926898 
0.003052968569866328 0.0006194860715753991 -0.00356185887054374 0.0001081332579641967 0.009408570060461453 -0.002058335253133337 -0.01022426190490781 0.0008020099824869028 -0.008198878282026239 
0.0138991708814258 -0.005074782701396468 -0.01847244322121889 -0.0006079500096201198 -0.01474529022098857 -0.007272335179142042 -0.006532245193649206 0.002645579005490284 0.034692483997329 
0.01631036682090645 -0.004868963764612629 -0.007574866429299081 -0.003713098707965234 0.003893665861729231 -0.0007209946083296475 0.006745745615254699 0.0006288052469933062 -0.02399035279456632 
-0.0007879222212847443 -0.003287915226755454 0.01612995049956245 -0.004846325633785798 -0.004148249180760083 -0.01006682280767482 0.003520846258800212 0.005614591113965284 -0.009171725578585446 
-0.01530245614841687 0.00830697553010817 -0.00417525392092966 0.004094709934686307 -0.001835102809248589 0.004286181653501612 -0.01411668924944466 0.0008309846358333054 0.01296924586910831 
0.0006778184535563188 -0.01219446039626165 0.001840233344838626 0.001625314320322553 2.833425858817591e-005 -0.003166720601084115 -0.006861713034852353 0.007079847770260404 0.01543832683057375 
-0.00119044688666947 -0.004244323686428039 0.009585320400859024 -0.003517916598875672 -0.01122156868115994 0.003955312693901445 -0.001085104580618344 0.003997010501533314 0.0008256694833556278 
-0.003912605106694712 -0.03586970039431267 0.007000300179326902 5.207884026400569e-005 -0.002638274391660669 -0.003239718973019092 0.002967484911617221 0.03244828530689745 -0.005376181640075597 
0.008103441108018106 0.0002104502049173227 -0.008621839122138068 -0.0009169535766937138 0.001546382106282464 -0.003246332569124078 0.002506276167692721 -0.002075341212735567 0.001663506494415322 
0.00486203499169459 -0.002677047884226962 -0.007049344937012531 -0.001695168453096683 -0.001113721919194204 -0.005561235912137948 0.01083054708112598 -0.003859256072518844 0.001640758462266192 
-0.0008767871649880181 0.01251296810842962 -0.01012059517977827 -0.01631491079384505 -0.0104503480600205 0.03504157601253707 -0.002205502915148701 -0.003331398237381805 -0.002659307649098803 
-0.006053184543485435 -0.005014473459217523 0.01859439825906532 -0.004712555180028647 0.004960680613816133 0.003122065445186941 0.01233976096698642 -0.0005322358148004382 -0.01260334364985413 
0.008491461677304111 -0.006926456069568487 -0.01566568607021782 -0.01091995182275944 0.01795941536910976 0.0110595202917299 -0.01398736433469519 -0.003091762717500181 -0.001525306033998662 
-0.004925894922944152 0.02621989728367151 0.009183376345273433 -0.01184022644577394 -0.02947259671717595 0.004730138933951483 0.0002905029820351283 0.003212444492818121 0.009024486492322846 
-0.01216661685942671 0.01799552703768633 0.007490981470180681 0.001915631089678299 0.01041814799570996 -0.008691463000098867 -0.006934832774750961 -0.004504882311256669 -0.0005432869761975484 
-0.002716917042086652 0.005005346804140165 0.006769217068820935 -0.01718918901621732 -0.0009081131963276163 0.0004559804197571845 -0.0003279011926051907 0.002802920511020685 0.01304341553727614 
0.0008290591495264067 -0.00283134169703969 -0.007739740706996772 0.02036727000047177 0.003106691791350385 0.002474383402862287 -0.02617504347339307 0.004650960569405387 0.000710268311247982 
-0.0156963457574374 -0.007698172773336659 0.02463635368261274 0.007207894536731254 -0.01850344645178226 -0.01075304334908279 0.01222438167595075 -0.004737064495510038 0.01798176368980955 
-0.003879676561552923 -0.002782870236178428 0.007140730962432406 0.0008604983355559055 0.004290317197033829 -0.001875640618744332 -0.00954917097550104 -0.0008324614652515318 0.007829884487973605 
0.007253789305430679 -0.01221806305475847 -0.003677820087654569 -3.110693351964354e-006 0.006733470714573958 -0.01370326082877171 0.00265553312688513 -0.006380987400564813 0.009810374761289924 
-0.002265868118006554 -0.006460961164864909 -0.005693393026244381 -0.006158808026043879 0.001670831404046869 0.0008924428608971221 -0.01373147408075602 -0.0003190370378160265 0.02733963116264399 
0.005482770649148937 0.004896274855881268 -0.00588040276276326 0.0008846841983674628 0.000195545981359101 -0.0001890357325150325 -0.006624414557123471 -0.0008089716073437031 -0.004790869033215876 
-0.00225316418577133 0.02244254222583189 -0.01531395995793862 -0.002377813172619745 -0.01097112414968553 0.008841545030606982 -0.001824894936943535 -0.007055164443634939 0.007919800173850314 
0.001061855949429576 0.009308299542130482 -0.01208546378924779 0.03474111381748127 0.0008740896725390208 -0.009940507387097784 -0.01266486673224579 -0.002416582427856757 0.001749786940267723 
0.008022689301524661 -0.004196655706271054 0.009603190243103323 0.01151282159132422 -0.00453372916243777 -0.01492162669616251 -0.004837417513992444 -0.002557332780943566 -0.004103822609198703 
0.009680173999488584 0.02159635194834011 0.01747804490611862 0.001781642796146844 -0.02359254601359069 -0.004059179939581336 -0.03128573650929827 -0.01628723935408069 0.01049251773633816 
0.002506243027465213 -0.0093605054247519 0.002530258008887773 0.001929528144912781 0.001044513786123677 0.004337130610349072 0.01446485057142518 0.0007216254582424621 -0.01419669886496865 
-0.007422761300953056 0.005242070227813133 -0.008711517930085681 0.0002803766449866695 -0.0042995382119701 0.01639836987167679 -0.01312562391249208 -0.003139955749499852 0.03169689612039835 
0.009525249584738845 -0.01848768370792136 -0.0107218924482496 0.00241475403361109 -0.002806978042200315 0.01530139107383225 -0.006242430044076944 0.007661624020888267 0.02411574449433459 
0.007625334241767879 0.007375001487197549 -0.00572289769392275 -0.008052550509880227 -0.01465277630812007 0.004480560638440941 0.02397498728366299 0.0002596371913835891 -0.01042865277343071 
-0.004963959845864017 -0.01274017851162526 0.002099257408649807 -0.0147758793190312 0.02074308750664257 0.00937586468215955 -0.006840578870954351 0.001400812935159114 0.0100072075475379 
0.002921171845971021 0.004102307843823514 -0.003670644655610121 0.01085912934587129 0.006493713302806618 -0.01093556793642156 -0.004372032957282884 -0.0003161127904112909 -0.01568945493615354 
0.0005558328108552416 0.001759232062442588 0.002889482641988212 0.001927238606049979 -0.01173321612930405 0.002387826252815938 0.008985181898750127 0.008081857021594715 -0.01507653030874501 
0.004510755609244631 0.0005261418977054533 -0.002820998502534579 0.006514988709000375 -0.0005368728964281884 -0.008892832540539091 0.01200837977507543 -0.002649406057053757 -0.02021690617226518 
0.002321561788594478 -0.002478401454604345 -0.008221279251541189 0.008941656923222772 0.004285898516079235 -0.01041192348320522 -0.005957973424169785 0.003911999587965036 0.008157079932549084 
-0.001752093221448397 0.004256857835576742 0.010447485629484 -0.01263144583158465 0.006073343727005788 -0.002818396157979826 -0.004258171521687356 -0.006684780096617949 0.006346842746480934 
-0.007848633606613548 -0.02161462867735052 0.01549997494684651 -0.001343370102452842 -0.004773377720405302 0.007770107963777045 0.002023161114212711 0.008148043219770983 -0.01765847486227125 
0.02207096899713571 -0.003127379474191041 -0.01109399056128881 -0.002027793840336452 -0.005500790533989342 -0.001570406742442306 -0.003945150263110296 -0.004221555646073802 -0.002346092485589822 
0.0006655621612996559 0.001909298774942984 0.02052414388234217 -0.008226529962820195 0.005387522768999441 -0.0009950251024185457 -0.00658422174374421 -0.0008314428075768854 -0.0196318709412827 
0.003922057831138933 -0.006008896376545562 -0.00369009631792204 -0.002118691851376786 -0.004777191563495062 -0.005201057630727693 -0.003042920814689376 0.00100895049689559 0.007350920450232683 
0.002618847996628882 0.006256268821836185 -0.003853800531887319 -0.01646530805447369 0.005666942332245979 -0.000869848152501265 -0.01378177343067228 0.004444069369342675 0.01660534123675902 
-0.002443805757796055 -0.006856371328194439 0.01017880140759128 0.001236580110391579 0.00363084131122136 -0.007849915826346967 -0.004113936349687131 0.002653580697999154 0.01131237276860095 
-0.005469678567331121 -0.001397039112014052 -0.002559216511118819 -0.01546754461219029 0.01904756310816522 0.008820887362834222 -0.00680753540512274 -0.01217782649790598 0.02630125884259159 
-0.002936549735232202 -0.01477469095666297 0.006479092739716664 0.003578922878313999 0.005153105951874829 -0.002834965191197582 -0.002398385167846734 0.001739022606915478 0.02063017814521168 
-0.0003130815178864048 0.01082778887254988 -0.005837606011714433 -0.007525965492503872 -0.03703868827157937 0.01743910481506691 0.009180908525057662 -0.01963180339951592 0.03122400824439544 
-0.004654326565940278 -0.002363239366148659 0.02769048072421575 -6.840912510446824e-005 -0.005412988467884892 -0.009775079291675967 -0.009378400393565939 0.004004910745964413 -0.002917776490207649 
-0.01490721280912554 -0.0144805434671743 -0.009860550338547925 -0.02109343205190627 0.01642331090018928 0.03325724149144556 -0.009865080577639932 0.006397832611533586 0.009667919951040587 
-0.002184658025324028 0.004502106295937504 -0.001589407730763591 0.006167074921716776 -0.006836249904637759 -0.003348473566339805 0.005735294807254337 0.01626086266764444 -0.008235460296461503 
0.000442873181860173 -0.01142368043367536 -0.01100100850530243 -0.001565465262107495 0.003185953339689141 0.006999016481390162 -0.0003081977442616736 0.003414168401139743 0.01425511862651295 
0.01592251743514375 0.01248868435245129 -0.002648136720639674 0.00699820035331327 -0.01719789820204663 0.0119208378156225 -0.005451562470272834 0.001947549548304997 -0.01608573336537376 
0.008216689841995018 0.0100538346709134 -0.001025984764543092 -0.001930948245634896 -0.03409177529344459 0.01041575616289727 -0.01816238366909346 0.007387524748281294 0.01532294306827607 
0.004784427312395519 -0.007625977663779627 -0.009759479386798017 0.01267830354650973 -0.01043042601873449 0.002676982809593751 -0.008167577373173805 -0.002628378777390369 0.01194047372244577 
-0.01075553240570287 0.006366434851698919 -0.004557222205465474 -0.01400704162682115 0.01749115867394855 -3.529210333185727e-005 -0.003833931886750354 -0.000928527952419772 0.0081775788946693 
-0.008354004776611381 -0.001938035204858114 0.005759786399164487 0.0002276096618801156 0.02448276399416512 -0.0005721745264190716 -0.008798499691614649 -0.002605167400237721 -0.0006746395307487625 
0.01270476733182556 -0.006925728370790786 0.01928693522240445 -0.0001351555104990319 0.0007641410850943753 -0.001647311352470967 -0.01131915887976721 -0.00351474269045967 -0.008283939620066762 
-0.0009119407540359374 0.0005907354602968152 -0.002538875859987699 -0.001078822024401216 0.01017598589540473 -0.003419659685247923 -0.01442342808546947 0.001892904594695644 0.007853849872512173 
-0.005134037537171682 -0.003764634268633427 0.01547924479373235 -0.002206594222605903 -0.01785370546036983 0.001157280318282172 -0.009714830953730304 -0.001764718789629298 0.006712760467688137 
-0.001744692216664461 -0.008934165806294834 -0.005370757199734047 -0.01058009011903196 0.005792583630737914 0.006680816977241363 0.01356222261629706 0.002339649792304424 -0.02154387417325292 
-0.001844045001355632 0.008179786934730151 -0.004972894227742732 0.005454452254273864 0.003312361707986009 0.002425725566334132 0.01466958799163327 0.005776556941609089 -0.04196572603544312 
-0.001470677825867879 0.01561996188820052 0.003170882253234379 0.0005557914502260931 -0.006986169884324641 0.005420929048615957 -0.01794263470020039 -0.00779126800661816 -0.004059174624714377 
-0.0004803903386811653 0.005177835890116079 0.007619265712407896 0.001538184624033278 0.010967928009283 -0.004743161929548013 -0.006892616530292429 -0.005277556614521724 -0.01621002402073446 
-0.01065702875096965 -0.01112730712695817 -0.004811051501438179 0.00573193001566716 0.008478151834792953 0.01248659713304466 -0.002348382089411545 -0.00344195971236655 0.01162135373892496 
0.001740725785194196 0.007718494964644239 0.009905007247707679 0.004950418937160128 -0.003770651428102747 0.0003203922206094428 -0.01118882580273087 0.004499049954210903 -0.01646827801687108 
-0.01180894840205283 -0.01299692273854176 -0.0005853975601678911 -0.01556417717377105 -0.01774344410938482 0.02061992151541478 0.02410339277168151 0.009692749297714616 0.01468818440325784 
0.0009234305441225677 -0.01473198733161397 0.02349342798618193 -0.006313981783793395 -0.03877080254422154 0.009524654627809452 -0.002568658828973214 0.003194502458433084 0.01979515632557459 
0.01102911493309124 -0.002996373893321153 -0.02486643629556667 0.0009711319301397976 -0.004326016388066991 -0.005679135450461934 0.008687400171037233 0.003837496384190691 0.006434922818195134 
0.003951395132241982 0.004429685237006362 -0.01346664057935184 -0.0002624550666185461 0.01244827448595705 -0.007908974752137027 -0.00952545112182863 0.0005360092953856856 0.007647451297994171 
0.001031406783729822 0.01260178164949687 -0.001633674629593909 -0.01131380140826583 -0.01236613551328139 -0.01071884127346924 -0.004189984887429049 0.001238996264045747 0.01453625059315698 
0.004352813147900793 0.001019239873815909 -0.004369132257315654 0.01078540987912127 0.002284788987574027 -0.002105082871833735 -0.01487931568139436 -0.002578418101497692 -0.005147691844222604 
0.001435695392623965 -0.0004738521719860621 -0.005468542799390268 0.00201614590301245 1.648639658755411e-005 0.002830756407173559 0.006621051555739776 -0.009503430920465497 0.003349658931520538 
0.005973633468247022 -0.0001605422286112825 -0.001392717152043682 0.003786881941282824 0.003506249183921589 -0.004669972073500665 -0.001212172420727311 0.0009441524467113773 -0.01641939886417258 
-0.007591750279468018 0.01067649403764918 -0.01520670408902351 -0.005501399322575925 0.001310590711750265 0.01422845599448322 -0.009699876114047127 -0.001957799553927014 0.0352239369830292 
0.003877587402822717 -0.005174947476316104 0.003230587868775269 -0.008430510575646477 0.01103857888143182 -0.001293258886737219 -0.01250986589756807 0.006944450798996736 -0.006117664571502228 
-0.001556705073412137 0.001233972118086025 0.01446670048573706 -0.002762585844159417 -0.01326916129589956 0.00171381443751552 -0.01336962166097941 0.00397431623798737 0.0008867198842085398 
-0.01345458900096811 0.0003224179711967268 0.00855594029033693 0.006859534466388572 -0.00536526456823893 0.0002704039853801654 -0.0076742204562495 0.004960595479839604 0.02040480781990124 
-0.001743236901802388 0.005646717141790566 0.0003568705723884017 0.001191201474970571 -0.01214413591508279 0.008759183298950715 0.0007359932840542077 -0.00350717887718436 0.02394255756060522 
-0.006772196719620746 0.002310023415463211 0.0004033737338047155 -0.009298383224311483 0.000383909629918938 -0.0004917407727240351 -0.01029206864419072 0.01337291604922399 -0.003942505135532771 
0.007447644448969324 0.004316347686661131 -0.01445396735595932 -0.005583301017719117 0.008831110469929137 0.01230488549496176 0.002479786481152514 -0.006033618785759439 -0.0327682588543999 
0.0001318033740272224 0.003154742694491081 -0.008708516379624378 0.008130331886165859 0.007868140820590437 0.002969687331210678 0.007345229066351568 0.00439815167363792 -0.02849595691107356 
0.007951356847146951 -0.005144319515483937 0.002749590447802164 -0.01642233551486405 -0.002935508865725568 -0.008092623976211473 0.004445569191886885 0.002719992649047221 0.002987135206232796 
-0.003738452634809398 -0.01137961490017872 0.02356934334222943 -0.002316584802785141 -0.002577571435391155 0.003834813943654134 -0.006517275710525045 0.0005663362054854116 -0.01774738350318277 
-0.01032014720275246 0.01085435590991877 0.002858272241467081 -0.01228242122471658 -0.006973532654821226 0.0173429382137107 -0.02399997363225408 0.003803146518664706 0.005721709594235245 
-0.003128981780566534 -0.002223730428120552 -0.00220144627290884 0.00135370692054159 -0.000998149909254754 0.00034600511489996 -0.01084631831548927 -8.912055017640349e-005 0.01084407515650955 
0.001455415096319307 -0.01159776554394622 -0.007733494537142776 0.006309610440388551 0.01078257721168239 -0.01108955824789613 -0.001849211577167026 -0.002229537304251215 0.01274986144265328 
0.003054657438045719 0.006253316906044889 -0.009900996107371281 -0.002609742999764088 0.001866156591536491 0.00538917648322927 -0.002572637144235738 -0.0005571687008749266 0.005775915316003875 
-0.003443880146349593 -0.003999787850715002 -0.004847023044843937 -0.00263940792527736 -0.009040444252941223 0.00452111367041779 0.005598546758202363 0.01871404940674479 -0.008497584391965161 
-0.002686665056757052 0.03107137204510753 -0.01291344344172958 -0.002664646073728763 0.004309484536727043 -0.001922984353369961 -0.01369345952751 -0.002916510327531871 0.01444394306356067 
0.01048182294476359 -0.002128480386098998 0.01154984684591508 0.02222212235586861 -0.01641722010889881 -0.00256448096078372 -0.00673553902225456 -0.001348691342928791 -0.01069082718476523 
-0.008554380185565737 -0.007510957924754811 0.003885262937437963 -0.01013529486699999 0.01415684202063782 -0.003982186523361431 0.007444623349517864 -0.001373639779238064 -0.004520350599599086 
0.001667488593883177 0.02636997239473306 0.008203514058233725 -0.01537073492904704 -0.0145056391276331 -0.000954702996132144 0.0100676774752213 -0.01289263701396536 -0.007051426800355552 
-0.006812136519557489 0.02785351019724383 -0.01106973903973156 -0.005932312829871405 0.001679939842371488 0.002003575728597508 0.008397250749783564 -0.007265696720212832 -0.01155196467467024 
0.00331519139738546 -0.00758642247470618 0.005835529987767506 0.01808339145561195 -0.01328953379976369 -0.005450190780367688 0.00979701958652685 -0.005654821519377819 -0.01764657928346976 
-0.00513393669104855 0.01204983398841955 0.009986741946037075 -0.01129301958814487 -0.009299465708914925 -0.004151521896949838 -0.01366954580958713 0.004200942053509449 0.001563490656205762 
0.008040654966455044 0.004563675433469396 0.0030009609377798 -0.01071849647421525 -0.01581036755483314 0.01459803712156737 0.004866797473689628 -0.005561020923003852 -0.01224034778433031 
0.008288131284295487 0.01930844079501728 -0.005067365516434177 0.01029453974071013 -0.02208691713732731 -0.005263782388296653 0.003042969598146828 -0.009390087820014163 -0.0105929083016818 
-0.0148269195884395 -0.01239009239575021 0.01403882897482708 -0.001814973731220176 0.0136325237013201 -0.004102015183395742 -0.006314812242677914 0.004463040930142101 0.003380586177719514 
-0.01056802642894622 0.007144798966805748 -0.01354617275445655 0.006838817562639562 0.001378209263883665 -0.009285512663799055 -0.01984687546896203 -0.00233174278658548 0.03517294701536655 
-0.007113239387028531 -0.006741870474566728 0.02524576108279283 0.008224433421542656 -0.007375648415430232 0.009263823564535799 -0.01903918049569047 0.004201967803454821 -0.01713490100111624 
0.0002262632064813597 0.008057664459875944 0.01280878170253811 0.0004167582364162031 0.001100919625983806 -0.01287451523149436 0.009951938798541605 0.005151922206234117 -0.01366463473186254 
-0.004008999192809178 -0.001380676676824817 -0.007919977816099464 -0.01002647985851999 -0.01064536876014259 0.005808995252100688 0.03808895739858663 -0.002836225105779105 -0.0001627914200274932 
0.003654053529515062 -0.01654645577670411 0.009396251173671504 0.004006607710653381 -0.0002011643006078025 0.0006126750799576358 0.003209420924737456 -0.0025592526171829 -0.0171750230544038 
0.005278487792013197 -0.004433239226706909 -0.01009767322491519 0.002075440061093152 0.01282651231715438 -0.003891226604643893 0.009764000343690051 0.005416638649861185 -0.009733057163392046 
0.01085332182390046 0.0002377996719692177 -0.001994981622341242 -0.006890632951612369 -0.006239762813830497 -0.0003086720580625146 -0.003976274038121429 0.0004642648370088792 0.008257575229626035 
0.002915066460331152 -0.004115197353103964 -0.003037332303969826 0.00640978800229885 -0.01041042727645775 -0.006881344569018474 -0.001383712867657309 0.003292189969656513 0.01505676833697676 
-0.008007739796147412 -0.0008583091247374579 0.004738385728740286 -0.0005723042609776917 0.001707695653023082 0.003412151284106341 0.006809213552252314 -0.0006324383503120239 -0.003544046605300958 
0.01034197115894394 0.007274954614137381 0.005832674543470575 -0.01293329485266593 -0.008989779647404512 -0.008987490054385948 0.01182855657813493 -0.003241897322240326 -0.0127105885100985 
-0.001097197722159665 0.0004977326121826177 0.01257117913476773 -0.006340070411707597 -0.01009703581265011 -0.01243410689636794 -0.0005710736974208589 -0.003247209572049021 0.01747679293989117 
0.004864555644662356 0.01441804031324417 0.006313640399931697 0.002668756602182203 -0.01360614386662542 -0.01140302226768451 0.004491062173819524 -0.002091394677604408 -0.007196120066467531 
-0.008361066690791718 -0.003126987967344119 0.004478151508536488 0.003693719472847462 0.004132733236972872 -0.001895328239267253 5.132069936872915e-005 -0.0004054900923871175 0.00136693276510799 
-0.008460099258708014 0.002865541366054769 -0.001958792716193733 -0.01299669321145936 -0.01122846291693273 0.007300488560872601 0.006448069194894954 -0.000594691331666572 0.02469429024690024 
-6.534775347530657e-005 0.009134047731326256 0.006245982239731266 0.005700740307130015 0.007072752715355388 -0.006235548803466731 0.02310403045658395 0.004695882733425309 -0.031778308461252 
-0.006013362740099218 0.009454354422561885 -0.01032257188018376 0.0002849400863636826 0.02121931503847827 -0.02718654539214353 0.00461361690196195 -0.002297305987551557 -0.008113570291559459 
0.0008704723186056492 0.002850722588263795 -0.009297894955745107 -0.009833216288619398 0.01853454436181547 0.008283372755154639 -0.001551007733594735 -0.001196282615114406 -0.008839066856701407 
-0.004776256932806405 -0.008663501544545243 -0.01367871355757278 0.005837033517573704 0.003313101465223637 0.0004128793388692949 -0.01465336680330201 -0.0052057458961066 0.02473043870613993 
-0.006542128503435085 -0.0168265588976522 0.01855401158281283 -0.001788170464567864 0.009751037699859329 -0.001470928802887612 0.01336284116527788 -0.0001750185038980008 -0.02893949091473985 
-0.001635779616566422 -0.0002315207064254423 0.01145665732972796 0.001666027780513935 -0.005540581843471282 -0.001092668840822002 -0.007395707488466197 -0.009517171319202374 0.007941942197774688 
0.003887068974579746 0.002758167248192779 -0.007428812355296019 -0.003814040414196128 -0.004374480994544066 0.006742839475675243 -0.004819886869152061 0.003511048915599073 -0.00133405496238303 
0.008148608565548898 0.01082962410154906 -0.01984898032967743 0.01114957952912933 -0.003386262498670998 0.003240900543924881 -0.0156773241950114 0.001801966367562583 0.002374480709987917 
-0.001969193253744588 0.001463332660664684 -0.00116893729952113 0.001611965317900025 -0.01064725894749964 0.004023298858687058 0.01087750534889575 0.006090101040176494 -0.002452658749190436 
0.002310256561288049 0.003675631636672375 -0.003037904132501936 -0.01544808377087046 -0.0002466229910988005 -0.00307291544425888 0.01714527201403344 0.008039810204371911 0.0025592871494261 
-0.001639410067701013 -0.008071724910845591 0.01068675761066893 -0.000209182577383793 0.007556578660023362 -0.0007127136809562598 -0.01024565540622166 0.0003891702286898473 -0.0008768343589573224 
0.00320645637782082 0.01255298693994856 0.01775015260960512 -0.0004025391872846024 -0.007944255118998935 -0.0008918675921232275 -0.002810126794717297 -0.002985622762805206 -0.01068251182344894 
-4.055822777848247e-005 0.01975052040751883 -0.008930319870154633 0.01807085855908769 0.0001200807319690507 -0.007680381028562143 -0.01307657984459126 -0.006727500977201975 -0.01154684838220899 
-0.00394966476761752 -0.008343805444635361 -0.005567690828264933 0.006789883257914688 -0.02754393405035527 -0.00495065866746864 0.01285395910690412 0.01188259320143434 0.01429787096096786 
0.006923645878354127 -0.006859357035895463 0.001804411319788726 -0.009845029345837995 -0.001325091287790972 -0.003590950797993351 -0.001192444657237717 0.006561155791537925 -0.01063539658232797 
0.01453853594794361 -0.006303168070178278 -0.005614009133008534 0.003850426455711863 -0.005962577577803953 -0.005909475464109273 -0.004307676376913949 0.0006804724796817683 -0.008144836527659845 
-0.004160584147133937 -0.00608730485707346 0.01242722152015187 -0.009476067897633762 -0.01565132718388265 -0.006124417415607618 -0.006081435303865611 -0.002994611260374968 0.02629833893575345 
0.001555783504780498 0.004056542878811879 -0.004998374550811984 -0.005067650108831386 -0.0002912017473719907 0.02236109758133703 0.01239063484809184 -0.003286836358279219 -0.002096164451876906 
0.002481258707362657 -0.0061276896921598 -0.001358492469199105 -0.01010566922438123 0.00504831317793092 -0.005351402335422645 -0.007533216513678034 0.01757783086636067 0.008310330947004594 
0.009370912015536016 0.002474237853102768 -0.007267612518979688 -0.005401233627438083 0.002343671223350299 -0.002049252765021667 0.003862065203770973 0.001090092332639046 -0.02004406618141072 
-0.009058249924150467 0.01136315075542513 0.009330052053212353 0.003816913256024278 -0.01875505002610779 -0.006393031075162922 -0.0005416632272574143 -0.00100122792079954 0.01891613239484101 
-0.00344355370629853 0.01130158823793322 -0.00512262898518121 -0.01908975193378885 0.01007965965011631 -0.02114845967500641 0.01417461598399883 0.005146125710395792 -0.008798359703929325 
0.004368050077897448 -0.001819932002031652 -0.009141777782668501 0.00674605233381041 -0.001970098524504152 0.002480472186636707 0.003810588261324597 -0.002490818770097628 -0.005998480710876629 
-0.003908911826296026 -0.01081679902593205 -0.01186834640294053 0.005067265281464484 -0.01106568510325139 0.005586197253087353 0.005267043707792228 -0.004182893445658357 0.005331426245375356 
-0.001546441240675343 0.006678961640892251 -0.01244432666362868 -0.003564984667209544 0.0001891581945324288 0.0008602784696444647 -0.005573135723807476 -0.0004143119520408737 0.02455553920243396 
-0.003953048887663764 0.005799852566261861 -0.005927128549840966 0.001305418471839044 0.0008244436427070843 0.0008620701973015538 -0.006382571406879572 -0.00339053107871312 0.01369642175766847 
-0.002051336277200584 -0.00283389863758523 -0.001712353623238582 0.0008130486873817039 0.006862889167143121 -0.003676089308666899 -0.003329471946978526 0.001676300686940808 -0.005604970762312628 
0.01869115277665078 -0.005010495509962569 -0.003927225135522216 -0.008739130098337149 0.001511019326144422 0.003489760821204383 0.0007946456338720469 -0.002721288650147021 -0.008618316571324136 
-0.00523517501722144 0.007277821549187027 0.01328564170370705 -0.003293281075868687 -0.009202783572602329 0.01495345133880621 -0.01134320873584776 -0.01052041318531466 0.009805201048701012 
0.005912306137337578 -0.002044631676713679 0.009942183454365464 -0.01359259282989456 -0.007712544890259838 -0.007313939271397501 0.006957807456784467 -0.011249908270383 0.01684677571275099 
0.006288137913718484 -0.003571738689680082 0.01496255247135809 -0.001772222223195373 0.0009294140099963972 -0.002491323832036212 0.007574968355474605 -0.0005188504466950985 -0.02545529473682344 
0.01080048481754475 -0.003967358638882102 0.002816158156319622 -0.006842374047794798 -0.003264673681101548 0.0001235124298668399 -0.005690099929386281 -0.004159802173988743 0.0006708029059292002 
-0.001512942296578403 -0.006238846215496752 -0.006065330598027044 -0.0004050726816009841 0.007884226111470686 -0.006808813037557249 -0.01136802149072603 0.01584823032082813 -0.007629362458846344 
-0.00313071752368533 -0.002161493340439728 -0.003381211610038735 -0.001152820617212226 0.001825798994857965 0.00281566781474633 -0.005356258799589604 0.002920129382696979 0.007216978300467765 
-0.005037596765963046 -0.003532059374834715 0.006680146470989596 0.002644859370669397 -0.01390250499288694 0.009922711275693146 -0.001764903911482728 -0.006370324628531256 0.01149569604084175 
-0.006609571926823174 -0.003704191199738031 -0.0003941893610358528 -0.00177992757884328 -0.005420475885775669 0.002766501561698124 -0.00280700668828327 -0.002913343961190443 0.01487987425206794 
0.004444577126960165 0.003357955668839906 -0.001897789344061219 0.007525862686937635 -0.00627394936067857 -0.003697053525839006 0.0004712354465483774 -0.004046826628164328 0.01024670610202223 
0.008184399435162852 0.01282043743235607 -0.007101930264405341 0.004745955059251301 0.0003085650588603525 0.0108546148751247 -0.006816655298703135 -0.009881097665104274 -0.0178785671040719 
-0.003201101213323822 -0.0133827863888784 0.0003579240514920983 0.0003774780270554372 0.01674401402480618 9.993088305349768e-005 -0.01943919039135138 0.002179982551911562 0.01834098030220089 
0.01333628062038773 0.003120939551006101 0.002117211840764229 -0.01307542040300918 0.003085047640166417 0.009031717574060169 -0.003428816444437836 -0.00596712369476409 -0.01280840094121714 
-0.003796808710870956 0.009011827969931333 0.004656893929333826 -0.004640227917416805 -0.008901904162846433 0.005724254233282862 -0.005311759573898108 -0.002102992410684759 0.005641896453117251 
-0.003021687578912859 -0.006316967615007624 0.0133756117191665 -0.02181878287944932 0.007848337155659047 -0.001598163080362981 -0.001453347611013998 0.00392630653636411 -0.006420030645647281 
6.070377480686892e-005 -0.01091922247410927 0.002119955948164979 -0.004994389258077108 -0.008014678879997858 0.01314736634980638 -0.006881542935375476 0.002205173149749929 0.01646194164556426 
0.003840347076422257 0.005604635521029339 -0.001452867937374932 0.01187357186563891 0.008406721600538285 -0.0125409117277558 0.002577134851997564 -0.01015952007357078 -0.003843120558127474 
-0.004879510480221996 -0.007969177100354653 -0.0003293828349466053 -0.003208608153052292 0.01072902540471849 0.0144680610123656 -0.01916045414333551 0.004327769825393592 -0.002000003647134499 
0.002855425046982073 -0.01787818387982579 0.02114425761115173 -0.002321265627908337 -0.01048113603567731 -0.002822631645060998 -0.007472350048465511 -0.003117673582945772 -0.001770671886165643 
-0.002772078713894425 0.003745040869343013 0.01387974793096537 -0.001912865021443421 0.006866745429613718 -0.008276613616141022 0.004972596202804999 -0.007269772220494903 0.0007940090619738412 
-0.003943166398892713 0.009743267251963981 -0.01097150552761831 0.01192974609808568 -0.01033103256120447 0.01830795467495976 -0.003254193990381555 -0.005778883046121356 -0.005699105723844434 
0.01333455408189009 -0.006547733724238523 0.0009902209909274085 -0.009545173754288185 -0.01397441211534622 0.01130225676566155 0.01870276665545577 -0.002396768135954801 -0.0191861442005317 
0.005774669771583976 -0.0158069532865234 0.02432059085644333 -0.008961865414372534 -0.01095236533757152 0.003985328207572675 0.004626998445372204 -0.002951673627800984 -0.01954083731560862 
0.004402160991106674 -0.006174944825318251 -0.00732927880367339 -0.01566197070740169 -0.01952207713927489 0.008602151107507288 0.01546102784584073 0.01187766950877848 -0.003886985906377138 
-0.009396402569128033 -0.0008827608271194402 -0.01026987821596218 -0.01294962318720625 0.002764153647820594 0.007929160302217474 -0.01389862752088938 0.007158376205596816 0.01822938009357758 
0.0004476663457978753 -0.006859137767732635 0.02276289747308278 -0.0008699694670762415 -0.007210651170854055 -0.01264778526467694 -0.006413606917282337 0.003915384134741466 0.002869445003239663 
-0.003077021742321538 -0.01345775176088437 -0.004138414994763231 -0.01153442598066214 -0.006227030707210704 -0.002260597028973062 -0.004445152001292752 -0.002985952274476092 0.03640537218014399 
0.01306512848168656 0.002726332193100905 0.00217955135462015 -0.01985477194207443 -0.004316544484200231 0.003924253393483244 0.02239549690708805 -0.002876120943773266 -0.01653567324608495 
0.004239067674980112 0.004250511383572713 0.002355100967028987 -0.0003881817078820461 -0.009569427781684518 0.01777647668456144 0.01099456160710106 0.01244650265751174 -0.02830750528385442 
0.003109219682719962 -0.007850433119120934 0.01005371210192928 -0.009627946021467776 0.01123622447748075 0.013516245443863 -0.0007930281757054595 0.001665079879145542 -0.0274887716448192 
0.005511428282826035 -0.003987063541267645 -0.01313386396622762 -0.0128230918895524 0.007765624955204516 -0.00240288563564539 0.04215800609022064 0.002298484784219997 -0.01821662162539163 
0.005542408608968162 0.001717635561316891 0.006093615489610548 0.006944370349589613 -0.003784330110589162 0.006017154658800579 -0.005667863994893141 -0.00314801613263887 -0.01573540644828727 
0.002091774303854278 0.02425413944540294 0.001893827037222569 -0.0001971240526014782 -0.003455660018094903 -0.00567732459245165 -0.008120478296444208 -0.003461531903927627 -0.00162014259353339 
-0.002676542510075421 -0.01246484692897474 0.01943983705678588 -0.006791935484779235 -0.009576758319909416 -0.007202264610911125 -0.007827732265743058 -0.005794261299876847 0.007272103912860243 
0.000873396426678542 0.002357661401865481 0.008385052288758762 0.009809816798534521 0.008990338804490065 -0.01101143276917311 -0.008548969163941817 -0.00432885022087224 -0.01939168630762376 
-0.009358644033502818 -0.002033605157879198 0.002925487746929954 -0.01010165248923492 0.008292884765074308 0.001510019583939191 -0.006346559204019457 -0.003121282800820618 0.004431774556354792 
0.01153176979831237 -0.01047243455164134 0.02048029042790455 -0.001152075241796091 -0.009930404585572957 -0.002217266091455338 -0.002797663501391989 0.002301370134069689 -0.02536396316070884 
-0.009724587847286985 0.002006888231422767 -0.007306975534885159 0.02647869499361878 0.005680832671836154 -0.03471606220951743 -0.009597692694741523 0.005322099343312357 0.016927419442586 
0.002740360008506844 -0.003042449875057103 -0.003351889211770491 0.005398250665682728 -0.02739279365027786 0.003310483249771156 -0.006485583397583134 -0.001107239324638314 0.009287528091484537 
-0.005160939774334564 -0.002872870472773397 -0.001910456559401235 -0.01616820592194814 -0.008688626550405598 0.01554879966458502 -0.003115180651606759 -0.002957933117638487 0.008603883855073146 
-0.00829341185368559 0.003731310959497966 -0.006713466797606968 -0.004435627238793453 -0.002580383897515077 -0.00113444166556621 0.01864773188051793 -6.876583044000433e-005 0.0001903672046182361 
-0.001014634493747379 0.0002543287773910635 0.009669414133551962 0.003490500445709707 -0.0009928269141166531 -0.009809892858187915 0.002628860011441501 7.773242426318155e-005 -0.002313911733248145 
-0.0177894605970324 -0.00591491111060003 0.01351496080699586 -0.002885027188661806 0.002832696740274413 -0.00974039261920278 -0.0002614431206466898 -0.0007128888742774819 0.02100095772503768 
0.002092240345083817 -0.002249638496401522 -0.005292214535194961 0.004323847139621619 0.0032120844205543 -0.001923820384024518 5.410624579623893e-005 -0.001407484503991172 -0.0213910521498316 
-0.003362931603046978 0.03575758928860359 0.01754983082900425 -0.003574707864972743 -0.003445242358349755 -0.01688900176593873 0.009929505327266785 -0.007935608564560376 -0.02170309174200158 
-0.004953024127471455 -0.004156017794061735 -0.001631423244343393 -0.002942375877686059 -0.003458888171046332 0.01183006540889216 0.01281777663054906 -0.003442845479499725 -0.01277893237649092 
0.003694842476749083 -0.008731883057271211 0.01271270892263259 0.01149553966570191 0.007750733346809615 -0.007273088846556857 -0.004587671382731973 0.001565430591587773 -0.02287336165671645 
-0.01046496034703547 -0.002426410523720369 -0.003923097331184998 0.001940816354776769 0.003645993104772829 0.004234348385758289 0.004572540315169254 -0.007358928594165539 0.01563012319904818 
0.006933930353839912 -0.004389136421910707 -0.009042182080498331 0.01118863290868009 -0.002066734172343909 -0.007019629649439923 0.007324243526135188 0.003188579475210302 -0.01790051842965081 
-0.005877605792385819 0.006266037871653796 0.01616412052783066 -0.0005542451134961831 -0.006715294330774844 0.008391254550016686 0.01388695379703982 -0.003527694926066446 -0.02274680583071842 
-0.01449569393489347 -0.01132389092219059 0.01951349225062569 0.01044844336600064 -0.009107245909277008 -0.01039439294032594 0.004913265202733327 -0.01342545780673047 0.01719096842806628 
-0.003869863867151397 -0.005559636175705995 0.006390884658211761 0.001198915527067797 -0.003002519222886088 -0.002109475890145667 0.01148651202595997 -0.003077044207337501 -0.0007973047234732146 
-0.0004256462027328296 0.00761052794028777 0.005012859023628349 0.0006761183784174524 0.002303364631461136 -0.006665166325166996 0.001210111799357056 -0.003743983833217766 -0.009740306580757977 
-0.003916514381460316 -0.01121423604815369 0.005988488181911964 0.004122985594194169 -0.008519301490870513 0.004493993162241878 0.011129113263171 -0.003942706673427965 -0.002092558848718366 
-0.002518975892279344 -0.01983793116943582 0.01675690145703371 -0.002084723780559517 -0.002451173460619848 0.001419933840107254 0.004725623719931332 -0.003042756400836839 0.006512412275709575 
-0.01104873957821347 -0.001370476431352604 -0.001179361706294887 -0.01632651793257569 0.0110703026727857 0.01900040557083284 0.003735923028210108 -0.01274065022734343 -0.003517923480703596 
-0.002766052395669129 0.02160491558204956 -0.003654310623079328 0.0076735223189277 -0.01270529411439285 0.002693787221925608 -0.01298435226122611 -0.004260067098129315 0.008526491651702531 
-0.006167440736281928 -0.01372854794018666 0.01726061998991603 0.005474815253942438 -0.009538673166399891 -0.008339291099647653 0.01054719424061403 -0.002584255420079032 0.0009774566162168174 
0.0006011225369813757 -0.00268371698565687 0.004942024304017329 0.0001286229096244946 0.02324182886211836 -0.0008121899162565753 -0.007891377995057696 -0.004560189709452966 0.001070433642989148 
-0.007608315563315703 0.02155000317005355 0.00280463109412704 -0.01708493393296161 -0.009046833936301369 0.003675755535080873 -0.0005008920426390831 -0.004380674194889892 0.0141147530040936 
-0.007356514989306852 -0.003945090646766447 0.02364465915941578 0.007097596294722133 -0.0027564403273761 0.002197705037533514 -0.01355659889862328 -0.003565709123311138 -0.004099422398212701 
0.0004540828989653216 -0.01211976911385401 -0.004123052309419863 0.0005071138300166806 0.01566840271805468 -0.006402292200343065 -0.00440546560232951 0.0009573897875087002 0.02420730401931708 
0.007059342437494254 -0.007117681878830349 -0.005758952535276357 0.006152618035203086 0.02754693267652978 0.005796158391226255 -0.02121763653786923 -0.007295357643984296 -0.03137671533496336 
0.003676794456393307 0.005064585337782015 -0.008707737256787754 0.007261383271140884 -0.008994815325741859 0.006536014533893166 -0.002794502904777218 0.0007624141197834914 -0.004348890725045047 
0.005789832785065428 -0.001169622187777844 -0.002718854725264067 0.005366798720687532 0.008705186971514432 -0.005034598551194302 -0.01148067141063412 -0.0008044862421109837 0.001972829367631793 
0.001821248622924137 -0.004774338993309426 -0.001811024427004649 -0.001426259115404005 -0.00727899577113029 0.01098847577361127 0.0008101279118614563 -0.0006269645677648744 -0.00628374130994901 
-0.00369342460175784 -0.01110800747391547 -0.01303039296575374 -0.004708383573515349 0.003787365934422075 0.001208275640147646 0.005523809424507395 -0.009042874109837409 0.02786000844173563 
0.006071143537871232 -0.004148140537323777 -0.009873091200373899 0.02053823149554123 -0.004857302901590198 -0.008224140605022889 -0.002448722565783022 -0.003744574949443226 0.0015993110041585 
0.002520914384061728 -0.01231389012705835 0.01617850094428833 -0.001385989426253687 0.003826642337551604 0.0001340940494833252 -0.0003272793635066309 -0.001763049348347963 -0.0006760426068450033 
0.0209996721062004 0.00904357294145159 -0.01007421793207793 -0.002021013639950227 -0.002938666598300129 -0.001215374922442282 -0.0004811664452491046 -0.006022767583209509 -0.01789169291946659 
-0.0005528023949753526 0.0004859466722062093 -0.007912185319235911 0.009642283559904779 0.001538456737339926 -0.004689220443062247 -0.01425436938232555 -0.001309755511027006 0.01695580251521 
-0.001187706152786391 0.01244637203273948 -0.004755655071821185 0.001377035323399176 0.0139940359488756 -0.00694030844563351 0.004873281554954318 0.001328553855350408 -0.00593752785086467 
0.01998267450302279 -0.005088844449566538 -0.01790871705017697 0.00674503106432056 0.001296975199988221 -0.003570632593505098 -0.0008390649189257181 -0.004169558672797272 -0.007514596775143034 
-0.001365064652655755 -0.002299312579266867 -0.00155779317778444 0.004482204250476533 -0.001570812392995483 0.004242586415899196 -0.000861186547083908 -0.001429879792408805 0.007163597118061967 
-0.009907566853923546 -0.006462747538640681 0.02142224896064057 0.006285561315470509 -0.000173295060014791 -0.001228720879334327 -0.005480939481149685 -0.0002792854955275961 -0.005826432293522917 
0.005288429696011131 -0.005822471521313547 0.01038254806637549 -0.006672514295966991 -0.00631086281783325 0.003988952162622185 -0.000424331557975833 0.006464306658138441 -0.02225541186328096 
0.002923406410945675 -0.0002088773786768132 0.004477646202279116 -0.001781307962365227 0.003920369194878275 -0.007048413548680964 0.0006176588183009289 -0.009320115744152127 -0.004003479269975568 
0.01054756843757873 -0.008972308239424087 -0.006931691300633759 0.001943972944731976 -0.008093779248280178 0.004938974489835111 -0.002493483072770129 -0.002077704658231649 -0.009486095594637031 
-0.009630979887562272 0.01300331513345991 -0.0009674477471153855 -0.01189379575485154 0.009701516467959789 -0.00312583105825421 0.004205692886866503 0.003079527315750186 -0.005308126997222944 
0.001756851113245382 0.001016657770852968 0.002576684693249925 0.0006962134782975194 0.005244977035403948 -0.005535943279176062 0.02542146908364923 -0.006525686815035924 -0.02747218585571687 
-0.01449100093585673 -0.00402894950123374 0.00199960457366457 -0.001980934752730766 -0.003489293786274144 -0.0005286214867100371 -0.003789473828080071 0.01467539361902843 0.008521267403518266 
-0.01487481776005252 -0.02028935668075804 0.0136379384293816 0.008739342480059547 -0.003288974380832507 -0.007755048105162531 0.01980663653638251 0.002431488118004971 -0.01287061810095073 
-0.005743083239257403 -0.008589430115349168 0.01359198188985052 -0.006376905164427283 -0.01604541796308256 -0.007674075133744689 0.009484149550342397 0.001926251388040782 0.004727229880900878 
0.01179000277730287 0.002345617855939757 -0.005435854850042859 -0.003947654809883641 -0.01275661018289028 -0.005371475680636078 0.002225043760958243 -0.00292769826690115 0.003732835115171956 
0.002016997010675444 -0.005929347405284121 0.01228622030034801 -0.0173041503850741 -0.007840970833607693 0.008767315079698482 -0.009998159823921153 0.002890740156599655 0.01727634227784989 
0.001694154274915732 -0.007015542149623794 -0.004613824910027219 -0.003024400548972897 -0.01050048571049631 0.01073169274783497 -0.0007206586106689133 0.01522679424267961 -0.001737596065897476 
0.00443635846103077 -0.01109377134218501 -0.01077374230435763 -0.001478597655859839 0.01120854561016133 -0.00463355619926549 0.0080540082051987 0.004283598791724724 -0.008126054920853516 
0.006716071508886157 0.01008856506788551 -0.002539528860307862 -0.003868085117199629 -0.005685249420728542 -0.01466975558877802 0.008557690610244599 0.003710224079603348 -0.01870611884699988 
0.008087797938785996 0.001444967558107753 -0.01432774060626694 -0.004925852345930886 0.00662680483014079 -0.00438634004493873 0.00210237282221208 -0.001877677181788445 0.001192269654691981 
-0.01554990440409881 -0.01070135362505132 0.001514959378496511 0.004778030303032591 0.01411480656380525 0.006181241888666279 0.006697468181250875 -0.009185386109322844 0.02054852787034973 
-0.002001701213527166 -0.01286693252268856 0.009737054422030789 -0.002935429644970957 -0.02058459356877341 0.00883468414741238 -0.005577845062518696 0.003838433234068547 0.01708903414164668 
0.008602243779636771 0.006802449327406825 0.0121174893585037 -0.001933369338543554 -0.001222391960642876 0.01412262897733335 -0.01621376997185896 -0.009768995704584284 -0.016453152979261 
0.001145679560028793 0.009048770288305238 -0.001553398770904417 -0.01349823321593162 0.02032948255968635 -0.01213370154190678 0.005757722606780733 0.002310220614575971 -0.02947841252546643 
-0.004351701682218005 0.01223948726987554 -0.00465424179386492 0.0160576416436404 -0.005269655056599677 -0.01151385658435516 -0.01349159011564528 -0.000241247230537051 0.01004306380116605 
0.002047755829229709 -0.001687369765756519 -0.009073676068694556 -0.0105172710462744 0.01637960704836896 0.0006863806099879664 -0.003348110714295533 -0.002874230265671237 0.006412049464872434 
-0.006419851216620634 0.01002312730286721 -0.007515175178770085 -0.00510268118039146 -0.01935666256265704 0.0002716745131389282 0.02165406079537941 -0.002683151613956512 0.03194532803313185 
-0.003816521676813537 0.008751890649292111 -0.01054974600743898 0.01577841392321685 -0.006437069098550924 -0.01405297169231257 0.00433774070847536 -0.004910750275336622 0.01830017831434717 
0.001766844282918419 0.009824755818677679 0.00213190505447703 0.006432781692650002 0.006046453063949805 -0.008309760656922254 -0.008736473881594377 -0.01153079691663827 0.007032034932875347 
-0.003039152607338818 -0.01811692349866988 0.008488943654475663 -0.01111862515771925 -0.002046376744102994 0.004719898670481661 -0.01044813548425216 -0.0004862705849391433 0.02624601669939088 
-0.003446688864785015 -0.01534457554534897 -0.007388696805181239 -0.01129795713324603 0.01766750035248802 -0.00996751209352113 -0.003209574639488593 0.003115759349599854 0.03305234177611097 
0.008294904528052271 -0.002522701931254587 -0.004204085845948479 0.004971294029376572 -0.003833896278836283 0.004957165832299537 0.0004550061665054407 -0.0004008916850195363 -0.009408215013636291 
0.001724159253407339 0.0003107179677846996 -0.009667670639567092 -0.001275118700976677 -0.01578773763704219 0.005408593298618671 0.002510904446213028 -0.00270038548288016 0.02314075090814624 
0.0144929728225824 -0.01244738762747487 -0.004853294975114537 0.01317574669638947 -0.00155043863338372 -0.00599544136421264 -0.00142408190975487 -0.0007146489445100753 -0.003056003402997787 
0.008967091844509259 -0.01150491602411787 0.004804638144053028 0.0005003556571628384 -0.01430911365354165 0.00283510341166655 -0.01882967174883278 0.01665059947648238 0.008517594544804967 
-0.003173566969381299 0.001831006642215429 -0.001981247799495273 0.003101711041658692 0.007871621611884263 -0.002658255132035897 0.009597302557489751 0.001939725178784069 -0.005921589263426189 
-0.005181475620965823 -0.01573837168350011 -0.002714685140898036 -0.002619236045171714 0.0138710137542174 -0.0002945734397082571 0.01590959694723481 -0.0006583452547012657 0.00213032490013065 
0.003845672142278477 0.01693058098348591 -0.01530727425852984 0.02009983153762571 0.01263399972369805 -0.02384691368785625 -0.01634951168002452 0.006750661530581025 -0.003551973918677983 
-0.003643262417190733 -0.009098276583590702 -0.006441495572756266 -0.0007686646054691814 0.01972899119409574 -0.0014201330316413 -0.004749744387291135 0.002400013500613763 0.01729901601205448 
0.006105967917035236 -0.008605253553982718 -0.0002194413351853916 -0.01144572912214384 -0.004046788156467184 0.01310495527917646 0.004450037346860477 -0.01043315894945504 -0.01278619614956153 
0.0009686614459247069 -0.007513884319571924 0.004334189666005526 -0.006588252106029938 0.01221600542158149 -0.003451221523612649 -0.01406352645623721 0.01691768731746991 -0.003709769718702921 
-0.007407348827474153 -0.01472549281924301 0.01085640796966579 0.005835772728830934 0.001487389316882154 0.002832372229756552 -0.006723906815931907 0.01069716128907281 -0.00454817982886946 
0.0005240750150499378 -0.01064533897136935 -0.02018813812174458 -0.008873532149087086 0.003113643798559585 0.01499591435300496 0.0267661631665095 -0.001104948136295376 -0.0154964424649117 
0.007482487086133173 0.004659659000006782 0.00904483645542542 0.01187043430490494 0.005635507690517123 0.0007414397494505185 0.005746524606471065 -0.007894875343077727 -0.02200845011042119 
-0.003145560025229741 0.00633092485831972 -0.006314544234602456 -0.00149524654017403 0.003689019369995243 -0.01125595545735993 0.01755191800021497 0.006831195869137252 -0.02479134871155269 
0.003397237358720107 -0.006181399110013437 0.02612028165876411 -0.005336542242300858 -0.008301952129806393 -0.001047294194875976 0.01137394550571253 -0.003157261752649222 -0.02456567419783108 
0.004091462527259098 -0.01110265580742099 0.004683345831785293 -0.005421602861410592 -0.002694999335845743 -0.0007240528960017374 0.01251878255839423 0.00442547448880945 -0.004160558704341298 
-0.006680551061664005 -0.001868269729078799 0.0003687728098634858 0.0001061861000919165 0.005981610471930948 -6.242927064581004e-005 -0.01189138058676148 -0.0001836463675926802 0.005575083749205156 
0.004895138608076784 -0.008364172154435119 0.02390864829091158 -0.01380696102043589 0.005832497451438152 -0.002064599069825982 -0.010365687174398 -0.002043298040412837 -0.001511720605998309 
0.002647858383883831 -0.01160571248764647 -0.003300015175986655 0.006469802337192153 -0.00882877080320418 -0.002041231373589161 -0.003529340549413998 -0.002054184818965425 0.01169466112426232 
0.001711716851004554 0.0005081253661702856 0.005774951610332048 0.004428366833269195 -0.007303161466571361 0.01483952743635331 -0.009905728882360661 -0.01071382495578232 0.000687603715906291 
-0.01645194849826972 0.0100915284424218 -0.00745326616850502 0.00106926219117834 0.01865600675299889 -0.0185240361750591 0.00214806931934227 -0.002717128656124524 0.02068731335407825 
-0.007548613713629329 0.02550481636537979 -0.008264170669435602 0.008801341753923511 0.02142036405670683 -0.01165884732896598 -0.02402464520905505 -0.01044950527997311 0.01662993968665203 
0.009776506377224247 -0.01255675548156441 0.005267700864640242 0.001910919548962048 0.003679124827698674 -0.007103710819083266 -0.01745031656410364 0.003818656075564678 -0.003597203483468533 
-0.005430622057096424 -0.03237766212949315 0.002123473552915866 0.003243837685951154 0.00114027109618262 0.001990284601257085 -0.003281188329604097 0.012457846320756 0.02054178424922573 
0.004998887655732511 0.01390290552116195 -0.006165359046115353 -0.01392344198857642 -0.006264475825578429 0.00631040171539918 0.01351078640162086 -0.01748128750891699 0.00663018645256059 
0.003116046644576099 -0.008725476882376975 0.004206707851115265 -0.005243343182789989 0.002242924944013228 0.004239607532581772 0.0008296080256794316 -0.002986537276696888 9.194862788280067e-005 
0.01776304977930317 -0.02432236834416216 0.006448025092587358 0.003025774444305994 -0.001279302251996114 -0.000959711570572935 0.002806757669624162 0.003715383868696842 -0.0158222107188104 
0.02556042242686743 -0.01293379802733762 -0.01659300493853939 0.01223813405190342 0.01287396372084764 -0.0142369816325765 -0.01625007468473036 -0.0006070830784001632 -0.001538399684817064 
-0.004215146610476523 -0.01325933021209651 0.02615555890190813 0.001974301470286658 -0.009181912514329175 0.005572650812528681 -0.003662079213917916 -0.0008380842368872032 -0.01187315390257172 
0.004888427852915538 0.0003910035510774867 0.004554197841875166 0.007125602611240811 -0.0006351376675207577 0.003834525504123568 -0.005681726212638991 5.644118381011035e-005 -0.01964910528899632 
0.0120528542202081 -0.01471177294325925 -0.008985348276089352 -0.004379034329625105 0.007390489155954117 0.002646700834417592 0.002391825989457837 -0.000702857239950677 -0.006762326472088937 
0.00706555302650023 0.007054557693156376 0.006142857146566882 -0.006964690745152555 -0.004326102295917792 -0.00761967933459445 0.007335705392962022 -0.007738468812060667 0.001519482863547353 
-0.01823042733372355 0.00836961207968551 -0.004945819393278137 0.00110972509207548 0.01535108984201568 -0.005016607056282017 0.007032990701286417 -0.02103806426865771 0.01768971097433974 
-0.00327559755922638 -0.004368247420024181 0.01489804675389835 -0.001860304278468004 0.01663823717674542 -0.00927675378627129 -0.01750041467064941 0.008021752127744234 0.001152216474860319 
3.24936131859496e-005 0.007529456806817894 0.0004411264066092882 0.003981849361744386 -0.003914551614530535 0.0120074312501957 -0.008221121915617413 -0.0002918291957257798 -0.01188305865412507 
-0.002664208934901155 -0.01326712683371293 -0.01501251812013461 -0.01140035885662273 -0.005231619569772483 -0.01138345757261352 -0.004632617071404747 0.00175888413645863 0.02528209965210267 
-0.008753922960091165 0.003504628380063282 0.007903816658359535 0.004290109339479566 -0.01587489381488062 -0.009684263385380325 0.0218625283988903 0.005850288089972456 -0.009425757703002498 
0.0008726809634282213 0.000271116736504143 0.004159433922924765 -0.004140513175427152 -0.01870913144134552 0.002384989268590796 0.002170797154447045 0.005678485632823051 0.01533889594278467 
-0.002171609788050821 0.003058197152452278 0.01235543084784332 -0.008692269035639836 0.01003290739220901 -0.005807754087248531 0.01353246705691179 -0.001898288199194937 -0.01774508097514452 
0.004009673668264742 -0.01173406758117815 -0.00902533081243986 0.01116214314449873 0.008216318800513833 0.01324867001951572 -0.02026815582357413 0.0002189825247930032 -0.001881482210376768 
0.01003497577375678 -0.01192473391078197 0.004174673730133032 -0.01333134709893835 -0.01255061652937454 0.02559944654276519 0.006256357866350583 0.01394082572377952 -0.02263336529083278 
0.004735122807737501 -0.001518159351983191 -0.009807373397219016 -0.007324880999600935 0.009189161732781781 -0.01272377240250277 0.03559085406857712 -0.001492443213245724 -0.008188646788908186 
-0.00646240235769948 -0.02895815648282902 -0.000111608037836923 0.00265919106045823 -0.0005381894317105091 0.007734088404776859 -0.002806033162041797 0.02064835488080307 0.0004076431349617036 
0.007183428327100181 -0.00303309857384342 -0.007999001560011189 0.001565607548769655 0.003738885686479775 -0.001469226633616996 0.004352202589142888 0.003968661223841583 -0.004553864652635454 
-0.004935769971922493 -0.006561053658619183 0.004346768970975969 0.01633289612277793 -0.000679071646967672 -0.007447454402308858 -0.005604551001090857 -0.004177697134789985 6.810933554823703e-005 
-0.002040045294778015 -0.008537366145900451 -0.00254935809853844 -0.003442816418121063 -0.00680749222600179 0.004845366156910879 -0.008702044514958105 -0.00134079490732436 0.02820699523866974 
-0.008244194767711002 -0.02522712168209369 0.008067504323344115 -0.003181971102255992 0.009739542780397528 0.003715737057770496 0.01446982833781083 0.005205812026604454 -0.001229741293404524 
0.003683501011834287 -0.008614380089672361 0.005503900463440479 -0.002760293897981399 -0.001444357722670029 0.004025549044171599 -0.003051445518079047 -0.005581064020554876 0.002439123821430716 
-0.004328206224027671 -0.01180197293121066 0.03215077661984145 -0.002701801161454165 -0.01142428046369204 0.01258069330131198 -0.01097811008678268 0.003537652353223682 -0.004518289579770182 
-0.009813853552559367 -0.01299806120086549 -0.0008978873306957221 -0.01213007378242907 0.01413597730493309 0.02892131073157457 -0.01241076540942603 -0.003158594843714401 0.0007358942248823994 
0.008760018400814295 0.004790355828587008 0.009225811334106486 0.002947269281610379 -0.0146671936793933 -0.003619599930831282 -0.003989196295532872 -0.004085365382518001 0.00891267365773118 
-0.00467089977545033 -0.01235549497708314 -0.01086273909425261 0.00272868109917765 0.01726222045529315 0.004806624700313317 0.003561491830417216 0.0009844910015394579 0.00600834361774486 
0.003438570205880281 0.001117279231799879 -0.01052807286890956 0.0003450946611152852 -0.009158761685190272 0.004125610392431851 -0.002736758881520243 -4.596899559392613e-005 0.01135460883681209 
-0.004750897150981725 -0.000711611630108853 0.01221191888780795 -0.001932525578636119 -0.007376402370922982 -0.001523121418375392 -0.01106908263573384 -0.00610694719024792 0.01510834289034585 
-0.005161288891561191 -0.01715890234612134 0.03410286332871522 -0.002985453207558251 -0.01262383487294002 -0.001614226092833029 0.009907002862298271 -0.00651025044663658 -0.0115397975194064 
-0.007956977767048415 -0.0001600961753560554 0.01106522037980491 0.00394701617437345 0.006516116625709512 -0.01137785388385504 -0.004231643270270989 0.009575518053679458 -0.004379657623383305 
-0.01507701005655432 -0.01888206159698561 -0.01336389386505246 -0.007972625815996776 0.05710891822712725 -0.01468744497337856 -0.009405979775175309 -0.005719630320370804 0.0273727075122998 
-0.004320664565767004 0.01084572274566977 -0.013134608864885 -0.004342245631622738 0.01321248734134282 0.01233365636672536 0.01195087254609062 0.005721376850581839 -0.02638701676387377 
0.005944683124184736 -0.0001861974790178364 0.007990985222127127 0.01120550748227312 0.02298543464255711 -0.01275302976175829 -0.01009966795264662 -0.00609166696981906 -0.02732502375891744 
0.01608753844448185 -0.01563138223524349 -0.00891017053232411 0.007481945613971678 0.007388580617898126 -0.001210239744831532 -0.01623992582672706 -0.00291646001089391 -0.001005123303502938 
-0.004759722663170225 -0.01424966376043807 0.01458840242101755 0.004756335963996844 -0.00394411168874994 0.003878220129046623 0.006367705381854247 0.01105755565457015 -0.02144248262503615 
8.557185164593796e-005 -0.004802418016705093 -0.01651285948310427 -0.00690856462166326 0.02076904502491979 -0.001943012182004386 0.005318160749675857 -0.001044571695219375 0.003302854826896828 
0.01075046049202828 0.03598029574815581 -0.01472292023938667 -0.008062248359064423 0.007271205691879252 -0.00919435878298998 -0.01281906843704341 -0.01539098241570322 0.0175554178636131 
0.0006233774720113955 -0.01922701717484325 0.01279089195385707 0.004448795322508754 0.02942042647041741 -0.0214515654034421 -0.01919214322203112 0.01034614712711932 0.003143337196291535 
