solver_type L2R_L2LOSS_SVC_DUAL
nr_class 9
label 1 2 3 4 5 6 7 8 9
nr_feature 14000
bias -1
w
0.01206716239715079 0.01714310037524796 0.001373409447361931 0.002640497080201791 -0.01602458628123662 0.0129260577361705 -0.02170834562726768 -0.007368834326094581 0.0109702187884117 
0.001627821814294248 0.007768802466513 -0.01774894091702912 0.01558843393769577 -0.01273430090257106 -0.004844184594854516 0.01435607207062682 -0.0070508367141262 0.008481342680507934 
-0.003474909877075473 -0.02536302278645949 0.01185324418213192 -0.002659652647232963 -0.005270415443647199 0.01679484279134217 -0.004447608588701277 0.02687377358837379 -0.02651740856933711 
0.002014949974767236 0.01361671681564411 -0.008788928274785706 0.001860119861167295 -0.005850930479872312 0.008557616738350421 -0.01927850407512559 0.0003142821938641095 0.008250101788768545 
-0.00538279328013443 0.0007558477207083198 0.02903953300328087 0.01174672443309762 -0.002752183046673059 -0.01816263850211757 -0.009349435826085559 -0.0003004269368571141 -0.0181723015540684 
-0.007761541784575596 -0.01528974378320797 -0.01335716576209261 -0.003312768273163951 0.007079170598912932 0.01777833316690019 -0.0380591400689323 0.01966686976725506 0.02381958402123621 
-0.006760500179606963 0.006019636824238807 -0.01164705451255473 0.01591232961562432 0.001303781617968249 -0.01010471935856813 -0.004077031398896217 0.0009513405700366614 -0.009987692200589569 
0.003104997501681652 0.002825876571178892 -0.001541474006582771 0.004623033961414393 0.006093530816338038 0.01641979597755452 -0.009171977460243851 -0.001880707564216832 -0.03189143340806153 
-0.006935640116036453 -0.01206941710408525 0.008801728973394551 -0.001981968449317889 -0.008977397632196432 0.01958996150667359 0.0008336458512375817 0.00787889734719803 0.0002133763966064968 
0.005141142191781268 -0.004485053040108339 -0.003350945112793398 0.007623622082660852 0.0146261847097405 -0.003741560895230686 -0.007162847212571025 -0.001762712556378928 -0.003780096562612133 
0.0006535138079665042 0.006215264842487687 0.006499055692490396 -0.009866947491368081 -0.0004288089211953361 0.01860213530501767 0.009461504823960383 -0.009531425188413456 0.002382483293168468 
0.0256857180713841 -0.003009994395000175 -0.01093775614325189 0.01220178361137809 -0.01727961006904923 0.005873894217559139 -0.01242980474055605 0.004173708163712888 -0.008811766629827224 
-0.004290159971542881 -0.007053245664856277 -0.0006293642043858414 0.01717042985000861 0.001131624774629406 0.001427565773092546 0.006002235802966026 -0.008187837611826836 -0.01471135177682979 
-0.00826165071657017 0.0006941378067568896 -0.001277826903317477 0.0008772138518785744 -0.004149745890551439 0.004909789297278713 -0.001879240775990697 -0.00534660596440177 0.01345533817764422 
-0.006465060331427781 -0.006180479992989488 0.001439559211409307 0.006154401766614428 -0.008151706526938847 -0.01080307566032229 0.006498807184325763 0.007922210741142551 -0.0152244082771174 
0.0007255338040767832 0.001580919437143754 0.004722946206749786 0.00355541660579627 -0.01011001094399759 -0.002150738368600763 -0.005100668990024432 -0.002418807680860423 -0.001110599149053263 
0.002315494211722366 0.006088744389585307 -0.00391341182724589 0.005680853020401558 0.01087286941937329 -0.02876842453156833 -0.004693169279915207 -0.005669880720700308 0.011314447111599 
0.0001216935939440903 -0.01007819236794494 -0.003836739508354355 0.001173579592223428 0.002331371208162518 -0.01969008014335454 -0.005728107100921552 -0.008522563260120138 0.02778231189552879 
-0.01390204447737209 0.02443598804322232 -0.02641128864239134 -0.002160808754377544 0.01367802504717982 -0.01938080260487883 -0.001276257317747604 0.01103330665521819 0.02082024640002256 
0.01450599151191882 0.001138389134583888 0.01196375298681473 -0.0115253691321334 -0.009581406730323419 -0.003595166895204897 0.003612169745175716 -0.007544670913932132 -0.008911660146430954 
0.01232256796977651 0.002821120940441735 -0.005665028336959426 -0.004788281411859938 0.0002209699184057627 -0.00234867649107449 0.007800923028482465 -0.0009600252357200277 -0.01118969766178157 
-0.006925419118177161 0.002073806950631901 0.01556647799992755 -0.007391437736572791 0.005253983326465434 -0.01969584186910005 0.00152464684546205 0.001890825530021878 -2.553245753305438e-005 
0.009037493747384891 -0.001137661422788916 -0.02140855549368548 -0.005514144931469544 0.0006573754840359248 0.0006453615695232092 0.009924492099027241 0.01736383149213508 -0.0213424291961938 
-0.009032424941068646 -0.006030822734173851 0.005397885545598882 0.003251764752749372 -0.002103298198823489 -0.001065647043918752 -0.001528471730048319 0.02275155361759046 -0.02296451660079218 
-0.01659334300378688 0.009614964940502898 0.004663571860260748 0.01547249128093022 0.0005644252253306265 -0.01761481698022266 0.002031284002288696 0.003029176059798189 -0.0082649908378131 
-0.01854503202885665 0.01884137165090959 0.002512931273212699 0.005528857736636872 0.01818932487769345 -0.006721545547460106 -0.00134146985828032 -0.00830290672540744 -0.01237812005822098 
-0.002384429651910165 -0.01414066694362741 0.002580015630977403 -0.003741837470945745 0.002856657744172906 -0.002058586619209269 -0.009378584566614103 0.001226975236200354 0.01103954621749564 
0.01291811599276502 -0.002229554879103311 -0.006850418835798194 0.005947658187951866 0.004045933880360695 -0.001136777871924975 0.0002063771274223098 0.0009184881358948301 -0.006005348222660114 
0.01062256118258894 0.0001017172476177029 0.02052665681096681 0.01608098931875617 -0.0113401468287229 -0.02125100339851533 -0.01358576792548441 0.002796705655091054 -0.01496372620785794 
-0.008714800475568857 -0.002846674846940709 0.009513763221966223 0.002339379318842839 0.003563611747880727 0.01758332455123657 0.0005700869288033137 -0.006704531195866977 -0.01616422413070139 
-0.007261580826718237 -0.02210173377891418 0.0008188955581984593 -0.01631210083820713 0.02930737094946461 0.01437777867592384 0.00731014760810283 0.01405908292641981 -0.004767569686333616 
-0.006871707672587269 -0.02459371289196118 0.004666939953754253 0.01789033575769351 -0.006347603173228214 -0.0002635397680822768 0.01742998757695165 0.01874371673131741 -0.0146963531853423 
-0.005346149935379726 -0.02052340030065623 -0.0164229206490289 -0.004856922890242266 0.009526497061406325 0.0189055268717309 -0.0005693020029487296 0.01040412700172058 0.01645682083468141 
0.009440670366923382 0.005245163899903592 -0.009482478247612761 -0.009112581343028064 -0.005950004228321994 -0.01497436915014354 0.01179260490680685 -0.007216966187538952 0.009143458476903166 
-0.01054980179702328 0.007718227759929691 0.009551361410215663 0.003522218934163341 0.01283944884623216 -0.01357763647958081 0.001324503677710581 -0.013710699203786 0.004187848713380796 
0.008136121315520854 -0.002655527091251251 -0.01040496219836375 0.0253583167161074 -0.01044925519098767 0.01820002754734087 -0.02087805156265086 -0.003494660365783421 -0.01287502270663345 
-0.0001643342363114198 0.003817982476818374 0.002069636754544083 0.003170320694986021 -0.01395463375792525 0.004382165567677732 0.008791568306867456 -0.009261699049342022 -0.001140134116411333 
-0.004752384873318519 -0.003686827331922236 -0.001047620653879356 0.002339861561090291 -0.003378838618787303 -0.006854536117880974 -0.002852136694501306 -0.0009947287076689892 0.01323385391904959 
-0.002283707258340451 0.002566364742038887 -0.008983057016998025 0.0004764931864524084 -0.007685397994987134 -0.003494290083156066 -0.01472372392175617 0.007707817773474883 0.002209519867613112 
0.007435519806490292 0.01171450053422661 -0.01064260939689786 -0.0063645792969629 -0.005236577838125592 0.006735837732680098 -0.003387602021873736 -0.003611375591234404 -0.005084700439248724 
-0.01666685104724897 0.002478872574741907 0.0288922530370184 -0.002603811835862494 0.02219714951990378 0.01022993617822783 -0.02197132134882124 -0.0007850447652429833 -0.01752122903432243 
-0.0004105815055987841 -0.007159698588893133 0.01147675038092363 -0.01133682530129049 -0.01193387214796986 0.002286317326768306 -0.003650137378975686 0.002751854264316703 0.01467960311836391 
0.005002492860490172 -0.0005583774962781345 -0.00717294714369897 -0.001108979996676068 0.01111850808412344 0.006221818760389313 0.007297092676190226 -0.0006722420456560675 -0.0160904806863802 
-0.004888964771701514 -0.0002898219770227141 0.02366347133118338 0.03111792113607245 -0.001442303998276649 -0.01139642715328708 -0.01231173526353851 0.003005613346714656 -0.01267416898574185 
0.02082319231894918 0.0002716757508863311 -0.006274906668590547 -0.01070689857104575 -0.01583132166901281 0.004564109883288477 -0.004052137457960404 -0.0004484785983882283 -0.001851046180196253 
-0.007228741406126736 -0.01109779256074729 0.02830413885896358 -0.005464250944127618 -0.009884114644028476 -0.000723100000152809 -0.004477828739840984 -0.0002069973936816442 -0.02413737376042345 
0.006842821778681184 0.01074422835001188 0.01226287065223648 -0.01014945087237679 0.01105899022677226 -0.01043498183347766 -0.01353602371441203 0.01022773001032084 -0.01531505099772501 
-0.002217326614504987 -0.01731341781169742 0.004047360723319428 -0.006449485371676216 0.01951500828275702 0.001041202289093016 0.001182888359145531 0.001143241554346782 -0.02376101879282523 
0.01843363586051341 0.0008813393318158125 0.008076669357225947 -0.01044772112769437 -0.01055143992951864 -0.005468890027698536 -0.002574871399663455 -0.009121908976831829 -0.01072143951179817 
-0.0025872177202222 -0.006012307896729652 0.008056119715183826 -0.002616375816549702 0.004357752512635395 0.001957930127817031 0.005111107082510245 0.00674194424227972 -0.01276184428488221 
-0.0014260768756669 -0.009577511952116608 0.01310892222144392 -0.006259930610915157 -0.0003546309348526855 0.00848397749106916 0.003787043956157901 -0.0003663047224990286 -0.002043226327413027 
-0.005662480916985665 -0.001091680881092795 -0.00267914688413197 0.005122498255874046 -0.01312927522457684 0.001649207123105319 -0.002289738036937405 -0.003911831241731958 0.01632984705450295 
0.001335156558559668 0.009159547468563756 -0.004147642185194742 -0.001101937994576465 -0.003934312125123804 -0.001882730239823916 -0.009106272249512269 -0.0005110548828935867 0.003228440247478424 
-0.01999195478955719 -0.004927067647711257 -0.001296314398741964 -0.002296168870208083 0.0138974283347176 -0.01655050546683719 0.006467689768666355 0.01258632299056119 0.007248207602900324 
0.001275802128884256 -0.01408632503397207 -0.001131583383550007 0.01174068570525281 0.03721715979167835 0.009697945921460501 -0.01589172306708612 0.003510329757707484 -0.01370722233488924 
0.001099948435029897 0.003407959525043162 -0.002572494530638621 0.000446793736495384 0.008319909329192096 -0.00710172153562467 -0.001854542582135759 -0.005086319129294911 -0.009797597262108564 
-0.008013630435430347 -0.00142905473356021 -0.009730899704223462 0.001096337592013635 -0.00111188664428053 -0.01044962066210214 0.01429553651653702 0.0146980303651289 0.005631058889607524 
0.00452578390475028 0.009236502617387607 0.005691533287466521 -0.009226673773189949 -0.01167966842143555 0.004904308421089291 0.004325091943424796 0.0002219379483451757 -0.01784977085827396 
-0.006524400558178 9.619167466839295e-005 -0.002820807579550972 0.002288024939629151 -0.002606218431450832 -0.003567098267379117 -0.002374406547541054 -0.003829020665784646 0.01758268040133895 
0.006528256406799521 0.0129788043901587 -0.003757512184105862 0.007279347818686553 -0.01794087187891131 -0.002501558944080229 -0.005201621068807284 0.0003966196292720638 -0.01210445823197475 
-0.001781574282342491 -0.005113859125258209 0.00161865325572281 0.02511324036583733 -0.007846931481051934 -0.01267914810490365 -0.004094792626167393 0.003411244904781668 -0.01707767188665265 
-0.003449209625345453 0.01280427796503241 -0.002497922155616014 -0.006587496087775915 -0.0002672803969086259 0.0154512139133883 0.0002356322408158383 -0.004725981336879368 0.008129521848737276 
-0.01056856208357792 -0.008806988242382059 -0.001569909147423187 -0.0008823744938329603 -0.001055963039070753 -0.005748939836967531 -0.004353945319463455 -0.002387745455214393 0.02822205929883323 
0.02013153043971827 -0.005791974807598856 -0.02297078544757954 -0.008142884453257903 -0.00157171008743469 -0.0006389013645356826 -0.004196314273443414 -0.004700771956207799 0.02197060827286786 
-0.0004464456180997986 0.004502579370482072 0.01200034700437439 -0.0005079417822139039 -0.002528217349923155 -0.007894799483779949 0.02179661962680283 0.002637852184689189 -0.01660020909217047 
0.007956832724657021 -0.000657481762925503 -0.02668829003477839 0.01259164698916554 0.001438829119625048 -0.003127856373568844 0.005408888288359739 -0.006108178725717165 0.004533740132934781 
-0.01007059056118935 -0.002614859479966413 -0.000132273304237526 -0.01098099014504442 0.003401898632019079 0.02386142043614969 0.006522821027472782 0.02010663950965446 -0.01416078041509588 
-0.01297741605403657 -0.0003097998503851643 0.01164319489360612 0.006277635578022488 0.009415225178931241 -0.03267871980911396 0.02045564579804813 -0.01103782717169959 -0.00954165677797603 
-0.007490770154622645 -0.01622351972067105 -0.005679594913867837 -0.0157156256351707 0.007148197897763223 0.01326183744642639 0.003418710891074137 0.00770900084583279 0.032350747348505 
-0.001762011931423792 -0.004300070962846124 0.007562837008568992 0.008413208137096295 -0.002598661638971913 0.001956829518204839 -0.007144539929402305 -0.005166785667661252 -0.0002099958089698295 
0.003935220472382051 -0.02294189635523114 -0.001770051789958384 -0.002645140220596263 0.006581554480307246 0.01488862476775039 -0.001059868187054614 0.01100996068841755 0.008430940799363266 
0.002821495202602433 -0.01077693021197143 -0.004727857062940209 0.005343438087202439 -0.01095485651650431 -0.005848030328801909 0.01267510308728015 0.009444308097603726 0.001567712666485052 
0.005206640209002992 0.001738966407826242 -0.006631760429907547 -0.0125126392171229 0.004511743706972301 0.00549167952777674 0.0003385668515353686 -0.0003459867327658845 0.01992885585241573 
-0.004793379970165373 0.0007239484391954673 -0.009399674995112241 0.0162303420688191 -0.005039771494258601 -0.01131259678458004 -0.003869872131425884 -0.0009848259683450248 0.003227578474834682 
-0.0006951568200616808 0.004268138682736892 -0.0009299133427068913 -0.003116892816231515 0.008834989768430264 0.0001918587065334282 0.004488801729799355 0.004877058012713363 -0.01855767261526812 
-0.00808087536619294 -0.0141130345594077 0.005906586417451495 0.02055165349817568 0.01792348072513145 0.01032405359510064 -0.01180432094760886 0.01181216070379925 -0.02106235076106845 
-0.004055781924357728 0.006654498613479859 -0.01126516733662139 -0.00473355413368243 0.02869224935841739 -0.008135551347395645 0.008941388666207977 -0.0004872401119777088 -0.01711314640769121 
0.005418368909847268 0.004489996569174821 0.002280586227789263 -0.005718704921567458 0.003075420380160774 0.001868265637617625 -0.009581975710691394 0.0003061183266307457 -0.002182282889735295 
0.007018613288077176 0.0005662761566460476 -0.00172499547092806 -0.003805339751217981 -0.007824427569814959 0.00522390386328337 0.02197431349355139 0.003951132160230665 -0.03050643988092491 
-0.002063552572091611 -0.02877484506745904 -0.0007134952920284756 -0.03623486708901066 0.01789316996633364 -0.001712230721215719 0.04317260636747234 -0.01349015756066022 0.02226703346714901 
0.02796541732013329 -0.004314162643737788 0.002241323318374845 0.005893300885286635 0.01306466921737003 -0.02018401249600347 -0.0003518916214747998 -0.007955416241500431 -0.02637867260903047 
-0.01563994816479595 0.0004152271011433493 -0.01724044788069723 -0.01547655372142702 -0.04699490443659482 0.02395086281672571 -0.004428539968805526 0.008009177929479399 0.04930393013961546 
-0.002146262807370636 -0.009363505782858526 -0.01876358095461355 0.002048563830196195 0.02808851982516334 -0.01915789521229441 0.008703930660525858 0.007672604532684208 0.03539212893122418 
3.198276689470825e-005 0.01913699391688702 -0.005773499417081221 -0.004369521459567222 0.000682172920440773 0.001271862724830857 -0.006862674918503611 -0.001091327929140564 -0.003591646070880028 
0.003087745498494062 -0.009727504835217286 0.01262122845056418 0.01646575671123918 -0.01740962150349231 -0.01895053679248453 -0.0005458935819657204 0.004855918384579188 0.007099061056419516 
-0.01160951740090889 0.01069347555066375 -0.01151450792989618 -0.02571445518773392 0.002158795525424475 0.03109097360255124 0.01375078236456081 -0.01060037311537012 0.01299927050143714 
0.01222261814931965 -0.007908299285199691 0.002069128381823851 0.02152073479432075 -0.001425301317523671 0.002419587873029326 -0.02127884758330213 -0.008052153268545139 -0.01552028445204384 
-0.01619115255409364 0.0006802868335694648 0.02202831106256462 -0.00664568892182894 -0.01001849340129538 0.01946786603623748 0.01289056852304872 0.008312086756945062 -0.0212410586343889 
0.0001177780829237055 0.01894632566097461 -0.000131471661782142 -0.006162527353063157 -0.01847661937142307 -0.003507077557112287 -0.01474468367141163 0.01243326369013769 0.00700267272221296 
-0.009622082198762977 -0.009869964394114051 -0.006604675037237903 -0.007933555287631006 0.006409475597484926 0.00780234549809338 0.0005453115741769938 0.008134229674612324 0.00669784225214284 
-0.007562161904124528 -0.01381367675082974 0.003762051014612613 0.03006392462206913 0.01956577934407345 -0.04879833758881916 -0.03203049458010945 0.006782844801404214 0.03351744968277844 
0.001495821454344766 0.003650691202530045 0.02391344224549234 -0.002491189685608888 -0.008097560295220282 -0.01077106295394133 0.005137883200098648 -0.005574703512304706 0.000129297914328394 
0.003315781927534237 0.007583910341814658 -0.001710184797773467 -0.004377768493212763 -0.01215309972975349 0.001923162720828698 -0.003292045463431369 -0.009391898063831143 0.005492584086463762 
-0.0004213420460352128 0.0009496790456337079 -0.007482769039266041 -0.01222498130432561 0.009763064262597265 0.002533785097193476 0.00412056044729168 -0.001570612307632141 0.001889783927913326 
-0.01279816508021936 0.00950273765227345 0.004193700863393996 -0.00526369308043402 -0.004748982767710938 0.0002014408641451909 -0.003819918767104472 -0.001678840720496195 0.02441610901583522 
0.007395552017595366 -0.005980672616529249 0.00283297483803749 0.007254580027955885 -0.006239944427122146 0.0007564099695177216 -0.005917302055341786 -0.00169629092035166 -0.004272074808877964 
-0.009359676933458931 -0.01299281031757186 0.02286869398979218 0.00217700340835912 -0.002955070785450049 -0.008275001120433518 -0.004788719462673256 0.003080475413488116 0.0008405344439876582 
0.007383376325031029 -0.02142786052079403 0.0120781691804391 -0.0006049861011211865 0.008835383565686897 -0.007538462867957869 0.004425770892143552 -0.007806779441194867 -0.0102526998968066 
0.002975113696368662 0.008760597747928383 -0.008327587287623358 -0.009413022750272603 -0.001620420898466814 -0.0003559822423038701 -0.001529260541257676 0.001141841314298334 0.01131526650234113 
0.01490118575487816 0.002794704583164232 -0.01316772086224241 0.007638170839713306 0.007961939313169068 -0.00839945192116316 -0.0009433223341557289 -0.005929567843956585 -0.004542159014464492 
0.006629273078539603 -0.01221812334548333 0.01994951959810219 -0.0009084059512167488 -0.001710723024341744 -0.01131624603734892 -0.003092711095316898 -0.001313786768345329 0.004538574625597243 
-0.02270068430279356 -0.01400388842135889 -0.01439929977360183 -0.006854589404019815 0.0225635352406979 0.02697844029280508 0.0248846768670726 0.003735875871531182 -0.01222267485253531 
0.009539549474953021 -0.01293883076100256 -0.02208249658886286 -0.02166649327523713 0.0007729529146018739 0.01322359591247483 -0.01103683571644512 0.01126580837022577 0.02814222042704369 
-0.003661607988415048 -0.01111455089520663 -0.0001270031251021618 -0.009865718550280241 0.002447123131174757 0.03220941263313631 -0.01027702472241366 -0.0005961876809822901 -0.01086139777937586 
-0.001176581315930839 0.004327034175412345 0.01274959562790055 -0.01987455563283551 -0.02143228968245035 0.02865353599001505 -0.0007685806681856029 -0.001192767354201247 0.007931527083562456 
0.003218620223300938 -0.0135620042526435 0.0282792370004697 0.00877849256483579 -0.02393103618005341 0.002005602981996721 -0.002172464261943821 0.0009965474251835691 -0.01112280063926475 
0.005640815738973938 0.004223862626407006 -0.001837461830908993 -0.008657419914748171 -0.01252965295124548 -0.002592795217392573 -0.008723050198572536 -0.003363734895192665 0.02019277198502078 
-0.01538374256242007 -0.00234317446499848 0.007832742037137042 0.006853145164563129 -0.01389500276699802 0.002161788071050925 -0.01133637796569272 -0.009947869202901163 0.03156143259903011 
-0.01733031319564695 -0.004069527541864734 0.004167501349355666 0.01097387318867217 0.02218154488555291 0.004502911470752724 -0.01079375337966187 -2.240603356792929e-005 -0.01779154223425357 
0.01387830354220925 0.01864451596424636 0.001531947719386242 0.007360995439035472 -0.01066140045322676 -0.01556848714818518 0.008850174819729748 -0.02072397225156477 -0.01615253666953966 
0.009159292731581661 0.01189157760934992 0.003976156001441686 -0.009961089233695552 0.009931934104420771 -0.002024692412454196 -0.01828202356204439 -0.01152739777124033 0.01232394671411399 
-0.00274748935503207 -0.002162075759352841 -0.01748342414861554 0.03582998949104817 0.002380780476492929 -0.01725952591527561 -0.01407098548978952 0.0004229987490296742 0.02851222866318251 
0.007143181715528615 -0.004622196734352557 -0.0115201120235953 0.02894979349192194 0.02005003417002232 -0.02751418898730196 -0.01049635913628881 -0.003348966343288407 0.02119074380985853 
0.001920140470980465 0.00236699273799723 -0.001739509913568393 -0.004906257193431582 -0.03059338194019855 -0.007466581156346414 -0.00878091558365538 -0.0208932212128952 0.03744616384659349 
0.005028061064944877 0.01048796148683969 -0.002948266666306345 0.03505196947223299 -0.001708085934273245 -0.00631215620898405 -0.01072448758336884 -0.004020418261696101 -0.03219166305023034 
0.03521661732330454 -0.003620378706030376 0.00217328111845971 0.01838518991188444 0.01840826432388613 0.001661215939670981 -0.006998585214355259 -0.008937152391867705 -0.03294418496544362 
0.001249050812659812 -0.009645523917027195 0.003539782728495398 0.0002434907906161904 -0.01704883950159745 -0.01361957373538127 0.02265601383319378 0.01203296145627396 0.008486197854248204 
-0.0007352353737532979 0.01103068967340468 0.004945721292213281 -0.004307076531432073 -0.00563318451605071 0.001160785976898934 -0.002620377891900658 -0.003702205201081228 -0.008197366837998515 
0.02117568881695311 0.007677269452152074 -0.01138404457321433 0.01112989600450282 -0.01620091408667702 -0.007525540007709118 0.01724742734674365 -0.006703657485137532 -0.03758333598195195 
0.001259067075788742 -0.004413259183321156 -0.002658758782157917 -0.005025492038112169 0.00753897393670273 -0.0007518368374164738 -0.01080518084914336 0.01849493886461484 -0.0006669934821469326 
-0.008202558809895271 0.01418172567109557 0.01457156338064048 -0.003505629841935801 -0.01308496865952749 -0.007556794608525458 0.008401016615414212 -0.008904017974155864 -0.003730387421953187 
0.001199093274170379 -0.001297267479353596 -0.01360019085562341 0.0104504393116511 -0.0135503675124749 -0.02105349224227828 -0.004885816729310885 0.008852868279459645 0.02792927074953814 
-0.00806166000743219 0.009463957205744999 0.002907017867344384 0.003508655278682793 0.002270373249170343 -0.001701470248714718 -0.001649662679937042 -0.001460295941788641 0.0007208295422991937 
0.008628416896839927 -0.02559695372410133 0.008306490850409767 0.01602556892972652 0.004645409104369075 -0.0004571768063668315 -0.004237798070380687 -0.01128832613000939 0.003968583710628003 
0.006217086596378659 0.002363243503365177 -0.005457333954817191 -0.00947063495721606 -0.01683067742823268 -0.005430082131070995 -2.000230947617054e-005 0.008759507535831133 0.0238109964873515 
0.004422282106701483 -0.00939891601726966 -0.004863148085440565 0.005367285619751187 -0.0173298382733873 -0.01703515657093883 -0.003636468706856207 0.00938345974229458 0.0209541591165865 
0.003649319074907688 0.01020390667918076 -0.0005537490601573457 -0.0001285736705460962 0.00343045860033935 0.0002409943790589007 -0.01058995812526165 -0.006054974836863864 -0.0001122318599289914 
-0.008605258469354777 0.008273783970906697 0.005044973383578028 -0.006842134070491716 -0.001977050201404888 -0.01813752072186287 0.01324125750321027 -0.01065386980019239 -4.280161587890788e-005 
0.002950000213872036 -0.005471120667055202 0.01621085886638368 -0.00912130098992623 -0.005593309061959844 0.02210265850413486 -0.02237699495476539 -0.003399949564723754 0.0167029215465126 
-0.00427654074475304 0.006897762145827292 -0.002399934302043178 -0.003269857062456904 -0.01706300130920032 -0.001119294611361628 -0.02453459557758318 0.001126007954910051 0.04119799738005308 
0.01503641368992395 -0.01034618036102133 0.001524817865512441 0.003083166630135885 0.02259114349298694 -0.004744482879527664 -0.001431578002863086 0.005333978819497243 -0.0009055688880462955 
-0.005387341693252548 0.004116223556022029 0.005505781595440712 -0.009421352079818743 0.008166747213949905 0.004251798314050671 0.003637527856739156 0.002978704490362061 0.005678720907001581 
0.01207278177064464 0.007756513215153069 0.00751449783952152 0.01311485685088215 0.005616451743697609 -0.01202717953036984 0.001892656267678114 0.001932216090588106 -0.02363806264788959 
-0.001331637914229709 -0.006325065608890163 0.02074011121676243 -0.005354420331344606 0.001210247596621979 -0.005449423828767427 -0.00226502833083079 0.002466236733246366 -0.01613008032119424 
-0.01749321949019193 0.002777212947289769 -0.01961159956654402 0.0004854515768196877 0.004813295699885835 -0.01079546897878276 -0.004407190089530234 0.002061620755294812 0.03010736553108362 
-0.004741945523990087 -0.006935725398138943 0.00201880574291326 -0.02661111221146055 0.01200860737721872 -0.001365261721751063 0.005970303599265985 -0.0003524671181113324 0.02605036535435269 
0.003726695594630511 -0.01605601858360832 -0.00610242694638694 -0.008410717641260604 0.002543466347241617 0.02381628503898879 -0.0005158493688543104 0.0002283939917638475 -6.473895227312273e-005 
0.003255300671924323 0.00359899519533332 0.01115499267524661 0.02292694297451565 -0.006900705960563413 -0.01587185320938505 -0.005031821893908449 -0.005731900938397229 -0.01572102500486727 
0.004357236393599157 -0.0002590597710961131 -0.004921984439685596 -0.001523967252301577 -0.0005715057173933732 0.00773021723725122 -0.004052199330177005 0.0001661133565175606 0.01392698718881685 
-0.01112832861206266 -0.003404202755660948 -0.01528601566595517 -0.00908361808468265 -0.001323979698981586 0.01931979047514744 -0.009641595674753461 0.02988801090191065 -0.005649543794195984 
0.001493535192805436 -0.00417954938478164 0.01466781955143912 0.01720905614034512 0.004506390836961721 -0.009949134434125309 -0.017975324943838 0.0006315642384026643 0.007333660575333172 
-0.01509117381039732 -0.01049710696479359 0.01026135984876619 -0.01045305967893082 7.327142864810383e-005 0.002875614567619511 -0.005162318239834703 0.001305768950203067 0.01431027693681769 
0.007229596383314363 0.01760652088321699 -0.008744477977759745 0.005611846623146261 -0.007378042506846054 0.006141353175710967 -0.007601992306376162 0.004066978931033955 0.001072472554651522 
-0.002123520668467227 0.01267346782625005 -0.008923715729183455 -0.001847426031882455 -0.002759335095180394 -0.000874951558560475 -0.005822333080928943 -0.001779373673184881 0.001766061392217073 
0.01116605623472914 0.005233111172508069 0.004260134289199219 -0.002474601592466157 0.004137021342932842 0.009203961010806417 -0.008493549299483802 -0.001947169143561463 -0.02100355318329085 
0.00590568973833383 0.0006603932887759254 0.0025617766180871 -0.002620764436622508 0.01520223523044294 -0.0316849827278848 -0.01946127395500064 0.004136071937165519 0.01336838098436861 
0.004948220544580399 -0.005962328079407712 0.001100935899802309 0.005775596700550756 -0.002652499335358825 -0.004489145551354056 0.01018767955219764 -0.001767413132409326 -0.02632939198849373 
0.002254834302739743 -0.01294862632507128 -0.005416005325838903 -0.004042441168493442 0.009632342073128342 0.001232622521226381 0.0001057931661306044 0.00387600658628951 -0.0008403430866766635 
-0.006749295830713929 0.0139302411674092 0.01568019579658596 0.00862679372568766 -0.002303557081188448 -0.005458669535555021 -0.003094844269022069 -0.006452633365374699 -0.006382607745263046 
0.007091364344148692 0.005253921488346795 0.004659902858262524 -0.00741303498510862 0.002189988445009164 -0.004522256057386391 0.00159184307530565 -0.006824142672679032 -0.007056306416701443 
-0.0008463936080460837 0.01124221461265859 -0.008719167807989783 -0.01627183396626172 -0.001050831970855115 0.003284122712482086 0.007731637508123278 0.006642477914682298 -0.01967817623953972 
-0.003409363432688361 -0.009663964747119756 0.006367330981849865 0.008262549651947256 0.02043863987470655 -0.01803344412051205 -0.0006736848364931058 0.0016457994355809 -0.01011135786500971 
-0.02033507074221155 0.004217731844918715 -0.002402673664660266 -0.003051420137945321 0.005646313227206011 -0.000319817083072695 0.002419648665271542 0.003033686461000514 0.004274579609111073 
0.0086061741049275 -0.01870584409512748 -0.05149229185500812 -0.01538298882218819 0.01612187302025065 0.0187539378674709 0.005815494905580528 0.003025119189182473 0.003770744974875642 
-0.007672761041674569 0.007220689626387593 -0.006149640298592113 -0.001855584828595098 -0.02295100229979942 0.02007764564892985 -0.003160542804890946 0.01182194253599448 0.01185640973906847 
-0.003781240310267814 0.01024149995987565 0.0289356977471301 -0.001840769297338828 -0.01165062148931058 0.006915875818712599 -0.004829613878962328 -0.005179015881632595 -0.02680962435169048 
0.004457820275769913 -0.002150507123688969 -0.003907788137165384 0.008537876242026725 -0.01567596841255621 -0.001185680899618945 -0.01232711821891786 -0.006313416352594264 0.01988068528031585 
-0.002077944884771196 -0.02760033773316523 0.01153454546037421 0.0008076333449035526 -0.01482927629153937 0.01871795157867247 -0.01614927295148528 0.0128647356897878 0.02821803980862745 
0.007572339656125536 -0.0157100984007714 0.0009037841300779492 -0.005349762802146061 0.003801915324398175 0.001203767077809852 0.00722367039374778 0.00556865759876047 -0.01043886473690654 
-0.005441953263720499 0.01049216954652329 -0.01185226411286266 0.02541678343534411 0.002182448106691843 0.003682934596648751 -0.009270212493129789 -0.000401535540351976 -0.01542068529630901 
0.02898601260080283 0.01240258116518947 0.005893698840185539 0.01543708665618862 -0.01504185639757176 -0.03941567462852547 -0.01606386438478272 -0.01459945120094692 0.002121536972672854 
-0.003829053824435188 -0.009424435725856712 0.004770298542878136 0.002868473066320689 0.003783642321310909 -0.01932474775269666 0.01255351113842266 -2.087091813756118e-005 0.006751820249017392 
0.007863995047033138 -0.01726611360646439 0.004738191585956528 -0.005910492959141281 -0.0009150607022659495 0.009897467364255655 -0.003600176099119002 0.0008177837155873562 -0.006038858941591028 
-0.01962720594442233 -0.004374250270555567 0.008372044931029717 0.02093852207418439 -0.01447410122731994 -0.002122770977606684 0.004597418356168756 -0.004455564222168879 0.02168754358680652 
0.003457773137685126 0.01727951916312505 0.02652102333544968 -0.0001204506179750986 -0.00609450953358986 0.006717087827529048 0.009864038962538773 -0.01762401163565909 -0.04292164849742151 
-0.006982787835257963 -0.007242865323347256 0.01863300548660162 -0.007778829500597917 0.001727130974583444 -0.003864782695158638 0.003621924136167974 -0.003096170652178111 0.007361640654561435 
-0.00578873331013622 -0.004973695599108181 0.004696654035915098 0.003104501163801737 0.001434316759494296 -0.02097892832085502 -0.0004294487368808342 0.008986386819142636 0.01366138005901331 
0.004108471184675953 -0.002954651717698653 0.0136763476472428 -0.01664995054898623 -3.830590823495162e-005 0.01014856084169411 0.001689304249383718 0.0009044829404888648 -0.01796487100593318 
-0.0006067974274061531 0.01807161376469619 0.01492521050716059 0.01220505615225147 -0.00935859878013171 -0.0189526994329829 0.01300819482017059 -0.009745691533246441 0.004950097459076168 
0.007640172077239498 0.002597611120300538 -0.005955304957529367 0.01231033075565409 -0.0006485521465997334 -0.007627926138501216 -0.001544750838971911 -0.001844613544232657 0.004654271754544343 
0.01015557591149949 -0.009458923407381159 0.01026543505680597 -0.01396984356718201 0.004499348659721954 0.0252595235413332 -0.007708585554133012 -0.003153321356967854 -0.007680929635133569 
0.009399889868559559 -0.003458813781969083 0.007380927240405837 0.003551693234259333 -0.007347241309346471 -0.007414263632478806 -0.004030764320772739 -0.002608690051223109 0.008358298497321531 
0.004564965745685622 0.006416464324725474 0.006133285696086221 0.01453952561097393 -0.0004891189222179182 -0.01008162687756022 -0.00603649313664626 0.003967083386554154 -0.02345348952923224 
-0.009325752517025204 0.01570094267904194 0.003933835824443351 0.0002204552989538701 -0.006362102597541212 -0.0001547713618176067 0.0133487984226759 -0.01644973862840539 0.01575907365414938 
-0.005767451945842238 0.008995834500047303 0.005935597953663243 -0.00574919637079198 -0.004484134304936554 -0.01686536248518942 0.006857444668619891 0.0004547021432358151 0.007783314699555756 
-0.001268910179610561 0.01287523029645823 -0.01423930644051321 -0.005502490141461318 -0.0007740141517157575 0.01068288197883374 0.02523154073040209 -0.01547777647066904 -0.007853087099925851 
0.02465595334037354 -0.001702584016343719 -0.009702887480272744 -0.003234144126547734 -0.00406372886510406 0.003389059685610541 -0.002281183085383214 0.001443075094993068 0.0004259922848684551 
-0.003817707673318238 0.002117780913045807 -0.003053272337606223 0.009970552590121692 0.01898406996438504 -0.00185581824944192 -0.0007183448379097009 -1.778174490382964e-005 -0.01398657983188083 
0.00456388827017502 0.006425396857704875 -0.007987375155762351 0.00538705439789049 0.009100659190544022 -0.01479829764499018 -0.002604595298969251 0.001645223897977592 -0.00509362639015077 
0.001792009103220718 0.004518957300035593 -0.008827782034342221 -0.008380163274821552 0.00445945369023891 0.003309975608875321 -0.001652730357164591 -0.01504739718146641 0.02851668925485848 
0.003107256698149647 -0.03165769991448 0.01447284321058716 0.007318299360956237 -0.007572918219862545 -0.01395244263694776 0.01232060852868988 0.0273501206990461 -0.000192706806284512 
0.003290544804446925 0.001283263630814814 0.01845884547959512 0.003476095559791446 -0.007806989333026828 -0.001260703636192381 -0.008215853468105747 0.000280042039036626 -0.01617883403488798 
0.004526253602505072 -0.0006434708920063282 0.0001068451295025253 0.02796355796554615 0.03244869863560253 -0.03101009387377748 -0.007596089103227351 -0.00751964752711051 -0.02432733003954951 
0.01296296115375756 -0.008011596987779649 -0.00105581072517631 -0.002770336539859458 0.01711007642720704 -0.007609615280966905 0.009518089006631959 -0.005270839537201662 -0.001938212125620952 
-0.01047322911035219 -0.008711824471924949 0.00250262929075934 0.002558655058535548 0.007237642389324095 -0.003582088419783353 0.03535471671161587 -0.001549475923297634 -0.01490985621953664 
-0.0169118480463267 0.00917738583753889 -0.01243643483430308 -0.000606660950598206 -0.01035651656434914 0.006109052484874457 0.000382744571102105 0.003796526716636244 0.02423827897965667 
-0.01525004884466525 -0.000964644629069316 0.03934659280205063 -0.01280557582053893 -0.004394002099221001 0.0002031977735817372 -0.02343234365281521 -0.003688303566297148 -0.01415522387488821 
0.01710951582723166 -0.008351665746505539 0.01664709579797087 -0.006973058899058908 -0.002432571763623209 0.01692662033572748 -0.01110757799563745 -0.003608852094501311 -0.005566701328821188 
-0.00473974867232513 0.01904410222983032 0.006173659667835242 0.002953069120245995 0.001011458290483143 0.006288669801911962 -0.001903222836654852 -0.00856024271073824 -0.01206051653909761 
-0.0006037675472355582 0.0002825452580850778 -0.009756444824372778 -0.002325418593471472 0.01418565763929773 -0.006211328591232085 -0.00553210788619678 -0.0006710796341630645 0.01109284129162214 
-0.0005588536135571913 0.02262215281184592 0.004776873520540933 -0.0008735418885246115 0.002137886667808179 0.0003185117855455835 -0.0102644135665861 -0.001957173396797493 -0.008325352679950394 
0.01044057985932446 0.01691126935818598 0.001860731113140614 -0.004323502225939977 0.002005246453709436 -0.01614990876075166 -0.005657967788245981 -0.006533434096573349 0.009839882225086475 
-0.003902647221291609 -0.009268780172208687 0.005081217819247407 0.01281446236300375 0.006857990968747442 -0.01428152761055582 -0.005526884807644309 -0.0009473620339886993 0.01024483551638932 
-0.004936068200384784 7.55496906435573e-005 -0.02083172229408082 0.002598921225815407 0.01209407831096208 -0.001071033674538162 -0.003033791845745701 -0.006572652032318722 0.004827893260812084 
0.008622964008703212 0.004904934050572326 -0.01505911752505633 0.002620162466588488 -0.009458944236025613 0.002762873148912501 -5.921200491546208e-005 -0.004445148903153365 -0.00797069555616515 
0.009370977151262871 0.004994739919451562 0.01223491398574053 -0.01281045286917295 -0.009426531691204897 -0.004520255684070215 0.0295757176043173 -0.006047616736388916 -0.01759612260373178 
-0.005035452688406285 -0.02609178627802633 -0.03001199221098742 0.02350438924542125 -0.01064424622482898 0.02145319429516061 0.007131973023036214 0.00295988983985506 0.0263780318031757 
0.001169819979009529 5.293555225032718e-005 -0.01142201791615171 0.01183253427642045 0.001132519033339543 0.005132666353647639 0.0006529561725099787 -0.008699495908966948 -0.004840048496129981 
0.0004599041520461229 0.002675588069926658 -0.004449025334190037 -0.001865930844192851 0.0001044438680371233 -0.006889453832099977 -0.006504288560033644 -0.001182534525735792 0.01610280223327164 
-0.003850910590239714 -0.008977684965480532 -0.004063447860397002 -0.01028428084362555 -0.003867848205541041 0.01798928407927338 -0.0009292251167105141 -0.00714526759478192 0.02046826296183158 
0.01233270992732839 0.005687756174801859 -0.01968135637881131 -0.00237438788002857 -0.0003206137477212074 0.02666621792628889 0.0006698089094284458 -0.0005948516628749791 -0.01359225276733835 
-0.009677112471248708 0.01394966099844359 0.001119378344878429 -0.001846228906190605 -0.002520793674336102 0.01148904801531167 0.009001746524683489 0.001799303840697748 -0.003065196898246061 
0.006343133520221684 0.0003640935836997671 0.02636659577177299 0.02570050241537588 -0.004345751748555071 -0.0577455212756581 -0.009102620251517823 0.00768860058922261 -0.01228573982254594 
-0.009322402158350431 0.006824065218572631 0.005616086768347537 0.004806278329860739 -0.01949244899667823 0.002649038036464999 0.02098001461532182 0.001734127480620314 -0.0102872973693489 
0.0008230416916965509 -0.0113424892575152 0.005017653210649544 0.004596573391727158 -0.008186412820459066 -0.01911280920983633 0.000974881207703649 0.007901914988631268 0.01549366324834244 
-0.01418292811421065 -0.01261962263580996 0.001520309881058304 -0.001535390221632394 -0.001062085048153481 0.0001420763563844821 0.01058833849433181 -0.0007018232506582034 0.01866677404252477 
0.01566368114939878 0.0003030886659378099 0.01005327818564301 -0.01784697209957207 -0.01949194452552601 0.006965780974080693 0.03181898930297626 -0.00693156301969843 -0.01929849053929906 
-0.01603501720121563 -0.02629071496156591 -0.004954331929995503 -0.006772693493782004 0.0006119615109871785 0.01611926196231528 0.007057629212845088 -0.0004214420163152043 0.007563460569882999 
-0.009720608243789267 0.004173181205198286 -0.0006423905637148882 -0.01273773922735446 0.01269889004557342 0.01443052956351174 -0.003295366589213256 -0.007095274270075913 0.001921749222953345 
-0.007872636471634571 -0.01065185653541812 -0.001091300015987783 -0.006524270519363909 0.007041739630323887 0.01629204247503678 0.003715201321979026 0.01258128244303648 -0.01536905479725077 
0.01415842106005717 -0.004727703912030888 -0.007635761887615768 0.007004797686279071 -0.006923620855210436 -0.00743406826949486 0.01390297973617972 -0.00410252876621831 -0.02265512737165198 
0.01459461104318094 -0.0118813498790249 -0.005655853834784151 0.0004658645641392634 -0.008064302048933702 0.03670866079490306 -0.01191758178936174 0.008771051585331958 -0.02738304169261037 
0.0009987692550041416 -0.007314830332002173 -0.001049656622387574 0.005076972931194832 0.000446672155315868 -0.004452790379547668 -0.0058335072900883 0.0005021928547346259 -0.006071711821420253 
-0.003687308236632748 0.01494035370610199 -0.005079159866085261 0.0184798562038995 -0.0003895599346773623 -0.01046322053951865 -0.00843940214858295 -0.008134081692650475 -0.0133620598220979 
-0.005371329755658953 -0.004788075151146779 0.006093967482133181 0.0006614108254077966 0.008363689593673729 -0.00454301435161341 -0.007606106889147768 -0.007078380452020998 0.00244178511569848 
-0.01153470808208591 0.005618986408724466 -0.005458033609563836 -0.01717803519750307 0.01000322070210081 -0.000166861673109732 0.006203068675773328 -0.00705050476555257 -0.0149578345969406 
-0.008784614377922176 -0.002306594875547984 -0.006005714069645343 -0.01186189292135241 0.01547536260411133 0.03249815641219481 0.001029551922456976 0.0006026736260561971 -0.009745485418625076 
0.008488711648360826 -0.006669416267922122 -0.01925025207219712 -0.002384067186670417 0.008846963701223384 -0.004906604327996876 0.005690210225316962 -0.001043069156270779 0.01603135224657947 
-0.00733144699181588 0.006384157039939582 0.003566668243349961 0.001246963373930378 -0.02296937285475787 -0.01006404798199997 -0.005347930618988093 -0.002119914818029893 0.0191529362535753 
-0.002090542412642732 -0.01301946908101183 0.002398224062861107 -0.01844451182365892 -0.01164824481812921 0.004796607839142529 0.006585574372834313 0.001021569454991669 0.01333543090769416 
-0.01684805223305952 -0.01135026010731265 0.00388417010123219 -0.007137210139243628 -0.004717510159884921 0.006214708170563099 0.02599571201040396 0.0002582576430921415 -0.01533106903454327 
0.007109640422886089 -0.008100558768889505 -0.001385343269268117 -0.002332701807263364 0.01411329673952048 -0.002205164380188205 0.0007156097129143462 -0.005296268907206877 0.007189239795824858 
0.005701084725846429 0.0002555684217467329 0.007358593603427054 0.01278711630671811 -0.01335754914613306 -0.001611776218485569 0.00292083153001538 -0.0009062088151828954 -0.01674217328000908 
-0.009501538344541302 -0.01505367855228755 0.009756559906381962 -0.02922156598715079 0.0276337993728602 0.03127344682972266 0.003006820871153613 -0.003730158190921297 -0.003485388314275502 
0.01768571885701406 -0.008248687343602212 -0.0119807989025087 0.002756947263335601 -0.002944573368493734 -0.003813579912404977 0.006477628622098859 -0.005870410216465452 -0.01009395428098266 
-0.007984802614051646 -0.00335923809784644 -0.009233165018949482 -0.02467604980650103 0.01765025022351383 0.03109401985131584 0.00405015548156625 -0.004150169858254484 -0.004798240712847003 
-0.007310949389991272 -0.003848368144185203 -0.0006904327387043253 -5.860281086087521e-005 0.00279077809822606 -0.0007529811965073263 0.01723997097534233 0.006323833927795304 -0.002834783443928349 
0.007602160905299168 0.003455300501061828 0.008446538441730005 0.004052304072162925 -0.01220859477145128 -0.02657582015326598 -0.01104725258896248 0.01696502435120877 0.01861614101628921 
0.001053906899401569 -0.01860283299501435 0.01145936127146697 -0.005279949980792002 -0.01210154550657894 0.02780081165068684 0.007565147827685872 0.003313439047020654 -0.01311522898152846 
0.0180175234607168 -0.01028778334560099 -0.003085190471669067 -0.006182019020992095 0.00535117750702668 0.0198096068586351 -0.004009920057235191 0.008355875538819431 -0.01492464367117181 
-0.007675124515628696 -0.009027614259557682 0.02934928705575688 -0.002822185412063485 -0.007810734719205207 -0.007248565767118952 0.01636736469447891 0.00229980523245501 -0.01037558022792206 
0.004933831141073148 0.007522125526269124 -0.00728348743475613 0.00657663848653443 0.00492102024036788 -0.01428855399583838 0.0006431414030580313 0.002737022288567513 -0.01475547505210126 
-0.002403965954941341 0.00289849592131299 0.009426423501744975 -0.01036534174811053 -0.01651654670177375 0.02000911417643606 -0.01280363167764454 0.024693970155622 -0.01516345359070804 
0.007924852914280474 -0.003397602261582034 -0.00331740660106236 -0.003626482214841278 0.001662804656036082 0.002095883938523801 -0.01589750319719137 0.001209596256510631 0.01221065852132449 
0.007532805068530766 -0.001507469486893414 -0.009792244313841441 0.02570633144248888 0.001893311918584192 -0.01027967243400387 -0.002388472359986663 0.0009282601786807906 -0.009887303748792171 
-0.001458494160749638 0.00533625698119246 0.01106685937464641 0.004731104353793962 -0.01563314680618443 -0.003066788771643863 0.001507968897364504 -0.004528840086472807 -0.004811061162369551 
-0.007965101299357884 -0.007931697638636142 -0.008476094205848293 -0.0136049142247044 0.007137055076681487 0.03060462807127844 0.007909135306307439 -0.01846288590593241 0.0004004260869132384 
-0.005654530863404865 -0.001508058560806586 -0.006061801641355567 0.002667829518070447 -0.0002462994675406651 0.007209088582079365 -0.002657787133413974 0.01415403583322964 -0.00711456069461963 
0.01147046077184588 -0.001350260896432607 -0.006925973325022876 0.01548419413958168 -0.02256977631291914 0.02634331834626495 -0.01482110607946578 -0.009322425739348885 -0.008148867928516216 
0.007977680193257633 0.01204131966728551 -0.005811770409331242 -0.003348541371593057 0.003870140026834681 0.007182473869722987 0.002816659472041449 -0.003717063342921519 -0.002573435352398545 
-0.001872940885392754 -0.005703624495079591 -0.01392616969651056 0.00082734500606304 -0.004432169895290939 -0.0007548095697723801 -0.0119059555944805 -0.004396008153821528 0.02226601025518923 
-0.004462338274746918 0.003175121516081078 -0.007542701405176032 -0.009765912730397041 0.003590892560959512 -0.004996636707048913 0.006320813324331116 -0.004096698641178579 0.02405280877526031 
-0.01569631000168703 0.0114910444308678 -0.003071794122778693 -0.00527281450056881 -0.01519711249767792 -0.008814728550896787 -0.004619475823836899 0.01337392168707212 0.03787710475004431 
0.00479797413217697 -0.00313996913605372 0.002312965086932415 0.004486010910531137 -0.006829526670770461 0.004701821653247672 -0.001961564624249939 0.0004829403462617214 0.001664338223151735 
0.009278326421965749 -0.0008768969245944541 -0.006335527655782425 0.01176062926984397 -0.01770032057163824 -0.008543947062482503 0.01126462651881668 -0.00595061605526589 -0.01506370435794891 
0.01139244821535397 -0.01850138825073616 -0.0116656259465895 -0.002272473716611894 0.007951459177947441 -0.01199611159169124 0.0008612244687622633 0.004167632901111909 0.0146432308070183 
0.0003854749496764816 0.01272590103664417 0.004270654619586472 0.01475793913636836 -0.01488829412772706 -0.008924335072837485 -0.02368045492766535 -0.007442620423690177 -0.00570011148975093 
-0.006014512942035286 -0.0005385875410453535 -0.008351988805751394 -0.005268242751341806 0.01990659227957243 -0.01867348491499581 0.002688502321100896 -0.004024848108805952 0.009505781728794389 
-0.005791579826897883 -0.006534249680717317 -0.01693632972762892 0.004657207724065522 -0.002068845187117295 -0.002606553866689432 0.01686997922623603 0.007927388662240385 0.001299651392051569 
-0.01320082147036513 -0.01206927839400824 -0.01623522144961806 -0.004861321143601771 0.02775438649851947 0.03564648149812569 -0.02729109734230812 -0.01399262486798288 0.03116955055289234 
-1.03981132447797e-005 -0.008487057105290028 0.001571170841697703 0.01248428694972756 -0.004553907712159125 0.008903049884065662 -0.01557233743786997 0.001128401850824569 0.0001716560043040982 
-0.0006580598538653045 -0.003431539836420504 -0.001390602380535835 0.01694626424001488 -0.002839052874142747 -0.003202044428877195 0.0004795521299665198 -0.004623503805321051 -0.009578992843946834 
-0.0003363981011740249 0.002076909652162308 0.01365447826634751 -0.004925645716080185 0.0159883411597132 -0.007265250685024535 -0.005594331094238829 0.001592429429408596 -0.02290017938718276 
0.001871757795413417 0.008149679378671604 -0.002533235090745559 0.001026971216914074 0.0009116389002577029 -0.002000513768217087 -0.007189864148007103 -0.01066752198049519 0.01692322730575621 
0.01967812230007449 0.00724152362433845 -0.006082510901178095 0.00113351003299013 -0.003895835864983059 0.001318670057070944 -0.003922077237523722 -0.006854755674113312 -0.01576579511391311 
-0.0009579852844172752 0.004244954696019525 -0.002702995057162723 0.0001073269041723485 0.002065911844944019 -0.002405909481243459 0.01160231734390493 -0.0002602668618552784 -0.02098649372785015 
-0.008485837872950906 -0.01295392997681955 0.02389759818333342 -0.01516284959751364 -0.000766298464934125 -0.01372871187987341 0.00514364867023932 -0.001350177320877455 0.008024565328180753 
0.0006214189155538269 -0.002864587116709398 -0.009180780663716071 -0.002589249206227264 -0.009994033927481084 0.00952940829671857 -0.01191721357629555 -0.005699195626254205 0.02251671988247668 
0.007003009039730888 -0.02362113660600812 -0.005828931135534201 0.01312189367496506 0.001086722232315663 0.007945780854505914 -0.00104681079505564 0.01631393472211916 5.985101389261998e-006 
-0.002892368891477217 -0.02362435329368879 0.005849444457243103 0.004530789930296652 -0.001693699768053766 2.788254011158686e-005 0.004100054707662493 0.01878163618402689 -0.008782761386179222 
-0.007989159389065867 -0.003644693998979238 -0.008594172954517117 0.02068898576649369 -0.003016620889541032 -0.007535173408545355 -0.004733823246131451 0.001724971562278275 0.02039947833846591 
-0.008731285692935705 0.001906633193242736 0.001234366389842774 -0.002148128108536536 -0.02610663333690413 0.0001312297062605465 0.009865122593713199 0.002705349012590996 0.01114906182933092 
-0.01214034188759015 0.01598952404450417 0.01597417133272105 -0.008897992386535629 -0.007290959324741739 0.001792648777097218 0.001312250898255487 -0.0003740669013447771 -0.0133616141763948 
-0.009036714453052879 -0.00049324823152438 0.003060069621186544 -0.0009850896208416144 0.002808198939340355 -0.01085383454629833 0.005377230524427856 0.01180202586531322 0.0003074674198290926 
-0.004788819117874365 0.00392022439644176 -0.001053600012163366 -0.00196498732837617 -0.004029647345423002 -0.004626200456467887 -0.006956084467694234 -0.005521276273539212 0.0231423441649843 
-0.003340855717867347 -0.01590819249045912 0.02391711957026052 0.01057796858354517 0.01949386778586256 -0.01013734061576258 -0.01060495052856056 -0.00484579987981391 -0.02638314759157557 
-0.002973106688650066 0.006348475704430437 0.01076424648452746 -0.01579267969890772 -0.001038294731252101 0.0153600973289245 -0.01098584377124893 -0.008357105365876791 0.002491696580519054 
0.008015560522694179 -0.01211234454896657 -0.01595528294767791 0.00426724373332679 0.006562909886123366 -0.003153270882921471 -0.001874017958224119 0.001597167856788603 0.004854888677239067 
-0.01795190296177291 -0.01616164366144447 0.01631485364388772 -0.01198944031314545 -0.005498986604142963 0.002865184155123399 0.01664616351648019 0.01068356806842932 0.008003132778616367 
0.0001387092865383818 -0.003047298108744234 0.0129130176363689 -0.02540189104980736 0.00289142482013827 0.02515741325749944 0.0001605937987891293 -0.01349627058107325 0.007152308225649638 
-0.01450376725483853 0.0006452181692200846 0.03425625811303494 -0.02840847908640273 0.01648234103990236 0.003146699955084495 0.0004928313394298533 0.001327461687926746 0.001404512016519765 
-0.0005889547037201729 -0.002315997489082884 -0.002213005115732429 -0.02782178622195245 0.01768583358007735 -0.02671115169581546 0.007472913879944606 0.01547309554124987 0.009280783267603001 
-0.02207782662865511 -0.005210985365162893 0.01553639073947506 -0.006542151182533012 0.04673941223337969 -0.005947379138586204 -0.004028784454480592 0.008437054856596373 0.003550411264337542 
0.02428995097834265 -0.02923548458372588 0.000953744987078153 -0.001945415365761695 0.01904067141251927 -0.003558750062565988 0.006562042688776598 0.00339184834437514 -0.01236047238529013 
-0.001507438851556221 0.001374607944432032 0.02315346302903608 0.002535732167745394 0.007995613669485552 -0.006836751420221268 0.01728044937424049 -0.01098881463442962 -0.01641644651619941 
-0.01015469208099303 0.008641121696759157 0.002155067701003081 0.0115091692784995 -0.01732874581362986 -0.004736661026102449 -0.006429818233912882 -0.003859873875365421 0.0004055738181926758 
0.009044289637592162 -0.01134134823687743 0.002272688156271612 -0.004892292555146472 0.006460327680399984 0.03459906306472447 0.01311389588270383 0.004087757964179081 -0.03269344536859704 
-0.02674875405542302 0.01204821469431282 -0.003750911538983884 0.008772182861387838 -0.01450855013829933 -0.009882751592898682 -0.001124637481913652 -0.004778566936495391 0.05263447898485855 
0.006506078027259745 0.008037714904313889 0.005472873027311945 0.01275813036392276 -0.02397471105333708 -0.005938885963879499 0.0003652905034676816 -0.002100931199337448 -0.02326079676872706 
0.005927281499055579 0.01376417820744581 -5.819590194536055e-005 0.01349483994678903 -0.007107252172722043 -0.009334215462591586 -0.02499433531609634 -0.0005048352919320269 -0.01794141608031498 
-0.003510894233772112 -0.02878338488361239 -0.004872211527277396 0.003437081060191432 -0.0008716568365452549 0.00187713737414582 -0.00489999593468171 0.03029623160805483 -0.01365199128523166 
0.02238625279713 0.004140055339346683 -0.009281994529220003 0.003502329281054079 0.01532275294415145 -0.01651257921585371 0.007351341160554692 0.002473245536437955 -0.02219707792179178 
-0.005984341315108751 0.002154039876122281 0.00284711846438379 -0.000106897101073702 0.01110967120676577 -0.0122919775768296 -0.001653761592650771 0.002206038155419972 0.004743664864546863 
0.008080308543022828 -0.01350749940186887 -0.009126002848760152 -0.01335519726637958 0.02250559627168463 -0.005933122319792594 -0.007398069001179438 -0.005059536900994816 0.007873839633339248 
-0.01236942450321023 0.01050911182463426 0.01624608934482658 -0.009807793876420548 0.0007987829831458729 -0.003897174666948952 -0.02659368358690917 -0.007946550643318546 0.0107967332945379 
0.006641033311422065 -0.02102228517257951 0.007753140723191118 -0.01991623861805863 -0.01195375112601138 -0.00492676158492719 -0.008416156529171123 0.006422949279361755 0.04923636870109383 
-0.006220002913518249 0.001545610244740162 0.000684609247917914 -0.02009260999317237 0.01699940632176746 -0.009435373774429615 0.007195730097606119 0.01128652426056124 0.00540042546165688 
-0.00313430316187877 0.01199252279154029 0.002351351555941843 0.01532250748421497 -0.002774336289210679 -0.00574075422887748 -0.007641280465498604 -0.003661989127847029 -0.008700753283777018 
-0.00812343120142776 0.006322593570463867 0.01529063823779604 0.005138006511523015 -0.0003043172579432056 0.006927709366275196 0.002757154765643884 -0.01053520388792887 -0.00364543579702203 
0.006143501149303413 -0.0101740734423914 0.02435473420992546 0.002764895069369988 -0.003431679120594443 -0.0004755113414077503 -0.001803435261898893 0.003511131828527633 -0.03218541233519536 
0.0005402889507494798 6.442082417069553e-005 -0.001685262640337502 -0.01776746255179575 -0.005798677917764067 0.007788652338636155 0.01238931547960217 -0.002286592469633918 0.01509984249541815 
-0.01495854049683604 0.007474104848509383 0.0356650669083844 -0.01272826965326722 -0.001010387040097558 -0.003290278921762431 0.002624272820641423 0.008895673262322781 -0.02437887448391759 
0.001752882441595806 -0.008951361350102723 0.005751489551381281 0.01486446404394651 0.02830510882214234 -0.006072502057145312 -0.01410821168352438 -0.006945369054118464 -0.02119686792067395 
0.00420346015129851 -0.009438953410588829 -0.01382287897442639 -0.001932815151639834 0.03327940036122439 -0.01883093103520177 -0.0003725730344337032 0.008825496161452468 -0.01410686701528268 
0.001283690314791183 0.001106080715960637 0.005312289983259512 0.009458587503625875 -0.008188712400398831 -0.007250423935529765 0.004583308671550227 -0.0003438544674760252 -0.0007986860605175815 
-0.005411885504408055 -0.006367264835555186 -0.01056305786800059 -0.007233550003815576 -0.006516194686180924 0.006644872223894223 0.01346530116410538 0.008875291588723055 0.00248831651625103 
-0.01017473316814975 0.003246947945208304 0.003399615315216813 0.0003404941483738588 0.00169922452676755 0.003706634314445572 0.01536566698732587 0.007918740741915021 -0.007857886582520882 
-0.002721271110217422 0.01144299822678442 0.01110279661754799 -0.0145934088632431 0.002285430808252374 -0.001348650752821508 0.006444742833517293 0.01443165285039515 -0.003394607790980358 
-0.01668556085798409 -0.007702508369984128 0.01105398296437817 -0.004067515700477707 -0.007858020402191503 -0.0003350588553010867 -0.00527110587659284 -0.001749239414441977 0.04209773385803173 
-0.004838703995089738 -0.007282430315551005 -0.004557478274368882 -0.01839576209842785 -0.01474078755284166 -0.004963317190261322 0.006425666517107095 0.01427066854020042 0.00445318081800957 
0.009458822516595624 0.01743113857351498 2.498222797566532e-005 0.02715983710658098 -0.01159789588969506 -0.02735905901616271 0.002516159537273153 -0.0007095436729418158 -0.01844358697323395 
-0.01964343235202039 -0.003745245217697071 -0.006293318118673435 0.00755070444763387 0.001568540019418928 0.01770348454857944 0.01498008295608246 0.009570698923254691 0.01329327501862909 
0.006415642441245689 -0.01032838171944943 0.02172820670517466 -0.007122110000705816 0.005918056799164342 -0.01279779619101583 0.01910155640157759 0.007264890849974137 -0.0153444668252132 
-0.01577731617976718 1.527623533088038e-005 0.008943663259378166 0.001534525266148378 0.02524785207614496 -0.01165373818889996 -0.001829751559742272 0.004948745973997462 -0.01844303822361865 
0.0007911897388834631 -0.00983306645866025 -0.002973911240358475 0.0126311560349709 -0.01656768545319595 -0.00936539138265857 0.01311190390481709 -0.0002539841007053227 -0.003072958337340651 
0.01371750990071208 -0.0002413405869753126 -0.01241656926573569 0.002285399405700907 0.01137456108866304 -0.012404445458051 0.002611511778262974 -0.004528942948465305 -0.002578655949512881 
0.002415660864626438 0.01088846623783319 0.006371689304625503 -0.0004891568186199009 -0.005401380121085106 -0.002504148070455936 -0.0111249581663527 -0.005463756105414495 0.008910011133406831 
0.009587031507895616 0.009303140329193346 0.003997366285353719 -0.01192310755813328 0.0111586706606972 -0.01653694946266581 0.01362657398644014 -0.01050046596428684 -0.01045917178764699 
0.00453238150133543 -0.004332477981465112 -0.00407983948903771 0.001933189727337079 0.003278357823671683 -0.01048996709449252 -0.0002359007269767128 -0.0004049608019901921 0.006557870672745643 
0.01301218744173405 -0.002708775797934412 0.009020247015845152 -0.005492258809602738 0.0155682767409721 -0.007035288885168699 0.007292308334365768 -0.01042314647029946 -0.02224735165816157 
-0.001503958591688453 -3.151702580625925e-005 -0.006602740575844767 -0.008827735674785614 -0.01357519135872318 0.01069892216115786 -0.006474071305349325 0.001233353524598511 0.01204309089328643 
-0.01162741353527545 -0.01122631098825764 0.0102287832746461 -0.03702229407721534 0.007338537741181689 0.03599625705541076 0.008254323788983909 0.003447036662859711 0.001531204362276007 
0.004263826301639813 0.00977057281283253 -0.01275017822661994 -0.001909146324820993 -0.0109664683305395 -0.009408545409721948 0.001365643463879143 0.002903084398447885 0.02868860432901778 
0.001696973639743045 0.008356213613336182 0.0174778152052217 -0.01005290359358954 -0.02046808770020275 0.02590158936503521 0.005220777093836522 -0.007380082121385277 -0.01169398436256475 
-0.01443010626685277 0.005803695006977248 -0.01538484515973719 -0.01231493772594342 0.02985434519651405 0.0209069253765597 0.003403083106931557 -0.005882674341590849 -0.02109700660404324 
-0.003009796614337738 -0.005638001940546419 -0.01103759249920432 -0.007349032949221777 0.01884951763990764 -0.005453576451074881 -0.002029299201468912 -0.0002569141625084231 0.002009218939302428 
0.0018432449513643 0.007483393637822063 0.009201734817286878 -0.01379334956883594 0.00449247006473407 -0.003432698183095828 0.001682728795987452 -0.00312422694031134 -0.0006526971096774503 
-0.001827359422290795 -0.009043688873635176 0.01613149903366993 0.02526627169203635 0.002944873741214542 -0.01124630681664019 0.01697103547026224 -0.00119329032434557 -0.04839855037569674 
0.002248696230637685 0.005683623290486627 -0.02319003647359597 0.02963386083413514 -0.008494785533959517 -0.01238813358755028 0.003557226021431291 -0.007663679971643135 0.01899010980407159 
-0.01153477558564014 -0.002833904813739054 -0.007601434794386516 0.009198232913690057 0.02510074574585986 0.005056306096347062 -0.01196754039884364 0.0008138422213815866 0.007057078043084773 
0.00050133348293563 -0.004260543237347516 0.02253044765065316 -0.004873746627775693 -0.01969823561643776 0.004909740999523504 -0.01201055744878538 -0.001442510800565967 -0.009793808474168192 
0.005571332010949495 -0.0113980957141451 -0.001277385559072953 -0.0004261817312491846 -0.003319365535433991 -0.02107840215187268 -0.007454376456334365 0.02070723135495843 0.0007591120145873985 
0.004980450810097178 -0.008020080795683339 -0.005039402101748153 -0.009003134538704556 -0.009130135559234644 -0.02171144409598942 0.02587266214349 -0.00650909063123742 0.008501677695039499 
0.008887916849088755 0.0001582471187815157 0.004902029023331135 0.01870064633404811 0.01445004708258113 -0.05297657180376332 -0.007437996665046596 0.008726836883121191 -0.0113308775655784 
0.001258614338339855 -0.001915925141277416 0.01171026406515444 0.01342944507376226 -0.005375434092619372 0.0004565891868104811 -0.0154162506568721 -0.007798126373409556 0.005293173749547782 
-0.001751786988975192 -0.002212382753617145 0.000260083562548894 0.003550958860508473 0.01594910312128713 -0.006389717967914601 0.0003943448891675835 -0.007708251631192655 0.006743442102841744 
-0.005567605894194535 0.00230356400266419 -0.009618376414465828 -0.004178276495596806 -0.003645930300104825 0.008163130356468627 -0.0124303291921007 -0.009188403082578954 0.02595671049331661 
1.27341288640942e-005 0.0019979929564231 -0.003695021204212411 -0.02098013523779952 0.0129409707219237 0.003834022334127392 -0.002298934562595277 -0.002223423178233854 -0.004138159610297827 
-0.0001513241002293397 0.006394409509662146 0.002988172608634372 0.008674292962710623 0.02036218977212041 -0.006205516437909491 0.005211632681359218 0.001964335434962771 -0.04132494323273203 
-0.0158173160081909 -0.002497301459049739 -0.005502579262555631 -0.01263646166642146 0.02331476547908605 -0.005371533433131996 -0.008053060796566373 -0.0009815064233495822 0.001812224282564891 
-0.007918991724491927 -0.01139488318978308 0.03346406600494778 0.01221573399881614 -0.001822437114589928 -0.01783013978133483 -0.01262655376984936 -0.001484860325593096 -0.001893110432367766 
-0.001349773976500133 -0.001300326373274765 0.002710478150845398 0.002269063895699021 0.03768568218985921 -0.01076438195129562 0.006119887806788391 -0.002731522999479933 -0.04809189381820935 
0.0008591320012456436 0.007041200682114919 0.002847237951544381 -0.001016961223576247 -0.004394016621843334 -0.01475882057149545 0.007967511285124174 -0.004923434354218862 -0.01306387118223852 
0.01840716711582617 0.01015766372973016 0.00181708664045895 -0.006341258065340341 -0.01777039061091657 0.002411384437296579 -0.007980424987959036 6.866245905202368e-005 -0.006629653354486287 
0.01055661108937508 0.008759487815733064 -0.01132679437674951 -0.002498551656127957 0.004419855497891258 -0.003374476899437099 0.003230563096192513 -0.002981553539040542 -0.02035799932108588 
0.009329249810580595 0.009153747696597214 -0.005009748065055769 0.0006147027061700155 -1.783224737669789e-005 -0.0002226869939372401 -0.006722814762269801 -0.006878533392825187 -0.003116086231756657 
-0.009925359974782248 0.0144536466059542 0.01516190538719113 -0.003414942710538812 -0.01219965286415537 -0.008774244541036947 0.002035590328672459 -0.009644077947910877 0.01258733866317147 
0.01696639275809494 -0.0006263728518185167 -0.02204765570823852 0.0106472297714713 -0.01225833882278268 -0.00385613379511444 -0.01847557968998748 -0.005090888586947686 0.01988182066862769 
0.002258262238755034 0.02037813313192903 0.004541341792267994 0.001215425189998905 -0.007493321848605603 -0.02873224487637953 -0.008368980716839241 -0.009266231017890885 0.006753164194330392 
0.006247073953722527 0.007781796067016497 -0.01925517674024636 -0.003724996869914135 0.008269077973440054 -0.007530437775424435 0.01377826604563721 -0.008954790047569279 -0.01458975054310322 
-0.007549258832963929 0.006111596185293025 0.000392617374808941 -0.0002019506985881497 -0.008212706581699217 -0.00277296774337195 -0.002695547436236234 -0.006130407623117714 0.005793850800750284 
0.005478480177800077 0.006450915683556643 0.009502299882598818 -0.01613255803507306 -0.01927550066331408 -0.006798397268209936 0.03992993433630622 -0.002170522818470541 -0.02336900458877476 
-0.004009605184598629 -0.006818687504019184 0.0005178228385830595 0.002815558211579456 -0.019358221668492 0.003774412097152917 -0.0009670942903530792 1.721554218892158e-005 0.03180052919820207 
-0.0009515269127772284 0.01139404085867452 -0.01334128521769034 -0.0184710982749419 0.006700182073637926 0.02760852191855694 -0.0119426625794045 -0.004890829092975834 -0.005479941647562648 
-0.01108759631029111 -0.02409870308147654 0.02468496492158623 -0.02509399649983527 0.01808966542391006 -0.004017115807879918 0.01572165975656794 0.006913086910883438 0.006151944655485165 
0.01239917424093612 0.01597243528752271 0.005172536799922716 0.009140698067734772 -0.01514037671280383 0.007402934156623508 -0.01121792689192546 -0.002394057473311433 0.007803051640633271 
0.006402764924606577 0.0007308245519673547 0.001886550602696522 0.004512676522587166 0.002049932949390644 -0.009667817851412906 -0.003685874574287477 0.005347792693681359 -0.01089775869713099 
0.001196747680621684 -0.008579840100146875 -0.001692569767616629 -0.0160590483803641 0.01137375213663358 0.008490618644699733 -0.003402752940348055 0.0006171258916559744 0.001626792779885137 
-0.001646486682602606 0.004267746823158271 -0.01055227122288507 0.008715052168296373 0.01897250245826855 -0.01691120810535581 -0.01072419684361501 0.002753777146799505 -0.005986319426003763 
0.007345805298638951 0.04017512725292473 4.034254164696655e-006 -0.002077420162131923 0.001533966740255746 -0.02532053507706387 0.004141392586528797 -0.01120068377571188 -0.02465884541445589 
-0.003432609713245096 0.0004560998880914873 -0.009723358218848737 -0.01011835186331333 0.01780755329908566 -0.003649855104912158 0.0004089002804156049 -0.004938780899635472 0.01837855501697068 
0.002808406723536851 -0.006940925820181881 -0.008352809664466941 -0.00126769938126087 -0.007245568137253366 -0.002143258632857238 -0.006166937934366451 0.0009008985742500683 0.02784124107617904 
0.02072627667008975 -0.005533414988077808 0.001612056412026629 0.009129271112914877 -0.02647309673797216 -0.001894311889547733 -0.002411966985011841 -0.0006693402741949165 -0.0002965214943306274 
-0.001082968650150361 -0.002937032780681803 0.009777667272013287 -0.004062675158303416 -0.00271482821518395 0.001323867340516479 -0.005719110792197587 -0.005232170367482235 0.00922823947423972 
0.0178148583939006 0.005184988003468781 -0.01502355653839847 0.002847310155469211 0.0135614787317649 -0.03223847102196845 -0.009364777547078868 -0.005194184036736751 0.008831816356918319 
-0.002571337397650561 -0.008916830865277376 0.001189253038376403 -0.02969669325455305 0.003547232633564831 0.00604906897056072 -0.007005990424559858 -0.003059361122035206 0.02082652550835918 
-0.00343536303440596 -0.004317466586865205 0.01401411910345782 0.0124844222852763 -0.008416952198243184 -0.01367689243929985 0.00109529344173132 0.004164845950310489 -0.01024679720630981 
0.004235539240970122 0.008180373824961418 -0.009972002355170925 -0.007608579725548658 -0.003700132645780124 0.001997047541355008 -0.003229973261038945 -0.004048466570517236 0.01167075949156024 
-0.008234231636877165 0.007683317827340901 -0.003705536132019095 -0.000529083543223635 0.002607515936652203 0.004336463346806321 -0.003059264329346134 -0.0002924020359936373 0.01347582784059617 
0.00683960403037045 0.001192512450144386 -0.004001914555868511 -0.008296336216560642 -0.01238829016450798 0.007556661459062435 0.01545267427007064 -0.001933359242484936 -0.01889943961649953 
-0.006056142316642884 -0.0006996686898234402 0.01419212568619642 -8.01487243935395e-006 0.0007643051138679439 0.006145386048720984 0.00881531841525739 -0.003410653865633808 -0.02326608124525981 
-0.002853450801604993 -0.00715959195795359 -0.01847986956290391 0.00252454559559562 0.008520096347134481 0.004049293640996848 0.001437579333688984 -0.01090032683580449 0.013620674731536 
-0.02304068643394604 0.02464583695920555 0.006172875834793676 0.01244056440477131 -0.03345231813713906 0.009379494555616949 -0.01673478227811261 0.01523120997227018 0.02325135014392115 
0.00621295849253212 0.001615624877140416 -0.006161953942326036 0.002912036246524774 0.0005572809861620492 0.00479691402657146 0.01406531989977387 0.005718063609533072 -0.02721800396472739 
0.001097174056535479 -0.002049099980775277 -0.001291718489096839 0.00879314354272418 0.009317599077258782 0.01448291212482824 -0.007008572719687961 -0.001899616713838035 -0.02614896561560047 
-0.01063055151614424 0.01141081617647973 -0.009463248725648082 -0.004394921690748357 -0.01697880313340199 0.004606362650707198 0.02690229488570935 -0.005538046070206285 0.004540872779892206 
0.01289526912493044 -0.009839992853276372 -0.01389020072453751 -0.008869929434915963 0.01491242832686765 0.01251019360710679 -0.008785500050563055 0.0150661087323991 -0.008434371554795067 
0.01815001052324978 -0.004173648762479014 0.003384419172361525 -0.005169912302144147 -0.0112282494862295 -0.004508577000790309 -0.004547330047790133 -0.006130755916951277 0.002414779631130625 
-0.004932430324573274 -0.006703801426785136 -0.01081274857511851 -0.00655799806611018 0.01628193313686343 0.01053718067340644 -0.01711854618297263 0.0003585029234929944 0.03152808639264005 
-0.01149728477745444 0.02065728066977463 -0.005072186300097226 -0.007663652960693487 -0.003923778718870154 0.01188056071430645 -0.01707613100221683 -0.01283852178901005 -0.004486775289627005 
0.01560718091148191 0.01240813002498385 -0.01418278029125426 0.009237887838268167 0.00600651529981559 0.006556111982417562 0.01954913345868812 -0.01671997794362123 -0.03573756261163806 
0.009213975052185295 -0.00761211464614314 -0.01034732785863344 0.003655882740916109 0.004928241762042681 -0.0005786884045104356 -0.0002811573299041651 0.001467651333836829 0.0004510984961377309 
0.004078045837475727 -0.007588056081272224 8.028697461785426e-005 0.0007646334251402841 -0.008048609802123428 -0.01524097912446592 0.000607045426230735 0.002898954609843517 0.01260977206865688 
-0.005649077909005507 7.215338155211655e-005 0.002763647756442323 -0.0008825944311724198 0.004597993485954875 0.01046937355976021 0.001399997730713521 -0.005711128604210103 -0.001316169119611188 
0.004075100557667689 -0.003729281633201324 0.004720093167122652 0.002744672139107101 -0.007765698348935013 0.008703248963511417 0.00402557435873692 -0.01868428645372183 0.005123543446671828 
-0.005848235932053607 -0.002437718865632993 0.003459493215801839 0.01171424967807267 0.001418210533258689 -0.004599292448869888 0.0005202765396377462 0.0001549331658359718 -0.01308861515644932 
-0.01059843019548687 -0.004232361401734715 -0.006844044114110853 0.006276510087998326 0.005504497821643046 -0.007725680149202668 -0.02144614759652973 0.004208476003894609 0.03125109282829527 
-0.006336467916670282 -0.0212845600571135 -0.001301376810985427 -0.0009462356723765599 -0.001914689610630368 0.00762415076048686 0.004062328138539711 -0.0004779268998101733 0.01219576182613431 
0.02689643909904733 -0.0005581502366243375 -0.00129415611966731 0.003692542314367091 -0.001710173227321785 0.01534801765451853 0.006239283757456653 -0.02145223541237413 -0.02345816005818846 
-0.0006826277955170271 -0.003774953683054574 0.009538027859494471 0.01452441655575675 -0.002503165392320592 -0.01344167655100442 -0.02223911974574226 0.002186231103947483 0.01200936157123971 
-0.000358065939188116 -0.002755527787060495 0.003586275603377547 -0.0337729745233492 0.03479197542063785 0.03116563920898992 0.007098498037317325 0.004477530694056829 -0.01911810726805211 
0.003041355284426006 -0.01148017870829854 0.001510293910701227 -0.004705831190726316 0.001807115586098748 -0.0188970105560495 -0.02154699342740557 0.002770091275052578 0.02532739347642479 
-0.01347113893465374 0.001133059698767814 -0.008109464921042062 0.01330087757514753 0.03408530217647093 -0.02269102142481237 0.003976168125652081 -0.005704901268988726 -0.00771425384100929 
-0.008654834740422968 -0.009346294252885721 0.02526701408635318 0.007748849402723065 -0.003356146239746304 -0.005199598064101529 -0.01253922492214652 -0.003267402434194133 0.01435701397620369 
-0.0001691598157418038 -0.0007442097164094152 0.005123705894530721 -0.01162647387150732 0.004578179600774695 0.008512092322009895 -0.002708239396477709 -0.007720724777940701 0.001958228346072143 
0.01423667616311239 -0.01375209828068803 -0.01157707475732466 -0.01767028265180076 0.02706544514066383 0.006416035200760643 -0.009714255257537935 0.001810720192821013 0.005629881190082241 
0.01045627185525779 0.01713327191654486 0.002560336731346192 -0.02559212619872325 -0.01238697255102512 -0.002271027131411235 0.02461963309909033 -0.006273891590456496 0.005274932343404253 
-0.001785428985553903 0.003627465545658308 -0.006456415458414557 0.00491062766608809 -0.01700273396852084 0.007093713090402272 0.01412063604774139 -0.014725414677488 0.03048497342173357 
-0.002861261978146757 -0.005168117442238961 0.001939858744811554 -0.01064631017605879 -0.0002506639534840878 0.003739095649519938 -0.0189708036496651 -0.00786507823235354 0.01901388621199865 
0.02008174459508895 -0.006941233048039538 -0.005053244239199035 0.002752372739752486 -0.005026689635215253 -0.006555639275775889 -0.007534280207320695 -0.004446623077860204 0.002938750526915953 
-0.007233402213595933 0.002392113176903641 0.0114202434422231 -0.006236817718128833 -0.01059219034530723 0.001922562349356437 -0.002129881858428298 -0.001428228380064915 0.005942442342502304 
-0.01194217850881449 -0.01013068202671653 -0.002739952363919702 0.02202102794865963 -0.007284165278540343 -0.0284840460072795 -0.004633498200065918 0.02429326711460805 0.01411990792333895 
-0.001164621887899464 0.02015332850308092 -0.01158468898971883 -0.001354276878790205 -0.01349900108013512 -0.009544897529327575 0.003402716305617089 -0.001411870191402578 -0.001411620774286921 
-0.00107798546131256 -0.01906171607062105 0.009389521196688701 -0.003718643577968962 0.000248015466476381 0.004423590755330025 -0.009527961635636436 0.02604824627590541 0.0008737525010055848 
-0.005788951603357103 0.001689380337227391 0.008784234970871363 0.003108562736137248 0.004204247175356776 -0.001194997967538029 -0.005747988455673736 -0.003904741838540038 0.01258889620034757 
-0.001069105281601509 0.001144241020360933 -0.0022223117650792 0.01407825571324856 -0.03240943635493072 -0.0001561989860635129 0.004189960535855034 0.008348432524977656 0.0124882003320273 
-0.01862836956747313 0.0201373492488558 -0.01211590051662058 0.009592545698278693 0.008944706836727259 -0.01326828628319404 0.01031617510754732 0.001923117888299 0.01007884687944569 
0.006715485572419486 -0.009720283459857265 0.0003298686075236536 0.009578436556008402 0.006007128832277375 -0.01868449325542215 0.01132220206833945 0.0001341564293702746 -0.03530301248289272 
0.005090025948549344 0.01611232277983535 -0.008782243561926957 -0.01529914318593318 0.0138504377026168 -0.002214380408245723 0.002683923395803777 -0.01179902415319988 0.008007761410946966 
0.01387706647733437 -0.005661621725462254 -0.01499677450324677 0.003717784401931561 0.006201437606360268 -0.01421017055319644 0.01698773936121529 -0.004799314430578659 -0.004210297428255882 
0.02200065488707486 0.01290890785494711 -0.001900249938965834 0.00144007519184895 -0.000987603316919051 -0.003975818227144166 -0.003084617147349341 -0.01019856861855126 -0.01636823767623995 
-0.007790096608419797 0.001851744818574942 0.01422905567381656 0.008651944556157712 -0.003593255795003424 -0.00810267190075826 0.0003319261654224272 -0.002029109987542193 -0.002488154202764526 
0.001679608851574781 0.00287506090789167 0.03100084630918511 0.008804151880406345 -0.005564792574626357 -0.02862026296231441 -0.0279387102962729 -0.00612267140353519 0.009233567656641304 
-0.01105015013602469 -0.01159494489481288 0.01580488662957318 -0.02037429786740279 0.0224471808538748 -0.003907712859770681 0.02730179922164055 0.001665021844385341 -0.01704563614343515 
-0.01876583827483154 0.01130708140769925 -2.917146817760037e-005 -0.004445355648712954 -0.01947367593202432 0.0075025282936759 0.006234506243186012 -0.001403333599077765 0.01466116912935418 
0.0006685859229721308 -0.008876604247197389 0.006146160059849875 0.004101525318393164 0.0008896371962415695 -0.02136312583069812 0.01402272846246508 0.008880164296664966 -0.01151619389420187 
0.0007028818966978005 0.02508451554631241 -0.0001963224773943064 -0.01491285786212127 -0.01239410005570966 0.02232887029041868 -0.01418457830308333 -0.006901000997506152 0.01066477588145444 
0.01701016825928372 -0.01834180376717076 0.006050703496626658 -0.004633360841100797 0.004349793937670553 0.003772565532070978 -0.00496013707065759 -0.009075078006008878 -0.0009361839413719861 
-0.02327093177520262 0.01255366478856401 -0.008401316132182993 -0.001711008900039831 -0.007897545984479277 0.02049801509632421 0.004098457762244757 0.001367282987678788 -0.006472089351826482 
-0.005501674682464304 0.02557195215253771 -0.01002926319633911 0.004322890119862211 0.004332324639593735 0.01999187604144909 -0.0007521939149155877 -0.01132615703384594 -0.002449487396753386 
0.009514918421087735 -0.01619126655045249 0.002494687748055312 0.005757849249774277 0.03261945396061049 -0.004026779447501176 -0.01718854813364348 0.002707280642926002 -0.04436889811206261 
0.02161937403073003 0.01960598579127075 -0.02543513932348575 -0.007650766078778344 -0.007098066875984324 0.02112371189168071 0.003493116805659173 -0.004601065359205948 -0.004860128432054626 
-0.00999938292273753 0.01198417003387979 -0.00165625578362001 0.009589068673200713 -0.01054362809237433 -0.01471058804951701 -0.007099455780911974 -0.007157906521888082 0.0224299426733729 
-0.00823162823221461 -0.005299392348219191 -0.009447126499152971 0.002790115897695861 0.004694990400833347 -0.02021829330718726 0.0113972233145526 -0.0002892328733551079 0.00150297974209533 
0.00324395317952787 0.01903436839882396 -0.008287722899697961 -0.0026324779356868 -0.002222528810943435 -0.002483666088492602 -0.002170191008074202 -0.007422158502726621 -0.01082852487623714 
-0.004381827037610008 -0.000241089568277107 0.00571279379377526 0.01437479834855122 -0.006282935313431678 -0.001486938785665128 0.01184378952298303 -0.00682573446590481 -0.02628557199839647 
0.00291315706224879 -0.004753801558326678 -0.02057113880723777 -0.01246091404518074 -0.01742969748973126 0.001321556879283509 -0.004703111316671062 0.004705871567046618 0.04007170269846752 
-0.007003443044930846 -0.001344416831154916 -1.499112060993959e-005 0.01766994242459066 0.01123119894373035 -0.01667108667188626 0.001190232201473935 0.0003498669471480999 -0.01134476064771885 
0.01268994131442068 0.001257946118795651 -0.01504185804241667 -0.0008487384562223875 0.007497650052728093 0.01225684786957113 0.002156623553462141 -0.005606577231620826 -0.001693366379545817 
-0.005849090486580309 -0.01076111232485601 0.02686219804481612 0.005361808595858338 -0.01384157747379492 -0.005538366066983977 -0.00860431754315916 -0.002047086698836056 0.004931650973652686 
0.01859373070786841 -0.01096684194362261 -0.008221925737655169 0.004086767865799261 0.004130566960404886 0.001921511328884535 2.918672646475871e-005 -0.002658254396207871 -0.01429152256149774 
0.01117679522942178 0.002866270013796861 -0.01136976372137174 0.002778782785953829 -0.001744315898932273 0.001657222126440474 -0.01210154972978844 0.007295212001398187 0.01007668950680008 
-0.0005312952436351865 0.004384590390462907 -0.003840594650637894 0.01458364701274385 0.009895071284267264 0.005222585732957831 -0.007796744928649271 0.001446477550755558 -0.02060021559667555 
0.00444517784715483 -0.002706303290864337 0.004196317861730007 0.007967639798293904 -0.005967261238067352 0.002215785959150248 -0.0004029074629943697 -0.001326994759596134 -0.005900164165217083 
-0.01420190624522765 0.01932406962798422 0.00597337067336056 -0.01548212738732605 -0.009786761972507156 0.004486429550401187 0.01576419730597888 -0.0245398967449389 0.0003903922501407656 
-0.004644326316445828 -0.0036569307285889 -0.00178711857329028 0.001892069848628652 0.01022263174173098 0.007517764397988023 -0.0002570098404898861 -0.0005648086986129756 0.00292543434170842 
0.002223523592416858 0.003300862343913113 0.003842176509927603 -0.001454453765488848 0.001701891299234449 0.00210921443375353 0.002441766310558021 0.003633834053226915 -0.02031366480331287 
-0.005877332195271622 -0.009078982460769451 -0.003442956772558494 0.0001774082358425113 0.008888069220131457 0.009510369649397169 -0.001262654884273578 0.001374336730010571 0.01389916775751274 
0.01870760241554973 -0.03197460495150762 -0.01268701728717602 -0.001774847676623008 0.02672983963874078 -0.01951285501742789 0.01217117810858841 0.009923017124378191 0.0008727647752728511 
0.0005445836448526955 -0.009668068989935098 0.008131132450498688 -0.01087978980906739 0.01466924588652662 0.01621213816182527 -0.0007932676172084308 0.004355581191110939 -0.02195679204446764 
-0.02257411057255466 0.01651972280547981 0.01094992228088638 0.00933228714696514 0.004914489355906291 -0.01026364827289319 -0.0007325325948458882 -0.0009576930349742257 -0.01451375901843882 
-0.003198170038721466 -0.001847979883904243 -0.02003633158482891 -0.01737385094162669 0.02889032022818915 -0.001892526237889166 -0.00704217362067365 0.0003247492084273986 0.004895360726113705 
0.0009498455966857933 -0.005713469565645367 0.01743498287075816 0.0001645847976096372 0.008731701704860158 0.006275586280348835 -0.001687575499801827 0.01393561861077819 -0.01808603690970265 
-0.0008947471928180241 0.007144660886241568 -0.0197352404343896 -0.008255086790081755 0.004511431775289071 0.02390455545361981 0.009191014060566055 -0.006339640808753115 -0.0120261559504106 
0.002500824735195121 -0.003284648521464973 0.004272428225742944 0.0006643937278661028 -0.01260043889024014 0.005839330750274061 0.006093070269687824 -0.0008983282958703585 -0.003150545614363023 
-0.01421389523068314 0.01741786016392532 -0.0005325520923211398 -0.003360389698525852 0.0007630462185073805 -0.01523066759062915 0.009644193161915867 -0.01466384360889692 0.008343500029721031 
0.0108288015658183 -0.008285052299398325 -0.007721213657124166 -0.001689409573039087 0.01592223513278626 0.0149511613171131 -0.01332399917160504 -0.004288673637360542 -0.01000702506645355 
0.005840921016861517 0.007957980227211094 -0.01946424869613384 0.01142767898910337 0.02184713978863617 -0.004424117240605493 0.001490335055623181 -0.001006407912502863 -0.01217004572765205 
-0.007055381391963567 -0.01563004369053726 -0.001900382088457825 0.009066394600080362 0.02482678414360601 -0.006128944667667453 0.002067338139442607 0.003256364705415865 -0.002915689752058628 
0.006803946496038412 -0.002972692620027474 0.0001382405019933483 -0.001339328002364375 0.001468456847691109 -0.007009747916785278 0.00158616116481952 0.005551182873852221 0.01311608372673535 
0.0009501682949838642 -0.01251954270115182 0.01796204387610182 -0.006442833028983711 0.02170152267107706 0.01345447723750988 -0.01407243008144544 -0.006086707036895273 -0.006832602300970138 
0.0158941290690315 0.007126152210478423 0.01317168872202429 -0.004994635862976483 -0.007090777478154584 0.02750270191702209 0.001430474198992725 -0.008093553346518496 -0.02907686754726102 
-0.00701618846705868 -0.01777646272199972 -0.02177258394455787 0.006067444544991071 -0.00985461453634191 0.04030489099806781 -0.01010267266314605 0.002012959645089641 0.01107625863892845 
-0.01182852360220439 0.001519158194236749 -0.02121299814462652 0.01089717511356004 0.008337300783532368 -0.0189151498089236 -0.01047179171937049 0.002751330601419422 0.03076529016615914 
0.0009467934723156931 0.01486011751735136 -0.003245086525731785 -0.01116847738420204 -0.008834530418984455 -0.002522950525072144 -0.004332538865582891 -0.006118985192065283 0.002942076094641963 
0.001887423889269495 -0.0001731574409516387 0.009219720163160245 -0.01112257612315597 0.007489012022083406 -0.001660983734275467 0.00642982366215815 0.0004170271286400266 -0.02449375493363303 
-0.02939690290912899 0.0002547404798557449 0.02645155640605844 0.006624300281160108 -0.005021437527135853 -0.02946656662852553 -0.01029384597268123 0.0009348927197801344 0.02616374428358075 
-0.001027365602999507 -0.01088388782580579 0.02497949683458216 -0.004124012313512394 -0.01228570333581231 0.01045682255191285 -0.002512714814239086 0.002685201573756051 -0.0104674823828529 
0.007406454158414365 0.03760761384858379 -0.01102255833311716 -0.001840297635587032 -0.004825690038056289 -0.008225807113199604 -0.006536082784813132 -0.01635516101074509 0.01171646150422353 
0.005574577530762123 0.007583583201071424 -0.02081010159117932 0.01171651093902124 -0.009812911737813684 -0.01923478240978653 -0.005632972292811781 0.0130840047225008 0.001143575237164817 
0.005397362853459905 0.0359245038342709 -0.003085595723298429 -0.01269960887686994 -0.004457724116546833 0.012969206234115 0.01330614603602943 -0.009020375074386355 -0.008921705779777011 
-0.008255543824716166 0.008146424912461906 0.008465502893863905 -0.008268790090743688 -0.009396831575753762 -0.005373498043126711 -0.01394981582416942 -0.007073943316983903 0.01557090953155393 
0.01196572219024894 -0.01608306484020095 0.02564399588012993 -0.0197019011923223 0.01439761099460741 -0.0003519197356973212 -0.003458118506159387 0.001441875011472057 -0.02796364699004554 
-0.006407980084822152 -0.002960107216370146 -0.01472038984931258 -0.0175757305906101 0.001209898887912029 -0.01196078376021523 0.01666523654528995 -0.01119798455850847 0.009875334927879323 
0.01259300774432529 -0.01463516726787382 0.01216382876732819 -0.002699269957070778 0.02565082281916021 -0.03403938286725346 0.00114683966860971 0.006068712798100005 -0.0007738792202258106 
0.001671487579866859 -0.01060331923423179 0.01447158606476251 0.006612624125552527 0.005441069856826954 0.01802748390699032 -0.02494620470974914 -0.004487818772327222 -0.01488706343625156 
0.009447173927639762 0.002592399045519406 0.00155754102855775 -0.01182939229339463 -0.01687973790779149 0.01672714777042431 -0.009664940788716939 -0.006878972223093118 0.02242680379596446 
-0.01066265149622801 0.001227696641189032 -0.001426376957980465 0.02422399581851837 0.008144698175694713 -0.009262405377459515 -0.00405936684374348 0.004716502385331493 -0.02396791688008177 
-0.005460404952063297 0.00935385621387092 -0.003778709874232652 0.009527622588790998 -0.0101495800484153 -0.02195440031702869 0.005062596973956715 -0.008588583121288428 0.005720480899772755 
0.006189073853936897 -0.005713547093435084 0.01460361212996049 -0.0008494277956763315 0.007372292609043435 -0.0130300005077954 -0.0002556400686093307 -0.004100323281607677 -0.01188303956647864 
-0.01282604400975889 -0.003652855158702322 0.01256656971982946 0.01465201672084786 0.008338197470681515 -0.001714928994563077 0.0056686934604779 -0.003039718637372685 -0.01120740902801411 
-0.001435957867806262 0.01107247329049584 0.004753961320318264 0.01129708281309722 -0.02298947074061841 -0.003202609648302267 -0.008893252337203519 -0.005057327193375228 0.01793652921014937 
-0.01394003382414884 -0.006084315375384567 0.01254024966083173 0.007164157649675285 0.01133243559921186 -0.01266110654856825 -0.00299747231349608 0.00305323303969131 0.004434057460580961 
0.006635731608295135 0.01219177704794104 0.005222030736215857 -0.01900798959865118 -0.01821272880270924 -0.01531474111513415 0.01436137648211798 -0.003728335976398278 0.02364760241164898 
-0.01003038091386235 -0.004909975471108541 0.007985089752784787 -0.007679698440328257 0.0284037423189459 0.01631983115293265 -0.001644295284158532 0.0007229695690622261 -0.02082722385294302 
-0.01696742030531953 0.006528926385882857 0.0006195777359814607 -0.00246275075103308 0.006649053988718352 0.0203056566752489 -0.00716430492394853 -0.008991915596908838 0.0155369946092233 
0.009852652844731023 -0.005579429335716674 0.003558058029977457 0.002817213354666668 0.02511273539287719 -0.004234396222918938 -0.002387768583641215 -0.00539718124564131 -0.02151081471761492 
0.006708999901844662 -0.01507325635968486 -0.01338732813625058 0.004633417622744862 0.008713258578601685 0.009900228903915448 -0.008068394270853888 0.0001332824630573417 0.0005657329933708261 
0.002795960091683644 0.01004139021963617 0.01912945842454427 -0.009165677776329378 7.169492395703813e-005 -0.01520139190203174 -0.0263058529087382 -0.007730599793544253 0.0221004586318803 
-0.007607793060379607 0.0009399112625504167 -0.00444171891926156 -0.01145885274232708 -0.008879057175675763 0.01336576219866046 -0.01945716709821383 0.003999088692392287 0.03303762093809798 
0.01079690477774222 -0.002968451171688087 0.005378853142497961 0.005478935762127841 0.001994775249061859 -0.009449529877848898 0.007701654010225933 0.01063479237572229 -0.04469754280504193 
-0.001572727286967033 0.00870532779683434 0.006867796581093036 0.01225985259267445 -0.01036577390625816 -0.01265146384317584 0.002583822472775108 -0.005756829169823055 0.00258796716906166 
0.007963045090357866 -0.007803285520909989 0.01068523783442156 0.004400130640155001 0.004748667405817842 0.006784098311882564 -0.004482904538674951 0.006579651897786197 -0.0219876949442678 
0.02237978542674746 -0.01008209094165131 -0.01385734355262792 -0.009114034305034685 -0.003974577420258415 -0.01319244428274064 0.006373589957970942 -0.002945320861341042 0.0135472608185926 
-0.007184772998818766 -0.008494546718419151 -0.004993130809342466 0.007380751163964659 0.02081947645421648 -0.001564409705745404 0.01103736260995749 0.01016427609169198 -0.02849919764534033 
-0.006446997461645836 -0.004780680618324295 -0.005977156272675937 0.01743280181583133 0.01764027114259161 -0.008108976137192065 -0.02184885791352885 0.004127314183893865 0.00481835673398782 
0.01557247918475005 -0.005674741991677126 0.01181356523541233 -0.01026779932543412 -0.0268840452491436 -0.01041051503436825 -0.01283179981243724 0.01105590021078826 0.01263276453165443 
-0.01976811278446568 -0.00345276124448397 -0.001999036348692944 0.03944619124118168 -0.0333901361638461 -0.003156857351093207 0.002171928830215145 -0.0008306855760605239 0.003194134283062506 
0.01919244553520287 0.01013154834173461 -0.02837836227373819 0.007736620693574188 -0.01793063387901909 -0.0001449430894040727 0.02598142747891456 0.01370604430434211 -0.0040637653045055 
-0.01125846016502506 0.006151821562956039 -0.0004527608216764533 -0.009837035302764056 0.01379915761575591 0.01434332572746843 0.007287125424810364 -0.001091408196496258 -0.008618189010143497 
0.003185685035984923 0.003404308371705459 -0.003628922290862195 0.0111852711659722 -0.01391596976705507 0.008486517581077505 0.01066711255619907 0.004408589364271401 -0.004476908860552797 
0.005111065579991328 -0.009593235469982538 -0.004550409894547916 -0.002108342064448597 0.0006572636279353809 0.002145185409943242 0.01154761149120113 0.002270293984911837 -0.01214340102437593 
0.002390946600004254 0.006157310426445488 -0.0007344369147835786 -0.004925380220001576 0.006388132325403114 0.008361937149509649 0.02373293899645652 -0.002671384381790932 -0.02311948876325962 
-0.01942234821512354 0.005200997716517559 0.01256138174522164 -0.009032799982747888 -0.001356668347082536 -0.03308972003488327 0.002142847104946661 0.00250210118849242 0.02493294602801455 
-0.004207771140364701 0.0013002709967849 0.03302715201924302 -0.002459355110369469 0.004717889855296754 -0.008966650051601473 -0.009305502699764039 -0.001366607830858457 -0.00488788762649673 
-0.006609036351597767 -0.01368153369204763 -0.01233936276116539 0.006905683597212233 0.014787114966708 -0.02594764647458288 -0.01054546644581982 0.02121068394747337 0.004035185636075629 
-0.004025279863110261 -0.006524599121486159 -0.002347806971541191 0.009892451405253574 0.006289341446045151 -0.0040417243764463 -0.001715319805932743 -0.005218457121075513 0.003309726365110064 
-0.00671966349625967 -0.01640263981489066 0.01910543764022477 0.009138091338817362 -0.003438755054447576 0.001069986232354494 -0.0132024014399231 -0.0001266324948482855 0.007552286567738426 
-0.004006812230938606 -0.02165974484417279 0.005290695670757908 -0.008901529018752722 -0.01170722886152088 0.01557227707880471 0.003766024338952191 0.01179820572532774 -0.01262070429135797 
0.005248050029326667 0.01141972026365488 -0.01745178179012721 0.009972315732846685 -0.007269232150787006 -0.02778756374681751 0.009042014608746265 0.00397432925793417 0.004051958753248918 
0.0008967688913908062 0.0185118397554041 0.01275207239035625 -0.008930372293986204 0.008974794967014501 -0.001425120340531618 -0.003006525681371622 -0.01722535257019478 -0.009269199021997493 
-0.007166705771999046 -0.010333404847458 0.0303241150663134 -0.0120450680862743 0.004271408985879389 0.0403393991925057 0.01227646664012995 0.004354132891985398 -0.02667182543394784 
0.001008671242271813 -0.003219896800907519 -0.00284709033547733 -0.009229905465495439 -0.000695931916533927 -0.02127467787344766 0.02129839012809037 0.01074088686702363 0.001920821400319465 
-0.01354894228883218 -0.01461888151323353 0.009158688978801944 -0.007856193929440387 0.008974955757727493 -0.02442091492399031 0.009286878734953786 0.01721154867624096 0.02881416867356754 
-0.009728477557969916 0.006055767115903924 -0.008140926510833757 -0.006382484590371156 0.009276866961809733 0.001166267470149701 -0.005224481872545769 0.0001381753278783028 0.008394366760613186 
0.0004326433288305189 -0.002245317017456434 -0.001447629154584338 -0.008697351502687172 -0.00601458333010953 -0.001949791954823945 0.0001012602627892749 0.01076374278171593 0.0200663539334127 
0.006404484297614397 0.02826005821430257 0.01248666369835008 -0.009057037928739598 -0.01889311714554699 0.002839788338625068 -0.002647463258847736 -0.01383804738523202 -0.01257645387023618 
-0.01161130539410373 -0.001952527008890118 -0.01328212874597779 0.02561569800212076 0.006349206230761999 0.009689811249972254 -0.02539656262989749 0.002841714403436446 0.01093331377716136 
-0.0114187201441768 0.009460884873105048 0.003466665419990022 -0.01734198949798707 -0.0007486452532994728 -0.007072218802416244 0.01058277252808996 0.00213170294310912 0.0112451877948874 
-0.006762968606851347 -0.001052528781752532 -0.003184516866842619 0.01392009269652364 0.01854550169446227 -0.002511734142449575 -0.01205147932954293 0.006171453285852494 0.007751648228280199 
0.02773053204372852 -0.01091592968459101 -0.03066408778531051 -0.009136061755896216 -0.01489497452512161 -0.01139785457687982 0.02021744657664181 -0.002011090234941032 0.005919217601293636 
0.002591835272422914 -0.003746729978233807 -3.15756933105769e-005 0.006568903721703001 -0.005092834252254654 0.001487525469147644 0.01323585074223186 0.002339482402474483 -0.02033741926531893 
-0.008791396909016175 0.005266985092408363 -0.0008591233574946008 -0.01107398922552357 0.0007541102401217465 0.00593971033035996 -0.006261001615022787 0.008521530555950004 -0.0002813264927159221 
0.00168440884287796 -0.002003098953851146 0.02145477139325537 0.002224119206302652 0.003149279778753269 0.005896617399595874 0.01663180500326888 -0.000631373710195274 -0.0358929989838953 
0.01424694776909951 0.006007481347429526 -0.01362690709956124 0.002023207467180991 -0.003159077729366149 0.008917235078760079 0.006126701211356092 0.007182996623471901 -0.02086351916564259 
0.01991142427925651 0.00268165453210113 -0.007378495950083083 -0.001516765953289067 -0.005211864581101686 -0.007205463425988792 -0.004457967143058948 0.001001716993043808 0.003778186137127814 
-0.00192115966675686 0.008043901785913563 -0.006756764571699678 0.004742390074463909 -0.01050703756834391 0.004204642576534157 -0.03200135662241804 0.001371807599682371 0.03483201180438777 
-0.01012252866790529 -0.005845409505792221 -0.01136554190326738 0.02047344909134969 -0.02429646219037672 -0.01307711946783224 0.02527549413197362 -0.004281024864816393 0.02579107894274538 
0.005834285655157715 0.0196805572109869 -0.01183246683791066 -0.002345263733930245 -0.01150265544433664 0.008082533701325199 0.003401475832846097 -0.006569355549882066 0.001112742803656143 
-0.006011889686366937 0.003616557288350142 -0.00318006709082743 -0.01946758592979634 0.001994846177298702 0.004709600822258156 0.01439124542411698 -0.001941609687400033 -4.679811048563612e-005 
-0.01624717111293817 -0.04083736207598312 -0.001027124492912483 -0.008206125422009982 0.01256935895819643 0.01889494771613306 0.01070114136712205 0.02905466887843259 0.007223994262336365 
0.005126381115171949 -0.01641989635434703 0.02565603722007344 0.0005316042739709332 -0.008498152401407709 0.002346255509425717 0.01397247346524582 -0.003635701772892186 -0.02165560229120781 
0.0266103665257963 -0.01080763592654786 -0.0004232698778941272 0.02652472143954079 -0.02652994647282799 0.009184259717894877 -0.01266943916967822 -0.004646483299154506 -0.02016449424183076 
0.01163745805391596 -0.00124233667651712 0.01214923511878138 -0.0006818308443761869 -0.01024583724464741 -0.004919677744644788 0.005159907450790292 0.01218700522430299 -0.02036122458712266 
0.004145013706727698 -0.02241292467019712 0.008076219502092252 -0.006061924278619445 0.01344967244784763 0.009878794117967178 -0.01214259543076181 0.008750309298632686 0.007342949726513288 
0.01321827281227294 -0.01707767719420382 -0.008999648548533914 0.0259052699913481 0.001759242147922574 0.02011780879268562 -0.03189490317489362 -0.003355351771497109 -0.003639832815910651 
-0.02197294704595905 -0.01321030083775951 0.03019277088143403 0.02008638344749099 0.02941186533315303 -0.03036720426880446 0.002424001123776699 0.003413274100530165 -0.02622685664643403 
-0.001636495688916688 -0.01012119109183987 0.002319799290849385 -0.001001848836902655 -0.01727787409426871 0.005467076752718034 -0.0158135700008557 0.01075499144342549 0.01250028549253266 
0.002186420229172722 -0.01198346450386835 0.02393005593686429 0.02135562977134458 0.002453044797193207 -0.003209892150756505 -0.003099355979246701 -0.001357138306805818 -0.02640946786639006 
