solver_type L2R_L2LOSS_SVC_DUAL
nr_class 9
label 1 2 3 4 5 6 7 8 9
nr_feature 14000
bias -1
w
-0.01368504400152315 0.007764466394255517 0.001776260655513638 0.02034144385642138 0.02632621778698718 -0.005060831344449754 0.003620783555693688 0.0004418155377961455 -0.032095016159116 
-0.01292507046247134 -0.002577935027325998 0.0186388694828205 0.002844534035326572 0.01512383665658221 -0.03131481830125364 -0.01091664064174309 -0.002317569059287339 -0.02408119009534025 
0.007365953723701716 0.00628455500028729 -0.009447777963286679 0.02178501181039705 0.002853267219562636 -0.01694898445853604 0.006814896619872821 0.0002539673301778903 -0.02516982188297619 
0.004345841638849585 0.0005586020133097358 -0.02337650369980934 0.008289977249583485 -0.0004703256706475439 0.014518863963608 0.01315567968165571 0.001002313291010658 -0.01243476623301271 
-0.006256468566423727 0.02147117920286074 -0.02234478613023603 0.01180133326387795 0.003897310548979627 0.02454824182311414 -0.0147773022578439 -0.005017978460947364 -0.002177761912888085 
0.005233758787964514 0.02722685998260986 -0.06343702486723164 0.01853551365738541 0.02474218783749684 -0.03815411505879633 3.704840991589138e-005 -0.006446111603453418 0.01647071428988371 
-0.002002326968822987 -0.01499349345648759 -0.0107044156019745 -0.0007040782171621787 0.01982271184142023 0.02089003469129993 0.004012268682524673 0.005509119153607481 0.02613375827759271 
0.01051266748699509 -0.006668833475881996 -0.01217955487898751 0.0008155210065831165 -0.008681353296575038 0.01799203738905911 0.003287575161781027 0.001301403537868303 0.003741359844607044 
0.004299198488669519 0.004305454842488435 -0.01227962155547127 0.00883374362617469 -0.003360816094531184 0.00195829099503272 -0.002586093026723278 0.0008459577485193784 -0.006841293788269106 
-0.0122708866002551 0.003997362908688031 0.03149369945028274 0.01053226597606502 -0.01977460313812212 -0.007079006531303647 0.0084750766132849 -0.005889333252573742 0.02016869139679515 
-0.003213740379660855 -0.03883630474085312 -0.0004906460657750639 0.02563465982094939 0.01801799637843533 -0.02604651474992769 -0.008833768105867968 0.007630293843304058 0.03004188495558999 
0.004135526838345235 -0.008645122255015741 0.01330650808585804 -0.02093095405893798 -0.01085337404606968 0.01369605930902402 0.02072901508464864 -0.0009610454004131355 -0.006084025051202411 
-0.002974953970611623 -0.01986074958823933 0.003289751818259346 -0.02028113750455998 0.01472254155767175 -0.009701782906505703 0.003571898870885656 0.003855385709206666 0.03494060260759401 
-0.0001496050038466753 0.001419699156654242 0.005613039139383096 -0.01109497735343117 0.0196640614908364 -0.007160963691582067 -0.003727025820900828 0.001438859842182448 -0.03039895114567492 
0.003627178136352078 -0.01316318199734773 0.002612352867628246 -0.0007935487790027454 -0.01643283952840314 0.0127691120591661 0.0117941783670707 -0.003537728566045316 0.003465033152893113 
-0.000783037863398069 0.02702750586265755 0.01397202565107751 -0.01618611495146467 -0.01722741394770131 0.01846825970835999 -0.005739455907204689 -0.01224169981096258 -0.001506608330540768 
0.001301531682276704 0.02457265771476843 -0.007434792747909523 0.003332833593493697 0.0165565545387859 -0.005431501092500531 0.004206775397766166 -0.007767403238020118 -0.03738991665918235 
0.0154632509489808 0.02426029014621076 -0.01363566397582465 -8.451116393069837e-006 -0.003467002294603154 -0.01018051091294499 -0.0002954670612754812 -0.01348907503434872 -0.008868807666666898 
0.01322915483355094 0.001686552101557243 0.008078629737383344 -0.02028959167721454 0.01004714034872466 -0.00114592367632894 -0.01112276478628739 0.001284404256673049 -0.008787632546650433 
-0.01295738783256008 0.009790904165826737 -0.002590522067966879 -0.004886315430253321 0.01523744691868914 -0.004648591603103392 -0.002656876631494773 -0.001938424958574845 0.01623248636040294 
0.001859153807210171 -0.002508695202110142 0.02462213153454472 -0.006435232276095804 0.004607246057436083 -0.01419559062256393 -0.009568290262414732 -0.001989961821485214 0.00535738132140727 
-0.004351469145669848 -0.002961219787426783 0.007120222065013463 -0.01173002321654386 -0.002886046899262495 0.001085284498483964 -0.01916149578149815 0.005027144498673355 0.03201213608745283 
-0.004443844707845442 0.01537497262186649 0.008570640217557849 0.01593175608530553 -0.02354942105970169 0.01015763739944406 0.0004159623818479008 -0.003730859347412453 -0.02112375328466811 
0.008393000529264979 0.03014805065779285 -0.04268858166139349 0.002327551131209985 -0.01366399417093824 -0.02000523620332084 0.01223714998458671 -0.01717049712588802 0.02479389756516678 
0.0007410122448285986 0.01278540426502677 -0.0126321347249331 0.004010589929932132 0.01135491347400088 -0.003272265433194718 -0.001444373945818808 -0.007795513307091453 -0.01814226093474992 
0.005756938367377731 0.004297482328734536 -0.001852321693632738 0.007224150971861149 -0.001859411044183922 0.008601012118183829 0.007969920103787128 -0.0002685856150352292 -0.01706341320404519 
-0.001384632938984077 -0.003240850104168287 -0.01009441253769959 0.0004239762067017104 0.01488970661805464 -0.00157644122099317 -0.002286221646802686 -0.002278094996791666 -0.006263422056336703 
-0.002307331737078945 0.01915919922381933 0.00697213351196397 -0.007632525759759556 -0.01059570843536025 -0.004243196444958309 -0.005703855767634145 0.001378287641060938 0.006740431321826738 
-0.009913460517104485 -0.005307086167739847 0.002692507897497716 -0.01144159806066668 0.003839995752824387 0.02998425067757523 -0.01241284207952722 -0.006898749791805541 0.01115131062754134 
-0.001618400613208898 -0.009827676303739255 -0.002611640057232223 -0.004131562322117297 0.002036493594868061 -0.001278603884685576 -0.01235076735519688 0.02399725935086192 -0.01643529291189726 
0.001482997315323797 -0.007693819050587104 0.03787886793226203 0.001491678537033115 -0.003734007150145756 -0.02347724565146323 -0.02888576383915737 -0.001153063404739529 0.004913391294060215 
0.01999420052641761 -0.006253485645485406 -0.00399526033572204 0.006815240964547601 -0.006371744370780592 -0.008313314424187262 0.01154249469738266 0.0002421672891761115 -0.01172374231421663 
-0.003017897932352861 -0.01941866680722957 0.02530496066641854 0.005396104022030604 -0.007728056161855139 -0.004182949150533095 -0.001211716319691498 0.0009751262270960152 0.01632147037935328 
0.003453507973141272 -0.01179082439180169 -0.009019947708630538 -0.006733444194946086 0.003141267920047397 0.00118747686951828 0.006816271908332582 0.0005111942385983702 -0.03025212767533908 
0.004370477061248614 -0.006068606478874723 -0.03252925275575441 0.02220550632280546 0.02175091233428983 -0.03249519031839423 0.01690262376967436 -0.005590081636532575 -0.005804283083304673 
-0.01058441204096283 0.001291809451158777 -0.02125054782488032 0.006174234390691082 0.006422665094062237 0.002927783472369449 0.009312232006006166 -0.003727620170519969 -0.02514017128487462 
-0.001522230441016564 0.02060969421104461 -0.01103158831940684 0.002853789125474386 0.007060258941801175 0.008828222270819157 0.007969585254830901 -0.0003795596894435837 -0.04239309078735871 
0.01019874263884419 0.007746121470298796 0.002040886275814951 0.002272435083291948 0.00872683776615932 -0.001270941045068756 -0.003596613638076342 -0.009906813037703128 -0.01036760109456858 
0.0085061254369042 0.00365622047481804 -0.01599251591573016 -0.002572548825233771 0.00738333616732794 0.03044737687431768 0.0002059363404920254 0.008287861146055078 -0.01338324888036402 
-0.0003409787512686625 -0.01186010092198062 0.01303081224402857 -0.002875064493906677 0.004804736969140847 -0.01310881401532741 -0.01816225581507645 9.014336474841686e-005 0.05168642670196051 
0.01928711828902356 -0.01084914911559679 -0.006835000731912309 -0.02828705353982124 0.02823247888431239 -0.02239362704963702 -0.002354730616321613 -0.001553208116453406 -0.007753244735005658 
-0.002267655453094797 -0.000403558071947561 -0.008651446481368017 -0.01312581493231393 0.02918768186292662 0.0106879019526686 -0.003321856969748419 -0.001665927084775024 -0.0111799406895885 
-0.004283291028004135 -0.006886437463353774 -0.03516769984082611 0.004101771159662608 0.007197053471135634 0.006612084875353021 0.03391329294795841 0.001328046637975471 -0.03198080413938984 
-0.010133466684916 -0.01628032930691768 0.03072777092684482 0.01825112295247003 -0.001406204134871419 -0.02712170082753049 -0.01794575309823068 -0.004477413271533822 0.008896156536426411 
-0.00733203223929404 0.004788009555553257 -0.03033947603922149 0.008550665070763405 -0.005714124091673679 -0.01274182198058819 0.02302219274744033 -0.0006984881136379914 -0.008705010796487873 
0.01223828328460537 -0.00772406697352042 -0.01076404602215737 -0.007081360649181797 0.01909351945799559 -0.01049605246749495 0.008017076025187475 0.0004150538045382611 -0.04328732593513814 
0.00867350469900105 0.01867283292785707 0.006481931963414346 -0.01744934296362102 -0.009864174681684211 0.01446639212937259 0.01800722933131237 -0.00702074014907652 -0.04484025482508837 
8.823598857129564e-005 0.004695723593886834 0.02449034708321634 0.007193875160076005 -0.006190663092444538 -0.007967056793902997 -0.03550130089451169 -0.005661320669016755 0.01889271666608987 
-0.001849943499570706 -0.03104024099099646 0.003107471840131282 -0.007870588950792123 0.01001126552414732 -0.009164522302312107 0.000617549568768001 0.01704778785086939 -0.01336168158985912 
-0.002539939075123571 -0.01367814173506859 0.008194420854509029 0.009408537604903143 -0.0117599303622126 0.003532807728680829 -0.008265980074920503 -0.002471321533782594 0.005321144299117747 
-0.006605771673748926 -0.006407493693825121 0.006211468987866217 -0.0035206425701968 -0.007536482519899837 0.02176442969429985 -0.00711748935543088 -0.0002286414764871273 -0.01324459049811182 
-0.01923499218733131 -0.006165878103472787 0.01292849563913051 -0.0007536717373003722 0.007480445553133306 0.005483234708917134 0.006640016720175972 -0.004573143218180044 -0.007899801272435836 
0.002533702854818 0.02289526877298096 0.003008357226606227 -0.01030849556157449 0.01809787973302827 -0.01309578426960486 0.001355991743063213 -0.004979675963643606 -0.0247067615477684 
0.001894280440859484 0.00777602683538753 0.02560904876085028 -0.003377060873179699 -0.02336065238056672 0.01381696312239966 -0.02001502320885026 -0.002927270516554366 -0.00581082911093274 
0.01203786011178654 -0.03920481327848385 0.004119322215378477 -0.01298297927270629 0.02780434973839887 0.0008088768388840714 -0.02672383449370048 0.002861519225286463 0.03397141464970158 
0.005708169606279414 0.01851511658708324 0.0008462881198996915 -0.008751304228401509 -0.01078399169399888 -0.01104990346802621 0.008803771880526719 0.007133773497814654 -0.002945214307786768 
-0.007942123903674892 -0.008414389630161407 -0.003359526508699261 -0.003177419783306684 0.03128104606713776 -0.01822373813150408 -0.00271655892249172 5.672525109434604e-005 0.008757884805964893 
0.01564245793189873 0.01561478483505873 -0.008044348077833186 0.006307172215462191 -0.003158668055196397 -0.007419111717862665 -0.0113602827381532 -0.002138924124308739 -0.01436532912308791 
0.004299640402280644 0.01210313887378742 -0.01202347632647384 0.01022869243873818 0.005181003553410233 -0.004366238222491188 -0.009042731041816455 -0.01010167340333322 -0.009168774095297814 
-0.00844406791808466 -0.006935455083436477 0.002213391656375476 0.01535923916826133 -0.005796899488647369 0.0174245681482575 0.01964649020210857 -0.001190633340235943 -0.01273558995284408 
0.01283098505154287 0.01012418462440383 0.00332483527942709 0.003993367116247488 -0.01175568892742455 -0.01728395922212352 0.00661835423993521 0.007064029005926187 -0.01856034929425217 
0.007593763097208111 -0.002630026722980204 0.0001644778253094638 -0.002369360602397694 0.002022907831089668 -0.02330895062283722 -0.02255379445479977 -0.001933974979569609 0.05435889120044845 
0.004311313687133495 0.002598025656064897 -0.03532900645801024 -0.004101049977924283 0.02232721200546322 -0.02500649969708283 0.006608200677087165 -0.006960240783054001 0.01118738388215889 
-0.007032200775601776 -0.009987074488323425 -0.005021715423884856 -0.0007290448847588469 -0.001284074331705333 0.01974575417448424 -0.004175182755479458 0.02092235511420038 -0.03264062314307911 
-0.003714085983240806 -0.005148214115989124 0.01089127529848569 0.01118394817195645 -0.003653824689780658 -0.003519090344910878 0.0006725859690139516 0.001605694237010483 0.0006048127640575979 
-0.009429502039969492 0.005296921473913936 0.01275629032356013 0.01008921422406344 -0.003915285636513868 -0.01412025926868039 -0.01933366263523793 -0.003916949017488688 0.01396649231287376 
0.01028895201178362 0.0052979388118378 -0.007370203384150495 -0.003826453983723915 -0.01105500238999901 0.01172818922289499 -0.01790549865762563 -0.002767166346922168 0.008849993270288993 
-0.003763418398662123 0.006776037323374029 -0.006631383094837756 0.03515686891276727 -0.009650244989861279 0.0009757388036969703 0.004424105219207586 -0.003231957856034499 -0.01092733868974069 
-0.003770396140818258 -0.0234959001393175 0.02142588951535311 -0.01219711276900886 0.02332889194168259 -0.03434501285293529 0.001872300482345772 -0.003449310019795497 0.02385687501548905 
-0.00768307106502013 0.01707037189102886 -0.02167004099979597 0.005380685815436314 0.02099757376857498 -0.01226703251816062 0.00551137447731016 -0.003922458950325084 -0.00479284803107659 
0.008890890390385072 -0.005712792419950144 0.02882608881249602 -0.01315181445217912 -0.001654594339947276 -0.0124456407354808 -0.001125406226787827 0.0002229542115650721 -0.01266568533070691 
-0.001552636499231668 0.01282032827702994 -0.01790424483393971 -0.004166937314777764 0.006785308443070496 -0.007019477529543726 -0.006488101521384381 -0.002928501840084722 0.01188790220201993 
-0.007143911032639065 -0.007940650582848234 -0.01743831605357824 -0.03015117176802477 -0.006601400233075682 0.01507601601003746 -0.0005022705610142808 0.001148854845529333 0.03738694153282536 
0.0211203225981664 -0.0001405226624476789 -0.009898585036160883 0.01793888306814934 -0.007088183305968538 -9.275575187509989e-005 0.0001243872572516425 0.0001232453512631602 -0.04909468447232492 
0.008056519855248065 -0.002139176301394713 0.00858539779348173 -0.01459889107133932 -0.003169946343983192 -0.003193114963842508 0.01372905560683256 -0.000388374378725419 -0.007905052204766469 
-0.006758588841510724 0.01069643154761608 0.03153904573806639 -0.02595603621215604 0.004162819850624051 -0.01209863135697748 0.003258289658231324 -0.01120776204109946 0.01365029440684699 
-0.007792407803711434 -0.00358663785044623 0.006421008175776761 0.00229992473767691 -0.01256274005959734 -0.005409742058388505 -0.01286443202560729 -0.005410844377994955 0.03273624126322883 
-0.007650335094814525 0.01419893007418399 -0.007597090118446725 -0.01149468591362802 0.02430602639147178 0.01335589651648822 0.01276710218262033 -0.0001328151599626089 -0.05374675926915561 
-0.004341841257712805 0.002377803262538124 0.002563372730099941 0.004468886399580459 0.007154982744981786 -0.01513156613686723 -0.01557984135341052 0.006958473113698577 7.356008691266574e-005 
0.009358108903595881 -0.01914538238923463 -0.01872907088464963 -0.01265264704142936 0.009008995162392133 0.01080113209675493 -0.002950681980474399 0.00181661412249181 -0.002625834873915082 
0.002885895644172135 -0.02391683881201739 0.02524168843646875 -0.0003101038068669534 0.005052100462650001 0.00620588702296641 -0.02231205526068009 0.01434247117169986 0.007836839572789489 
0.0005780111732632941 -0.009094146737380519 -0.01672187286639215 -0.001061901560200279 -0.005102915395700836 -0.01185879751686527 -0.007756642385538475 -0.001761169493193879 0.0328651010315919 
0.02716226482796239 0.002284151983342837 0.01183471479976056 0.004720110676381238 -0.01341335491663732 -0.0007744423400782281 -0.01450529744575242 0.002369974906598732 0.01718498558258867 
0.005130603344110863 -0.01578635487548443 0.008938847238382336 0.02197548553096458 0.0004709526269725103 0.0006319858489680759 -0.01149695908739597 -0.001847977961549892 -0.007863956939246923 
0.002519031890274998 -0.02935252656603545 0.004949483532623901 0.02722863967998734 -0.01082493829048696 0.0001603186067717142 -0.004053344810826163 0.02100223974852197 0.002103991498175909 
0.001299269732381444 0.0109448547889724 0.02312156555707729 0.009946897104986091 -0.02471695884794916 -0.02068204636562075 0.04037482835798807 -0.007197095821200769 -0.0393787423386663 
0.01397748686871442 0.01063408752675147 -0.0239496394757378 0.009815707456658992 0.004631170491492104 -0.001393477296684605 0.001100180948647499 -0.009780919423834964 -0.007531816752467386 
-0.005339371205952685 0.0004833213116158852 -0.003979134339441536 0.05241674591721006 -0.02773005393907259 0.00801798491533511 -0.01929127005025148 -0.0005512187511060926 -0.002377170233833901 
-0.006183144336491721 -0.002383845477158559 0.02147187837950364 -0.008975418038054442 -0.009380639575841562 -0.007379118567197245 -0.009787608156286641 0.001348442191833506 0.0177694330229403 
-0.00276424458503002 0.01130970576674087 0.003995940625361236 0.002228819182401225 -0.01330401849889491 -0.005434721909687141 0.00129453833721681 8.196321498753692e-005 0.007890331245229226 
0.0004578080127902078 0.02309987577291021 -0.01434451835194688 -0.01309757300123284 0.00508498683788959 0.02535639547078633 -0.007094407425224117 -0.009573737555513297 -0.001255242865472614 
0.01447783114196222 -0.002458797715707133 0.009924926376485432 0.01414947312693817 0.01303754279428437 -0.01451865557021009 -0.000748028397011189 -0.0005779449501792435 -0.03993219454319678 
-0.01430189705328636 -0.01343227504000857 0.02480833170982765 0.0006232547173676759 -0.002934576991194002 0.007675082856222572 -0.03785244459809609 4.075099455813663e-005 0.02124377453414245 
-0.00859935603481574 0.007440094050603861 -0.01541268478349976 -0.001739948181231968 0.01621248162739563 0.01315122357623674 -0.009604125246754126 -0.004818085740477278 -0.01413372532135632 
0.009383451326795659 -0.007381127002422526 0.0654176019388415 0.02779618921980723 -0.01702801309957176 -0.04683023608008596 -0.03320960072785229 -0.01138860831190914 0.03323665723453023 
0.03308744164110799 -0.0218520961181192 -0.0109239062357102 0.008106533804288654 0.01488302109003652 -0.009296284338248875 -0.02934570036104918 0.006174730475234379 0.04313524433217224 
-0.002865954827309042 0.001908556009382643 0.01446547220826182 0.006031881003841226 -0.007093163622851837 0.002759813470260902 -0.001651178527734637 -0.0006099230058632488 -0.003097134203463936 
-0.006659092430534521 0.01469458243560991 0.03074083998970264 -0.02243117517739952 -0.01775582157663537 0.01278968303313106 0.003451675761144612 -0.009399476120038962 0.007812046701058486 
0.00332837476253629 0.02882498510134902 0.02063570892321113 -0.003145318249305258 -0.009800636168995784 -0.006470297084369263 -0.01052555204238861 -0.007432419946862718 0.01265821350963848 
-0.008751912826420984 -0.00816112555863501 -0.004252706177534446 0.02095480547348275 -0.02453147334552438 -0.005944732854147455 0.007488997670204961 0.00509667882727224 -0.01731296090471863 
-0.0001127118817212266 -0.004526966735814863 0.01875395861775949 -0.00400097346023441 -0.004536387310447546 -0.002960810291519168 -0.01176687141851877 -0.0001212906132290918 -0.004918711382012446 
-0.005891483150671379 0.02614252286009128 -0.01323378093832099 0.004282682092742855 -0.02061627024323755 -0.0002878180096261922 0.005797347852202642 -0.01153351696190041 0.01433597665144735 
0.004412819172423664 0.001902082995016051 -0.006251744615229005 -0.01587487283843702 -0.001236258429977348 0.005703762136344766 0.02287381919609615 -0.008408136429905832 -0.02007803197514212 
0.01269116150838899 -0.007524647860892796 -0.02659454771934383 -0.0001300238241155346 -0.0121251194297271 -0.0127798664503353 0.007113179869192104 0.005441476530036193 0.02416988704498715 
-0.0004072731423493039 -0.01486310378945069 -0.004266949692277176 0.01468154809903991 -0.006361801074045864 -0.01941606106939228 -0.02516495290593545 -0.003845910470039656 0.03915012586717907 
-0.01496761466951943 0.005370847866239578 -0.003096482403395597 0.02148341870020826 0.01829800895783557 -0.009790124699513274 0.00737242454768326 0.005184840882264327 -0.02738853743018294 
-0.009885100475310748 -0.01555817781861157 -0.02020382442356281 -0.002146770723668529 -0.00599133980340905 0.01589299303930469 0.008417048883945229 0.002545615648021166 0.0139396688577978 
-0.0005968147960013182 0.01483679174896059 -0.0002454203917358148 -0.00548422510864384 -0.001083373708693913 0.01090407365853225 0.002197344637298738 -0.00287133228115725 -0.01307248824598052 
-0.001164633754800103 0.001398573791188376 -0.006709273445162928 -0.00158952642181919 0.007812297762025276 -0.01336673981819436 -0.001521171340267407 -0.002031036247677804 0.008591864438369784 
4.990796864621516e-005 0.001370084722228049 -0.004512129190768474 -0.005926441624162007 -0.02287384588485273 0.0126542435924987 0.02293130658488022 -0.001357557911133008 -0.01572991766066431 
0.02238503108434877 0.01141324355107697 0.0001420885854825984 0.008993819643534677 -0.01475096408769968 -0.01403593433667026 -0.01009455717128733 -0.005927477453317091 0.01026518659984307 
-0.005407991297417883 -0.008589383957991912 -0.01930034610551925 0.005096570567905353 0.009234719256347593 -0.003057235705812727 -0.02491246349237132 -0.007879664976432686 0.05709163944969409 
-0.02588514642441655 -0.006841398772646403 0.007369724548232025 0.0122354718946462 0.02132227464675807 0.001377473167113905 0.007991387772763821 -0.006846353040871841 0.003961683540812741 
-0.01254766071218958 0.009458690576422391 -0.02913128064557696 0.03709120057229976 -0.006535077442573902 -0.006239913549006725 -0.01953262584866592 -0.001718932581408477 0.01606633099540181 
0.002010362466878921 -0.004332013356355066 0.02631469333457598 -0.003941979849007777 -0.00816839933890413 -0.0042136306568365 -0.004385986612568183 0.005319464462753674 -0.01229843842588979 
-0.02929050480718169 -0.003178099256121686 0.02204865838001411 0.008357345252558103 -0.01040539898841496 -0.02333487644371187 -0.01885503135418423 -0.002258720079564672 0.04030282790684685 
-0.01848623896781931 -0.002319717992801085 0.01538654701155567 0.006361546407791407 0.01498161667774988 0.002599558137017114 -0.002445963494584427 -0.0128307011371245 -0.003779562469120457 
-0.004962586617465013 -0.007557001616393645 0.0112963649650751 -0.01495017154684779 0.01116901600524728 -0.002119764768117943 0.003585388373991454 -0.001103254180224687 -0.01261149364771212 
0.009508809695246321 -0.003820024204698749 0.01377358700352244 -0.0009391483435523174 -0.007929634231029629 0.01149773980793061 -0.01987673983418583 -0.0009325007798318297 -0.01622084289007297 
0.0004136439797081814 -0.0004968576059089182 0.01136258078098445 0.009307510764403854 -0.0006581880916279245 -0.01509173969055114 -0.0003779009106260847 -0.009604526607967527 0.0005751616762718738 
-0.01060707114355522 0.01964748344649722 -0.02220186575216353 -0.004385383165504559 -0.001067666235307002 -0.01525970218323077 0.008585337870588192 -0.001284291273093062 0.02349371443690735 
0.003986224958477366 0.002151807001837704 -0.002465288659750936 0.01058748822520714 -0.03245663201973819 0.0008747903423923974 0.001502160924896437 0.001767906486288171 -0.01033838500216084 
-0.001014461136862741 -0.003168984762725426 0.007863036516159631 -0.001055650155570593 0.01389949900758574 0.005177633334347013 -0.008747637051595574 0.00204161246415497 -0.02519820591446656 
-0.0009530830420356369 0.004030241874476823 0.003164690683630581 0.00254047392288009 0.0008222515038964883 -0.01200555981200444 0.006363280972543448 0.001319765842540963 -0.00718851712962508 
-0.003718802226535354 -0.008076178830346113 -0.01204202333306913 0.01528013956873593 -0.005480321690202007 0.01586952996868392 0.01029026086578205 0.01261086415272671 -0.01321761444887054 
0.016868286794715 0.001965859016566412 0.001411397949758879 0.01404002595118929 0.002504113885963799 -0.01889965224759204 -0.006583786807928161 0.001582687960528759 0.0007003792825586957 
0.003120714597925326 -0.0009594008621912937 -0.0008224559876556132 -0.01931405534787542 0.009435971666343967 -0.01309482163186745 -0.009009285849814483 0.002414849097729932 0.05829507633466152 
-0.003684715165694425 0.0005366775625910696 0.01372621560305969 0.004461272777224959 0.02618808030060579 0.008781865872713634 0.01508788075832178 0.004837442191669148 -0.0417492990151231 
-0.001544152902612702 -0.01557533204513935 0.004245193959250518 0.0002574057754104706 0.0009242325594228366 -0.01747421981888994 -0.01273019461788541 0.004468688908730216 0.021566374645472 
0.0003516898854514125 0.0003135754890185806 0.009064284804345723 0.005742077753960058 0.002069075200715146 0.002415161603550448 -0.01766964080715066 -0.001816003912621999 -0.004068474673755066 
-0.01773262069645165 0.004196170199257545 0.001839609495055097 -0.004826127462455039 0.01233952286485951 0.01325996869771066 -0.00771587152497455 -0.01080667909091411 0.00871465165844779 
0.03113407564835804 -0.006830206726633611 0.002406718551588217 -0.002501504260996063 -0.01994115363161582 -0.009177618978940285 -0.003457720340850624 -0.001836019553918639 0.005786434348017399 
0.00791238039967819 -0.01296869454387399 0.03347287924784046 -0.01278621242950211 0.003260315408645137 0.006947292023061839 -0.0258627076875535 0.002721733381701831 0.03163397897503779 
-0.00992312065918341 -0.01618639940419106 -0.009160339770743526 0.009638833543187581 0.00706622124421221 -0.004734289932919402 0.007930934607454613 0.01161609407880075 -0.006869919844491245 
0.01022090286214455 -0.002403960905169474 0.02718285669383098 -0.01094857182226272 -0.02064692221995874 -0.03556371797378397 -0.005928869277390248 0.001213505843112158 0.01045467973639516 
0.00129921261291618 -0.01090829838802917 -0.002581818695809784 -0.005417847478667948 0.01060656238385495 -0.01034352337578316 -0.01179058316593797 0.002914481082176857 0.01983188952403895 
0.01133525626865345 -0.01169423993434238 0.01245292628031057 -0.005160506108149757 0.01418486484453675 -0.01345267568930748 -0.01082632374843121 0.005292562121446078 -0.01652475735407882 
-0.001660904715637538 0.005185263963088516 -0.01597844230672015 0.009644821177828855 0.006272409676827523 -0.0004192176952736643 -0.003416354443670618 0.0001925548827599671 -0.003775655151879496 
-0.005904662159783568 -0.006293075569662463 0.012312571568759 0.01378135716218555 -0.003241543069734437 -0.01755496422818706 -0.008144618312054921 0.0004548424217930655 0.03745225328980712 
-0.01426056586316154 -0.00129207922448512 0.01401351163248558 0.0167363002978919 0.006978908969369848 0.02000718466950477 -0.01887819466990482 0.003645605251256501 -0.01462489376298678 
-0.0008857718479985332 0.001188009008657684 -0.01767046705411813 0.02935768027714831 -0.006501703576866195 0.004779169788575352 -0.005869514176445071 -0.001789090740410236 0.01276958887616062 
-0.01278547638917852 -0.0113332806569109 -0.01874036982304133 0.008929277432253959 -0.005193822423623866 -0.001091823919274775 0.006925243424089971 0.01410705751285533 0.01519994504196736 
-0.01597712028731086 0.001925213658554405 0.003193735435185384 0.001910058310891621 -0.01049055361794283 0.03750366205590049 0.01151220413641821 -0.004079639516908287 -0.03746089097618927 
0.008171859269268925 0.001962856188309758 -0.02321584659303471 0.009616890005490177 0.00230032349436984 -0.004390942791901289 0.02195667009042971 0.005170881871420027 -0.02373973735374971 
-0.01036044221188163 0.007629348769176865 -0.007220750236255326 -0.01403879318250669 0.0267435778931045 -0.003885358272719559 -0.01120281811359113 -0.005662667522100927 0.01678334619491296 
-0.008023146719342176 0.005547688669497137 -0.01842284959407238 -0.007248140341705911 0.03071100010125772 -0.007626006756266512 -0.00364392607220521 -0.003137746169947939 0.01130615599686091 
-0.01617925623857621 -0.005000890629034287 -0.006233180286384854 0.01894973099268128 -0.0008148738912472913 -0.001559679448424157 0.004821428263842052 -0.0009667053588908542 -0.003045693554305207 
-0.004312659689877724 -0.01236950071916619 0.0145855750986241 0.01244180990969431 0.003661463177656892 0.01858786390407331 -0.02811917556427702 0.009193924741938654 0.008855646133146921 
0.001709111916915423 0.0002244176950455446 -0.004753221185492568 -0.01506683194170134 0.001497978302796662 0.002146457283290182 -0.0001936551556643493 0.003408869140925119 -0.002939296062035024 
-0.007963513609832633 0.01276410587261975 -0.000440315534612758 0.0007211327030770369 -0.003645321957055262 0.0003944019939772112 -0.01371242919895513 0.006325526703591368 0.02729135573541975 
0.01847643703583195 -0.001761966715882529 0.0004535382775256593 -0.009309784831393832 -0.006725107946532874 0.007539072133966637 -0.01497871822894903 -0.005746779371381334 0.0198759024385939 
0.007721242285748232 -0.01299865332897213 -0.02354695434064208 -0.003140346483255851 0.02484795692085362 0.00156161889393394 -0.01279430271444663 0.001186857669286971 0.01316103180689418 
-0.007287038621253441 0.001185667525688326 -0.004556685945208795 0.001077589487258096 -0.0008393378217664962 -0.01284001811627483 -0.00753076831275025 -0.006715685390506473 0.02484272473651484 
-0.005899648477867116 0.0008540046416332004 -0.01426021861310684 0.002835996047480257 0.00475847094997708 -0.004764192734362919 -0.004420892210281838 -0.006249928163157307 0.02992340083266558 
-0.003691846947177171 -0.02261095509814857 -0.004254657308514619 0.0006908475721647228 0.004871720768904245 -0.009393020334991526 0.01607036604096675 0.01235458767650997 -0.005639480863606669 
0.002002061660526488 0.01098515004087328 -0.001384158828995022 0.001833006918665346 0.01294092762185818 0.001632602681988433 -0.02212940395197467 -0.004184174918484792 0.01419875984998278 
-0.01907273966756332 0.03725175142475735 -0.01891629921546459 -0.002230890232568862 0.01251625914710317 -0.01326855315141755 0.002459923333743368 -0.00543629630450174 0.03563998638303934 
0.01210747365958697 -0.002184503075589896 0.004017202785084151 0.0008047289364251776 0.0007673797579020272 0.03042451638117372 -0.01379705692262805 0.002035020336081301 -0.03575227276933754 
0.01368869630145295 0.0004838704448576952 0.02502479765990873 -0.01141875950544248 -0.02084230312442446 -0.01369313531776748 -0.03073404582798453 0.005547261879685358 -0.03197644813759761 
-0.005121922336745175 0.01301343832838386 -0.05475022564969981 -0.0003614247211961991 0.030279494233385 -0.01731007485149303 0.007134442640485633 0.02051355382774559 -0.007912210249361935 
-0.003782522355534355 -0.002639421188387353 -0.01012143516117183 0.004561554637620574 0.001313133192387636 0.00231025269289313 0.006372160089479152 -0.002294360842922258 0.02407351697943371 
-0.01415202524701537 -0.02824994981363417 0.04256135863669454 0.009632701873993696 -0.002204212167223299 -0.02841738084952011 -0.01693391506307725 0.001713985913266567 0.02334727651486677 
-0.003110527728375995 0.01962561142757441 0.0005283537499987132 -0.02037569908750631 -0.005433320059110428 0.007775200561623727 -0.009203486273593057 -0.001986033581145696 0.02616563049043512 
-0.01862635540436132 -0.00102612121709677 0.007329266088538135 -0.01528130872674825 -0.02309726584027897 0.01627124499858223 -0.00605892123409113 -0.002134695069517776 0.04807484535656012 
0.008271053571017886 -0.006679734939096565 0.01162666373889454 0.007827969850689558 -0.006811446692831615 -0.01836272418075777 0.00224182963580397 -0.001137609470363645 -0.004836642211847984 
-0.00030383007901186 -0.009360625248744158 -0.01360290754982277 0.01467532263393999 -0.004699841857958987 0.02534143969393342 0.001685699880097131 0.00594791149583497 -0.03042425708391488 
0.01268884996532355 -0.005691111940035565 -0.01542303569200717 0.01399162421541762 -0.003308148681272385 0.003240966838881468 0.00581270002092326 0.0005620746839354801 -0.03080253028331668 
-0.002870928957022535 -0.008495407448210904 -0.01481948397716993 -0.004032958209140933 0.01443068332625111 -0.0299492024252438 0.01357967824147791 0.007489049532156664 -0.01062763077781115 
-0.009125688347386678 -0.002018190070727639 -0.02268727391269383 0.005873692479978757 0.03040329041897796 -0.0154418651683306 0.00197353186997562 0.001210291648069368 0.02286086117527781 
-0.002059738123067042 -0.01033220571295623 0.02133523482605453 0.004943667989285127 -0.0002992414978622062 -0.01460644236645759 -0.01097870170674134 -0.003868262469445316 0.01897412931369299 
-0.01337294810246894 0.01758686942957054 -0.02694412649784956 0.002384444129534199 0.04401775679634273 0.005097582852009494 -0.01482492070806825 -0.00418422159610689 0.00460477476031969 
0.02738834364397927 -0.007694615099328904 -0.00302037101790633 -0.007722644653594709 -0.003109685668963135 -0.009911843133267581 0.01702984124442674 0.001227270749239025 -0.03612258888821444 
0.007317099108478676 0.01704424466857255 0.00102981342571687 0.01592504728352774 -0.01887775599662279 0.003778826494984176 0.008099832011067386 -0.009846129867321165 -0.01873309190022907 
-0.001995973130443318 -0.009308445901802518 -0.001537422140071044 0.01882785945753913 -0.008722644415427989 0.009046920998302 -0.01260384442204934 -4.183724426068903e-005 0.01288822405962017 
0.01321209055071768 -0.01600315742427449 0.0179890631154336 -0.006909077662841262 -0.01079316586540152 0.01350835404175609 0.02617481002063624 -4.812577792213965e-005 -0.06151523808925766 
0.002481229002715049 0.02777758733461553 0.005566990927781434 -0.01423085075405668 0.01325628483155913 -0.01657300574417541 0.01120196339857988 -0.007428919620829652 -0.04286375750001835 
0.0082853625506533 -0.009217381966546867 0.01231225400863187 0.007068499340441475 -0.005135801087775433 -0.01518726008592066 0.00431132729549288 0.001435574081012956 -0.006536017726825313 
0.03000281237425791 0.01232265967599266 -0.0004267900189228205 0.002649721771838109 -0.01222280617290885 -0.00606036369136021 0.004788212878365208 -0.001889637390256818 -0.03620066521045807 
0.003810462802807584 0.009557130032842065 -0.006874725035358884 -0.01478569284290372 0.01104666537626326 0.02444015949639396 0.002790053683585279 0.007401529922741543 -0.05515210018730016 
-0.02578971665254088 -0.003573715988538687 0.01201918196373537 0.03220942551765059 0.01907023026140406 -0.0185643815474872 -0.02097951252608012 -0.002559002364540692 0.01932918241449534 
0.005925461352825956 0.005763598598155225 0.01968524799146248 -0.01260159605144052 0.003272543305434548 -0.02227322416004765 -0.007625631002945538 -0.002230553419185402 0.003837313382736586 
0.001409333578825282 -0.01314075987440306 -0.003669830582076311 -0.006254321969835795 0.02982948496838185 -0.01790696405286062 0.003512369651161394 -0.004917937639804008 -0.01279823661076247 
0.01542838276928928 0.005582951298742917 0.008341612652897025 -0.008974306186513849 -0.01293782594913282 0.0004674715954553758 -0.00227112281195968 -0.0001879533664473428 -0.01728858895322736 
0.01460372146464557 -0.01220337243844774 0.03671925999636495 -0.01943908334562529 0.006472941034639362 0.02764929662353773 -0.03235194377109165 0.003337223894064308 -0.0003169176390658592 
-0.01159146474825911 -0.003948353381066135 0.02067131833169778 -0.01152348595253147 -0.01826049436535709 0.0009197091621225159 -0.006930660972925632 -0.0009633445164354305 0.02801352443580017 
-0.01409891942811268 -0.008520986922725647 0.004879690293745992 0.004586414298136545 -0.01233496707919862 0.006691575491038058 0.01529117498860241 -0.002387177595050465 -0.01633794158505414 
0.02142991819100068 -0.002203755968629396 0.008758182382477527 -0.02027910627694044 -0.03348071380551523 -0.0273905750732672 -0.003777538737726302 0.008790119214100995 0.04317891063510013 
-0.01573381110314162 0.01149199313156597 -0.01984651909465123 0.002716005148881255 -0.0128494601236338 -0.009764608387517771 0.001012603549299874 0.00346165624533604 0.02694328995528428 
-0.0169825456126826 -0.007619224882775966 0.004718965436728123 0.001778610610813837 -0.03736214569062402 0.02687074492342653 0.0083717174710167 0.01238188729259751 0.02116104827840224 
0.007901859023957248 0.01872112062307668 -0.01709115121585983 0.003902915574388594 -0.001551531893599288 -0.005752021235838958 0.01617669341723549 -0.002527206683611569 -0.009234857160699666 
-7.882878775086836e-005 0.007595772142080328 -0.02067592588575589 -0.0001145110289355873 0.009047886308567878 -4.791894042857631e-005 0.01810299820640296 -0.00487040762134327 0.00266599228015705 
0.0009535002552052388 -0.006718582581181553 0.0051635137127921 -0.0006869666100625262 -0.007016156386580689 0.004709933269876562 0.003667790046741505 -0.001724126004751794 0.01157439305325457 
-0.01008117696050595 0.004114388535041582 0.004343129211537303 0.01583395702507814 -0.002842202586961216 -0.006968262739384367 -0.01004884051125778 0.0007857074439596582 0.002064151724389412 
-0.01815214309062335 -0.005755543427608289 -0.03306564439471101 0.03556457814456197 0.0267271341989867 -0.01107652083647635 -0.03565987508306634 0.000820693201129047 0.006496020926516205 
0.02780656476965935 -0.004670796911272902 -0.03139695772626053 0.01164822107895202 0.002852703326131178 -0.01907704551068976 -0.00953344831803645 0.002211146887502218 0.006421272793824844 
-0.007966326129266956 -0.005362149208547424 0.006853658349601739 0.01235897478941921 -0.02341312208761706 -0.0183435992191854 -0.02088456080919544 0.004624054746319336 0.04536104345393983 
-0.005733312164679079 0.01590823044964729 -0.08771131644421117 0.01731439498383615 0.004535052132559753 -0.0001932554160099353 0.03203398051267872 0.009032393682162031 -0.0006139564788980331 
-0.01082573255850592 0.01709390641564694 -0.02029483537755348 0.006922232691495353 0.008639436829034883 -0.002479512935527135 -0.002406589317899757 -0.002553035345889913 0.008174928356505504 
0.006899163399236252 0.0005964393007802599 -0.00239259109098629 0.0006014629621086581 -0.00559095021860528 0.004083721615995594 -0.0006857224096508471 -0.001049827663137872 0.005364129839624229 
-0.002896848114566115 -0.001716205623982063 -0.0008609804596755703 0.001735616067623135 0.01990495701809756 0.01755008796282318 -0.0221782709156202 0.000592947530749123 0.003105672278166721 
-0.01983675805476437 -0.004738853965254637 -0.007520063012991313 -0.02091675592102628 0.02142821330628519 -0.003662541930351843 -0.0008620444962990482 0.0001027354969498373 0.05276518508576829 
0.00664230267706045 -0.01071898503299117 0.02730753007847793 0.009872996967865299 -0.005216200810875749 -0.00938661225219271 -0.00715200628171522 -0.005409596721551827 -0.002600212971429532 
-0.005599325993204569 -0.002365598886583612 0.02987680549430985 -0.004394872800008759 -0.02196187741108188 0.02231568194091985 -0.003721374379196571 0.00284543958116091 -0.02277172149148356 
-0.005923481207755129 -0.007056055528023747 0.008101875142218076 -0.01353539935897752 0.01311664027865385 -0.002859176798194794 -0.007511762048767734 -0.002415763787069779 0.01865353465801569 
-0.009123375081659795 0.003609464231414018 -0.003684175390300392 -0.00815058760402146 0.03732604079919822 -0.01026323951155679 -0.004256614366152057 -0.001018146603147785 -0.0007593661531845248 
0.003722178897395351 -0.002220441412781208 -0.01625168308636997 -0.001760519798872194 0.02818354560889693 0.007043644055107797 0.02074861764560755 -0.002682688452094581 -0.02471129044371753 
-0.003642839259368425 0.0008285340368305804 0.008060107162650656 0.01561178782719858 -0.01015784115136528 0.01715959078711224 -0.003978354679660567 -0.003222967800390453 -0.01984326090989089 
0.005547290790991992 0.00645444302676211 0.004490780181005954 0.008102498720932673 -0.019314342540928 0.003004077968192587 -0.007624002525049054 -0.00861851761903135 -0.003800566613716419 
-0.003168859442327403 -0.008173836421335724 0.007899882695599516 -0.01938346736143018 -0.001094792699753069 0.01025778022951552 -0.007786566879822161 0.001118414896980548 0.01992500163342073 
-0.01547298296316286 0.002215378339490521 0.004113789425219955 0.006056516217895586 -0.01280116598826758 -0.0009088791224577223 -0.00119799976279441 0.001347457904354456 0.01189634703563635 
-0.004293506282375907 -0.02959132880062927 0.0006825521031791418 0.001622523553432126 -0.005552390361673046 -0.005916908468069666 0.001247901005518504 0.01316723780331183 -0.001667135028580445 
0.01042477611947573 -0.008577039613326579 -0.02144509900430084 0.009016773060054936 0.005783337551849678 -0.02346101016177242 0.006674969542581659 0.00108855520443967 -0.001497316241088917 
0.009721424598496174 -0.0005539824514154139 0.002029165160511069 -0.003058204240699704 0.005769558022306576 0.02577848112384617 -0.02162740284712723 -0.003016122835431292 0.009896489660040312 
0.007149963116264007 -0.03149529297567304 0.0229801103641983 -0.01261179469091579 -0.00785589993906257 -0.01001105804354704 0.01465985535072785 0.008237919756507202 0.01248016655175535 
0.02338022398166838 -0.01168771823859002 -0.001182979268228279 -0.004353914156490357 -0.01407414837143948 0.007295277802594529 -0.007528504984753557 0.007415847310076573 -0.0004685116864843714 
0.008006646159707677 0.004815145274721109 -0.01997061443902833 -0.001528741159477601 -0.008951186406999705 0.0318197059711824 0.009706496610444216 0.002226674822698456 -0.0595626891550616 
-0.002675993410768906 0.002324533839135158 0.01527306587462909 0.0003344729951692269 -0.002898809344710929 0.005938225610766879 -2.562053400855547e-005 -0.006258359582777806 -0.0345509187300817 
0.004575392988033807 0.008028471583221775 -0.003307511004736877 0.005280314659607659 -0.01021089348242343 -0.004308191110385328 -0.0005530598303368381 0.001442848830142062 -0.006748173867959484 
-0.01854048374454503 -0.006521077210222586 0.03500123864569215 -0.0003083142702238965 -0.0004728254491406701 -0.007831928011473716 -0.01635879716898503 -0.001070187519803046 0.07216647347017734 
-0.01937200680873362 0.03249644751135523 0.01346699749665007 0.006380428508163887 0.01330440832085634 0.0004311645041651573 0.006533676794834133 -0.01786224012577196 -0.04150384631977449 
-0.00381772573257102 0.0004358117663352197 -0.0008734919219812961 0.01583640356941145 0.004936608072109093 -0.005080452613558422 0.005503041388212298 0.0006155082079369393 -0.01830799936316169 
-0.01339667329015376 -0.0127873836132988 0.02140623690478886 -0.003712276375311202 -0.02311707351901876 0.003211954833504158 -0.0006271245703542336 0.01553128895846669 0.004725109512489529 
0.002548266297788769 -0.001895654095853289 -0.0124053695273286 0.02001856294495106 -0.003718483776755482 -0.002837310671546836 -0.0169022786563925 -0.002003776418149508 -0.002627377561884732 
0.01275809150798934 -0.001674866920049828 -0.007125231018487401 0.0007819562046515095 0.001187139288459136 0.007983043063923747 -0.0003558632608594342 -0.004002469485481375 -0.01026823730736628 
-0.0133666571117835 -0.02732797038058555 0.00099793219226548 0.01000705735897288 -0.0105619314317729 0.01803504657336574 0.003289493420660325 0.01366357840529221 0.006738797873100306 
-0.007965955775099558 -0.01053725769224593 -0.0008888186008771119 0.00366321269564325 0.002046511700329855 0.001266207913699196 -0.0006328009899516921 -0.001228722143535652 0.01165643650715911 
0.01774092654218625 -0.01068391186307342 -0.005666124238411944 -0.006331658235520181 0.007852455171998262 -0.008238814177091604 -0.002796633244604131 0.00491752810609708 -0.01645143729289076 
-0.005200921359523317 -0.02418146208797095 0.0008251104861399349 -0.02457301262016391 -0.01669867964230836 0.01404647856483234 0.01290528843257849 0.006623583039499777 0.01377435185686956 
-0.007032650007187316 0.02366728714082253 -0.01188649842695163 -0.007400759309561682 -0.007521375972917382 0.01435990534271345 -0.01217892992870294 -0.005493005070670728 0.01153016023748231 
-0.009604216854935319 0.01243638503021072 0.02319895482459142 -0.01579303106845149 0.005914593653946179 0.001695989907755504 0.01693387757735465 -0.0127459013800945 -0.02629485668056108 
0.0132744744494635 -0.00661381947268288 0.008007440103318213 -0.01089138273134432 -0.003675294012923489 0.005411057629582623 0.0004774998046564811 -0.0002917135085417928 -0.005108697578831037 
-0.01592447999153112 -0.002399172608085558 -0.01189222521116295 -0.01532457057125468 0.007017249766601393 0.009993707104615748 -0.002789231639279807 0.002277044281157721 0.03748407449342991 
0.01970069449377298 -0.00392890038042863 -0.00146882087979609 0.005642396516180754 -0.004370919803888495 -0.01149743158794112 -0.0003198667253098911 1.367079040838818e-005 -0.01728080999984109 
-0.001827224895842296 -0.006914139445748814 -0.007044208125314366 -0.01877965600251527 -0.006983606228781539 0.006022025138310743 -0.005521714754625191 0.01975711684958167 0.007508217819140474 
0.00207028458302454 -0.004338832241954318 -0.0064873536215017 0.0078225104564764 0.01350443591826606 0.01689072443326112 -0.01584796925341656 0.003616386348642073 -0.01837676756428876 
-0.01741439157970245 0.01029344432942673 0.01591403919118148 0.005084179696955871 0.001782056216280484 -0.01258183237400421 0.003255966185147909 -0.00495982956121305 -0.002701302976629721 
-0.007697165315754545 0.001640875160052275 -0.002781416867385725 0.001155858306863583 0.001063769633737123 0.009724258315515776 -0.004964491454262524 0.0002867849740631042 -0.0007614828112619421 
0.005993645806509171 0.01281829566265479 -0.02940965940904906 -0.01944298788694129 -0.0006089612763144778 0.01361257127778587 0.0423029394418616 -0.005556615041851754 -0.001034258274670785 
0.00649876664316751 -0.01046778562052846 -0.005720367701024369 -0.01284148311797134 0.0108102521406955 -0.005254254391444401 0.005131753373628342 0.003632476458296646 -0.00268852834346459 
0.009909177937032776 -0.007910016774385641 5.688270698064094e-005 -0.008950939598789908 0.0006971911576861663 -0.004179914866020875 -0.0006667611385234456 0.00028345728545436 0.006904774758284906 
-0.01467710985530655 0.02405487271773346 -0.0230875845147517 0.005772049856207649 -0.00497510195831876 -0.003819969701669263 -0.01929672854147023 -0.01048418028234005 0.04588088333280748 
0.0003153047449932526 0.05561738214450274 -0.00546318040076076 0.01058827671671684 -0.01620277758419882 -0.005968898350411678 -0.002210589347072282 -0.007488492737052253 -0.04326111284588378 
0.004182213720795436 0.002264416179587246 0.01638089411123926 -0.008283638503384308 -0.0251062431599482 0.008878029724920914 0.0085630935140142 -0.009223838956645988 0.01199203296167009 
-0.01760671109781513 -0.006858720122129602 -0.01309936428156899 -0.007697264395789261 0.02235064655848854 0.008001846938203515 0.000280134844440897 -0.002805821680141132 0.03045593452622439 
0.006466571728253432 -0.002177460431475216 -0.01635950227765278 -0.001277426865857493 -0.001495644441872847 0.0001044342311069506 0.005661092149520732 0.007853013712262288 0.009906753318548758 
-0.009411898004246772 0.004266140331330263 0.004827030894062397 -0.00284901196473898 -0.01364314795041708 -0.002921303635340287 0.008723743139323737 -0.002018230840529604 0.007061087754260354 
0.005235371257195152 0.009515324032377752 -0.001587851741844862 -0.007545952608283338 0.004979213849548502 0.008828698643641806 0.03665741872284093 -0.00646903229621538 -0.04203540990143374 
0.00201009058948416 0.007370881908526517 -0.02790649241971729 -0.002631352411049439 0.004586850579096577 -0.01849444119343848 -0.004084620088802049 -0.004157677031423606 0.01492818307720578 
-0.01200958960018245 0.001373152854839124 -0.007524216928368831 0.03480171855101695 0.01280382465932475 -0.01577596267688236 0.002066199794233327 -0.00206842784111358 -0.0171629328004909 
0.02704696662515903 0.0008999911986994611 -0.02136969051078403 0.004378270398147373 -0.004302538970361497 0.01343689892423618 -0.009795452663175863 -0.003036186390921572 -0.004944420920010875 
0.0098570251503215 0.03006859739906525 0.01751230429505372 0.007661739532266084 -0.01445550095482614 -0.01962810455182606 -0.0002745049635467054 -0.0007183687011370576 -0.01478387693641714 
0.02480225902596948 -0.003982295251939332 0.0004474867475711417 -0.0007910755729852034 -0.01375563102034507 0.0110956401748745 0.004544470755029455 -0.002147101968936545 -0.01069393766019428 
-0.01019981186405851 0.04029174776276787 0.02699627295120031 0.00443651100451146 0.002395747589583011 -0.02772001296065183 -0.0004465227934952184 -0.004142011350444863 -0.0460956789108507 
0.0009122937780465791 -0.01482492426653241 -0.009330965258696275 -0.005552781609682126 -0.0007119566782793529 0.002166975265098508 -0.01508625102789867 0.02716048658294188 0.00559428661433627 
-0.005143585021045471 0.01508879466256622 -0.004056951055985225 0.004872811686298705 -0.003881681607388841 -0.0001487677109486762 0.003194953712853907 -0.01577460267190855 0.007424161891635563 
0.01022412423116038 -0.01024196658967622 0.002132274214714022 0.007511714287414969 -0.002003248787189198 -0.008072211826287959 0.005327711902454776 0.005892796974298444 -0.02288697410370539 
-0.01674854869870543 -0.01281009971391933 0.02872912489815453 -0.02131733275525678 0.02719722030476924 -0.02525567153969371 -0.01684068318184418 -0.001431714370230418 0.07033738282606632 
-0.01319121273669201 0.0007113001282040271 -0.009875149070372791 0.004001368171099698 0.004576374809698907 0.008620837353038442 -0.00467062317465758 0.006547118537794631 0.004524375705629559 
-0.007126629611319381 -0.002942498298573646 -0.003464707424480132 -0.009094205341396981 0.003855502835521093 0.003850155754490944 0.02064530500934088 0.0002220816086527901 -0.03307425767498522 
-0.003678296063927896 -0.007826715809307846 0.01409584244982273 -0.009664620083353202 -0.009112590779162487 -0.002711209864051274 -0.0002627698227609069 -0.0004621192890380793 0.003319813841988698 
0.005527659964692477 0.00103589818972583 -0.00717188300366768 0.008807590374081785 0.02019075118600186 -0.005077869449842243 0.01028338918089948 -0.002837229377959842 -0.03500167438467498 
0.004014204407785047 -0.01548762422471686 -0.007442646989524962 0.002988454292707292 -0.002890157051824942 -0.01005130466352157 -0.02728664744037596 -0.001960837556072007 0.07032986404277467 
-0.007122876409800677 0.003571471270279095 -0.03423604727614307 0.004082126240866775 0.0276255373196356 0.009175225756422401 -0.01034683476674127 0.004715914691746109 0.02104611615930927 
0.002891389445100726 0.009979452935502158 -0.003128851412374191 0.004760847196430639 -0.00662217948194015 0.0108293452451365 -0.004060190559016046 -0.01078940068836457 0.01269740303079235 
-0.00579979739638416 0.02886203758945658 -0.001747212983558595 -0.009941806479228779 -0.01302124898821173 0.01957790347357384 0.01533711153626424 -0.01052749840309419 -0.04165422461474207 
-0.02696430776521521 -0.01659703056606308 -0.01832508567296905 -0.004717556674693871 -0.005660335049371695 -0.01410995303704167 0.04489688290235883 -0.001595293028371187 0.02004107431228318 
0.0006044993435347551 -0.0189254065643899 0.01973364514322513 0.002272560047895327 -0.005141017331661923 0.00135940239505843 -0.009846415395107925 0.0007653357033336378 0.005548513421022141 
-0.001309645950315923 -0.01223276935657096 0.01453848536092834 0.01024060453527489 0.003955002489427329 -0.02873840354703416 -0.004205908291716166 0.002167579373695225 -0.00651284240920321 
-0.001229445147620843 -0.001685113053869144 -0.002175001823148945 0.02283252366050577 -0.00287177002719818 0.0009061412254623706 -0.001880780024712513 -0.0005316746661577134 -0.01680329873360355 
-0.01728686460870093 -0.006536775050525794 0.03100281662035739 0.002566630859840395 -0.01967857630722698 -0.0001335790824040329 0.01943617824781964 -6.024858643122424e-005 -0.009962946775525314 
-0.01419495739252169 0.002573803499833184 -0.0008755727646554933 0.0002064503592467018 0.008211826100190825 0.01379409915624972 0.02356125663068231 -0.001252885690665193 -0.03342074841339824 
0.007059887336992314 0.007665803901749629 -0.02783038411041143 -0.003983423811095982 0.02014699865492839 0.006756003499964389 0.01673718000802498 -0.003745891771313457 -0.0261463419415099 
0.02149147462541934 0.007296901960426983 -0.00440101502691291 0.006912760697271975 -0.01707769609161145 -0.0009159893298779838 -0.00253466945438939 0.003591883985021076 0.007776659862637833 
-0.02310740518526159 -0.001756156882042878 -0.03280206980047659 -0.002399131620528887 0.008776527982457472 0.03259025407982819 0.01624628891435622 -0.001310898310855313 -0.03686641171777642 
-0.009349017631926006 -0.002785382577485125 -0.01322823960756028 0.001124460579702866 -0.002189297712364547 0.02308359843961199 -0.003601028699185343 0.004144251504044638 0.0149119994810515 
-0.004889129386557891 -0.008033424011180719 0.01032802663723496 -0.007195734749735179 -0.01715366673249777 0.001882601100403075 -0.006744667332615876 -0.003736543620112129 0.04440486100499849 
0.02624492072020648 -0.00900194336677029 0.007682210404631308 -0.003034763642028247 0.01187248916207353 -0.002394021985933924 -0.01422444465512205 -0.003589132014018429 -0.005425480373271541 
-0.003954154040583592 0.001828611992533405 -0.005949305405616223 -0.002128989858633047 0.008444657930592939 0.003217334736497848 -0.01709580668177786 -0.003062577099762841 0.01279423838608755 
-0.001292040871082295 0.000346233379130891 -0.006152530358082089 0.001008213403067243 -0.007725368614509848 -0.002566118291265786 -0.01245960545849408 0.0136606668264864 0.003526922213369202 
0.004797098039405596 0.009754730471664096 -0.01466347471720435 0.01989125107940656 -0.003649283410984971 0.009941010073728749 -0.02019094294765422 -0.005364894421439549 0.00159507400858025 
-0.005938561345061875 0.0137749305148211 0.01258999263474336 0.007932163343373974 0.002207875231112043 -0.006011435103181975 -0.02196488008906273 -0.006070198372068881 -0.0002058042256698517 
0.003767397534079274 -0.004551221632931576 0.02106800028743919 -0.007178061770488557 -0.0002763451122984474 -0.006210080616051479 0.004154570330238398 -0.003601346377068139 -0.01947939342702355 
0.006164272697156616 0.006466814395682808 0.001094432515583068 0.01775281315534025 -0.02211466747892837 0.01016224597083225 -0.006811377105954167 0.003202289441931722 -0.01451009657539116 
0.01294243200796518 -0.002863126979296738 0.005978255983838466 0.0148583563256758 -0.01394427054380905 -0.0128172047214008 0.01241819972671525 0.003476433350611575 -0.03608009819795315 
-0.006092516097936309 -0.01873181383899965 -0.01366112871688691 0.01545541160862727 0.03814900328378203 0.002119570898314307 -0.01880233457486257 -0.000164552553635623 -0.02126026496945885 
0.005923616835641224 0.02731511715562167 -0.02017265374608269 0.007961888826241709 0.01470368644015134 -0.04958872435940102 -0.01686089365217439 -0.01384741707032533 0.06454520464655157 
-0.01043507555434087 0.006646132562109985 0.01431397058908004 0.01081678986953183 -0.001054456816803013 0.0009767529735757912 -0.003874127215514511 -0.002143710010927391 -0.004724880669675083 
-0.01179257308929677 0.01404964615671489 -0.02888596888305049 0.01030667179074928 -0.00444844805972712 -0.01011892534448132 0.009902309251939207 -0.007344381767464128 0.001190819779354436 
-0.01216747854854181 0.002519168621162102 0.01080114972630101 0.0008212917821918279 0.004855194264649826 0.005790746820884846 -0.008637717767670789 0.003550119066845541 0.009448338692783647 
-0.006526181397858403 0.01940156232606061 0.005378815014154556 0.001418365839243856 -0.006099356190160946 0.008198215990186298 -0.003126007556266935 -0.007036802769523996 -0.007883312225017094 
-0.01638157894901433 -0.02324368977563468 -0.007082707545890143 -0.001373496356532559 0.001585618600730398 -0.01152163795138012 -0.02437575503288091 0.009708946057939793 0.0429447369817789 
-0.006731976542212708 -0.01225713543443211 0.006383554614340773 0.01095404006542833 -0.001729985848327068 0.01438436055197728 0.0001786832969877205 -0.006823031515208905 0.003062762477851057 
0.00205376100543891 0.006160523122435499 -0.004503919008924943 -0.006764157219303833 -0.01513633813136592 0.01322967103399085 0.01934261022859881 -0.006092550923513461 -0.009153597843538565 
-0.01318470869778205 -0.03905057530171369 0.02643836248905922 0.007194505434981069 0.005097534498693496 0.01804555609929322 -0.03104729791341304 0.01521971158529845 0.05475341076756006 
0.004817651199384465 0.001456490029130567 0.003732997928448245 -0.003702867449208377 -0.00202906574849975 0.0022779951695895 -0.008419159554472528 -0.0005557475146423601 0.009071396379986453 
0.003389601035858975 -0.02573598850094399 -0.02183825573288149 0.01651559671259984 -0.005536704665066419 -0.002619107426216605 0.004022670176832429 0.01011670025822977 0.03939324253815364 
-0.00590450982257525 0.02006730187672194 -0.01583615276902348 0.005621865030073891 0.01144028424470818 -0.001500687754149223 -0.007371486402168724 -0.005422730699709329 -0.01827918486101446 
-0.002772785704301166 0.01810051345758667 -0.00741719909190573 -0.006891376802426612 0.002177764215976031 -0.001709179899122926 -0.009566922111776718 -0.006681924193014834 0.02226767893697493 
-0.00297422798329588 -0.002280905117820603 -0.02878928406794709 0.00280629957364715 0.008943702861755349 -0.009031998521648633 0.01660819841374552 0.008525773766408408 -0.0197664055402191 
-0.003701012942126291 0.001649467664298908 0.01821917950785646 -0.004670116563069235 -0.01579902170238486 -0.001060822700433614 -0.009237809115055817 -0.0007376851863449844 0.01698680315515736 
0.0005766377431232458 0.0009459497089955771 -0.01768624405090925 0.002449113800867893 0.001181608154713157 0.0287570641706998 -0.0002236080022563748 -0.001508538433725362 -0.03391261302346073 
-0.0002485662661573036 0.01051386731255473 -0.002790913870519599 0.008197182252921265 -0.008246231232728036 -0.006622687384709485 -0.004970910217238423 0.0009504834780169716 0.007411899983704014 
-0.006742988532251023 -0.01431590801534832 0.01081129623850981 -0.01304731839551296 0.01677045321774055 0.003748217479450894 -0.01053671344199481 0.003626837453521685 -0.01867827812446508 
-0.01313848158112471 -0.003642118684756725 0.0264514355477257 -0.01259318162750142 0.01637905643348083 -0.008400146366132956 0.003077588658458709 -0.01045696079498568 -0.0121201869969135 
-0.02245560718395245 -0.002512665113885242 -0.01948689822945636 0.04157732631707769 0.002656929056119189 -0.03207969375210116 0.001854370359953418 -0.001323113432704987 -0.01506459785919152 
-0.02153435601947105 0.02412373804425741 -0.004583949501456443 0.01308647710155258 0.01780821587154663 -0.01841464758396631 -0.01502598940874276 -0.00820658193675467 0.03139535475515932 
0.0128831410884012 0.001297853579492015 -0.01831489889707801 -0.009899900503583836 0.009063919428790992 -0.01339124423467589 -0.00973289435261787 -0.006102832257152753 0.01902397629292787 
0.004845804101363266 0.01019167936084981 -0.02598341886696675 -0.01316258339660297 0.01213244825998328 0.001946531591913856 0.01761775249810766 -0.006871330377525196 -0.00405750526014848 
-0.04092271273368649 -0.01785721333883675 0.006036262056924997 0.03815195978839382 0.01777753204197889 0.004966377688998295 -0.002314535956170795 0.009336021942136123 -0.006122325638949313 
0.01480448865616041 0.02762330391676042 -0.006309277888152633 0.001152017130380283 -0.01133442015028854 0.007594566905876159 -0.007526229273268017 -0.002284716449184866 -0.04206402773847062 
0.006910445602154992 -0.003218493105169778 0.01890857687806706 -0.02488079391933337 -0.005025552259008081 0.008679908961353547 0.0008000167459566968 -0.009016549049770782 0.01672179416402872 
-0.008102093136584547 -0.004380961789554208 -0.01825361748951433 0.004753285466546488 -0.006380522996566969 0.02934592259832904 -0.002437311151596978 0.002698372662121104 -0.00784166984292408 
-0.003978022131429827 -0.001306777809530117 -0.001973911752055243 -0.004540164398575556 0.01289565917249226 -0.01674015270745545 -0.008924972918255157 -0.006383331711212168 0.02610954524238485 
-0.006118486086718922 -0.0136421245084538 -0.002428501418598136 0.01526150281188974 0.004424246823289024 0.005556134029500837 -0.007107888987527758 -0.0008956681102159152 -0.004853244871704371 
-0.01515279642826226 -0.003513987458405273 -0.01153086445622715 -0.02447767859952094 -0.008165071875345317 0.007382492422013062 -0.003976304715645909 0.001138961180797355 0.06029540944397602 
-0.001577031061278682 -0.00975761821546365 -0.00894224741399571 -0.020475515053421 -0.005019020959093539 -0.002184456769258935 -0.01622329094188121 0.01033821526049569 0.02980335534789192 
0.004187238294129102 -0.008045228998652081 0.021032232193351 -0.001457291923157601 -0.003056881747656943 -0.009427293181471945 -0.02427832958116708 0.0007025603856428273 0.009544603469987159 
-0.005257224879338165 -0.01538543721420774 -0.001692930928779308 -0.01485843977214631 0.03323499702062921 -0.01519986056796063 0.01854035451090063 -0.005389450276517173 -0.009033722700520349 
0.006850640072520657 0.01420721866139322 -0.01784427365355493 -0.01654145439879002 -0.01529855407731191 -0.005766012674047043 0.01994006111095335 -0.004520151103264121 -0.007418841303071474 
-0.002665114885067071 -0.01146273959937141 -4.795140841114109e-005 0.003370393573228204 0.007322602825905737 -0.008825814788491624 -0.01538595043321363 -0.0004812449294630774 0.02065031702690339 
-0.01051804941050767 -0.002628799013420973 0.01636287611408853 0.01410252161352307 -0.03086246213984785 -0.01701501904101632 0.03371826482839471 0.0127043046189117 -0.002670248683915342 
-0.0180087366843029 0.005286623258256844 -0.01472936827079368 0.01523338920456565 0.01979657530841586 -0.0218204403200379 0.002992163262669264 0.001774683392079935 0.01233831510631034 
0.008483646117758195 0.02162794187460697 -0.00287852150900296 0.01148007534697779 -0.03627287880078046 -0.01031637033444313 0.004711708673575545 0.004080362866620218 0.01961320130441107 
-0.01216343626023022 0.001924101368015802 0.007183283063400516 -0.007346169908143998 0.00596659947081068 -0.03293508855571234 0.007302331953043832 0.01270218678664308 0.01408985157640001 
-0.0003123242406940391 -0.02969425382111087 -0.03261272778123221 -0.003207122307856739 0.01252182718498813 0.02492856421385788 0.01745786826248006 0.02172800514602139 -0.004097549537099078 
0.02900913823791379 0.001384039496897231 0.02057161209967146 0.01236897137491973 -0.0230533040652484 -0.01331953885757558 0.02503103997273543 -0.0002498539229916117 -0.01915996200573029 
-0.01956377895885836 -0.008997131285740175 0.03641016124705906 0.01191714724674761 0.02015317156155968 -0.005835410408839532 0.0009421417239772776 -0.01480996522475943 -0.01541420594546142 
-0.009718936468835778 -0.0007473324445079709 0.0230901286865895 0.006193541704278048 -0.02578473700890697 0.0169290349115105 -0.003652935163129015 0.007516010991734089 -0.06038833309226441 
-0.002789623463078827 -0.01405948265889355 -0.00420427943075221 -0.008098488473103339 -0.002657125742589577 -0.001417890258486742 -0.006375069922784563 0.02581129005395727 0.0003921185655894114 
0.01765280905798104 -0.002732856798729051 0.0005915713207535174 0.01390387128750392 -0.01322767455557455 -0.005770210855832792 -0.0140801298932437 -0.0009545827238694139 0.003709846631330183 
-0.03535782549924862 0.00387771784228835 -0.001852656528399926 0.01905875649697147 0.002766120690087 -0.0005000873287388406 -0.005538845704451218 0.005116150512747299 0.01076424085967203 
0.008900011217514329 -0.01380612089655346 0.0233693598105464 -0.003497901385022438 -0.003835545275466161 -0.005017722737247253 -0.01042317239404913 0.001800162045946684 0.03534567442150922 
0.004655881510449903 -0.008702881065978621 0.02627564735754824 -0.00595797920990728 -0.01815707776794168 0.001179711896599024 0.0132088121145021 -0.003507044160731547 -0.01601178605909912 
-0.001143328749967238 -0.005490138073358123 -0.003430962998689894 0.003668454400806309 -0.006318440819073556 0.002618128747465951 0.01873595823544484 0.007475630063602642 -0.01766480030818172 
-0.001804530488119647 0.00811310941317984 0.00378069414454447 -0.01967504675164561 0.001352808108670441 0.001960250338989698 -0.03838663792942778 -0.0009359343562244828 0.06588909576562192 
-0.02073677272923504 -0.02098913960813711 0.02233175609005361 0.01036601895443503 0.002528648112485782 -0.003303349664098242 0.007076655479794168 0.02010070973397692 -0.03926013695339184 
0.003385128886948899 0.01879988311724877 0.01807511514749346 -0.004915113781669946 -0.01042587732862011 -0.005552140750301576 0.00535802527173574 -0.005934022306715862 0.007726132689571922 
-0.009036463882310612 0.01128139669775375 0.00659328635984047 -0.005265641831585655 0.007028190987284741 0.01025722680657752 -0.006196917279795037 -0.006118809640017395 -0.003455071782549508 
-0.01995086904904358 0.006739625774678332 0.02628605742734701 -0.001102782149862205 -0.003895422156571775 -0.006054469677952486 -0.005278953675624358 0.001992715851040209 0.02411477285728339 
-0.01934734385107698 -0.004200790037449803 0.01228986493053907 0.01148694938572741 0.02122486283317697 0.002011298206054034 -0.02358373972558844 -0.007987278077754132 0.001339303276944045 
0.002080457107528659 0.001373463165480691 0.02732518929751355 -0.009104379791508526 0.003948253817215404 -0.002267754918364428 -0.008813910697689227 -0.002490680407705863 0.003892677411316866 
0.03300007249202964 -0.002244916984723628 -0.02171666028161491 -0.02176847049212501 -0.006325812207056871 -0.006595521662191803 -0.0003233291199537358 0.003425001151250808 9.641331555707645e-005 
0.003239440227114231 0.004521125384543261 0.007531472490151711 -0.005163817070679745 -0.002918449672906804 0.008441360026864605 0.002521865945915487 -0.01807355205422454 0.00930605025858003 
-0.0004457485719898584 -0.005122726917516894 0.05914832750927127 -0.01918739778988799 -0.0167740414091764 -0.01622319398897403 -0.006378704788309969 -0.001147686218769869 0.007055933978520059 
0.008421410538620311 -0.005127449442753698 -0.001410012363033817 -0.0186297577166927 0.01702823640359812 -0.02342616331323624 -0.008463474134241568 0.01153978304920789 0.01668925006386407 
-0.005116764021325247 -0.002006747817443822 0.02687353246449903 -0.009370170735273515 -0.002717842373839059 -0.01025816661779404 0.0008333521019880948 -0.002651920009937798 -0.007059330513715024 
0.002264258980052104 -0.01061266358181135 -0.02326248977266461 0.003177198293391793 -0.0009849888557870641 0.01362262399939322 0.005365543206004006 0.01182054131094619 -0.01614775342937445 
0.005743796677707721 -0.01064672112789309 0.002352754717680153 -0.001136020466590021 0.01711291396460177 0.01691315935578015 -0.01028557687100837 -0.008109645630607319 -0.01082057791879711 
-0.009723443218892661 -0.01839156917828055 0.01663292765447383 -0.004413348764460544 -0.006421901832902551 0.01795469354667011 -0.01341042490438911 -0.001468506154268472 0.04122800030741979 
-0.002622329490466311 0.005683586300363671 -0.01053635905973422 0.002000178775749224 -0.003438048027995176 0.02403173004039773 -0.007586898359915506 -0.003699702689155503 -0.009599618679802245 
0.01971597777464643 -0.01251897612177563 -0.0003376936154910196 -0.01796285287414738 -0.02464598779924035 0.001177585465884186 0.01388838786737484 -0.004849791808099703 0.02144770774183986 
-0.004824245408169526 0.02510685219965968 -0.000788485177978184 -0.007894714354525545 0.004212120195034664 -0.00694121393523301 0.008546832224796739 -0.008107280923853232 -0.02220198862244531 
-0.0007414554379191673 0.01436966507167276 -0.01084305927745425 0.02402231100254261 -0.01280030270266362 -0.009235776021415154 -0.02451470113220445 -0.005652922288694765 0.02573871264162384 
-0.0004670606114384598 0.02482223028850236 -0.01847312996371709 0.02901430878862551 -0.01036970733945002 -0.02041700529077297 -0.01294961849682885 0.0006296734012578475 0.01658837094710681 
-0.01091733206735908 -0.006270424073835617 0.01318716750249298 0.004732420604739352 0.01088039415525553 -0.001691129897843829 -0.02396397388598106 -0.005013537820222847 0.0208367364991487 
-0.02907311365049013 -0.01037873821341319 0.05939640563433254 0.02071578428869715 -0.01513050781105359 0.0009933351195777411 -0.001071721214730351 -0.006119797640736707 -0.01418838948584082 
-0.001971938779599829 3.826546492751111e-005 0.006841856351710672 -0.009872432419744857 0.02044799774400642 1.919805376922676e-005 -0.01558614249510124 0.001334197426099284 -0.005589789608075049 
-0.001493944138192445 0.01590351809784813 -0.004756654790753771 0.02501888493178671 -0.001774963384897191 -0.02458097046938215 -0.007303223131004223 -0.001755165123196489 -0.02686946291549711 
-0.006851037514746475 0.005798388126883297 -0.001714857254874488 0.006023288042724207 0.001176675826967843 0.0004004018729590739 0.007265759589595513 -0.008126731857271448 -0.002945903985920546 
-0.006546460103089805 -0.00738017460630124 -0.01667132003480823 0.01158484859160483 0.002258498626297939 0.0166323672582486 -0.003918421801730114 -0.005996837331264234 -0.01215801504829506 
0.008972959193777101 0.02460440978371921 -0.01605261649274685 0.02097828655588125 -0.01418953002975555 -0.03621553114979294 0.007933861191089469 -0.00353211612562942 -0.005927976660684945 
0.01555724653225322 -0.005642026391368673 0.002084631041991431 0.003242640930701149 0.02114286662514135 0.0006479325221868468 0.009113536588344587 -0.001110847998572434 -0.04886118314863586 
0.01163163277655088 -0.003664925633668867 -0.002634204522710152 -0.01300615918272457 -0.01480303414326963 0.003809750381379692 0.01369265759445599 0.003655166387126945 -0.01175476191263916 
0.004127219387871903 5.426540940039149e-005 0.0003522371745694037 -0.007595632113159912 0.01456692793805215 0.01470613625743747 0.002504842643439514 -0.004300329186257042 -0.01902673742906294 
-0.003943022162694551 0.01853410742268166 -0.002443741141910908 0.001602936688395223 0.006754294530513644 -0.0327011212237779 -0.009803105993953582 -0.01103010168289525 0.01570611624287033 
-0.004088908887482441 0.0005376642176021654 -0.004118849506600902 -0.01186729009106526 0.02330272266322087 -0.01098524859540178 -0.01046523717245523 -0.001200197664600803 0.0333577473662961 
0.01796639784862972 0.009938722699033458 0.02476643062534311 -0.01695183903739764 -0.02914914575735599 0.0375724281950094 -0.01391145877334362 -0.009734180453657449 -0.004698735936345649 
0.001636836760627529 0.03379606481394073 -0.009769641771956845 -0.01255633715664478 -0.006623833222662293 -0.004991302994682241 -0.003079900679067118 0.008556539021869395 0.02703636157464177 
-0.001339066024644479 -0.002771079519446153 0.006653003125313149 0.007684724595567366 0.0258217915276369 0.01138010900358446 -0.02187296748434741 -4.472340738921538e-005 0.009317816996922388 
0.007165389835218027 -0.01331639701386658 -0.02612237394443891 0.0045359297035372 0.0238372598704567 0.01909840404471187 -0.001376443014336954 -0.007874198476204774 0.001108952963793507 
0.0162212027052186 -0.007563330236173901 0.0004407595247056431 -0.01845855574517948 0.004188152619260846 0.01410281464708276 -0.01909122802903834 0.002088164989077069 0.02647700220049919 
-0.007071547103792517 0.003737646544337616 0.004052294809110021 0.01042628454867099 -0.01528161518437097 0.0046521758066574 -0.01062864907198148 -0.005259018593692884 0.001487190007141331 
-0.006557730416265594 0.006826296075355736 -0.005375921876923481 0.004299699864719487 -0.007944694776910578 0.01483671537938542 0.01191812701464044 0.002239015991319505 -0.001387394167399993 
0.0005595614770986437 -0.00992480287365435 -0.005248691028481751 0.006550840333536052 0.007255610826953159 0.004466998262087374 -0.003293274226863578 0.007272834901550086 0.01439852318650782 
-0.002654503739427471 0.00935605005824426 0.03732351644552722 0.003401720119024359 0.008410630036253114 -0.008155363002369839 -0.01803109011922532 -0.005786347485920476 -0.02179717441587375 
3.911787409317751e-007 -0.001972660103234678 -0.01270794458296591 -0.01091273807048132 0.001039723083659223 -0.008403945695727329 0.004862789228008074 0.0055380300390388 0.003671875651183544 
-0.01775984029496363 0.02713761634061341 -0.02569893270469611 0.03479726596903305 -0.01215795191677596 0.03158225581194948 -0.0190523299268343 -0.004243026617739902 0.004897576366387933 
0.001911711902123655 -0.01079959927537268 -0.01148916799736128 -0.005838040798798084 -0.001986194608351155 -0.007597962902215823 0.01136192109530168 0.003379203473514234 -0.001460461383720514 
-0.009711606484813205 0.0002649956555384684 -0.02475247118633372 0.01492718925348347 0.01942205707092096 0.005286576612546922 0.001220322547428072 -0.002495905200877017 -0.02140904147753827 
-0.0004344763081319531 -0.002173667376067078 0.02000291887897145 0.009315084044895656 0.0007972877556027309 8.958557509484885e-005 -0.004825152141951911 -0.005357163315169802 -0.02884473097096013 
-0.02294373091236435 -0.01934265502543457 0.03872649431352037 -0.0006286969863123257 0.009611634529133731 0.02246256864982389 -0.02230188431047727 0.01187539891613566 -0.01478156414755857 
0.007603061529854071 -0.011029272890735 -0.006341286453992852 0.00624112855176967 0.001457450595561294 0.001192003520185902 0.008675789908394623 0.003860016821769975 0.001464673067929377 
0.0001399735747662263 0.03201917859202351 0.006070639273876154 7.881703887069784e-005 0.0003770961319484218 -0.04040922519563049 0.005529036086796761 -0.002568096145948218 0.01894177536725463 
-0.01579416465240536 -0.004865405679977693 0.002415330601131759 -0.001388026432034141 9.911394210656809e-005 0.01246689105780938 -0.03339161228005289 0.002722992152777543 0.03552497896205321 
0.007983376867154429 0.007871910026786099 -0.02044491933194413 -0.01078652495693933 0.02546626984062306 -0.01685258839745869 0.002899404201691242 -0.000996805292253895 -0.02301870791102349 
0.0006305956458896106 0.005273476117767171 -0.01822039430544631 -0.01526661456184606 0.03444251789600265 -0.03095909080248639 -0.010521810268097 -0.005069631669117236 0.009904494498461916 
-0.0001901530365333261 -0.01400913004101356 0.03393842244381449 0.0008503605650219713 0.006433450445095488 0.007791791761495355 -0.02411921217178762 -0.0001862597455204652 0.007155172419707326 
0.01199526883773018 -0.003047612097953639 -0.007618048844511448 -0.008913873824828736 0.01988469066852392 -0.01774563134523372 -0.00274664914438947 0.004142240296083521 -0.02182854650328018 
-0.0005500166460400652 0.002059196814452801 -0.01317679673209764 0.00632671037850359 0.0014302291956432 0.0195215111936673 -0.01307200499663224 -0.005889225789281659 0.02277746653178713 
-0.001864842751562111 -0.001071150367028078 0.02217684978841862 -0.0006197625527445156 0.0125144040942413 -0.01061292362174309 -0.0136248259288674 0.002642589163084019 -0.02450581755169132 
0.01621185424242657 -0.01693127571069228 0.02520195382108457 -0.01610017317846851 -0.01889313237313667 -0.002395610665929296 -0.004592109633728222 0.003660098989637193 0.02367735339678997 
0.007697266276543923 -0.0001098418173354825 0.0002233081025007612 -0.02149438212418531 -0.01635403999337035 0.02187010160443994 0.003158019838381956 -0.002525554762046244 0.002047353374062723 
0.00639120715618867 0.01502201037800502 -0.007387036143989722 0.001720704243711389 -0.000591813396727033 0.01456185427569997 0.001935400930104822 -0.003647225822514766 -0.03448818134261863 
0.03854398371871221 0.003893225695000611 -0.01397286765772252 0.005436777712123729 0.002432449097999094 -0.0206684832527796 0.001052399254861857 -0.00540028898630378 -0.006728299051470912 
-0.001422089590360325 -0.01145152369816902 0.01388166747839461 -0.002011856959748463 -0.01194049063937576 0.00270881692406964 0.009468026783723025 0.001172398794093597 0.007350553221253662 
-0.004726801024842467 -0.004273306688800878 -0.0222252516774714 0.003446568434158314 0.001820409974843232 -0.007609358631143243 -0.003533335851704741 0.003358377661004093 0.009899765468885921 
0.004105451829202248 0.003954789726093954 -0.003457624178802272 0.008968905894057678 -0.01273284871841967 0.006061152784798238 0.009691802307149281 0.004141188492382378 -0.003645523546655368 
0.01927492436954459 -0.01058697980264102 -0.01657492114061205 -0.004978892083526742 -0.002754410153202271 -0.008414739867989999 -0.009881291723555091 -0.0008850918566484063 0.002962733086185246 
-0.01027771031216001 -0.008911631112095197 0.02209237885883381 -0.01242095365570945 0.002093116053799016 0.02647587682006521 -0.02369512414521692 -0.002999545406951809 0.01522253687216052 
-0.007681361117796784 -0.008016763567581636 0.01871040236067639 -0.01024986235559193 0.02629168631618362 0.01457624475769636 0.02451945170957402 -0.005712292865477526 -0.05055531354352874 
0.0122918250360159 0.01075383712491622 -0.009841246425743567 0.003217690785610817 -0.01116722254076008 -0.007767192613155768 -0.007201314441317151 -0.001852107445746736 0.01204682935736325 
-0.03231544931969495 0.005548231917560089 0.03244655880516092 -0.009043928360409783 0.002192308019768028 0.03163770418853851 -0.0143991833108744 -0.0003188221573150107 -0.03531639891083888 
0.004116913254886162 0.01047404352569478 -0.01948951278199081 -0.01235378531827885 -0.0120690316770175 -0.0009602541628298364 -0.02048498800083327 -0.01203849021092032 0.06063662266300308 
-0.002108743913579604 0.003252538710394939 -0.01359405261080459 0.01527473826769238 -0.004810089021015612 0.005729048734844085 0.01332645767871161 -0.00384949592513436 -0.01008507074336631 
-0.003312512436875339 -0.01000152233503436 0.006496767777878241 0.005909561969958675 -0.01576667959501022 0.006718765303900718 -0.01002201099453491 0.02574681706865845 -0.004649720507431614 
-0.002382247700783109 -0.03051498460308059 0.01415537627725605 0.003330129261374257 0.01931861297780218 4.198221020494916e-005 -0.003309795183797465 0.01272038853587362 0.005664779439801931 
-0.008659014844895377 -0.008142889456552673 0.001148706841766668 -0.02641213854723154 0.03415559035340028 0.007935187253237074 -0.01546466721099156 -0.000260993178976326 0.002633074125223972 
-0.009302164218217817 -0.003607959912776615 0.01387894875113143 0.02091384651243095 1.802052887971886e-005 0.0003552671948975248 0.003358530064595142 0.01268062788938426 -0.0496610893848602 
0.012346780055696 -0.001841037168589281 -0.01159254554469897 0.001229391344723767 -0.003709014884707169 0.02060717230615442 0.002874176046483041 -0.002817031495872727 -0.01299701495279991 
-0.009853814974284723 0.000352322885830554 0.007633702749299836 0.004769600462274549 -0.0121093499912479 -0.01022093684750147 -0.01203675680289918 0.006984759022158393 0.03249112501509901 
0.003297629266442264 -0.004485649837620818 0.01009623024700356 -0.002552288025846983 -0.02724526739293099 -0.02136994465249126 0.003808469077320113 -0.01062385041588814 0.05317069433335787 
-0.0121356703855788 0.005317773137445001 0.005232169281509924 -0.008310412304558099 0.01596058121315751 -0.02355870462821063 -0.009553392601945843 -0.001547888474730916 0.01778171380613127 
-0.0002259859590225111 0.005697492953387687 -0.008767927801548392 -0.004285408128196818 0.0278435710653881 -0.0177071847216145 0.008441977121008193 -0.007771938708761386 -0.01469944219460042 
0.004594454474307538 0.009240961004148562 0.02237844532422543 -0.001483743548777114 -0.001701081869259307 0.01390752318217097 0.001773625097386801 -0.01144792858386729 -0.01369289847329251 
0.01737062677919508 -0.01072211106145709 -0.01562869101162824 -0.01691075008237437 0.01379084766361344 0.01483851454747936 -0.007799339349369842 -0.005791400717543826 0.01030573192430126 
-0.008183106639016379 -0.00706681265217053 -0.007290583529049036 -0.0078641877178073 0.02294003078882405 -0.001621343673616328 -0.01070711561683701 -0.002675854746416853 0.005485432067932282 
-0.01461437453696195 -0.01767577394472344 0.04081536270145911 0.0009204316506763879 0.007356843536255966 -0.003107254502947109 0.003942179549420524 0.001773919712187195 -0.03525678728599795 
0.001873921556606252 0.02744445284282346 -0.01689628532240703 0.01116726929629904 -0.01077568214401068 -0.003732806617902454 0.003285778702312569 -6.128279422560881e-005 -0.006209480903772144 
-0.01186409072531682 -0.0131990568409448 0.02224587718827361 -0.009599528119139569 0.0218379939012334 -0.02271140415144057 -0.009920271123210599 0.002758526272092348 0.003728361567250516 
-0.01898220183081758 0.001508267946216914 0.0374767206330579 -0.01078300412182725 0.001268586435843189 -0.01149739894792722 0.01380663374308914 -0.0001269035121761462 -0.01311244665984412 
-0.005716988961115159 0.01613560101719432 -0.003759646479197574 -0.01096077679979315 0.0001329369636611677 -0.01964574317406542 -0.0292929724608937 -0.006152446535041058 0.06685667478709384 
0.006475066913660794 -0.00613188006815893 0.004871859278998438 0.003537583146335069 -0.006514404511182707 0.01264086240090354 -0.004036853635749945 0.001385638548000285 -0.02020000340528811 
0.01330587823440067 0.0003005823941674843 0.006303172060468786 0.009302938817930009 -0.01759807379088615 0.01284530510537937 0.006156865765598112 -0.006811148678597517 -0.01153592964183255 
-0.01033453043523326 0.004015550629322027 -0.008837211667354818 0.01480981354766321 -0.004086618344618164 0.005483655309846929 0.002716032086167011 -0.0001857893505991049 0.001696129581065658 
0.002885224978709134 0.02344744912955245 -0.01677342422258783 -0.01151016643071329 0.02290943044255751 0.01786679879415849 -0.01202184399828186 -0.003108680371680073 -0.02291407781937261 
-0.01319944022424222 -0.008727455521088919 0.01665663426202688 -0.02149821656614122 -0.003167461206708581 0.02413438536033178 -0.001454838833166054 0.0003994766503183263 0.01154509852813081 
0.008472355965052759 -0.01533512275762659 0.006333017110424038 -0.006251351442314077 -0.002920128011219969 -0.00391861902045624 -0.008167926136759339 -0.003080098391638598 0.01079621768723029 
-0.01123784369949142 -0.001955628002673806 0.00164046049934511 0.003968430312460187 0.01336947758762258 -0.02073835095846888 0.0003478965247219414 0.002617243919025123 0.004365219104337972 
0.003917190533292634 0.01971037205978434 -0.0005667559136876544 -0.001401550937323368 0.002517062033902883 -0.0090707074702481 -0.004235112006451752 0.01425966500534242 -0.02530645050698675 
-0.02402875720675842 -0.009471493830246753 0.03743505311708003 -0.0104758035508629 0.0146553504847838 -0.01160903368373851 0.0002974121564529372 -0.001591430765365162 -0.004204703651304568 
-0.0105154757762359 -0.01075847490175894 0.02003879079332085 -0.009739021916138737 0.01188484574440596 -0.01005772125235518 -0.01004802605452585 0.01454973994035643 0.001479891080041798 
-0.002238852979171501 0.003459713908158678 0.002137173017184368 -0.01208902219459961 -0.008335117885646292 -0.02551040282153667 0.003072787322259306 0.006569289626840224 0.01364456289369656 
-0.008637575753110383 -0.02491602727155265 -0.0008350030540413204 -0.009898711630952095 -0.003433321791850191 0.00940320240065093 0.00675363516894984 0.03026083217478061 0.006080957565848739 
0.00469795705759551 -0.02180584210552224 -0.01724299157424294 -0.01327993719983443 0.0009320626889495186 0.003950728169959401 -0.01331692077965189 0.0140077594338073 0.03042650874437493 
-0.007232966983900277 -0.008625575624326049 -0.005685431970748623 -0.0131290028675928 0.03349234415121424 -0.02372119197626763 -0.01011627205435317 -0.01201250265833717 0.05227992401105878 
-0.008764415933054916 0.02493289684108474 -0.01020707330246629 0.01174292145897727 -0.01084973772656366 0.01576770473342156 -0.009454740578448575 0.009626947465926076 -0.01919605539100903 
0.007621560296649107 -0.01628017344735666 -0.0002855415913783664 -0.02131583320357373 -0.007046985727638047 -0.004748207783316852 -0.01042515320271944 0.0242679571404412 0.004312110531575865 
-0.008749888472062655 0.01223820046605914 0.01143456891260274 0.02226142284339765 -0.04168272342237854 -0.009363445991015231 -0.00300259389024564 -0.002288425997145183 0.01286763689381588 
-0.004562706611565543 -0.003639737846966697 0.007798142406039356 0.009145546368152849 -0.003789377377522149 -0.009486889327309728 0.003649688246349081 -0.00922646430834775 -0.02603129482583956 
0.01418360359813103 -0.004053694692588108 -0.01064363334917889 -0.02143367208196507 -0.02867072477607111 0.01657660405624457 0.0002812875045657145 -0.001575978409094631 0.02861052643306891 
0.007736268784037938 -0.01295410262468003 0.01722258964837334 -0.008077366643891991 -0.0004194463700650222 0.002281652613135559 -0.007263107341143159 0.0003327037387902244 0.005270394481122151 
-0.01125483639915002 -0.0005952948789916857 -0.01195605733672186 -0.02088426884515648 0.0299883637229313 0.01075891562038408 0.002662275829321948 -0.003518396836717546 -0.01099971571533614 
0.01254360983933461 -0.007988697162632957 0.01555291968789945 -0.01765412266440065 -0.01239484206967028 0.01007335813544285 0.01620815978727433 0.009030727757143277 -0.006867591613355161 
-0.005158958574400971 0.002450752159628518 0.009859916062904765 -0.008781391829293652 0.006625571458393953 -0.01801764456672125 -0.00493596450613645 -0.003733121245821237 0.002817247477315779 
-0.001594993935981765 0.0319276551240457 -0.008466832496566301 0.002128849757211785 -0.006510300173647039 0.001918599029730064 -0.0009844770217287556 -0.01655861189335449 0.005639322352721924 
0.004065028353702904 0.002325104641978914 0.008014208274285136 0.0005627930768663934 0.0003350998156526602 -0.02685931505585762 0.009445008344269198 -0.006375893930683401 -0.01576797422912774 
0.007042380224673974 -0.006399962820071415 -0.01812587215301652 -0.002387302210024809 1.653732758815134e-005 -0.01240516071707033 -0.01857325428825295 -0.007830402179586422 0.04149817493215864 
-0.02698008910904212 -0.007653530129718315 0.03535869699281032 0.008179372686912824 -0.01332476027505878 0.03232600649129331 -0.005564516660326772 0.002499634305506785 0.003934449472651928 
0.02362027633742251 -0.003506339958424394 0.009529555445557789 0.003895285217574871 -0.03460182792814023 -0.01527966639943386 0.01393738032123579 0.002538763955047572 -0.01095854415979365 
0.00932530736778045 0.004814172751359245 -0.01131597492430809 0.00632269668375228 0.003155338626073814 0.004223904964373739 -0.004256225977464411 -0.004620126648989899 0.001270276723212508 
-0.00421290473224622 -0.01467115985297014 0.02558809693959233 0.0120922220392585 -0.00105014079272762 -0.020158843643719 -0.02741944376757425 0.001853170666126118 0.02300399756341748 
-0.04492156766679666 0.003940188327438154 -0.01468177998283769 -0.001175359786385941 0.04053341821567011 0.02197114942409195 -0.005952511690034269 0.002444214889452948 0.00724344812220703 
0.01838901950199661 0.006971274410091192 -0.0005994204528959818 0.002823812286800336 -0.002402054960078784 -0.000142579709559572 -0.01074802732815187 -0.001072372606367179 -0.001908005005147441 
0.005792356862008658 0.00263408156540921 -0.01313606238177379 -0.0006656850304854857 0.03258623042874321 -0.02495970032883034 0.008376120071620547 -0.00497119978272499 -0.03332053453650155 
0.01859978452081993 -0.001117194950999572 0.009667703581727019 -0.01419116219733756 -0.01175610534567764 0.006258127609530133 0.01296732212351725 -0.004270811937652876 -0.02171581423617905 
0.0057271971786986 -0.01416912094107584 0.01679212425994976 0.0004440660403899004 -0.02822699485278969 -0.0133716248735954 -0.002021389947067257 0.00821763991164625 0.02356829227271979 
-0.0007836694117013747 -0.02557844396364017 0.03203515353456853 0.01506038787000572 -0.02380538935194796 0.01527904207596108 -0.01243764114986865 0.01468862076166758 -0.02029030976025136 
0.0001363226011684285 -0.000911348966966657 0.002539393544458263 0.001299415040003405 -0.01237616630479351 0.004317907024817788 0.01498245709018024 0.003462761051836096 -0.001714792831097325 
-0.00668945713409437 -0.001789590499002165 -0.001007505280767351 0.0165712111801253 -0.007964092584269179 0.008594904836495807 0.001398872741494304 -0.001451173454796533 -0.003480316873411426 
-3.742934372745129e-005 0.01856345218565228 -0.01594027619354268 -0.01246419637177052 0.004675560137154886 0.007782776663377623 0.006116559616262157 -0.003702299601078539 0.01237274732603714 
-0.009525865488968091 -0.006694761822416747 -0.001122430233146498 -0.003947987075861743 0.06099407946701164 -0.009429173205855936 -0.03178574995824916 0.00147860905966922 -0.01080854245440275 
-0.01397358241585562 -0.003786301591221303 -0.01918625171770144 -0.001842085593343328 0.01240241112400551 0.01165655932360114 0.02101469393638947 0.002994187459248929 0.01060249773901023 
0.006327021007723438 -0.004360152960375992 -0.004677812371445036 0.004874965711483486 -0.0107488301478825 0.01409995931951261 -0.007480406773815201 0.0007160842822323687 -0.003482247206248057 
-0.005029142514956245 -0.004144524887454511 0.04468045667507009 -0.007079635431159117 -0.0004713953571430166 0.01461138264104483 -0.00115392041370574 -0.01708154353382724 -0.03786071104449506 
-0.01047315693722887 -0.01185247762763596 0.02593512801490769 0.01026718235633576 -0.005472947262317144 0.02164131233379918 -0.007726347963011218 0.00885728533890014 -0.0381538448139803 
-0.003940117167106015 -0.006426798990858978 0.00826243335158245 0.01205783192545239 -0.008361576993663116 -0.003214154360262583 -0.003780307000660098 0.006189801889835737 -0.00209375815202279 
-0.01452461805056662 0.01006368006030105 -0.001025191089124153 -0.01715400260764087 -0.01416889362363127 0.003096025413708475 0.02458545494953481 -0.003614862267257735 -0.02348963492888931 
-0.004661131107676294 -0.002990562384778743 0.003241436985996746 0.02781360025646768 -0.007965350693477136 -0.008874278249067965 0.001616296592152417 0.0005509501620900908 -0.009438327259264537 
-0.01152330754909355 0.008720128591718952 -0.008324390104504358 -0.007804934309187788 0.01704311338564288 0.03118676378268484 0.02682078597368093 0.0003855102914409349 -0.009956423191494292 
-0.00260474606474109 0.01553569241581562 -0.00585598396576346 -0.003337181657938574 0.01127090187764106 0.01680018727912233 -0.004541493263651734 -0.01318247249804619 -0.01468756122215033 
-0.01024996800289744 0.01064661151708494 0.01960660673358804 0.001364188805031722 0.01495259347397884 -0.0008588980645431317 -0.009220141860122488 -0.001386733027104163 -0.02763092679619003 
0.01261719699676339 0.01573881975288349 0.01770400754320955 -0.00234995106455144 -0.01588734462979799 0.01359170097829317 -0.01056161137404061 0.003157826572610801 0.004912515684707719 
-0.009304663987799257 -0.0004608105163833927 0.01075438488885395 -0.0003973531790337722 -0.01502135231250686 0.02061363237446272 0.001701797888488234 0.01192085395190115 -0.02498311813781083 
-0.004420360230788304 -0.006338987786298539 -0.001160392954537497 0.00775721335527698 -0.01057993126912967 0.0212814345610674 -0.01203034388723115 -0.002264098040775705 0.003279000989668505 
-0.01742655571733408 -0.02744861509746344 0.006846236236108024 0.01745037695557324 -0.02691196573943666 0.01403577395433992 0.005467466019478095 -0.001631282227634138 -0.00730017766804037 
0.007471839211051655 -0.009918957032210157 -0.002246126904098996 0.01915869005385602 0.01117922102216719 -0.01388588305148248 0.0007413618023309786 -0.008172593637371843 -0.006575141917225458 
-0.003024259202639846 0.005385025880077611 0.007673330399857773 -0.01385212074504363 -0.008423430805349649 0.02858154754019635 0.002820571348557484 -0.003033978659856464 -0.04266766129024991 
-0.008432917878948964 -0.01957942355923041 0.003369620574672327 -0.01213028089791169 0.0235021560193002 0.02715558703459641 0.002209242801774255 -0.001454697603215469 0.01455447732184429 
-0.002566875510746353 0.01687241334879185 -0.00441513669741779 0.01603877362036231 0.01190936434638079 0.008819015252564557 -0.004395898087102426 -0.01343415500528414 -0.02149603821002465 
-0.005467950281592439 -0.01152680169144793 0.01465668535424765 0.01194609001480836 0.009861573635011924 -0.006834640732010964 -0.01685653411605969 -0.004297476915694393 0.05049425871634464 
0.01218383960073043 -0.001142811428101277 -0.01322486732806644 -0.002838757745134868 -0.00807736834468209 -0.00827971933482324 -0.002737699620103697 -0.001348239819457913 0.008471237918378581 
-0.02828500438847149 -0.002348102390364724 0.004857911862119176 0.03452614376669697 0.007567143191510978 0.005159997145961694 0.0009900255121730701 -0.005967084761159676 -0.001958393494682709 
-0.0117406791969981 -0.008237617961052766 -0.001828312909916032 -0.005203454253842749 -0.0009953103671504389 -0.0113195906387926 -0.01243624579218733 -0.003440709783521536 0.02418232136406222 
-0.001814547797387258 0.0001576768640255301 0.001443291837605681 0.01266333272269373 0.0158357987095126 0.03000579658056303 -0.004535296227328528 -0.004264240720093462 -0.02913022245561465 
0.00222409651824018 -0.008719834682955155 0.004016227876451129 -0.00116300828774616 0.01004994288678955 -0.007503089063166294 -0.009624955657877864 -0.0004914231220488692 -0.002873274090458119 
0.007472502718518607 0.02283379858637786 -0.004697643431080308 0.006300565295729215 -0.01126379010397343 -0.01043024610602679 0.003281323874577484 -0.01099372839214337 -0.01516643275108573 
0.002072991387569045 -0.005843128033290168 0.008329801157921445 -0.0020221165523816 0.006502233877017359 -0.004430902385940226 -0.001467608009160158 0.001363760822858109 0.01773528936004274 
-0.003792006145558235 -0.019116935941838 -0.003390515679199772 0.01384121614278105 -0.008747404539055498 -0.002772455397950009 -0.007227471273327248 -0.001418741626377104 0.01195412322971681 
0.00497099628061518 -0.002200732528713069 -0.00092044311479944 0.03219139551810673 -0.01404292864036644 -0.006536342857303908 -0.01189936408065334 0.01055683799192317 -0.01985980492281139 
0.003617419230785442 -0.000237561656620733 -0.01074312678616978 -0.0005895384327690212 -0.01721441331425938 -0.006170424668928352 -0.00835825115986326 0.009240163731852673 0.01847325313692323 
-0.01061013116340849 0.02030934483976495 -0.01330975350890788 0.01708529097329378 -0.001773638360694028 0.005676378071455607 0.006931106897492329 -0.006218164032879022 -0.008057433248800865 
0.008371118699681757 0.009204083738664637 -0.01184669463185081 -0.01186625558889757 -0.01507724600251468 -0.0151706983279694 0.004161043321301393 -0.001038078502535403 0.004716974804185702 
-0.008364887744106899 0.003381461897514956 -0.004719723061587493 0.0229951497224131 -0.01827762991261132 -0.01081041424911915 -0.008693264289553788 0.004739849015642387 0.000957497124167333 
-0.0004440339862091463 -0.001202509560549352 -0.03016602992682532 0.0049774482296046 0.01389542208284165 -0.01751384425549625 -0.01158057010592529 -0.0009993430046566095 0.0332983235125997 
-0.0004998365079734313 -0.01164902337523756 -0.003629461582365961 -0.002370319069488041 0.006483972230676273 0.0007396423999248041 -0.006008298661885294 0.0003970045712673046 0.01177728472369064 
0.02109086418096681 -0.01505689114271765 0.02482289990656769 -0.02024324309149378 -0.01330853724218064 0.01891516695147957 0.007858269642637257 0.004923965382088623 -0.003208435575553541 
0.008673178490600706 0.00768399995163307 0.02320099716736339 0.002017098970350336 -0.003781706022869829 0.007531512169788863 0.0008017344130072058 -0.007575551564314536 -0.02258401821736915 
0.004491850372067853 -0.0193057204828485 -0.01954483962939433 -0.01590998125400947 -0.02440805704013433 0.01902696846950752 0.01372030863413793 0.003081527741963987 0.0001076111585221793 
0.01202556817640212 0.002391666500187132 -0.001135820360119986 -0.01528209724205916 -0.00464237923873363 -0.003006915186615187 0.01585696425673346 -0.008793798455434151 -0.01375257009156551 
-0.01564982375742897 0.001144035594937433 -0.003541704259123748 -0.008360914173665003 -0.004406673946615944 0.003949380755264665 -0.006103971188584803 -0.001382903817003514 0.01963959634026237 
-0.01207510050572064 -0.001771963481856754 -0.01616773889459447 0.02056927343937151 0.007514567965957546 0.005827403203640979 0.01220718040963435 -0.001128160075204951 -0.0106713087974686 
-0.00936084993182301 -0.01347572010963424 0.02380501608316509 -0.01280889514230111 0.001404871711593606 0.01695980434840022 -0.001431116313399446 -0.002064393652587654 0.00830981835849184 
0.0003243499944175406 -0.0009737429006531061 -0.003108043889510104 0.004614216996551081 -0.009211637258430312 -0.02019227222596532 0.0178415812410684 0.01152570419851332 -0.003051862827703615 
0.004201968330853189 -0.01209905333131149 -0.01473933601393688 -0.01832211150745074 -0.0150528836103559 0.0361193078528639 0.037394636003282 0.01760601722599313 -0.06349759571706247 
0.01715432045686322 0.001394966168118361 -0.008621704612022003 -0.0128830969115054 0.01107327330774973 -0.01777494780673514 -0.01049814526744957 -0.003633341927442029 0.03881347751800342 
-0.01078033684647784 0.02169419431341944 0.0104044632229318 -0.005198395891977464 -0.00593611260139999 0.005619011847596749 -0.02291392028913328 -0.004910939226935602 0.03419286755296783 
-0.01988178460416397 -0.0004860421872438637 0.005887454703140628 0.00474070166917661 0.01176348023869758 -0.01138261432714242 -0.01041477192335913 0.002278378815468909 0.0226072283807855 
-0.005461060949468857 -0.005541764899832908 -0.0005552743781221933 -0.001344227035619349 0.03331907048874392 0.009296597297403945 -0.02076938193519691 3.057687276087371e-006 -0.0157099266410587 
0.001223742665535237 -0.01246635118725183 -0.006223938800980788 0.005442194622741933 -0.005227290735924493 -0.002223131860255768 -0.006385763488998397 0.02114181770006653 -0.01514888454568642 
0.01102387437969509 0.01669606602087639 -0.0002010648521311369 -0.02485967228750639 0.007997039346263854 0.01083312036733069 0.003278826563333712 -0.00690514565979418 -0.005123765409127588 
-0.0003162968798166303 -0.01489496448401863 -0.0163334220633022 -0.005928266555749823 0.004681862352399235 0.0004703041204776919 0.007184886676705951 0.004037162897134879 0.006356339677949813 
0.003232092073959411 -0.004004636323078443 0.002663625670406688 0.01549941560970189 -0.01970095776740807 0.0168895374476294 -0.0206881810051041 -0.007580155437172846 0.004988284880940523 
-0.00291570579620006 9.696840924942207e-005 0.003819256401240389 0.01661117992964419 -0.006707316166328154 -0.02160906783363898 -0.01096753664405457 8.394004699433544e-005 4.857041072220019e-005 
0.004968078569583076 -0.009067566719437323 0.01174978566313994 0.001471526908395545 0.01428833512140704 0.02633483875990806 -0.03195990584796458 0.000332988101760847 0.004050683079502731 
0.01234749838688682 -0.01807229074316205 0.003581120971000755 -0.01686186226548756 -0.005958308511057868 -0.004625835909034095 -0.00354307894341852 0.02750761383486074 -0.002527574924141391 
0.01611410858478624 0.008906850499656713 -0.01191916858176857 -0.007216442438272365 0.001180764918496776 0.005571741766008505 0.0009583634552230502 0.001094442872519406 -0.02896475842507928 
0.0006212508311359067 -0.002861013892494308 -0.01003466072964956 0.01503682188493458 -0.001870205879791835 0.01220892108398085 -0.0009448513075510661 -0.0007321649425990417 -0.02034202185664653 
-0.01114637513551305 0.00804769657039303 0.0141146801562628 -0.009911603339221912 0.02285971269799016 -0.04138603169791567 -0.00473695439093464 -0.001384671100313808 0.02145039966746205 
0.01352200267802761 -0.01413959389211214 -0.0366766565759806 0.009947360769612976 -0.01436279270298511 0.02141815643461867 -0.0004135374279324905 0.007808012854688326 0.02723626832311482 
0.0006319359520414594 0.008586012268970062 0.006619593749749767 -0.007175313132053464 0.00663346945591213 -0.02036931728967426 0.02081579050901972 -0.003919860338280516 -0.01112395801957021 
