solver_type L2R_L2LOSS_SVC_DUAL
nr_class 9
label 1 2 3 4 5 6 7 8 9
nr_feature 14000
bias -1
w
0.01260903897887844 -0.01949480935086101 0.004187838743488838 -0.006869389991603601 0.0004098337479146505 0.006435233761631558 -0.002446778163486064 0.01068012565407041 -0.01266609100677957 
-0.004550405767297726 -0.006678868973249496 0.008946853747914305 -0.008743843566808369 0.01006438720085181 0.01561396176778584 -0.01022778011471494 0.0006467244138856342 -0.01807216894097312 
-0.00113096846182038 -0.01470821301912738 0.002749797264464397 0.0006448223046124714 -0.008511881387080325 -0.0008686096419197427 0.01042160836449558 -0.002324175076632183 -0.0002776921933459176 
-0.00991590063183795 0.0003480063531707319 0.02127491301621243 -0.0007374186761401774 -0.00709386223613453 0.001954330472067623 -0.01181538612497917 -0.003055389186174658 0.00207121886000224 
0.0160619481786307 -0.003251788424830908 -0.007023536224597025 -0.006274010518774637 0.002471441574750233 0.005019107708267004 -0.006080588061339539 -0.0003858526254038219 -0.008737394456847328 
-0.0019144791583712 -0.006141568074192245 0.007940856363324063 -0.003841158314035819 0.003529668741337109 0.002065247366235467 -0.005277251570500123 0.0001404687509242723 0.001235796569071747 
-0.00765634489134432 -0.005346096849022898 -0.001694316540064043 0.006941607360813383 0.001826620559882735 -0.006217856085245441 0.004836842059931441 -0.0001829032715634031 0.006038544811156385 
-0.0004823954236390418 -0.0002628378335348315 0.001427506915951003 -0.006050955134689578 -0.0008133189902673531 0.0001183500502157938 -0.0004313943948518441 -0.001226598870165856 0.0007233577919111641 
-0.004654843699323418 -0.01920229364280703 -0.005617929159102138 -0.001232263140936606 0.006261675899928793 -0.005507120597097208 0.01136010490719779 -0.003387621203982099 -0.01248662638417466 
0.00817859553159205 0.02558610567288722 0.01988557024845013 -0.007431343535458811 -0.008169459768928458 -0.001266151911960487 -0.005075193952010317 0.00253443541529882 -0.03336115570724229 
-0.02164507332941965 0.0003494240019697917 0.003232458550169107 0.02057136593390407 -0.01622177548322012 0.01135956836863604 -0.01267424124590503 0.007715060373359767 0.01430688665712602 
-0.004590239241917626 -0.006190888712912015 -0.00438737479568695 -0.009771803660183135 -0.01167281374683245 0.003242341934123737 0.002025855294106899 0.00333684873489578 0.03670363158239177 
0.01359829761781163 0.005848430021829986 -0.01958461243775587 -0.01123706178259933 -0.04036851862936571 0.003431925471130326 0.006098428288497613 0.004384513841533805 0.01420776528189108 
0.009851915205975181 -0.01182669246049909 -0.007398834931834447 -0.001860246808582409 -0.007853022384903839 0.0003017517649833044 -0.01203115695217373 0.001147918316014485 0.0105467464154619 
-0.003954636472015036 0.007385497589259467 0.002376287342352881 -0.01117069048253504 -0.007138401780680697 0.005841263552396998 0.007825534220534372 -0.0009082470154690537 0.02221642396579332 
0.005240861814637684 -0.006703692335723367 0.02655909139415807 0.007078141146184421 0.01419343698384238 -0.009613517802952953 0.003037007187402041 -0.01165152445873416 -0.02488726808346404 
0.004564476947189574 0.01440436690487232 -0.007957214529041334 0.01282292906470166 -0.00154674566486774 0.001548061141181093 0.003394686739810715 0.001330778103012426 -0.01148044242187674 
-0.006244222667628477 0.01557855566700318 -0.01531163238345016 -0.004819360378742955 0.01244836438125092 0.006011089067154712 0.002638956416245773 -0.005051269246487024 -0.008325710521868798 
-0.007500628784244448 -0.0012668617667998 -0.01390628223665924 0.00059123879700579 0.007253711135406314 -0.001383923962265496 0.003154311104830347 0.003623781048484105 0.0001434441680117633 
0.003240403371271375 0.001232353560325882 0.02976710612982593 0.005242207311043709 -0.004779652234589001 -0.006119964773188327 -0.005497402395646233 -0.006872940700052964 -0.006959912548703122 
-0.01120793392468028 0.003854103747413222 -0.006079467766477728 -0.0002017781806333053 0.007004531299925319 0.007636959096367548 -0.004944365000785247 -0.001120830235464082 0.003074245483048359 
0.0003481093857783381 0.01270781171046653 0.006333476184092887 -0.009018489438442596 -0.0005886997586928462 0.01143703074829264 0.0008569528050888961 -0.00853988721435286 -0.01177635199036575 
0.004273846997896353 -0.001720574297972513 -0.006991101715541214 -0.001542695324978498 0.001779881260815448 -0.0008554588826192896 0.007024942885703667 0.0005646316318709139 -0.01591534486075388 
-0.007490695281907754 -0.01636707089376204 -0.01330063980607887 -0.0103153421795816 -0.001725130706084062 0.0007222224069335845 0.01692603861334822 -0.001526236624322698 0.02119706588246138 
0.005520652926521702 0.003139382668052162 -0.004453857707589328 0.006780974454528928 0.004180808746232099 0.002577786744480562 -0.002700384684004191 -0.003538801879795418 -0.01236422407409155 
-0.002791488672060491 0.007705015680719736 -0.01765920246298889 -0.003681001133098806 0.003972896006127384 -0.0002678733967781067 -0.003281464280973916 -0.007170679736197288 0.04034835115602724 
0.003057210505390296 -0.01004792136505127 -0.002686859516589136 -0.005558903283324713 0.001577748804835448 0.007855991538715412 -0.001410035288751773 -0.003925542911024762 -0.004041749221349522 
0.009216067078630808 0.003686865641278513 0.002352043825810196 -0.01405433044735738 0.004761803201686745 0.01169678218767068 0.002409825930458762 -0.0009821680496530844 0.002724611706724773 
0.004598943717508693 -0.01675385109831531 0.02143185229328912 -0.003258953086705554 -0.008641015861803988 -0.01068449978014141 0.003752177626245582 0.00179670736488235 -0.01608944293091011 
-0.01618372398166574 0.001145256426383833 -0.003419321674227901 -0.01725044965209318 0.009399469166315259 0.002571769106217432 0.05064993279070725 -0.0008936607611075585 -0.02336143519433358 
0.006072823916779971 0.01644239740818428 0.01558240576310738 0.0005583099522527473 -0.01106503250809067 -0.00433210847357327 -0.01012535135565691 0.0007985065294620567 -0.004543599443973096 
-0.01552600624209925 0.003922399240768237 0.002791921169123311 0.001264616525704617 -0.01008634082355074 -0.004495341056755938 -0.005530091546659856 -0.003492623487988125 0.01539579281756995 
0.02396453755693328 0.003949409127238172 0.004192309775822078 -0.002902394498636 0.005825926145802918 0.00398571105102501 -0.01295166730695181 0.001091721033492139 -0.02815715910337842 
0.006043307682498617 0.0004090756018952894 0.01067030277779534 -0.008466412732444117 0.02231378226874076 -0.008473599733611613 -0.02339668144687904 0.002496269776422758 -0.005431402439804902 
-0.01073501864136897 0.05058901706213436 0.00313261259150512 -0.01494171396048633 -0.01323642892117229 0.01060651992659466 0.001019317734015705 -0.00213797014606231 -0.01330691332882727 
-0.008859344867809238 0.01246542355986628 -0.0145682653943578 0.0003661180598840122 0.03122968205148426 -0.002154023379497508 -0.007430780900915819 -0.002853737300626377 -0.01635596476543583 
-0.007956011904637152 -0.0004529675791770227 -0.007761702861398132 -0.01406840395159426 0.01320685819461488 0.007763499507193405 -0.004348663248434945 0.001654879561017492 -0.00173137610974969 
-0.00458344423841246 -0.0002418729269260016 0.007389076769419065 -0.0009536653246410618 0.007113427150198093 -0.008678748408972667 -0.002219829446659901 -0.00454614250062349 0.003361779922182485 
-0.01451821352614496 0.006940135969713082 -0.006958085395008934 0.004668349063154542 -0.000767087271203219 0.009405676734399784 0.009896518126900258 0.0008341976581699518 -0.01192998631455799 
-0.0008879090664225372 -0.0109319132006692 0.02359631872552303 -0.001853095687541568 -0.009409356267078402 -0.006695988857185762 -0.008735699968785229 -0.003318827057795104 0.01498447280448203 
-0.006124765672842409 0.01215592415483045 0.006753565159319744 -0.01045103885591656 0.02146911445365364 -0.02180168815660026 0.02398563357203224 -0.01085415942425787 0.008277212874673834 
-0.007528474370532354 0.01117817178219657 0.01052289717465626 -0.01317293867998178 -0.002815538518152285 0.002168012743012476 0.01570924654622984 -0.007584905298941522 -0.01202737020274082 
-0.001729782792310855 -0.003537617692102465 0.002636864464721671 0.0007626508332134013 -0.0117800667653555 0.004779805236954751 -0.002605106499319474 -0.001335089794631674 -0.00343802948593303 
0.01536223827255187 -0.0155969611140858 0.0001321351134453162 0.004794554973353726 0.01689676714260062 -0.01203503629858852 -0.004188311896772351 -9.614547885589384e-005 -0.0282327284678331 
-0.00143131676703173 -0.01134293681531524 0.01593580367913701 -0.005574181232468153 0.006649117537190732 0.004753364968896611 0.0001719468753874648 -0.002072389361611744 -0.01469243573040498 
-0.009267027577095278 -0.000250297672090326 0.0252422802648197 -0.001602278875149147 -0.002466294134973513 -0.002797727113677894 0.009243362893825194 0.001270963220500812 -0.00933052302721186 
-0.007482642920192932 0.01253860223163122 -0.003729230836269532 0.01927085593765869 -0.001432647959704648 -0.002719645287427809 -0.002520222074256018 -0.005084038991213475 0.0007539205847585559 
0.02790519460406142 -0.003478053088854206 -0.001767501214244923 -0.001528242396661218 -0.009180837546035823 -0.0009388408343309664 0.002679909773557951 -0.006642106270032498 -0.01711067610184087 
0.003645566563638571 -0.01382544420261122 0.03142053419084441 0.0008618792517099162 -0.00791542427676081 -0.002575742378179429 0.006226805991873235 -0.00503172334984485 -0.01013005585858555 
-0.005528784175932762 -0.0008361219282138358 -0.01255331764042744 0.001030436592728122 -0.007343348997149359 0.01063900422810707 -0.007762055881551335 0.005153334332700728 0.006140891778839162 
0.004508243325798994 -0.00714069799178673 0.005568531680093138 0.005576755434260295 0.0006836898366176946 0.004573136838919317 0.01110079786755376 -0.01447524721042903 -0.005500553217208422 
-0.02839310436742727 -0.01483196878291997 0.003333534736132071 0.007554110540262515 0.02972108835727909 0.002660393492501125 -0.02500381516740119 0.009122423967931894 0.002253467024957733 
-0.01786510233183683 0.03244835858175237 -0.011663397667823 -0.01162153089277494 -0.007545032929031519 0.001118681318609048 -0.003478884487362223 0.003559556789695568 0.006176851629088132 
0.003959745647492489 0.003011650345419937 -0.005160352504825237 -0.0006220197846110993 -0.006689303061053361 -0.00102908034728862 -0.007207698712495355 0.001270712944068741 0.01250701561612486 
0.01627931257923759 -0.004663764006540672 -0.00107686698039346 -0.001885353870718248 -0.02115721389253572 0.002359391101836227 -0.01644172257305327 -0.002288786126545444 0.01207824060234198 
0.001210806898038843 0.01222394391608093 0.02180138387423205 0.0009957807921806784 -0.005137878298044506 0.005895110971458213 0.001643636574756693 -0.0002626256414854765 -0.02021497494721321 
-0.000815963477740615 0.0005582005190413996 -0.004225413466121655 -0.002769207365220457 -0.001287471775548259 -0.002021694934661407 0.0002451600809104896 -0.0007321791134853677 0.009828073530636198 
0.009916518730429709 0.001957280258055982 0.00432782974945143 0.002240371595581285 -0.01766792880571236 -0.002065391153484076 -0.001402952088113856 -0.004268025381038471 0.003242636774640522 
-0.002288435084227524 0.008980217289068858 -3.325083934345817e-005 0.005884396481943252 -0.01145190916197714 -0.002816079960230092 -0.0001626902676431051 0.009850415608740937 -0.02312329603767117 
-0.002581702294925746 0.006336984129106608 -0.02008984498922312 -0.003035721376309729 0.02239195700502281 -0.006852413187846352 0.01844324447397064 -0.00309292747157529 -0.004140420098614281 
0.003029914590399422 0.01961619340334267 -0.003364966476049687 -0.00205014943174678 -0.004900947748243264 -0.005327842707055567 -0.007128559047647579 -0.002932717170182005 0.02020756835653798 
-0.001205151138842258 -0.01457517861018735 -0.001188715812654361 0.004655229126593623 0.002287575982800156 -0.003132731769255567 -0.004997926412420439 -0.0001025508874538271 0.007054124448770518 
0.003520191486585342 -0.006558655183896488 -0.001274235513027483 -0.01981325929783926 -0.01267697214248952 0.01180469214169177 0.02573549197333899 -0.001883428155679652 0.02146304960716837 
0.01880388682656964 0.004851089164897229 -0.01629742902492404 -0.01044868573451189 0.01063036689047344 0.002035832878025015 0.0004408269891920462 -0.001781219102702321 0.002427436330537985 
0.01526057888038486 -0.003439316771566031 -0.001994347737105281 -0.007222924457755155 0.001646577688678265 -0.002081663078563135 0.0213534643300482 -0.009156900764228735 -0.01266010589981209 
0.002631058892819329 0.0006958200561812018 0.0217054437053211 0.006700794405893778 -0.01713446595783482 0.0131604002693324 -0.009880976757809731 -0.001432693299737006 -0.007981859769631677 
-0.002429582392226785 0.01077340396716094 -0.002135300982497613 -0.003576433663873779 -0.004511474567404541 0.007635073572798163 0.002849481499636955 0.004485860101474256 -0.01243513951243325 
-0.0001832060838883925 0.003396535800083405 -0.01616532342472192 -0.002911926250295176 -0.01019617275930052 0.002515263313903817 -0.002862092668807357 -0.003250981014098637 -0.003500371881627928 
0.001988974223110087 0.006642803946455209 0.0101795626285853 0.004298727614439278 -0.02219230861068016 0.002398347540319186 0.002507205673892135 0.003160629022178939 -0.00463605085648343 
-0.001837102662027314 0.009221644855894206 -0.003937787697315763 -0.001066121707407027 0.009588812347589463 -0.02327211626845178 -0.004625413896501293 0.00864706070652887 -0.0004254147827744663 
-0.006744989428521106 0.008456934555131886 -0.01496274591126452 0.002701207152971461 0.01345211671559726 -0.005594774435456494 0.0004042065291274733 0.002391500911158975 -0.006987697764714673 
0.01190302702667935 -0.01870083655152318 -0.01526727090571817 -0.001075539845861995 -0.008466087681773741 0.00482945446989793 -0.003902502004828498 -0.00490518832504431 0.01494232524970025 
-0.01536079361262991 0.01536255560013526 -0.002500318045257674 -0.01540364946903452 0.009322139046867007 -0.009837674774618471 -0.01044274996048733 -0.006496125864026998 0.03012203319761429 
-0.00516633640883906 -0.004775760553284472 0.02858431390513975 0.005941216776718502 -0.01148098822515959 0.003509768741458397 0.001107309288212041 0.005103227448509024 -0.02477124953039262 
-0.005594895454293228 -0.001143671912790196 0.001799529308898927 -0.002737043649653873 0.003758012532245257 0.009308899033506452 -0.00822440643291021 -0.004822751770232111 0.01120804395652019 
-0.03686354988229047 -0.007620614254420185 -0.01808372497762265 0.0001556286300084498 -0.01052836643545623 -0.01455203606635541 0.008721937726892762 0.008919157404483596 0.07154808277566997 
-0.01062634186549395 4.90684972287737e-005 -0.004705615247759848 -0.001983016056144685 -0.000915509539993356 0.003504096587742491 -0.003666712239703768 0.000631879580040988 -0.002656332084417761 
-0.0094097004695871 0.007137196165724592 -0.004758594523208307 4.418727851076347e-005 0.005117317182102911 0.0005033774961230282 0.01402739364365544 -0.002955440809915345 -0.01045167981584082 
-0.009132629575660087 -0.004227452031899589 0.02521644050907291 0.001729777906652744 -0.004516002932954687 0.00328430673515973 0.01574888603973881 -0.007073744312219879 -0.01066801281727158 
0.0005447943895323371 -0.004434203504912163 0.01682033583559185 -0.00187720353979649 -0.008732479746951117 -0.002448568226426172 -0.002729091234266903 0.004017224336665906 -0.001115584180227633 
-0.01187905786780243 -0.01337334706993849 0.006832387082510045 -0.03254996322156156 0.00757701208914649 0.003565550843938958 0.04022134576439112 -0.0005226903782672154 -0.00935815444976288 
0.01513440296072767 -0.00703899375511725 0.01183478312250727 -7.697737052737158e-006 -0.00354191313175912 0.01411857526372606 -0.009129313605536694 -0.0009154904454771574 -0.0204264372641761 
-0.00271445689755004 0.003655776140121582 0.0003779311200452113 0.0009947255502478828 0.02073282462066473 -0.001173447298663798 -0.01168541205870656 -0.00804243616989739 -0.01628257405965596 
0.003866648809410495 -0.01286599891539938 0.01147577462025715 0.005283138903626067 -0.0005130247740089608 -0.002435568811974945 -0.007885191053836817 -0.005083380239584131 0.004481533060443724 
0.00783508802608718 -0.0002333966802420994 -0.01367771913891172 0.004506519241180412 -0.003600376943482604 0.006222147848059779 -0.01226280914918572 0.003787835353631553 0.006709806418589835 
-0.006183588180979095 -0.008225563926404604 -0.0009870175897119878 -0.004052244338218745 -0.004270249546271223 -0.001254033850860299 0.001838297973666153 0.007074597547356771 0.01025891022360439 
-0.0098495235290315 -0.008230750354465188 -0.0203592302644291 -0.001178974508267463 0.01651807109070293 0.006403458199027999 0.01245714045806564 -0.0005410108957293438 0.01192120386732061 
-0.0008704116902201819 -0.004307764409764931 -0.01293325915189385 -0.001082379711946839 0.01506576051733467 -0.001215777069000006 -0.003161528750724545 0.006535463447383025 0.005057706786176656 
0.02821395102171315 -0.005941552276792463 0.002493957517476322 -0.01141044577398411 -0.01414082631190759 0.004931081984627925 0.01536041080522036 -0.008074002197112625 -0.03205064977058964 
0.001269850152004183 -0.001173793210494948 0.01173755989656942 -5.977673516757299e-005 -0.002253158156601552 -0.008366430711465783 -0.009012695323463894 -0.004289747795915677 -0.009650538903015874 
-0.02279976658985343 -0.00534422329811333 -0.006635005252777496 -0.007775174602979945 0.001954057719970882 -0.004105600655860388 0.01263633570328564 0.0112761553172488 0.01307382208112903 
0.00752203768171898 -0.00823002886624929 0.01120966337499089 0.001177955089647689 0.007517674422289333 0.0002664428497903709 -0.0131588486676734 -0.005173996328008053 -0.01035377437891463 
0.01697922861988177 -0.004864713860612467 -0.017878970287467 -0.004659860201646286 -5.359767078956229e-006 -0.0003572943895060874 0.002021927065505834 -0.007576151213399707 0.01289118223778397 
0.007191273890627014 0.01223135412555006 0.007862878313308046 -0.00259535390303208 0.002353706236825334 -0.006320260989801756 -0.003157833108729223 -0.004899605155102103 -0.01101741226495849 
-0.01416497702254522 0.001532449469325809 0.02770235038644527 -0.005552279642597144 -0.01409767272904429 0.001980991967574628 -0.01089304945819837 0.0002954406867958739 -0.01050187720723316 
0.002721209352344478 -0.002709968082477289 -0.0001439813161879133 0.006462768426469373 0.01352563658350505 -0.006979076292344887 0.01348951625230514 -0.01215414866719296 -0.02711223946325216 
-0.01166776183612363 -5.996883073672598e-005 0.03479881565832363 -0.005346508243884859 -0.002554780040457646 -0.003555117055416287 -0.004214515561570835 -0.001990007995990021 -0.02092187260327661 
-0.005064631149187117 0.04111250795220847 -0.02164951481998525 -0.004538684075435568 -0.001365725911989291 -0.01627231777982155 -0.004239023889731037 -0.008408179117539393 0.006790045875481374 
-0.003917324054571847 0.003295148993907724 0.02291415932637672 0.006416056157735767 0.005710880212093664 -0.01650615740741454 -0.01025723454555123 -0.00374491851010622 -0.01748220394120191 
-0.01686956454496168 -0.01732650164752758 -0.007962419059184666 1.417352932399412e-005 -0.009377152144193865 0.008738412965129104 0.01536249339857212 -0.00426098481795854 0.005960965230368711 
0.003978460141439083 0.005700388240308062 -0.03008842200592078 -0.01364833271137253 -0.01450877503523711 -0.007206546061020868 0.04863628131640557 -0.00122259754441146 0.004097121348416423 
-0.006369747271823142 -0.008955936902250749 0.02358729257272491 -0.002186496252399895 0.01024195597553764 -0.0001681839083801967 -0.007798791477516852 0.0009685538650479184 -0.009375224746365214 
-0.004613017785847685 -0.01366902179950963 -0.01349258673983773 -0.002432531748961715 -0.003729697748422261 -0.005508417587373739 0.01491180604494833 -0.001768619993235553 0.01957329817698363 
-0.005510553502254349 -0.006711861209735755 -0.006504318403224875 0.005488627647670489 -0.002500551090874136 -0.0009801284162950766 -0.01406219394994123 0.003316207431791277 0.0166986921866853 
0.004048516902670141 -0.009414286266609345 -0.00738125858195897 -0.007624392059317526 -0.0007880227042720767 0.00990760586967435 0.005134908776151367 0.01797336233930523 -0.0007994477201426369 
-0.01660634984010453 0.001102329037242647 -0.002440659568467408 -0.005775138945126426 0.02739537246715918 0.001994113100408322 0.0004322017012423319 -3.809774787674503e-005 0.001713231987822273 
-0.0228577666374728 0.01266132395040092 -0.005935123081281928 -0.008089107574324716 0.009721058738536646 -0.01057199665096354 -0.007814868305457509 0.0005031182212260831 0.01916652391769242 
0.01198391008353405 -0.004472790406456042 -0.005059186993434552 0.001308147658900916 0.002754200650928344 -0.0043517785627627 0.006327192997943506 -0.005748203930920562 -0.009965293522457864 
-0.002802880884921367 -0.002253167579836371 0.001844896194991467 0.004407426920095319 0.004376782995253164 -0.009187910450318271 -0.002029259173521225 -0.002155515805095622 0.003118720112739624 
0.007023211269837075 0.005393417139594478 -0.002662919040768743 0.003817850997541667 0.003268577928840452 -0.009642560003236348 0.007221295256529602 -0.001154511621188444 0.001810271938148681 
-0.006075713030815384 -0.006804124533251472 0.006408744018852157 0.009679648687542451 -0.006347816627021895 -0.008851497910702921 0.003162368238264508 -0.001399538583529268 -0.00124249690485003 
-0.006249219181916279 -0.009005786020597746 -0.002942846108946324 0.01218543116714361 0.02409275043127014 0.007717355053834384 -0.01903959261636452 0.005714879264519834 -0.02853766298465101 
0.01126207639277129 0.01463593925307211 0.02981147878193197 -0.01056685127716181 -0.009663304565157491 0.006563485178488451 -0.01667331254619146 -0.00319088308157358 -0.03259476647253233 
-0.0176942938394945 -0.002597338967123506 0.005822954816677162 -0.004772549840517036 -0.0102266345469862 0.001932480190433997 -0.003073176273057328 0.008110751440878141 -0.003406797426131173 
0.006199737917706569 -0.01262482771777028 0.0228182441300758 -0.0082005181380098 0.007519675817462774 -0.005140900217616359 -0.01008191962722454 -0.001245842716873975 -0.009080362783444802 
0.002790408003665466 -0.009062622622904084 -0.003873264201748705 -0.00148273766691531 -0.00655974595450669 -0.003265539576043004 0.0202016534199959 0.001484932153525186 -0.0001942219518623923 
-0.001755738309285834 -0.0002345914764690356 0.004608133938777612 -0.002264764082359788 -0.01147952718329123 -0.002347663001681822 -0.001020326811141207 -2.479829977035966e-005 0.0102172009482155 
0.002021928473933439 -0.005447810617867985 -0.005931076645077651 -0.01103562263422685 -0.01694229005668107 0.001985677021343647 -0.01830576402645235 0.001349546428056121 0.03856244658172024 
-0.009137731235215723 0.02575473409813258 -0.007032868844702331 0.01369695301442092 -0.003009061706551621 0.00122048911151413 -0.006667814745466469 -0.001681735581458542 -0.02121397442035496 
0.006736255150687091 0.007996088920802112 -0.01181566402225742 -0.004068534655190635 0.00271905825795162 -0.000582951626053495 0.01228138376480497 -0.009346105255866153 -0.003837952378513401 
-0.0001995215568876642 0.0004712594813978651 0.006122008999944226 0.005381232776731238 0.005805682410280425 -0.007259782075892912 0.006867865349490229 0.006058315443594072 -0.03381254277352172 
0.008808558914742456 0.0007059967048428902 -0.01380446687672593 -0.009814101298322553 -0.01296517721049617 0.005257989725525685 0.009892058931773555 -0.001476194260283036 0.009599016173120964 
-0.006770544505006844 -0.001398554568964825 -0.004756556620205214 -0.001956420815375014 -0.001662669972449738 0.0001960330988717639 0.0004320711708752479 -0.004703681079163751 0.01689864011875709 
-0.005774089431406199 0.004234947790385453 0.020635298777946 0.005277409879655965 0.01027584149301126 -0.002082106040192683 -0.007423533609762484 -0.003809231179875348 -0.02703185823170517 
-0.0186703940896671 0.01421867184664986 0.006208462999549472 -0.002601212723994217 -0.01673850392177933 0.01907222480640759 0.008141649186700651 0.002828741605258654 -0.01829621041478985 
-0.001293315162968248 0.003945379947082559 -0.01884220872245489 0.02528952110270972 0.002334925448534739 0.002291359145800338 -0.01590120314671209 0.00562269937198504 0.002520836504529059 
0.01433933224153759 -0.0001771171592139536 -0.007277376626899809 -0.002535610175892252 -0.007588713203209844 0.00332309967977557 0.0040481293460408 0.001539299143172948 -0.004722059012612043 
0.006531634373240679 -0.01540328431508872 -0.02117301816564577 0.001034023982984952 0.0008926102507939608 0.00869946695030629 -0.006754630852321108 0.007261355864057599 -0.002879643826494437 
-0.03258741646997016 0.01157557044755374 -0.01831742488012406 0.006350447185634221 0.01836071256003094 -0.004139330710489311 0.01439737548558105 -0.0143748660042253 0.01912260026171677 
0.005664660607563439 -0.004186575173557479 -0.009005822230465338 0.005050641817748509 0.01907979412006988 0.01274998459528394 -0.001891722899413825 0.0001145515979540546 -0.00778596954080176 
0.003637031811130495 0.00924973212007932 0.003324042691738603 0.01994022997437116 -0.006484683736872101 -0.002311380245979734 -0.008202487413102229 0.004893980597554812 -0.02328757555659543 
-0.0080766972704596 0.006747071565463081 -0.01095722880550665 -0.003059485205687086 -0.0119507543418644 0.002140962880875354 -0.01341095611690461 0.003868659491379964 0.0201435742172914 
0.003679367056472906 -0.002422792364474484 0.001671777124015203 0.0008199318797715726 0.003965238730861197 0.0001691091208511757 -0.01619894991660095 0.001948936890046067 0.008734475225436618 
-0.0002002807930919682 -0.001114185534560063 -0.01194849431705122 0.01153313595138266 -0.00465069393272127 -0.004409275302349133 0.004123265526060113 0.001816536077690514 0.008338493092643817 
0.004118424266585995 0.004865059338604637 0.009606471288543748 -0.007715766346741918 0.01342109423236443 -0.00900383616176254 -0.002922559857128129 -0.005044388698903455 -0.0002036317231620184 
-0.0184429476100949 -0.009566383874432998 -0.004435708635959998 0.002118459408072362 -0.01088555660349946 0.02255004037523001 0.005263086430907497 0.009063360824390363 0.0157146246937722 
-0.002621214715635522 -0.005920530811610245 -0.002603420825511229 0.002385103189491198 0.01097112264806368 0.006491004904814557 0.006111174375781011 0.008161463738946873 -0.01681315028613713 
-0.01074769832838753 0.02006581253477755 0.007717087798563854 0.02270821639099209 0.02299745513762721 0.004004682161569696 -0.02459640937948564 0.0068355364159703 -0.03300499085814791 
0.01023427199767001 0.006515072112002855 -0.01803967499726585 -0.001160835208630181 0.008446589448021591 -0.01095235726585645 0.01057291304228981 -0.003955955866754223 -0.01215350933660641 
-0.002898460600994457 0.03086114320395547 -0.01807603414979261 -0.0002118127391974743 -0.008187713562702504 0.00966027796371894 -0.004599197836907185 -0.006198235214753219 0.006997400197088269 
0.0006989100541556918 -0.01439973212526351 0.002789403902657107 -0.005409213044531854 -9.693956705909651e-005 -0.005897996051249196 0.0009476326081682455 -0.002127276710459818 0.01917249139836049 
0.005288625053887682 -0.001301695095485201 0.004538816305005397 0.01507017434136625 0.001989900274002917 -0.004952288740437508 0.002127084584778147 0.001078294209820399 -0.01796359758427193 
-0.003395098442527956 -0.001476277194225323 0.003168470269534609 -0.007689159572533594 0.009063200842015826 -0.004283236744507767 0.01737961603972475 -0.003562783131903891 0.0001852768999290025 
-0.00714908299881858 0.005456754703055377 0.003256869753133329 -0.004667782150756287 0.004893206882504274 -0.004990260365978914 -0.009907401058467128 0.001865911810077935 0.009799761380748675 
-0.00172741422681703 -0.001429256459705913 0.00962285903634081 0.006572717945991242 -0.001921942574031911 0.0006695518874038848 0.002782595962965987 0.01079194411282314 -0.0136883915493192 
0.002406251170435368 -0.01422574054945668 0.009625622188231132 -0.01021539433740781 -0.00607219864948427 0.01833311677083319 0.0004385283124895224 -0.0005956046918229507 -0.005374992196847257 
0.001548751829773381 -0.004859063140827626 -0.005706402807737604 0.01173582516899222 -9.283061842168335e-005 -0.004924513208354727 0.01924963562450285 -0.006013649377199465 -0.002030308759459474 
-0.003093366991386067 0.01763314162580302 0.0005292585410824871 -0.01175676921643053 -0.01632062506541149 -0.003051344153940469 0.002081938112139113 -0.0005420983976073824 0.007583946264048565 
-0.002746643938207643 -8.97754927193217e-005 0.005959437044448256 0.009516882238143558 -0.008654305364620476 -0.001240485231829667 -0.02300529992145023 0.0183912596485538 -0.004632451058856594 
0.005335260517958971 -0.002773749287021461 -0.003849193842293928 0.002897730759179238 -0.0006889268615220504 0.004675102643878224 0.0001634935963669693 -0.002716016109097641 -0.00259208210046097 
-0.005891329431403966 0.003503391266638855 -0.01889166704992419 0.004762870640257994 -0.002706290568033244 0.001498802731140539 -0.004607750800829853 0.003573384840284887 -0.006548526638090158 
0.01168089193794976 -0.007857440374068712 0.008511468718159799 -0.0005465397711803119 -0.002484798900820514 -0.0003365075711628295 -0.0250057973845022 -0.00141952611639095 0.01286270862468336 
-0.01014514595955977 -0.001802192422163735 -0.0001574932730610476 0.003701193624977464 0.001929652431833136 0.003997529592080935 -0.004955186894917181 0.0008038791149640681 7.045910996823513e-005 
-0.01168471607441972 -0.001873562294090911 0.001874980323039175 -0.001615992760577223 0.03325431433942701 0.0003550970415252843 0.008699664926480621 -0.008615059613089209 -0.02209118224507725 
-0.01987853164580352 0.02867967174983069 -0.00745189799618033 -0.005022659296314096 0.007367608588569347 -0.008587079482507814 -0.01008070648411955 0.0002681889846550234 0.01493789833258547 
0.01249301468881335 0.002681708118390127 0.003773247624485585 0.006278487081582834 -0.01061052578900468 2.205246527995539e-005 -0.004885955340888475 0.004003531489324162 -0.007719246040409393 
-0.005135063897055831 0.007863773589395042 -0.003375852616308481 -0.01245825385903968 -0.01732518263342248 0.02005354528842123 -0.006217166647135529 0.0007100051832207952 0.0008893605018213951 
0.002643307178671581 0.02404308914177499 -0.02380692823487394 0.0004517178548388817 -0.005211030946847632 0.021022544368243 -0.01088721606607977 0.006492604999684398 -0.02262888542429347 
-0.01558219801064586 -0.01040996508150845 -0.006128338220979417 -0.01140739684604051 0.01704520984359308 -0.008982082450367145 -0.008137530199325732 0.0002531391862057044 0.02605703309526831 
-0.01831465549963183 -0.01452883390111976 0.01142712919190024 -0.01379376145547582 0.001754706459372734 -0.001817166272717483 0.02744886475415108 0.005290183360079409 0.0009238430701069603 
0.02175975465561542 -0.01459544599535993 -0.01407212082542692 0.02496602506358207 -0.01260780205492289 -0.004702394238750476 -0.02921620718360686 0.001221429001068887 0.01580765296811799 
-0.004326308342633645 0.007723644579438517 0.01114866036097797 -0.002437830636234548 -0.002302560619906962 0.005736056982325058 -0.006857400809401256 0.009288060275027982 -0.01769226616778563 
-0.007339147562909344 0.008386264187698136 -0.01112496201262602 -0.01110107481916209 0.01352010821904362 0.003052535370500905 0.02110241130635545 0.003229776573925217 -0.01428816552131114 
0.006712268763413002 -0.01215202666653054 -0.003313466906288787 0.01440670781427495 -0.0058958294148039 -0.0002767697835510125 -0.01048354763962518 -0.001210261521280303 0.01503308425175816 
-0.005899071300367363 -0.002229420215125338 0.003422832178743865 -0.01264415016066595 -0.01754988223141391 0.004408543836580135 0.01988221968059515 -0.0030825057043754 0.002265242149126428 
-0.01648397410674826 -0.01189679944531808 0.01094027223713215 -0.008550390610510817 0.01054997260877046 0.0004276522105574337 0.01036672451935356 0.004459392591457302 0.02780048431999815 
0.01010716390021977 -4.648207925630041e-005 -0.004717025380292095 -0.00319306215964459 -0.00222116983691029 0.0003626968653848353 -0.001918633521846658 0.001868407910384123 -0.004777569476476421 
0.03065414370391147 0.007364400062343816 -0.01190140202607169 0.002047456807475964 0.007727728132067423 -0.01353976240243127 -0.0173040312259419 -0.003631119264407039 -0.003896400187828009 
-0.0008039454004827045 -0.03226526019566818 0.005289878976357867 -0.003058886088813584 0.007824849695236622 0.01245558583560653 0.006633782980711371 0.003573609382878683 0.03620034000296848 
0.00530664295092606 -0.007262050514117747 0.01069713492594399 -0.001112518099657277 0.004722807618653037 -0.002696052261129306 0.001128673418174185 0.005944587344435253 -0.00583183803593029 
0.02156987921184036 0.010619918861746 0.01139042103756854 -0.001932723678624387 -0.01108356558670732 -0.007475865787952112 -0.01102891531289863 -0.007494452446111337 -0.0196326947749461 
0.02171996569577189 0.01062176659572717 -0.008543434805507115 -0.004359926997881417 0.009366484486690014 -0.008400429128264456 -0.009240288632848372 -0.0066311648019223 0.0002678797958678149 
-0.0008246181271888208 0.01244567262608686 0.01427645798089335 -0.006253166579453615 -0.01192985312509347 -0.001494145522642791 -0.005556664637684992 0.0005513502291996411 0.011930753301207 
3.805662903399784e-006 -0.004770493002406428 0.007686061306785813 -0.008399161635733668 0.001435331738984616 0.004274602701564171 -0.004228535197366908 -0.006645812076385591 -0.0103452306009896 
0.005612798180608432 0.006865348059173528 0.0001339759004968488 -0.001719714012070625 0.0003438896355862102 0.005766744425050284 0.009916963913629364 0.002658289752326681 -0.006548443402786319 
0.01389671757829192 0.003589658150674506 -0.0005494183534917876 0.006324640602479012 -0.002840971363870412 -0.01271787344277845 -0.014063775567168 0.007038319653672466 -0.01194052950841513 
0.004459110404413062 0.01038675892424424 0.0005248180184130231 -0.003234486342841285 -0.01215908676346197 0.003176664783676551 -0.007975055809431976 0.009490092471629083 -0.01170953784422711 
-0.01640670244057873 -0.005895320353721747 0.008384691204130016 -0.003428719493150977 0.004106701111665859 0.03208457851983131 0.008141550432486657 0.0007976259484651965 -0.02122454951097808 
0.005214421732075991 -0.02617600681777308 0.009986288097416462 0.02338486684719058 0.004115099062028814 -0.002535229143032391 0.006592734153988229 0.00834540952030023 -0.01638853885369163 
0.00510961190538996 0.006853421555923342 0.01769754401585854 0.002367081019250381 -0.009166186223501209 -0.01640992552851201 0.001123485137600291 -0.002682919701868709 0.0009179894146116122 
-0.02040488351758145 0.008894031482673108 -0.00710650209854186 0.001232455341909048 -0.004972160113785204 -0.01182435013759094 -0.001315753500362569 0.0001482574896667898 0.04620455741517622 
0.01724409279459074 -0.01029609246270243 0.004725192007429996 0.01434926603922418 -0.0095916683605335 -0.01451714083266579 -0.01166456006059323 -0.002042326694433507 0.002864622417292184 
-0.01110807604673211 -0.006465745676901148 -0.005904049513678878 -0.008444337195084823 -0.003116337016158498 0.002443803396654558 0.02528998157218864 -0.00878831572488265 0.0006306160564075111 
0.01253138425324434 -0.01559522571627431 0.01387520127694064 0.01467680479032747 0.008343455335753669 0.006670486797131944 -0.01429433669121185 -0.008507429285010746 -0.01553712077517846 
0.009394124426260937 -0.003466487268361084 -0.01042482943587116 -0.008618339878366568 0.006293779335409272 -0.005057798959210543 0.002095618914047549 -0.001380183639144314 0.006891802110947404 
-0.007862354760210667 -0.001083287029674346 0.02715365436577164 -0.002472066900948909 -0.005796398541045551 0.009055601417565892 -0.001803718584623085 -0.003828165733120331 -0.01406794728977626 
-0.01067081376995409 0.01069188201324042 0.0007933839228617878 -0.01043468325125965 -0.008339814693507879 0.005616319368964135 0.01655611340013702 0.00209970861000554 0.0006100542710474944 
-0.01210604399382285 0.00895531992263888 -0.005192838908463055 -0.01443741120136751 -0.003924380269577048 0.02155074474259554 -0.009599693894126111 -0.006426063507697218 -0.01236942742205447 
-0.02643634094218174 0.01234569713989036 -0.005885296862629757 -0.003771546035933868 0.002861860708376299 0.001161992236223921 -0.001497553102223944 -0.004550150778450155 0.03914521188746198 
-0.005937797165121327 0.01556210762804032 0.007221165265926895 -0.0001765526596471181 -0.0007482851207683041 0.003806606169095833 -0.0144801176604168 0.003882781345723046 -0.002601383517571997 
-0.008449637558495133 0.004812275608681692 -0.008016412080835979 0.009270551194837362 0.01303340605740459 0.01126295512320921 -0.02280003495916935 -0.00301699247501246 -0.007504122308928811 
0.02506762691619006 -0.01890787005803787 -0.002355276387262281 -0.008252151833965504 0.003012103520465089 0.002721741489036299 -0.01890871616892634 -0.00212345327149546 0.009312685274984257 
0.01019468734696881 -0.01544004446966283 0.001188203305116594 -0.01316716717802434 0.01093141249351596 -0.0001622932663230309 0.002656987380473245 0.001237917567473542 -0.01525923973499016 
-0.01127759783810752 0.0003564566802892065 -0.01085327635143508 0.01330721409093758 0.004121211314035292 0.01135846202718502 -0.001381984492536698 0.003980066632275766 -0.01994350926109339 
-0.01293440286891926 -0.0006008951074211564 0.00780288258734296 -0.01207174619822137 0.003597491874840481 0.009274085472380976 0.003902940853428408 0.001679591292979621 0.001350900458683852 
-0.01284686513069793 0.00338597885981063 -0.01337491021685811 -0.008492212391795588 0.0007076226090838303 -0.004481608148386923 0.01012767745684606 0.003425251686389325 0.01500846235537375 
-0.0008827785023146029 0.005688272983391733 -0.01129883733207849 0.01583890315360925 -0.005912033989262476 0.0041056162242078 -0.005767648053792338 0.00475967415442927 0.01125575050256697 
0.009400581207680586 -0.004913277693647828 -0.01396757607173932 0.01439254474330094 0.007817933239599478 -0.003645541900452702 0.003484694588225592 0.0004566193514586048 -0.01484157166376164 
0.01007458894727775 0.006685209577987132 -0.006041189767422898 -0.006580332921962981 -0.008691817862496946 -0.004274280532326252 -0.012111165430776 0.0004264368361068669 0.01908692801206725 
-0.008435752262731494 0.02692363896684615 -0.01643626701071668 -0.01716229843327435 -0.0004425264539469749 0.008581707593748451 0.01011012196621643 -0.01159657111492514 0.007502644346028142 
-0.008042131440648038 -0.007335412437148445 0.01645719909049071 -0.007680868087547763 -0.008900876517190282 -0.006923687550963283 0.01526496809635427 -0.01004302596022494 -0.002070064335435741 
-0.008616770843435725 0.005979260691242864 2.388136326187414e-005 0.005098609011384518 0.00432424384015515 -0.01298612685358887 -0.004710161238177154 0.007724854104592304 0.006140344810406446 
0.001225123964088685 0.01905814948095504 0.002168720113294474 0.004088578451821421 0.002010243894549115 0.008405496826457444 -0.01112687007156342 0.001254892022283463 -0.01187209119810405 
0.001104263973519931 0.001000017804629881 0.01203780060961546 -0.005561651259013464 0.0005831952310178954 -0.0102599402916796 0.001856104392099101 7.131177818924249e-005 0.01111258069653378 
-0.004576839537932975 0.003255081391917841 0.01936033934875612 0.0006208059644286398 0.01408996920719143 -0.01254455226278717 0.0004146448178779472 0.008379728513190882 -0.0001463468414047529 
-2.543690738613254e-005 0.002450743013322537 -0.006907722337126431 -0.004482599345193087 -0.0005266026660733762 0.01388103099624569 -0.007465204494271419 0.002425308227939967 0.017212619710698 
-0.009321214315142202 -0.005256109334065769 -0.004642863480187799 0.0006291797130634453 0.02014673322264906 0.001795544321139165 -0.01310565838560095 -0.01084196556113202 0.01301881272078057 
0.0004720945664453146 -0.005352454841239363 -0.006425875962105044 0.01632619024974844 0.0007572789781584327 -0.00153907531523537 0.004857231194481091 0.002120745945278581 -0.0180381105179278 
0.006503354265963641 -0.006930418642928926 -0.01231029829322115 0.007125563664016303 -0.0103250972106211 -0.002623770405827702 -0.007213499751453193 9.981220010949722e-006 0.005222821366392396 
-0.005929845292590576 -0.002213020499551174 -0.004235310490671503 -0.007881493233895538 0.002585938345823578 -0.01683503867270313 0.01937774157906775 -0.006911270093359742 0.02379413183774123 
-0.01369379535637743 -0.02673139590375639 0.04065900428038345 -0.00206629937278794 -0.008006498725506142 0.001891697214902242 -0.003423729634390621 -0.001578889814862041 -0.005469973408668431 
-0.003870853141271739 0.004874770300507403 0.01286164532476091 -0.002297706988664546 0.001006150507699819 -0.01312050125020397 -0.01634035404734418 -0.003717725956812929 -0.001454733012898168 
0.009140864416699195 -0.01041628427663599 -0.009330170285412607 0.004486908636299113 -0.0004935840186797137 0.00841195293102916 -0.02817616699374738 -0.004584967892602213 0.005978658166306015 
0.004005824108053903 -0.003501646078977298 0.006510047679201472 -0.001337483776807739 -0.01551128335166302 0.00367236006810775 -0.0006574739163821525 -0.003436001769307018 0.001877118919255937 
-0.008634748563489905 -0.01078229906899891 0.02678704736316409 0.005871202569711716 0.004488736537656439 -0.003184901222612065 -0.02410621078314111 -0.003099610415173382 -0.00383476584397162 
-0.005362132979539036 -0.004729841265038269 0.005528071720246893 -0.002172739633769629 0.004419214862900299 -0.006321243837300297 0.01192076197667018 0.004667958656634872 -0.01379921904820921 
0.002426683027117849 -0.005494836397683884 -0.01118373662735394 0.01177228400631436 0.02354600715093668 -6.232201945709074e-005 -0.006544403639460961 1.00177729114724e-005 -0.01392028676006275 
-0.002319739528904801 -0.02081964928042284 0.003679063530310279 -0.007620109187576585 0.00757778802681068 0.006705291990764245 0.004153368378580855 -0.007594266230172793 -0.005052677363880885 
-0.01187315229832369 -0.01305105572807895 0.0176468183652242 -0.001767207229187445 0.00713536059166285 0.0009672794537923343 0.00793151723384436 -0.005007897811945107 -0.0033377436530111 
0.001612616879835117 0.01836177467393262 -0.01477185051451305 -0.001293100011203004 0.01422771585653867 -0.006552418863099874 -0.0118429970812211 -0.005820927570603214 0.004361297318318362 
-0.00407845709180351 -0.0005427551485106701 -0.005204889646202595 -0.000930912785679641 0.01492339157045673 0.008630129675715722 0.008055986507330502 -0.003309987666241438 -0.02187051393868458 
0.009355433548162371 0.002136370672006518 0.00961366343381345 -0.005851871958830735 0.01752029503536751 -0.002734921240348662 -0.01204335681456573 -0.003657309319581175 0.006218131482696708 
-0.01079345860783634 -0.00528782780250854 -0.009343272204635149 0.02667199516455521 -0.02639066599637005 0.002849479006699494 -0.009780045851795595 0.003783751780597868 0.03284637791587403 
-0.009594737354714816 0.0132822678989447 -0.02258777282255733 -0.0113526069482539 -0.005246317465380131 0.002764921206079585 0.018793730602782 -0.00619195725837019 0.01722444600092963 
0.01143580920039393 0.003634275646845584 -0.006864061756200281 -0.01016074454272004 -0.01500843537978097 0.02890148339071027 0.004692226219595602 0.004193668213059226 -0.02621018807414261 
-0.00270733301589294 0.005546934378332968 -0.003919692029280569 -0.005075631782521453 0.0001468169061436021 -0.006068426049774371 0.01095975151508425 -0.00378894273575085 0.008985215725093166 
-0.004889345245385966 -0.002621002501628339 -0.003563309064356416 0.01870506950356515 -0.00383419926579918 0.001171682244223818 -0.004682960773871008 0.0022893286257211 -0.006839522139075006 
-0.003794259146199062 0.002880824870692913 0.01725262470267247 0.003646062503822965 -0.007033664987268121 0.0006466559853302412 -0.004440331922490455 0.002914321731036651 -0.02342023790856481 
0.007789165771558845 -0.0003799571901376449 0.001182553363612879 0.01081471270710799 0.002085580111898368 0.01063729134304934 0.00108538234730612 -0.00216152275120862 -0.03626212581081469 
-0.01025689352780177 0.01298413185061588 0.01240045210471008 -0.00992966244693649 0.004672307471715468 -0.0005735226391026651 -0.006673955537978116 0.0001634119010521706 0.0008735039615446684 
0.0003500980151808486 -0.008316636123169855 -0.01451146506394643 -0.01347233344616287 -0.001117035869283137 -0.002604693484151503 0.01421360945574187 -0.0006007927104532662 0.01823897779628722 
0.0006612127277281447 0.0001960668497217797 -0.006452410401290512 0.00281680477834453 -0.005885470431373645 -0.001178169614469534 0.0003454585401192198 -0.001969851499469545 -0.003008628981423154 
0.008469646586981638 0.005106128158868148 -0.004482297038423639 -0.004081680867081427 -0.0002767023966706514 -0.01234410244254352 -0.00262075748126611 -0.004061770377263269 0.00700826552761169 
-0.01506937845559679 0.006675685935777526 -0.004911707685515327 0.007234219455326252 0.0063609304170072 -0.003390909743506445 -0.01214385214883271 0.000337619040207888 0.009181157827764111 
0.02083335815697102 -0.01592051495111678 0.002731361645886294 0.006700664364063655 0.007548953790198106 -0.003059871983449793 -0.0001491465681630612 0.01340418441055642 -0.01694019049204018 
0.01172043510502603 0.03611232858176547 -0.01369203805790097 0.001096890916156539 -0.004722354036198981 -0.01314003467961519 0.01023138186576658 -0.005416148681831399 -0.02626697797491402 
-0.007732268696777519 -0.004124307369412626 -0.01070667743323631 0.006838205514806541 0.00148575310090455 0.00392169691442533 0.01567333658507801 0.005786365115688405 -0.0170213269216964 
9.34124196863042e-005 0.007755583838457998 0.004324356486462261 -0.007680362290175325 -0.008671850424796176 -0.01038361856677399 -0.01092254875819963 0.005302142462577121 0.01329268267490508 
0.000303048952343265 0.004176351627712977 0.008982058078142044 -0.007447763326898777 0.001944889419352735 0.0006594875150551198 -0.005204770775447521 -0.006360404272177024 0.009793612790976727 
0.004028012391931253 0.00662867875221014 -0.0009470681272004772 0.002035728252221645 -0.01123922007226122 0.003182735154233869 0.0007386801866779718 -0.002629847770096551 -0.008554317742038761 
0.002586096439889624 0.00445781158667758 0.003618319874419536 -0.0001337378903260824 0.001823306700570693 -0.01123173229644963 0.01035669861782018 -2.823443397823013e-005 -0.009213182962004794 
0.00978353562789536 0.001689035900345978 -0.01482459469425772 0.02698198272395941 -2.257128050008042e-005 -0.02149736763824144 -0.001336122439859799 -0.001104434281412843 0.0009266364391405867 
0.01959211305307814 0.0001267108226441707 0.005906084159134331 -0.006651322234339655 -0.009037938649837983 -0.003323084302423125 0.003773606962215599 -0.001897622069539766 -0.005722565829968458 
0.00532685912596646 0.01063849673933887 -0.01277221886753482 -0.0001439221849875211 -0.01196256287978451 0.002302425618904593 -0.004915647684811428 0.0009966947948587979 0.009744820588692051 
0.002126552632957376 -0.007127950989900283 0.0107279608476744 -0.007663431615823262 -0.007526096719427044 0.02133616931140994 -2.791347264025788e-005 -0.001658951474317733 -0.006385516848397269 
-0.005500730873645943 -0.01749041626990936 0.008838767906426768 -0.002648847917500213 0.01156271883533996 0.007232640257844444 0.013499872857874 0.01485955155074341 -0.02269250486207282 
0.02097481840730913 -0.01596198858936269 0.004512175836547006 0.0130369018711347 -0.01076793274719176 -0.005493863029394789 -0.00268190757952228 -0.001670726977795378 -0.01369449962328385 
-0.0006344077445198716 -0.005692905856818333 0.002349301679636347 0.0007720197937848424 -0.003916175169595526 0.006014678586125105 -0.002297901615764925 0.002085261886563665 -0.003187464862693141 
0.01092100891426339 0.003664096481513809 -0.001463013927826893 -0.0006443382151429207 -0.01410979053619168 0.00160293111530771 -0.01399541006624241 -0.00145755281748153 0.0004003170917198757 
0.0007043579703140696 0.01381375926224513 -0.003300670128456012 0.0004546186841687616 -0.000658560384478502 0.005121509842166121 -0.007526735564095811 -0.001665549784046362 -0.004403748537900736 
-0.003172111480121679 -0.0003059237466498522 0.009835960917224728 -0.005147354568645892 0.007308743166528438 0.005042095955364874 -0.004506991693272882 0.002865738767311739 -0.009478808234876691 
0.007586091124870294 -0.003667975232334889 -0.007819677264170854 -0.01361539279793778 -0.01201053481191207 0.00191948133332387 0.02061561516381266 -0.0047240795549883 0.00952977501318952 
-0.007578226373347628 -0.004528530615927996 -0.0188173560696292 -0.002774180320966225 -0.006018113029136086 0.01391053119836817 0.006765102881689977 0.0006721930758727882 0.01286650308533089 
0.002230538210997239 0.0178381586298269 -0.0063891638902499 -0.003560022236093473 -0.01339864753712388 0.01385453962423729 0.002166786345568492 0.001517027926772562 -0.017445226669839 
0.01188641384638437 0.005386952866245437 0.002957342075532387 -0.002401195009230291 -0.01231423404073383 -0.006319674413628367 -0.006769689709648749 -0.003942637398441393 0.01831578584099609 
-0.01238476878068894 -0.009902914057323395 0.006300617364357696 -0.001019444463115143 0.01508754643989388 -0.0006900850610866248 0.006565258066771017 -0.008334370889781428 -0.007895987323918368 
-0.006952668410418951 -0.003854751421863281 -0.01683254622950903 0.009604793042886735 -0.003814620542398293 0.0009711903511378993 0.005658705311973551 0.004072606289282865 -0.001868403535335109 
0.01142989204425567 -0.01284622161819335 0.005224662872252333 -0.01085035956971267 -0.001836128021355374 4.806283698938045e-005 -0.00387123017756439 0.006706477621705333 0.0006308334662890079 
0.006067277335726895 -0.002829806318235234 -0.005758746023327776 -0.01389869965904068 9.002146111116421e-005 0.01798231020255982 0.00366289100603737 0.0001387401098860385 -0.004693615200783037 
0.02202342596290888 -0.0191333480254011 0.01807301032211706 0.002159806076287981 -0.008203654965080359 -0.005258704662832304 -0.007118673163606156 -0.008590176625628007 0.02040721962524782 
-0.007427572794607607 -0.02024125764439408 0.01815108236896284 -0.00444818090569464 -0.01251674650098604 0.0001682664057744039 0.005167520014107238 -0.003778275216997846 0.01588308068359411 
0.00954889969163404 0.0009407367518829509 0.0004446541696748332 -0.001786043827303153 -0.008449520725047949 0.004829780333982184 -0.01192370540336105 -0.0002162208424434339 -0.00885060692700825 
0.01929889708667871 -0.01439492734071052 0.01525014698332655 0.003148461183233496 -0.02458892452226891 0.008585015954491909 0.01118681889194002 0.002812523530247209 -0.0194402505551516 
0.009708744640242765 0.01463693017606002 -0.006997732345797725 0.002932750125391734 0.003502660175024657 -0.00837573219502586 -0.01298241880372996 -0.004901255467222707 -0.002771351679489374 
-0.006475239317100398 0.002939693395541504 -0.03914947600925163 0.01327680989487107 7.363699588246888e-005 -0.008991340042161924 -0.001173756736895999 0.005560909426495711 0.01952605069290375 
0.01029886399608196 -0.0008066921282826729 0.009088129747583497 -0.0019537165204833 0.006762131914376406 -8.277374131680734e-005 -0.004157848860185285 0.01304116753339836 -0.01994606248280385 
-0.01993518550563549 -0.01150907950720367 -0.0007216745206274907 0.0003624063233159687 -0.0003272984827677221 0.01087009562426767 0.006271569562458864 0.0002906368329515438 -0.004489260104609893 
0.01896159441559444 -0.01064427006855909 -0.01430503810557049 -0.008726164709287981 -0.02541670892445245 0.001268026820669173 0.02228877319991126 -0.001722139025348546 0.003622726667833365 
0.01259152220090535 0.002320019766320082 -0.001340183942243052 0.003662436819308626 0.01007214165770327 -0.01410614750665135 -0.01274128500607531 -0.01047334403942646 0.006096258572149921 
0.01245530140754286 -0.008829531731330047 0.00503736259366399 0.02199786427916933 -0.02018810238394602 0.0002159669788156582 0.002437589721314213 -3.23279754374981e-005 -0.01209089753972862 
0.003354583228023734 -0.0149757363091312 -0.0009740154091050099 -0.009966335955101194 -0.01605269125472823 -0.002231697341381915 -0.002410658240295286 -0.002536312399991317 0.03870856334375451 
-0.001403196101648488 -0.01657346024932676 -0.01093093768909888 0.004412205706628638 0.007903226936065936 -0.003724559214564373 -0.0005944094503283271 -0.006503889869342582 0.006486939928944516 
-0.02545087826386262 0.004818942644502287 -0.01727515911524225 -0.01552963135293295 0.01025166860385005 -3.96419023454754e-006 0.01347334756658239 0.008897075282728054 0.03580018473755802 
-0.009611405472084673 -0.002749671165979439 -0.008263969289939213 0.003420050485891263 0.009072085887918299 -7.303147923070727e-005 -0.002693871036977237 0.002786284657721438 0.001805586905802611 
0.008087466481073665 -0.008869710463090805 0.01404556535244876 -0.003763340510333296 -0.01189594353483008 -0.0008017434460515492 0.01457462372548422 -0.001413048677043935 -0.0280575662809147 
0.0107675167309192 0.009433392436559131 -0.006514986943659405 0.01076860946114669 -0.002738403291601266 -0.002939130638984647 -0.001191293379195452 -0.01154690161226874 -0.01379108908203579 
-0.02372463572231405 -0.01289209108662583 0.01333238455815461 0.004665670641407724 0.0191897316994027 -0.009033620382665053 0.02005093951766342 0.002995687324481905 -0.01920887568839451 
-0.01951105009422644 -0.0101626775106897 -0.01626630646708275 0.002092221267374985 0.01528507126264671 0.003761187240434978 -0.009197651214699062 -0.006359799238982044 0.0329830173332072 
-0.02112412363703634 0.002800451731714623 0.003725771272945713 -0.01928335667097055 0.02545222703983843 0.0175902339805959 -0.008106841975876191 -0.003405191284124963 0.004317685280451988 
-0.007727647063594657 -0.0258028664429434 0.01336489028091642 0.004342635067079241 0.0006488705065688154 -0.001003037229383775 0.002251466570873523 -0.006683106652801843 0.006218228814431524 
-0.01386517243387666 -0.01176340914563917 0.01055955321585076 -0.005546572160312405 0.00386956415383869 0.02700723052584286 0.003491445023405591 0.002563493436128809 -0.03030785362319422 
0.00195509761830191 -0.01522898866161517 0.02076975385049168 0.004341860719178811 -0.01118274503574274 0.006233297450733028 -0.004852663526988501 -0.001116248617303224 -0.02575125930656323 
-0.006193597560182737 -0.01341355653376312 -0.007136566473234053 0.002003720673231969 -0.008483209819631353 -0.002127508184964293 0.01058224167433564 -0.001811536494977941 0.02614182625416726 
-0.0009605538536332791 -0.0004281886636404414 -0.02661983758851358 -0.002089250145317256 -0.002250935637532983 -0.007935288361240779 0.01234709638035385 0.002293416748289708 0.03309478537380223 
-0.008861696634887749 0.002727957599367592 0.003990185862500666 -0.004719489575347469 0.006532351880875051 0.007387281919244809 -0.00297574026158827 0.001436063904688697 -0.007177211195497532 
0.008140607583600258 -0.01712991757660333 0.01592669225302495 -0.00164004059042281 -0.004817630001902601 0.006064088751287713 -0.006743446299753209 -0.003283812365347398 0.01260823146101453 
0.0005756726415293078 -0.01559901973101001 0.01096591019183591 1.294326817768442e-005 0.00153494193493236 0.00341754454644456 0.01241588417503085 0.002589542717693608 -0.0167659080580621 
0.008459092265017247 0.01458148477494506 0.002947766621205215 -0.003293808869282946 0.01689990597071388 -0.001860663049781808 -0.004383116501180719 -0.003170158193000682 -0.02750571762404042 
-0.006550179412554718 -0.01285844306171456 -0.01545881757731678 0.002318524744572796 0.01338278146953041 0.01641961941246318 0.004526697602672928 0.01802663194371479 -0.01143216990166043 
0.01234535076127158 0.01800432912474648 -0.017488664845125 -0.003998146358801087 -0.005300211814425516 0.01154925959051924 -0.005240391337453472 -0.001522534605751525 -0.01297624659981621 
-0.006047733866157827 -0.006641347908360325 -0.002284820612181924 0.01930059944095832 0.002437102301155756 -0.006558842585323402 -0.01589935726388712 -0.0001045673181802657 0.003739699663273564 
-0.0004397938251004153 0.0008694555717571062 -0.004850530520859523 0.004717328783174905 0.004998923697280698 0.00106917240955944 0.001380711793613342 -0.001545365854898993 -0.02396811490957603 
0.004422970171830974 -0.001176718503878385 0.008313989952102439 0.0003692908456186521 0.01032004837812803 0.002097315757424627 -0.02397667355688006 -0.003499989546633797 0.01508823438782396 
-0.002454144318368228 0.003389612966501658 0.05071461371811163 -0.01188976985140027 0.0007530100752630982 -0.003774840676200912 -0.002144024545243813 -0.006847677955323805 -0.02382277841972259 
-0.009376872893178094 0.002843741579736963 0.03730029791549571 0.002121392652907425 0.004126511190309141 -0.006840072412650192 0.004979098463388123 -0.009867208732472585 -0.01867504878476851 
-0.00506850109737652 -0.004295447666772046 -0.002874384198542837 -0.005827820456053346 -0.001411663602372219 -0.01048474435389944 -0.006092640029848252 0.001176253634284599 0.03000539980731197 
-0.004454357040875028 -0.01457378646634687 0.0262879084172248 -0.00256733945936275 -0.005138190889457766 0.004712114644856386 -0.004336966305221371 0.02007329671563768 -0.0255539556680365 
-0.004056970480927301 0.01537950206758052 0.02619250559306034 -0.01069457864189787 0.01202846707989105 0.01996338762774227 -0.03394044446924594 -0.003958022408317978 -0.02110969276425288 
0.00551012523804731 0.006243147979509506 0.0009737912076737907 -0.004394006863476264 -0.01557823994978478 0.01747383809087081 -0.00618926977918713 -0.002340108680966724 -0.005677927489846905 
-0.01924017251678672 0.003709984766224672 -0.002259375717469418 -0.005751463643863878 -0.0129397524509779 0.01229174222323975 0.003872911426490405 -0.001210075068586034 0.03382261212665961 
0.004698983930848711 -0.02194882869528682 -0.004403209165971638 -0.004015558553643913 0.0107853405109472 -0.01229574297279648 -0.0103092888218271 -0.005574465309919635 0.03378901970845773 
-0.009172510500850897 0.006277889042203944 0.004553877890696357 0.002485164034815328 0.00202869751821878 -0.004095811927683556 -0.006799108133485556 -0.00208556307712808 -0.002669496180188421 
0.005382235470851501 0.009693151114302046 -0.001557903534924672 -0.01389835130055048 -0.0001527140824831842 -0.002339746984259543 0.01268166542631634 -0.008438402946837708 -0.0001649615365775962 
0.002678190348485105 -0.0002507880083366812 -0.005862170833412101 0.02034216185643654 -0.00692784429132337 -0.01818138602733088 -0.005337432361029225 -0.002562810085734973 -0.003566341189964694 
-0.02373000186547132 0.004643613536241187 -0.009767557734368472 -0.002448994529324346 0.02618613585151867 -0.002703633410834018 -0.007346331463710274 0.0149459401116226 -0.001660389448644256 
0.005806865146345409 -0.01834092427714739 -0.0009917395233515712 0.02241477139509435 -0.02035555044338985 0.0200013810470858 -0.003825247237131541 -0.004390869411125808 -0.01215314587763924 
0.006136141783557949 -0.01163405816936966 0.0001628133500808402 0.007767743826087025 -0.001332641440826101 -0.005452836864907315 -0.002360849882451905 -0.0004143643566073 -0.01013849959339991 
0.03724196023094493 0.004440667065832458 -0.006200075194107482 -0.004333390387616752 -0.0350854338302914 -0.01246570765801829 -0.003006232468499949 -0.00790191484114036 0.007790807609124144 
0.0331378424168789 0.009502132931556752 -0.005023447804872939 -0.003754803014256106 -0.01207767972105186 0.007509055920144283 0.008209189038541174 -0.006264234905765768 -0.03680549961982296 
-0.01896350375236633 -0.01660049147933287 0.02176678556858186 0.004873711411005004 0.01145486148098373 0.001301623326747534 -0.02042460694479718 0.006770532926156722 0.005151940712426474 
-0.00240687735137647 -0.01816456006653759 -0.0007631153972313697 0.0001798412271297172 -0.00777455599718149 0.01040090532111177 0.007666648936145065 -0.00656987141058358 0.02643551807491344 
0.009318012223237639 0.01182205975254279 -0.01817090471865031 -0.001763014611604148 -0.003162057942043009 -0.004686000859100079 -0.0085676286064711 -0.002275127676892857 0.01461319715634174 
0.006350885270753397 -0.006311091324059612 -0.01377001273808606 -0.006048828530079508 0.01993210579244654 0.00109271384758529 0.009699006265103363 0.002969038269839935 -0.005662311438207469 
0.013711709588974 -0.0222332570115447 0.003264840434976092 -0.01537110488565771 0.01262573806918543 -0.006729958738648524 0.01399638515730856 -0.00936081509200779 0.0001083375047334752 
-0.001186067722693378 -0.01068963882637703 -0.0094786838782191 -0.006115494374335615 -0.008864003655538803 0.002968339332731101 0.01462276446296862 -0.004928485383564362 0.01017803746079256 
0.006039254466484971 -0.009463399588569134 -0.007848286662358905 -0.003834451844701456 0.006141201171915682 0.008411161404316865 0.01132644067904229 -0.001138755909202862 0.006659530590167473 
-0.003699050716896803 -0.02173664530719392 -0.008063930932734652 0.003862666653595206 -0.009394868059088103 0.007158916084511287 0.01313732478824162 0.001306193393676622 -0.0005202230208148449 
-0.02150769010310281 -0.007240185151885435 -0.00618909705671269 0.009270875966380068 0.006396066353099558 -0.009928222912098375 0.01695281577512226 -0.003057610004621879 0.01882921080803329 
-0.002072393195545627 0.004164312463496447 -0.003204368820117768 -0.006691431408868759 -0.005267103666299518 0.007205978547981413 -0.001147933547925136 0.001741108025286971 0.01423804488134618 
0.01805425932978905 -0.003951215142787521 -0.01243803022986778 -0.00396414568544893 -0.004100835487310174 -0.001357404370198257 0.004130081209829833 -0.00390208497384041 -0.01262754133394047 
-0.01257756766369167 0.004467405826426781 0.01157664147209889 -0.002677218756732726 0.01640118248411981 0.005523863396970188 -0.007923741731368594 -0.005119665103772438 -0.007646106858931135 
0.01561470025237192 0.003395579272724324 -0.001866544067497115 -0.00135623000500124 -0.0151542436609199 -0.004279539521442144 -0.0004615603717490725 -0.006030871645002628 0.01172935566239664 
-0.008647387900754479 -0.003638623715820378 -0.01245978842275191 -0.009821041407892686 0.01793254864541886 0.0107019606015837 -0.002649839228918557 -0.001954156308635847 0.01817811172056194 
0.01655220044623958 0.0009318009950695415 -0.0005334295244335136 -0.007274489587511135 0.006449011510488082 -0.00395086009544172 -0.00572323505437786 -0.001503457584784977 -0.02682722044791957 
-0.005292249767566484 -0.005848712347057778 -0.002218558656913937 -0.006898091741338768 0.006868768948073875 -0.005965254688469958 0.006245924576459386 0.002696414245555204 0.005507255761921522 
-0.001949868108521564 -0.008522748632587883 0.009530700925825419 -0.005968422016065775 -0.003426097959422603 0.002480951945361333 0.008364996597066157 0.004297946419124923 -0.01818967355099566 
-0.01016073982863802 0.01184446620372194 -0.003882695209716471 -0.001414004899418147 0.02632004241453631 -0.004292770949727055 -0.0002727045899659712 -0.008104247602436021 -0.01251566644856839 
0.006458670290847728 0.0200040850115618 -0.01363463149212756 -0.004173754004479107 0.01079331366732637 -0.001876953578221646 -0.003148075371753538 0.002158875803101315 -0.01706781915515406 
-0.002780796236728768 -0.003126269611406134 -0.0003675015808230018 0.003079669447674739 -0.0005210192811678428 0.000630978536984391 -0.003864325686332234 -0.003051672551576061 0.008326391030809767 
0.003177993604172934 0.001544870728815571 0.01166960905947909 0.01131329335457293 -0.005245043836354306 0.00300095095332777 0.01049660522938899 0.01237322709791747 -0.06471646118075347 
0.006417779507193759 0.002974425278921743 0.006613854234591298 -0.001123053899653707 -0.007192586405977249 -0.004023183981499084 -0.01345652292489425 -0.001216967067069713 0.003224810964291643 
-0.004581558388867572 -0.0001200934723861526 -0.001893929141944251 0.006530767345198171 0.001139612625417079 0.001721803789062509 -0.003385206509836074 -0.002696712666180377 -0.004048300989553376 
0.008276583322335452 -0.008352069888835842 0.01093423496961418 -0.01620708496725958 -0.00873852365066758 -0.002720244281391457 -0.01307885882143316 0.004785236265407472 0.02717537783864983 
0.008348870340416367 0.00695147984944902 -0.02074131091758961 0.01400120155269035 -0.02482776931065935 -0.00632919612704624 0.003884749190036222 0.0007454205338492104 0.00338270083695381 
-0.005015022241907832 0.01443711162148462 0.004102356970758577 0.004560780439167503 0.001333184538347529 -0.0205581226068828 0.005917093438126611 0.007810107731354338 -0.02118137854262656 
-0.01750460769525839 -0.01179050212080543 0.02313025623146518 0.007237725027993133 -0.004466334721561724 0.0053944647493404 -0.007634921519059414 0.003054118100553102 0.007588019496474648 
0.003820452457777155 0.003198888727777828 0.001918286491807408 -0.004986098877732588 -0.01457416464572314 -0.0002759894514484829 -0.005879765686479853 -0.002672698815810621 -0.004249861528635243 
-0.003640235453133758 -0.007984109193294418 0.02055073483170977 -0.003028523781540532 -0.01436125259230388 0.01287557349225022 -0.005465650259505928 0.0001569870275812722 0.006936559972223616 
-0.00428516923185208 0.01744539241580929 -0.003496514995658202 -0.001686527123833041 0.001935299268646729 -0.0232909543406372 0.01594059433978355 -0.00951506743301255 -0.01156840247580319 
0.01867962498220676 0.02486806874098552 -0.008556829636531455 0.002250284745072577 0.007819643563729814 -0.01566234178040454 -0.006070189384787917 -0.002215025965156933 -0.03466416656914952 
-0.02643289944787531 0.000529562162906653 0.01041189682015234 0.006323922863914781 0.01439216956420491 0.006677081076088374 0.03162763186480744 0.0118585015798683 -0.03473133235741596 
0.0166316537975719 0.00225323546700547 -0.02035784951358911 -0.01406180849847817 -0.01875972460182061 -0.003766108085947828 0.02703925242361844 -0.009927825172837017 0.003552682213569771 
0.004511563493570856 -0.01933005197145656 0.03070457299367766 -0.0138408306513589 0.000299104811423861 -0.002929077569325178 -0.01509410926126264 -0.005210234677091099 0.019806928687585 
0.001586704046725122 -0.0138599985935817 -0.03022878441961261 -0.002120031130500328 0.006843018050264728 -0.004686569665829936 -0.001813795480601401 -0.002101626578052774 0.03830931142290811 
-0.002106732816773271 -0.002383976131235936 0.02033993724255233 -0.008728742207804875 -0.0004888076233952642 0.005463059123650037 -0.01149827518901355 0.006069346754160955 -0.01465762800121555 
-0.002913124679981542 -0.00184333515987943 -0.01734330937256735 -0.005375965901387503 -0.008468711295771716 0.02729960906308235 -0.001862197931436199 0.004388912621668718 0.006727150983562329 
0.01319361565127369 -0.004875332473544991 0.01366321767949997 0.00822124198811409 -0.01366806617273563 -0.002789156313802139 0.002526296933401788 0.01609974180611158 -0.02539265969099896 
0.001443525712582219 0.002199988282400249 -0.006088544422916432 0.007014396036355913 1.943427310224332e-005 0.006559274711171891 0.003697284858369541 -0.003002241703213111 -0.01362730791000143 
-0.003471405317993417 0.01738407804504507 -0.008287558778259693 -0.008208687551901482 0.009302397551765387 0.002487911198833915 -0.005562811309438144 0.002595732855982716 0.002643900032805392 
-0.0006781369267572122 -0.005974223116851338 0.02188358276832823 0.01031510998831366 -0.01097158156260303 0.008000066648821878 -0.01640453519102852 -0.001159371435782623 -0.002323369554787313 
-0.008091629843351152 -0.0002213875892375611 0.05525842970616375 -0.005496304752392841 -0.02619463395521426 0.0006576208434159754 -0.01194911248166486 0.003998814123809861 0.004180340237164962 
-0.00828135495542345 0.005441916229729223 0.00134873156722048 -0.009172753976488299 -0.007554641242703923 8.327256140671522e-006 0.01818614806993508 0.008191646023871952 -0.007073069318212165 
0.01310643200660366 0.01003321844436338 -0.002013333057812612 0.027586493525996 -0.002736434939482937 -0.01013796201182136 -0.004639884784655951 -0.004754292575021474 -0.02402540758766724 
0.01214587682744678 -0.004415720752348931 -0.009828660667411492 -0.00411798821261308 -0.006073217565059391 -0.003919417888558565 -0.002931134763144549 0.001344186476960454 0.002521785247130827 
-0.005692759554814335 -0.002007869699112358 -0.01060720095898651 0.002247278388978287 -0.01785830521299428 -0.0007501524092043643 0.004165146942903462 0.01114830048830366 0.02607821910098447 
-8.747304977106944e-005 -0.003549683812821908 -0.0058248575968999 0.001270668771842195 -0.001628899684622425 0.006447353702905023 0.005494143640300788 -0.007545546587549359 0.004430523858920203 
0.004227647199345515 -0.01253122905020979 -0.01609378223047116 -0.000123556310823148 0.01234095245412813 -0.001255800312650519 -0.002530155030881598 -0.004614261091719991 0.0009815754145558449 
-0.01915451546505465 0.02826220814771222 -0.002712457851563456 -0.01398660818908994 -0.005169060652245262 0.01152864122524515 -0.005226534424393067 0.004218984176495307 -0.0005252581907361923 
0.01160286969474711 0.02057697370718926 0.003165257976938434 0.007533237656095381 0.001888160509678291 -0.003953736264884561 -0.0116870351194579 -0.002552697367858607 -0.01745368581811369 
0.006888218149119555 0.004521982935439605 -0.01863201945943644 0.00616968475916758 -0.02524057915172758 0.01199054263284827 0.01559993465128276 0.0003297334511711269 -0.0151548712622837 
-0.01710901829002092 -0.009014094867617631 -0.01924923021174078 0.02285877409211119 0.005340221558378389 -0.001600962559599958 0.01124310523151914 0.0004487934857517646 -0.007504114067118962 
-0.006249122455808559 0.03181802593065848 0.01220945486754653 0.002923376538832857 0.0009639345859606024 -0.01732715991714451 -0.01776246898817506 0.0001513552898319048 -0.002464278494526301 
0.00163656725127414 0.001775776562940879 -0.001080902934981182 -0.0005320002040400604 -0.002572601832869006 0.0006710065609242574 -0.01067470659465682 0.0006662686245186713 0.01465731159214647 
-0.003922764692657087 0.008007459051339315 0.0132204842138301 -0.01082415533953372 -0.023639048507972 0.002250087365089943 -0.001774812838693657 -0.006338131557780628 0.004711232329097913 
0.002249590810655183 -0.007965916270293539 0.009345844083502872 -0.004751912728327585 -0.005851459387462542 0.001563620927846153 0.001482899731424846 -0.003906980617506901 -0.00470264781238357 
-0.01019131975545293 -0.001494361953794484 -0.001414236136653118 0.0001532637988148763 0.00393094993702796 0.006857831943542924 0.003134102578539267 -0.002266560162982649 -0.005782382563609467 
-0.01523777641386144 0.0008706537906232276 -0.01777433860588093 -0.007426461163385701 0.01188969178597372 -0.001500942047932512 0.02991914811620214 0.01236166466773697 -0.01803021234524253 
0.003045725537161902 -0.001904677951209228 0.006930000060449727 -0.01234712455818006 -0.01994765778872755 0.004401063112657698 0.01914628725555791 -0.001069145839029964 -0.02155568959053792 
0.005885090077320305 0.02064349147266649 -0.01725272738616996 -1.9437720267484e-005 -0.01088091487846669 0.00366507472226863 -0.01444103325064744 0.00104949283304277 0.01372344563935115 
0.005340038696436331 0.006578240220889009 -0.01063748946006164 -0.0001764700411204631 0.01071283783487936 -0.004422857291799769 0.0006726253077509208 -0.006383323084679812 -0.03545554872919234 
0.01432511126170772 -0.004739164743129899 -0.01115352136021087 -0.009302167824012003 -0.01135861734567492 0.02149319098175172 0.002662878290731001 -0.004933023262137852 -0.01027018024165401 
-0.01187017542089579 -0.01862465842413078 0.007764083582243473 0.0009045168988912428 0.005657996275624007 0.006296871733446181 0.01732667955808095 0.001628731757409314 -0.007560125461588818 
-0.003564061747571147 -0.00579897398024136 0.004367239655955838 -0.005093772169114566 -0.005560085871631553 -0.002679571250589622 -0.005839075531574915 -0.001816551878619578 0.02086006734147772 
0.002591593660975571 0.00156917759387459 -0.006118029786450766 0.007083235378782647 -0.00679142293926689 -0.007428489655271052 -0.0006053905765737404 0.01292922762040674 -0.009653971981676723 
-0.008221009942944868 -0.01259448179207595 -0.01039639439366981 -0.00478905899782698 0.003030666935458956 -0.001329844315737655 -0.01444769297620787 -0.003008148061030084 0.02547031477301868 
-0.004046249904343943 -0.008296169750828976 -0.01477807147587918 0.003093616344227191 0.02184401887020613 -0.0007195497442024608 0.002555466298862065 0.003903887445108718 -0.0127444861536911 
-0.00804444610953836 -0.003099530233661496 0.006247473372331362 -0.00223571602892602 0.001912940681084763 0.01465220937263842 -0.01154394052611427 0.0004886703208303772 -0.003399706298245957 
-0.01176034022618417 0.005004926581425963 0.01611170833615137 0.00445313746487956 0.006321460470789745 0.005617920755003471 0.005118122912604175 -0.008258432824247028 -0.0200626701334023 
-0.01473682494763258 -0.01331555378533425 -0.001038322558655312 -0.003970628184989985 0.002662123273288041 0.0006174903439410532 -0.00550533091106211 -0.002885680822801672 0.03440377521861533 
-0.01668283029232226 0.0125067854278361 0.01274208363355464 0.006029234981431916 0.009693284947432679 0.0006566891672631116 0.00715399677592562 -0.0008511064607014763 -0.02185013809128754 
0.01726993152949542 0.00336111625136054 0.002024323030344162 0.01105267847570106 -0.001581743490109859 -0.003972473122559796 -0.02370277880208343 0.008242558084913301 0.008473409703586142 
-0.003546584631495203 -0.0055685416504397 0.001678391785561625 -0.007831844353241677 -0.01362855850544303 -0.0006556290246635541 0.001709980405362958 -4.319477357156004e-005 0.03251641426188718 
-0.01863197538053997 0.007657652738063127 -0.007356551500626076 -0.00569161065492766 -0.03138079354946236 0.01500221342958994 0.01126675691887485 -0.002975388643914119 0.04631695900962005 
0.01771619232528147 -0.01214023143222117 0.002140069556213552 0.001637085328211409 0.003079538878033545 0.01099147963966265 -0.011986214998242 0.0008549643437289931 -0.002171634154077583 
-0.01461631507331425 0.02440449315835193 -0.001788443830580855 -0.01296672399514664 0.02661163653845515 0.00640019395754754 -0.005889686165352974 -0.004787127687578943 -0.01289922871330022 
-0.006277935878734595 -0.008491472119215037 -0.01511925439614743 -0.01356285214028677 -0.01118686689825119 0.009904460975364912 0.03500806225953444 0.02648910743827209 0.001935340591709885 
-0.01148225818778165 -0.021038466029986 -0.004204512657396119 0.001867472254716517 0.005636389478131014 -0.006602774365855654 0.01679725599849325 0.00204956074888153 0.01478604320323593 
-0.009272214808851237 0.007027848888262386 0.004846001321982069 -0.005199656860692671 0.001307950728572483 0.007902314344838081 0.0008255097127824498 -0.003394014565427597 0.005120104255174131 
0.007951966119356259 0.007025660757877904 -0.0003427174212230683 0.01511477288167992 0.006480069103960706 -0.02936211249129221 0.003901718346052348 -0.008379736378640649 -3.451532996813545e-005 
0.003094597226445818 -0.002229247413114136 0.01057248116702087 -0.00329158495375127 -0.0229286181369692 0.004877261333217304 0.003528160617991327 0.006426882730056947 -0.01535879246822107 
0.006529083580015036 0.004337323371647943 0.004686639227554743 -0.01135156171198205 0.007664213204340764 -0.001236992365066788 -0.00254134976762393 -0.004431962797415951 -0.01330758765295417 
-0.002092800550729417 0.01913196512666857 -0.008167978803779457 -0.005276609315902224 -0.007793256657714987 0.003140332011481997 -0.00454901228290264 -0.00070823402498807 0.003903277209586316 
0.004936868430484217 -0.01599209033725494 0.01999098663257332 -0.003070479581960774 -0.0136143177840912 0.00150722446308475 -0.0136023202950946 0.006915699273484671 0.001453851490642 
-0.01416714256442757 -0.01776180550626822 0.02622573069360567 -0.009455409398764193 0.01923111860059522 -0.007430478886845119 -0.002958533411494377 0.005999908851350449 0.01091559092320317 
-0.001163080643187098 -0.001421172601649089 0.01279978001250056 -0.006820599738851572 -0.01356611919632551 0.006047862339598709 -0.003063512755801515 0.01672618202938353 -0.01762072842467219 
0.001303239604490243 -0.006267170035433685 0.02131555804955395 0.00200684592999257 -0.0110966938888923 0.001733987295407866 -0.01221579468663275 -0.0004220906678145829 -0.005851588032947728 
0.00453775663485117 0.007604000509205892 -0.01883963927897906 -0.01247647476986907 -0.01926973442612131 -0.001116417747384243 0.02999956025727529 -0.01101687320507143 0.006334800800373901 
-0.00383086471770461 -0.005055279244463785 -0.01109894851216386 -0.006261803702038803 0.01239232713896349 0.0004488396274087384 -0.002009400268138695 -0.0008097086067664104 0.0164986891860614 
0.009433038113596836 -0.01383365455885744 -0.002618055926072123 0.0004436276475829456 -0.008506765471405931 -0.001162198118147302 -0.01461817299420993 0.002393697204890436 0.02017251070534289 
-0.0004234780381105715 -0.01254618113236366 0.001706987578578769 0.01169228290124219 -0.004051939236978692 -0.004040764392310294 -0.001598964792899917 -0.0003976939236989878 -0.004247197766131299 
-0.0052003987754046 0.005541288613700738 -0.002919981020432043 0.005476615895668044 -0.008700947069020582 -0.003034135814216885 -0.004996763564202045 -0.002198232129106405 0.01233140757840332 
-0.01800663219134385 -0.0009453417037866687 0.01973027708349885 -0.0003611345357056635 0.007001241376097343 -0.01437504967799261 8.944253031698121e-005 0.003308885845962888 0.000587523389183392 
-0.00026116450595485 -0.01616818217220122 0.003003600315948801 0.009424955707316215 0.006483927577469935 -0.001986440084343468 0.0004485832033694852 0.001113727995010145 -0.0017895711789763 
0.002246442329503492 -0.01002751662606369 -0.0173000013355833 0.01424167634990133 3.960661465852511e-005 -0.0007762892735225353 0.005394073707318699 0.01110509600188145 0.002227009210691381 
-0.00248602965385036 -0.0003622910615585126 -0.003601063450908473 -0.01213881138938292 -0.00992612099173816 0.004918002378063245 0.007000219476013216 -0.008038909129419722 0.0136117486781619 
-0.007064029256910556 0.02794136178990807 0.04588677958036481 -0.007031914211820511 -0.008194701480515897 -0.003784289609626678 0.0114905821865097 0.004802187608968742 -0.03929597155826363 
0.01396082470785431 -0.003550547074161975 0.01857158285549698 -0.0147995292436927 0.002884627609121689 0.003162455944411818 -0.01727589523273639 -2.623022240121776e-005 -0.002928421904530239 
-0.005454353576413673 -0.006842267866712225 -0.00609333411442125 -0.002105772210050956 -0.004114807287888014 0.006404431319088549 0.004455297868164967 -0.006273608434557412 0.007246261373009523 
-0.01521320001844383 0.006348702092786683 -0.01482097409371468 -0.01535209070780961 -0.003934157317347647 -0.009615006066893164 -0.001140652983250791 -0.001842554119509151 0.03566326181266507 
-0.00917556981125949 -0.0280510578408716 -0.01864642392801738 -0.007057391127397679 0.003573203676939996 -0.001696056213068288 0.02022752114795047 -0.0004051789349585961 0.03445202287350225 
0.01798576789480142 -0.003389857319466844 -0.00420379617856341 -0.001349974093131084 -0.02005585826647077 0.02948324728813608 0.009319081446766974 -0.0006465190837656409 -0.0206285432897441 
-0.004868231470290941 -0.012809554135967 -0.008842599320686359 -0.01267183400100263 -0.005873466055413677 0.03753791171888608 0.00637111976751611 -0.003668062267635828 -0.003203538522382094 
0.005158544395359203 -0.000104998645552754 0.0387301011651075 0.004109252479719021 -0.0004568803984102372 0.008001247953500155 -0.01848198740576264 0.000145524151702194 -0.04614059487752837 
-0.00973836695515899 -0.0004841815768989605 -0.000241165153268121 0.0003369978033357966 -0.01219031168528303 -0.00378432362009524 0.0151316708356916 -0.005396789497628639 0.01727255904310648 
0.0004967936592027592 0.001332410433973318 -0.004556021572224994 -0.01134387123319646 -0.01419020144487845 -0.001242709723503858 0.0100232248480321 -0.005716111430522143 0.02008656667659093 
-0.01144149899070547 0.001680969212832644 -0.005286451288495951 -0.0005390478926619217 0.007591846710001499 -0.003959069445907106 0.004756585426881129 0.000559372715771371 0.01146864048048527 
-0.001271697230486333 0.0006220437284891398 -0.008461705130000202 -0.01067223193727635 -0.005559123419767335 0.004069947145222138 0.003417426904364896 -0.002295883489445627 0.00639574347393068 
-0.004403066292750679 -0.01328002174219252 0.001657334199425998 0.008709178828710834 0.000546576947410504 0.004910958672827494 0.002692672753059944 -0.003106723556784465 -0.01075763412662777 
-0.0124449586731959 0.03155419826839374 0.003142892326198046 -0.008724753628585656 -0.007904433634024951 -0.009224462324482156 -0.004240800963022231 -0.002221612672930251 0.01549863849815126 
0.007518114192534389 0.01978228441764233 0.005107216802937764 -0.006841991261998831 -0.01187849747763687 -0.02099140307569994 0.000390824920844603 -0.007883588879091409 0.01406685648546537 
-0.003595770411559358 0.01245150569608293 -0.01575503053116281 -0.008877939503691432 -0.01363979986225068 -0.005615334055970748 0.002579845949799374 0.0001924854770540348 0.02366875902784287 
-0.003503695959931018 -0.01170211715838854 0.002690905269105 0.009139856625274882 -0.002453981314152592 -0.002501928847618992 -0.002585430632876007 0.0009349733115031982 0.002128177153411129 
0.003762362066023965 0.0160341514390573 -0.01232852090619739 0.03043087906396131 -0.01257030995737919 -0.002356729213288966 -0.002304636297848761 0.001468855553013288 -0.008653626598685692 
0.01886515243475449 -5.857391432543136e-006 -0.009285831097957262 -0.006883717530459723 -0.0001039731884422263 -0.008764178475446067 -0.001551554972748191 1.481925718654139e-005 -0.01214460632888544 
-0.0009667014886942234 -0.02193341215477781 0.003457922102039993 0.01371930884904226 0.0005318792996864072 0.003289299425503466 -0.01624224076168887 -0.001614032699026594 0.004885496122904135 
0.02173050892394108 0.002827191215263501 0.00145984995072427 -0.0028398804471936 -0.009434778814553754 0.007525564035436184 -0.003175228702167614 -0.008707485915805543 0.006023387300268884 
0.02269202964647535 0.004245993154719845 -0.0007614181699535759 0.0188633669786755 0.01959801307836912 -0.009146776499538685 -0.05040961010450557 -0.007326625123805044 -0.0109771756357605 
-0.001903034015630697 0.005735280647016494 -0.00615514066353265 0.002461934793262745 0.01167872575418425 0.004639257506978885 0.0223343517568136 -0.002483212261347827 -0.02881553729372127 
0.02623182638846611 -0.008388100658958968 0.01734804770899204 -0.01319476181040964 -0.01991772869699613 0.01527993617599352 -0.01156869204578156 -0.006283826355199956 -0.008329646898131156 
0.006801313047469537 -0.002052882836678158 -0.008650044894841544 0.01279415628450045 0.01238371316128478 -0.01065036470628098 -0.002128501718816462 -0.005239811523969963 -0.003419588995648393 
-0.01553955373089355 -0.004488438719036796 0.008065312936365468 0.00188760002172979 0.003462135219145214 -0.002845632701302172 -0.01655211924015742 -0.00351930274964685 0.02680840967460705 
0.004955608969426813 0.00983405337782583 -0.002382403098239233 0.005271911378795159 -0.009721021970563681 0.00661875314423328 0.0009237126218457461 -0.005900393030051711 -0.0177185679926064 
0.03182682896196459 -0.01752503333379197 0.007348331653359563 0.001621820706409658 -0.01197439698677606 0.006002052690827138 -0.002891758586328046 0.002266597903397954 -0.01850435177159714 
-0.008186931780218813 -0.004698692434206301 0.00524569924636222 0.00799221451611336 0.006483733984921838 -0.003245942654135752 0.005277008791155657 0.001550290009737135 -0.006027305070495839 
-0.006428578837206595 -0.02225152749222086 0.02753718724106102 0.004612323016326084 -0.008684270571795619 -0.004829790593000048 -0.01349471107971668 -0.002427017822497879 0.01029936771477644 
-0.005989849108551129 -0.009453869000082609 0.06142807294791283 -0.001191796410877926 0.008148780533711484 -0.00961382060277024 -0.02063757884443414 -0.005379379580946981 -0.03541136307709804 
0.01071631956118177 -0.01775940788802407 0.02864365842814113 0.001465652252777713 0.008522568963845779 0.004674999153637937 -0.007101349111457717 0.01397497073744518 -0.03806476444656509 
-0.006924731702012782 -0.001170848181273428 -0.006951528652618866 -0.004578729615778155 -0.003818436595956627 0.008556369548773425 0.01609882954365704 0.008177653983684266 -0.01287315910591995 
-0.005847953963450343 -0.004122627892683516 0.01100193361452019 0.001453834401074981 0.009113165742085967 -0.003446466043154036 -0.003957665997380285 -0.005602831344949601 0.01870512549683604 
0.02431072457925477 0.008639003256127228 -0.02656489082993819 0.004497412033097374 -0.006446113821389473 -0.01182637716945931 0.01006139736841138 0.003908152937093557 -0.001910631415511937 
0.02823287385925454 0.003207450712079152 -0.01103974581104582 0.0003583633362984592 -0.01944725146193468 -0.005010672731145293 0.008576773000608334 0.0001745554422537055 -0.009631146377407921 
0.009075830411891172 0.003772990623492216 0.00390997335448392 -0.004270489458979809 0.009984080530993042 -0.002209035686114659 -0.01395326432677901 0.009790622117001272 -0.01326974870008549 
-0.01062015916133837 0.007901821393691746 -0.00361306487531541 0.001645882336087008 -0.002513034509387613 -0.004434192401642879 -0.002778864772977538 0.0003874661283397721 0.01629814495217828 
0.004726185073947355 0.01776964817420971 0.0005930638036358005 -0.00703481317362115 -0.01536318824354897 0.02448905158199044 -0.01056783609601931 -0.007683776492359407 -0.02088939582613386 
0.00497095022506568 -0.002145071193076006 0.004458692437520418 0.01045418285915569 -0.002944287901210956 -0.004448484865812934 0.007628329315508273 -7.945538382165353e-005 -0.02389872087463179 
0.009771453623819879 -0.004498956720885625 0.0100439697914804 -0.005706092809802736 0.01269977191441683 -0.005272856728098243 -0.0001354584834736523 0.01005807793761533 -0.02623343487537039 
-0.004167502014838265 -0.01645729824618958 0.01969654261422506 -0.0005726748204672593 0.002793280988289073 0.004548022345023011 -0.01598845804024247 0.01011437101236644 -0.009004306212573773 
0.01466646727616242 -0.0142237922768348 -0.003477070300989729 0.005960457136174825 -0.01006557720519482 -0.007111056652894763 0.001086576862936529 0.001029169133046746 0.007844326500181369 
0.01511629356961039 0.03081237087384121 -0.01433759046494044 0.003113535658632867 -0.01185880807686864 -0.001946509741867964 -0.01651443795684182 0.001849631029494206 -0.001622704152268727 
-0.0006879871582027795 0.008971959640017704 -0.01248027984743392 0.001240398944161057 0.003275747203074996 0.0008433645583048781 -0.009059722267034309 0.007677138557013149 0.01062237273485886 
-0.01292827010876532 -0.02606391966508366 -0.0119147445958257 0.008003157532540547 -0.004705842986808964 0.0244845039691649 -0.006304558069568337 0.01242173081612529 -0.002162403955221609 
0.02015728093786749 -0.004730985682275056 -0.009503986050890027 0.01786705140583042 -0.004882656103233333 -0.004657529613404594 -0.000788504037337141 -0.001874310342030358 -0.01649238867588689 
-0.006750383607119814 -0.002326060978052332 -0.002352795221515861 -0.01327705013489492 0.004636385251859226 -0.004304970164722839 0.0001421704983062437 0.0002467272938986282 0.03022733590015372 
-0.008356787033384544 0.01865590758368568 0.01819500438433697 -0.04497320989446207 -0.009623600596063906 -0.005282751032909241 0.003987934978130353 0.00897438854361975 0.03569592620010489 
0.01155247033509349 -0.02760253573891279 -0.01057177968591552 0.004674036176209384 -0.01016564108684467 0.01298166282585792 -0.001124246184009128 0.005546602167159785 -0.005058240866119106 
0.005868388060483144 -0.006156781526585917 0.02526115625271203 0.0196677148331894 -0.002583231720194773 -0.002268892170471261 -0.006582098007993207 0.002283127229582499 -0.04455881552375499 
0.01040472012248239 -0.01698312661973404 0.001018812954497613 0.0003649263882367324 -0.001757090897677239 -0.01432285946904094 -0.004000289928347416 -0.006350828800889706 0.02806412344373351 
-0.004946051604241246 -6.027426451479636e-005 -0.03046597198454909 -0.003103160026517913 0.02149796451579975 0.0006402350638117004 0.01871053423279778 -0.006040691286321775 0.008361341436818376 
0.008264314387179214 -0.002001007023928393 -0.004863646729294277 0.009242056777051875 -0.01425446901237858 -0.006562017078844609 0.02583838622181586 0.002507818033243998 -0.007862278537269901 
0.003459357921217461 -0.003997639168417116 -0.00539791469359927 -0.004963403408411331 0.009199118451425889 0.00293658834416613 -0.006195408854548569 -0.00122657226325629 0.001196501283377409 
-0.00257054166933824 -0.001064410693931524 -0.02744064281921968 -0.001517855180035839 0.01501106357244065 -0.01960792265004421 0.01395715479260399 6.040052748828217e-005 0.008284193558627114 
-0.003709568272136655 -0.002077426414321171 0.01010150366450174 0.00534713061051691 -0.009851443075526867 -0.004164909150453773 -0.001565102438554986 0.0005408721139055426 0.01226944541800032 
-0.01819383965065964 -0.01911595559271191 0.02031805985075645 0.01598177236645359 -0.005578064669655544 -0.00154415963421171 -0.01706103640510403 0.01845616607709505 0.005356627680470592 
-0.01281240334985967 0.005330572459051329 -0.006307531706327803 0.009235207252621011 -0.02384957436401491 0.02009912897388567 -0.005054466243272196 0.00766591522473427 0.007725750519951006 
0.005576644919519209 0.02994360800721392 -0.02289254415884672 -0.003472407432078575 0.007506815219276429 -0.008625723098522288 0.01120248965472116 -0.004084796877189357 -0.0170495872762963 
-0.0006837277296118954 0.01962040900047691 -0.03270520325222757 -0.006419706000182043 0.004284299915769212 0.0001176612447920639 0.02486351693938787 0.001686835718642067 0.005638046109160425 
-0.006905398479367792 -0.01852348731592383 -0.01017824320617168 -0.002322286712835205 -0.008499333343416128 -0.0006597384383609074 -0.008315624693528222 -0.003964841749393925 0.03267218531294652 
-0.002553354154400834 -0.02031318066111873 -0.01304953387299937 0.01198153971267598 0.01008379580431138 0.006760482839334434 -0.01283293662939947 0.009364472538108952 0.01442540210112841 
0.005105041698593126 -0.02209880663051728 0.000550930999754654 0.0133605876528527 0.003987370613314572 0.01403694184107342 -0.01645433894371889 -0.008844842952888225 -0.008997715487716957 
0.01316515855326128 -0.001579724043302097 0.008738186577902951 0.0003610939228760214 -0.01344545022260329 0.02455481393878014 -0.01120215155104635 -0.002186392654112536 -0.01696028334067472 
-0.007566388691935849 0.005667835238629364 -0.002575663985401118 -0.01207507822679349 0.002436375223873031 -0.003825203749801119 0.03775830637338417 0.001326564910795173 -0.01940784750949012 
-0.004202812615922241 0.02936538625132495 0.02141483669793562 -0.01385556505631118 -0.007417234461697013 0.01370340371941755 -0.02971259058275074 -0.01111572505530106 -0.02088587209426977 
-0.005968075763546723 0.007349573016741203 0.008749311500113995 0.009034617756750005 -0.01344947136482064 -0.01347836211806725 0.0001820139060073495 -0.001223152837964177 0.0007276389545804723 
0.01072064089749495 0.004944295685884829 -0.03585776648253669 -0.005689113466486738 0.008417307167704597 0.001767771527588276 -0.01123116285485555 -0.003762513559395625 0.006095100437769321 
-0.01317897436483023 -0.01293949683066051 -0.0106469725475102 -0.00849076144108349 0.004453176916932341 0.01938056517960782 -0.00248648176273437 0.001277333836078194 -0.0006393609750745189 
-0.007657010121202169 0.005392420259956569 -0.004419471625114748 0.004224974858561911 -0.006333107493221309 -0.006090002421769711 0.001204753419836764 -0.001229330116807134 0.004014682442867091 
-0.008480741311204645 -0.007300294694153242 -0.02362297320746676 -0.0163871374586243 -0.008010109941844389 0.004359348636045013 0.04175382590062306 -0.003378925107347878 0.01006621686564425 
-0.007212271402870694 -0.009924648303057046 0.003671446282488352 0.009453318750542273 -0.006715540169737003 -0.004702572836577342 -0.003274815132719188 0.002795591114015351 0.005767569314352293 
0.0005091395601433199 -0.007168270488475156 -0.0008036280096530874 -0.004913775912735813 0.009637920515181239 0.005326231874926731 6.293174366579007e-005 0.0007278054633466377 -0.004959737092744121 
-0.01035084147667005 -0.00511851623068307 -0.00653819396313524 0.009323758274178957 0.00542717646821688 -0.003430994663202187 -0.01176335175801964 0.02107856936680203 0.01705479318306389 
-0.009758992143236594 0.001099816287807074 0.02182493178780388 -0.01236011970023942 0.01291914671210865 -0.006461569383118022 -0.01357631673784993 -0.002852621722381795 0.0122734199087989 
0.009908392864472791 -0.002269331926896971 0.003468153596133895 -0.00338988852295702 0.01312402090299732 -0.01415755981225229 0.00130036522143325 0.0006928430683491888 -0.00634095414908187 
-0.006023871455692408 0.001421302213450708 0.002883993947217617 -0.00528000478873309 0.001579983722893696 0.002305695118040163 -0.00164695586951732 -0.002278364812603241 0.006120881187272995 
-0.02344242875687931 0.01577710947465429 -0.00746191481603829 -0.007720013161115814 0.02306428948894653 0.004660800862219298 0.003919109269110016 -0.001393718806074368 -0.004663280832603636 
-0.00539340835233599 -0.004970116785942267 -0.0005937137148694374 -0.002425707629763139 -0.006658552388950752 0.005775508849056902 0.001088327781740911 0.01216271570730389 0.0104973602810171 
-0.02161493032408767 -0.004334306987004933 0.01864192758651291 0.001567023208494443 0.001513506156685401 -0.004747030956090893 -0.007177767862707705 -0.001003604261921831 0.007651943548253902 
-9.703913646629824e-005 -0.02433055868680138 0.03064776603237731 0.01194572735350192 0.01706016997055902 0.006638862520602579 -0.0063925163932545 0.003323641481961753 -0.02939686846654975 
0.01061496501993872 -0.0140031696687828 0.004149024199471011 0.003827361423104862 -0.01093855835339013 -0.01298334013851574 0.006775134527673915 0.0008157432377909828 0.01075664795509342 
0.002768516117457623 -0.0030365573468299 -0.01533010126703619 -0.007448916650453881 0.001475597121140291 0.004615002649214156 -0.007169932688449635 0.001976290812155364 0.02188810034374601 
-0.01503194340122623 0.01415252891235904 -0.05990513746767303 -0.009362675284073582 0.007748982602349986 -0.007764797135757676 0.03617530885592371 0.01088577165727864 0.02339163383664561 
-0.0007816298415705496 0.003403574246981331 -0.009967095683516848 -0.005930457451454811 0.002871236577567865 0.0008039696488221058 0.004985786070215804 -0.0004468714166998269 -0.001264834434054485 
0.02694762864034348 0.003517058785286858 -0.006746973752549778 -0.006437888754614095 0.0007851731752937577 0.003088623363680103 -0.01523722919234611 -0.002746089582906348 -0.01231086978087862 
0.008060783785408407 0.01813938781567811 -0.003920246877675334 -0.01329720160963057 -0.01079519925730933 -0.009510865798997518 -0.008747030241447963 0.003620745824223239 -0.00430597450501669 
0.02034021238349655 -0.0004058173975539217 0.004115441215959083 -0.001808073515523576 -0.01006090311288527 -0.00973290328951611 0.007758174182594235 -0.0002200089497138588 -0.01728554771878981 
0.006741935463188851 0.0164936502774134 -0.02181295445323828 -0.005367068748928776 0.007935553539509446 0.003582096600134836 -0.002527304507507769 -0.001059302494062152 -0.001398349724339908 
0.01333701390459257 -0.008590369863914489 -0.001076731930920004 -0.006118325398532016 0.01272695517766752 -0.008210319840535017 -0.01249654977681515 -0.005635289024653071 -0.001555001394017125 
0.008503321511630078 0.01265884615983411 -0.01097443418908914 0.004607866077585501 -0.006264325740905688 -0.01140703246894647 -0.005907124541874441 0.0001632571454209459 4.648049650828211e-005 
0.003416936956962068 0.002719340802516868 -0.02097049728757676 -0.02656312348854965 -0.006449476390098962 -0.01316654044825707 0.03667000033801786 -0.01118001972118104 0.01389750823352752 
-0.01151375007583683 -0.004655873988268619 0.01998516328906417 7.832956905314325e-005 -0.0005941402335304282 -0.005373604220997955 0.009235674478249927 0.0007652157943969303 -0.005301303488484254 
-0.01776961043891898 -0.009321307136657167 0.02072699562926891 -0.01206481823813922 0.007035502943435961 0.005982605865706565 0.0009828872593069147 -0.004890910895927055 0.002775299543029824 
-0.001569518544782698 -0.01743168815596558 0.014902654844251 0.0004505118746600158 -0.0256931728999054 0.02092270501218167 -0.009671097845994884 0.004783151403347495 -0.002052839412050739 
-0.01119657236813797 -0.0002463052683098945 0.0384060061534935 -0.01067021975014455 0.005951833737927929 -0.0004371666826515553 -0.004068104720140481 -0.00232528026517373 0.01018750204458051 
-0.004215807139647271 -0.003941862341047938 -0.03458572773546486 -0.02076944664514152 0.002862892005056189 -0.004499882322840512 0.04318066172299594 -0.006943985142198187 0.02643081380554367 
0.005134308117790494 -0.02532696569661433 0.002666954132929258 0.01096973430214362 0.01504834075935087 0.003844865112793837 0.00395183155359536 0.0100815931198609 -0.01843076751020089 
0.01812337968110756 -0.009636054353131999 -0.01443238463930912 0.01938487991690567 -0.002165706574419878 0.000881268169611352 0.005254126259085262 0.006449228848237669 -0.02087501778272301 
-0.009221749047893767 0.005762968751287374 -0.01231234686521618 -0.008429247501810891 0.009489143767176181 0.01109537602566591 -0.01429621162025298 -0.0005970770182821187 0.0142929890569284 
-0.00802341629630242 -0.005293322216577173 -0.003521575694514022 -0.0008724694478944764 0.01036078610567332 -0.001450769501715263 0.004501230623580648 0.01055909643887148 -0.007583414503579361 
-0.009669863655167076 -0.008603658800615787 -0.006997250400486245 0.002079648327532491 0.01054869164802349 0.01423624352669388 -0.004379400184778027 0.005755458967760127 -0.001523628477772269 
-0.002252501462413222 -0.02025727341894618 0.009973811677667878 -0.007241342158004757 -0.02111786766281416 -0.004858296679344201 0.02417981385719828 -0.001175761647250411 0.01476382047689236 
-0.01155814871715147 0.009450326203435366 -0.008960741420236562 -0.000514720036129527 0.01896851635508348 0.006710277126495442 0.01292211956131869 -0.01034282992539724 -0.02039799214956553 
-0.001663889839192485 0.002540143305534131 -0.02063876154402113 0.007830282343319724 0.007276668468689557 -0.005232691588480182 0.001844631199845759 1.289018937871047e-005 0.007493753917948762 
-0.01329788597865623 -0.004255956341655643 -0.02291600634277089 -0.01190680327449838 -0.01297192106287205 0.007034683269837487 0.01063728907791046 0.01285333264043508 0.02547206026612582 
-0.006098410169993734 0.01977061185903802 -0.01272759365956526 0.0009707578988937817 -3.872517279765758e-005 0.003534870727963686 -0.003541469994058381 0.003445422018542474 0.001445469149282698 
-0.01563920499150517 0.009290298054919885 -0.01221563186631827 0.007622264110464555 0.02355698460713109 -0.005250186887903536 0.0002759187221138624 -0.002066111973212755 0.007160225571572598 
-0.006765043636080912 -0.01426805028606376 -0.01005922803233996 -0.01410302676884585 -0.01258724456904156 0.0080197699086644 -0.002036495201320793 0.01112706170664672 0.02261316528200863 
-0.02105748420806676 0.01080810316418034 -0.01664916567268745 0.01785867296990392 0.008030695203169895 -0.02569233096938898 -0.005339797930335125 -0.0003395555778155589 0.01923956972121099 
0.01762575455612124 0.01173699110202873 0.01175036343483031 -0.002381829400547457 -0.01912235779942806 0.00225757663790979 -0.007479504313301471 -0.004012859033249523 -0.005112842872510368 
-0.01269299845738964 -0.008297415137129057 0.007059905494552245 0.004330711459311273 -0.002801091094395551 0.007768101563944537 -0.001184794368108285 0.005668691664901654 0.007466470835643117 
