solver_type L2R_L2LOSS_SVC_DUAL
nr_class 9
label 1 2 3 4 5 6 7 8 9
nr_feature 45
bias -1
w
1.913645768231148 -1.688560096006335 1.870742876856668 0.9897985951766077 0.8772716509439362 1.559476025405103 1.608164852988556 -1.767207174610983 1.555479421368706 
2.556621114470481 -0.2141307035441586 -1.499701325263973 0.4680997660609288 -0.9639975648285599 0.02365901291501115 -1.144402092858008 0.4803605756283238 -1.662289221504867 
2.928032016934758 -1.419709935050979 1.204668295778262 -1.806041854556761 -0.5563431486426205 -1.579901903334022 0.119770320180109 -0.122494797636311 -1.676513692607431 
7.572081635710196 -2.693323105279391 -2.553634488250444 -1.523847035197765 -2.565157718218914 -0.3551799975521131 0.03926008979824904 -1.015685218475476 -2.384941474004023 
7.861863862783831 -1.258836426669819 -5.936287385393305 -2.115800558389333 -3.947689461102252 -4.664967649948943 -0.5990730939278598 -2.222188693980475 -1.756280123903671 
4.858255555733011 3.447018209348935 3.862788314086733 -0.1078515741557502 1.11723452387831 2.737821145650516 1.064935811064764 0.159334161139158 2.18026151719164 
-1.047345303032956 2.726385901357053 -0.9515574528296017 -0.7330354632653516 -2.013823693011509 0.04578183176795222 -1.458012987982449 -0.49718536173416 -0.2434568171425888 
-2.099923410030499 3.357138864277703 -3.532738384871235 1.758420065135632 -1.335578243919819 -4.494377389689179 -0.4448703074892581 -1.838462278998274 -0.855485391534894 
-2.836659265514432 2.490284254745589 0.7601911905052128 -0.137993704681342 3.29231417434925 -0.6123891840864781 1.410128358358243 0.390177931950336 -1.196941478665873 
0.2015228776882716 2.571290185763326 -2.43050856860987 -2.828626002590457 -1.958262843208817 -0.7713361653426221 -2.266122728938733 1.052452713953014 -0.6266209369040893 
0.3498062246031338 0.3704844490217114 2.420556162042217 2.232961703262709 1.753216410489312 1.921145976512362 0.9795794210578805 -0.3762137769882935 3.036371780008809 
-2.519268992006107 -0.2608895326701831 5.742333961046072 -0.4784905175396057 -2.26519264538271 -3.457449194650807 0.1529263147189481 -0.3243769328920476 -1.227524528427052 
-4.438808655520056 -0.2483084380855195 5.584072410107864 0.1676981154136502 0.1085143786455066 -4.258958832910381 0.6601033293482136 -0.2958956338365942 -2.958818304159901 
1.257670441286447 -1.165613420667716 6.783779574876197 -3.411226450564298 1.24970461703532 1.466367253195906 -1.450347968143439 -0.1114606993493837 -2.798264083095945 
2.769423272221682 -2.448964265518463 5.593520867832093 -3.510054123981031 -5.76932263198422 -3.531936401297346 -2.595282849180745 0.62447010581753 -0.1771552346383512 
1.186512876183632 0.7153743468625599 1.788964031695736 3.47369591403853 1.246335207813545 2.465600971666599 2.869682602154171 -0.1239846032671389 3.644422216802982 
-2.602510458961489 -0.2043566934773512 -3.062415672122893 2.623939963980423 -0.737235472036466 -1.821651899863892 -1.817655400674532 -0.8303265971063244 -1.761596394478559 
-0.208637096043769 -0.3119996065600413 -2.345371649155088 2.15043660855006 -0.7985894760811014 0.2427076689632007 -0.7735803829222184 -1.430828342766817 -2.239387833727104 
-2.717865914764383 -0.9021623886203746 -0.6423282226911918 4.812829496214572 2.892294899843312 -0.4063019972874087 -3.823182542147916 0.9292310594984982 -1.218660476371104 
1.287278506497062 0.3579842174061556 -1.028141383154631 4.278469604143574 -2.962489899449091 -4.677981352054374 -1.114120367829034 -0.5329017701327748 -3.27329431182526 
2.972474387897316 0.7158618073546269 2.918545618541844 3.30690932292207 2.400137412278959 1.238569094531394 0.2626003199164924 -0.6854860968736808 1.506637200396917 
-2.790321850348591 -0.557370879522854 -3.626051209985057 0.6929995682262579 5.096514614240508 1.040445815699823 0.5260078652752455 0.02456015507253401 -2.313589560716065 
-1.237353577507863 -1.653650114103834 -1.000657495006455 -1.176347423805013 5.686107904962541 -1.966666427991165 -0.6370338776055439 -0.7638249121917429 -2.682927536382088 
-1.28469827372782 0.2060450259749575 -1.474919538631786 -1.070757999112632 4.596725318292923 -2.157896787657145 -0.461891006940318 -0.791297909750159 -0.7538146633388806 
-1.401328482864915 -1.871416158619895 -3.838337747455916 -3.291290447977836 2.531373425143263 -2.817058669563642 -4.720016261817358 -0.7645803677598309 0.3118690559280149 
0.235405175515693 0.5389875699657466 3.55748596187184 1.251504178862554 1.92910383344965 3.612513030254437 1.977616313498749 -0.03892348105559605 4.760906945380079 
-2.92314405299115 -1.046709547491806 -3.641345751694979 -0.2220283109163041 -1.000438235340723 7.802259356007951 -2.108642704403252 0.6009648314063195 -1.961122079221601 
-1.422719110927521 -1.492264450762607 -2.708276351137793 -0.6366181111181635 -0.5313172634687254 6.496046208532065 0.1027146957707916 -0.1545229049771393 -3.575332796440086 
-0.8613862592236445 -1.784357611163801 -1.207993431791244 0.3544345555946751 -0.20397228095604 5.483835285021826 0.1463239749554664 -2.002662969784076 -1.898911571616781 
-3.827531005488902 0.1732502684806586 -2.784897256271831 -1.952611468403013 -3.645324702907252 8.606466788607534 -2.134745894806295 -1.133781575912397 -2.763558213322225 
2.709243411383373 0.5883196780459531 0.3313395889074976 -3.183171283002219 1.313600584725904 0.01942791206697444 3.270786167676417 -0.1402732058063362 1.178255583754514 
-1.522030921608157 0.2709397669268229 -0.8581759476160693 1.501338738205106 -2.459399424712642 -2.893636651027832 2.694703572479685 -0.3088580340947758 0.3108188932489339 
-0.855162475907572 -1.272327693549585 -0.00454569254745337 2.579119306803036 0.7887099288062551 -0.3843287218634521 2.794252821010942 0.4210677188423401 0.3718591305188719 
-1.974745809601769 0.4605788245497572 0.3872236134588295 -1.232906068125533 1.877664340357556 2.782639610066479 4.811722751094832 -1.343011728612388 -3.058388308111848 
1.629528195740892 -0.05639380609339004 0.9682960150988732 -2.999235671478638 -4.07593831557394 -0.3250776442573963 3.025024832607579 -0.6404645740566094 -1.991465949926709 
0.8326536373478269 -2.31316900235394 -0.5156286263881231 -0.3297892475808875 -1.214282975605248 0.5282452578850611 0.8702373843148816 1.784156710307012 -1.307206749579874 
-1.306230377822289 -2.55020786525614 0.2376812726356776 -0.340117318941231 -0.7250953916277882 -2.921332576617048 0.5658278750621162 2.888887943950146 1.301281524906469 
0.09372596247626171 -0.3725265678092595 0.5824430081058287 -0.4163673535929092 0.3818832303539764 -1.217834281505822 -0.9591073382214703 3.570113347646049 0.5910111236337641 
-2.899552693190611 0.2440021017758117 -0.08947463296922001 -1.289003090227493 0.5231869764116252 -1.004158003338465 -0.09887193905943859 3.201111373082317 -0.9253104849537978 
0.2774899094435818 -3.677955642357901 -0.6952477084722737 -0.982679878397478 -1.364060038425678 -2.53967211656125 -5.223293966705089 2.848715021925326 1.034024428854961 
2.247742594329916 0.7672475584044238 2.97117232289343 2.897249776385873 5.40625714159931 1.234625497089683 -2.227010226781267 -0.5100078270433209 6.66226921782509 
-3.491257040850041 -0.3743451372337712 -4.171043075092389 0.39767999815942 -4.605931938927681 -0.4352335101225606 0.02987772856533295 0.4944655185705362 3.052289342479271 
-3.224590236307937 -3.016720619898591 -1.700243904281221 -0.6671776952173187 -0.6304907239561201 -3.063785809958188 0.06120502343500803 -0.4453159038653579 2.157431716614065 
-2.111142520193768 1.121013501065365 1.060550419877522 -1.361987874219904 1.594461068573648 1.129030856615913 1.973852212885527 0.07084745278254159 2.370307503314419 
0.9486061126397737 -3.109082400286929 -1.938564183553774 -4.305296852920067 -7.065255900163503 -4.642135439424322 -1.774147983923497 0.7478393147373276 4.529213986344258 
